svm_type c_svc
kernel_type rbf
gamma 0.5
nr_class 3
total_sv 90
rho -4.69211 -2.84576 2.92624
label 1 2 3
nr_sv 30 19 41
SV
3.872871069534919 8.565084459001739 1:0.180275 2:0.202566 3:0.544926 4:0.623061 5:0.20954 6:0.586431 7:0.452117 8:0.0837819 9:0.402291 10:0.0412588 11:0.383335 12:0.347311 13:0.113875 14:0.192686 15:0.216279 16:0.322275 17:0.234619 18:0.252054 19:0.270278 20:0.17606 21:0.209047 22:0.323008 23:0.320246 24:0.213096 25:0.51744 26:0.24824 27:0.399253 28:0.420865 29:0.532212 30:0.486543 
3.512022409079843 13.03898342134888 1:0.209065 2:0.193393 3:0.447979 4:0.346342 5:0.21987 6:0.321664 7:0.250687 8:0.0521935 9:0.098001 10:0.0904209 11:0.218527 12:0.0931389 13:0.146998 14:0.164724 15:0.177644 16:0.243658 17:0.255768 18:0.0705492 19:0.196013 20:0.0935103 21:0.0862195 22:0.125061 23:0.0831612 24:0.0527572 25:0.100008 26:0.0347027 27:0.244171 28:0.0188808 29:0.55663 30:0.525014 
6.874386155943051 10.44527518819352 1:0.171409 2:0.258872 3:0.484677 4:0.280256 5:0.354592 6:0.398346 7:0.42338 8:0.180322 9:0.38898 10:0.602149 11:0.271715 12:0.391484 13:0.452135 14:0.258655 15:0.233366 16:0.397666 17:0.174291 18:0.480981 19:0.365781 20:0.258065 21:0.371618 22:0.386059 23:0.286112 24:0.672635 25:0.593243 26:0.354749 27:0.531737 28:0.336956 29:0.337241 30:0.323196 
6.017789992440998 0 1:0.138241 2:0.276036 3:0.288166 4:0.249154 5:0.440102 6:0.189095 7:0.355852 8:0.25585 9:0.060377 10:0.505734 11:0.19517 12:0.108374 13:0.132752 14:0.191202 15:0.0472285 16:0.252411 17:0.328078 18:0.203834 19:0.334929 20:0.338224 21:0.333572 22:0.286083 23:0.556017 24:0.253305 25:0.165173 26:0.383327 27:0.344661 28:0.196156 29:0.51212 30:0.294202 
0 5.202357064030191 1:0.034604 2:0.0240782 3:0.123128 4:0.11498 5:0.207531 6:0.298508 7:0.385842 8:0.12138 9:0.364056 10:0.218167 11:0.256737 12:0.161236 13:0.229902 14:0.130871 15:0.0788 16:0.283249 17:0.140981 18:0.084343 19:0.0855167 20:0.149752 21:0.0497477 22:0.154251 23:0.155738 24:0.270343 25:0.133278 26:0.141892 27:0.112891 28:0.212227 29:0.426907 30:0.292032 
0 1.536287831017655 1:0.0936479 2:0.102751 3:0.604527 4:0.682504 5:0.675452 6:0.838449 7:0.698672 8:0.360282 9:0.318148 10:0.396663 11:0.213247 12:0.111596 13:0.179553 14:0.26285 15:0.189362 16:0.464599 17:0.396044 18:0.0791909 19:0.502238 20:0.211366 21:0.246675 22:0.272378 23:0.144397 24:0.467908 25:0.292795 26:0.152135 27:0.582266 28:0.174649 29:0.552404 30:0.379665 
0 0.730668360207114 1:0.310199 2:0.280211 3:0.41286 4:0.468931 5:0.539256 6:0.965302 7:0.664033 8:0.705009 9:0.401717 10:0.484454 11:0.418758 12:0.487922 13:0.342378 14:0.672448 15:0.158351 16:0.393046 17:0.445019 18:0.617929 19:0.454815 20:0.283956 21:0.464486 22:0.0800476 23:0.623131 24:0.236091 25:0.306687 26:0.244246 27:0.281035 28:0.655473 29:0.464688 30:0.478438 
8.248068251819962 15.70448832136404 1:0.134067 2:0.238951 3:0.370286 4:0.342983 5:0.539373 6:0.662328 7:0.252553 8:0.199709 9:0.25198 10:0.429679 11:0.369636 12:0.363431 13:0.175131 14:0.257399 15:0.151417 16:0.27451 17:0.268788 18:0.0963806 19:0.121449 20:0.256164 21:0.062654 22:0.307261 23:0.136829 24:0.2316 25:0.266822 26:0.115495 27:0.223805 28:0.0485073 29:0.37773 30:0.337095 
1.387991676344756 0 1:0.0567519 2:0.0854754 3:0.257359 4:0.29461 5:0.396396 6:0.229111 7:0.179454 8:0.0440737 9:0.33454 10:0.429942 11:0.200381 12:0.412275 13:0.115662 14:0.0166985 15:0.102354 16:0.261911 17:0.41337 18:0.279609 19:0.491433 20:0.476607 21:0.132417 22:0.272535 23:0.249142 24:0.1895 25:0.0806266 26:0.314094 27:0.154406 28:0.045719 29:0.508528 30:0.336315 
0.1987267974729246 0 1:0.157126 2:0.0654772 3:0.0936693 4:0.285636 5:0.255512 6:0.530695 7:0.539707 8:0.374616 9:0.471034 10:0.340221 11:0.322185 12:0.4704 13:0.244297 14:0.171829 15:0.330241 16:0.214803 17:0.41058 18:0.0902473 19:0.440638 20:0.184242 21:0.291599 22:0.490414 23:0.626199 24:0.854951 25:0.722967 26:0.635878 27:0.728791 28:0.872892 29:0.589522 30:0.50889 
0 3.677936196571554 1:0.233099 2:0.223891 3:0.468241 4:0.554469 5:0.499511 6:0.540556 7:0.671751 8:0.489977 9:0.389412 10:0.580359 11:0.281176 12:0.667773 13:0.254771 14:0.536918 15:0.200816 16:0.620892 17:0.594658 18:0.264703 19:0.274062 20:0.427024 21:0.0978142 22:0.435263 23:0.59319 24:0.407734 25:0.453173 26:0.616302 27:0.370948 28:0.616004 29:0.566306 30:0.55247 
5.82788213344576 14.59661186595296 1:0.0727362 2:0.0894755 3:0.184391 4:0.0815803 5:0.457981 6:0.33836 7:0.440377 8:0.0998404 9:0.162723 10:0.175586 11:0.205062 12:0.169583 13:0.217371 14:0.238245 15:0.055729 16:0.11992 17:0.109426 18:0.101297 19:0.0729763 20:0.094315 21:0.137244 22:0.187461 23:0.198283 24:0.174572 25:0.29678 26:0.126086 27:0.176168 28:0.204688 29:0.543948 30:0.366007 
22.26373784441743 21.0678610773829 1:0.0971991 2:0.122788 3:0.380797 4:0.377863 5:0.332975 6:0.172233 7:0.241808 8:0.400798 9:0.0789506 10:0.297357 11:0.172839 12:0.139674 13:0.128928 14:0.156619 15:0.0934166 16:0.272897 17:0.120316 18:0.20281 19:0.298195 20:0.377314 21:0.109514 22:0.195058 23:0.255058 24:0.328874 25:0.171541 26:0.270204 27:0.490854 28:0.388282 29:0.516188 30:0.358216 
5.951429255570996 13.31004047628909 1:0.360554 2:0.416137 3:0.566666 4:0.603496 5:0.688783 6:0.403191 7:0.442588 8:0.380177 9:0.295789 10:0.226794 11:0.301761 12:0.392621 13:0.281278 14:0.296558 15:0.0852205 16:0.137158 17:0.104936 18:0.285903 19:0.372972 20:0.0724035 21:0.329645 22:0.469121 23:0.412533 24:0.213586 25:0.634675 26:0.615164 27:0.604222 28:0.439244 29:0.495088 30:0.721954 
2.183551185768618 0.4304182494853124 1:0.179364 2:0.187166 3:0.491143 4:0.388358 5:0.300172 6:0.396471 7:0.508512 8:0.404336 9:0.422941 10:0.503481 11:0.309185 12:0.469305 13:0.149611 14:0.438471 15:0.271846 16:0.371378 17:0.512396 18:0.455731 19:0.288613 20:0.424675 21:0.238935 22:0.471398 23:0.441835 24:0.369267 25:0.565029 26:0.446749 27:0.324767 28:0.556078 29:0.54636 30:0.473719 
0 0.3474511792770155 1:0.207267 2:0.21946 3:0.308881 4:0.420637 5:0.381264 6:0.118725 7:0.218812 8:0.217168 9:0.100732 10:0.616191 11:0.101586 12:0.357145 13:0.364731 14:0.166962 15:0.350494 16:0.830187 17:0.426861 18:0.218107 19:0.142166 20:0.150057 21:0.254149 22:0.213188 23:0.217093 24:0.346674 25:0.295582 26:0.420406 27:0.40297 28:0.57755 29:0.596744 30:0.576076 
4.218314379021348 3.932493918921929 1:0.246303 2:0.237159 3:0.345693 4:0.370876 5:0.340209 6:0.0432711 7:0.313441 8:0.0654859 9:0.237085 10:0.587864 11:0.0865786 12:0.426894 13:0.163408 14:0.331859 15:0.155662 16:0.391904 17:0.127775 18:0.551519 19:0.229739 20:0.104028 21:0.265884 22:0.253462 23:0.393311 24:0.364043 25:0.502499 26:0.422215 27:0.360427 28:0.34132 29:0.53004 30:0.502492 
0 0.9875100979715091 1:0.210595 2:0.12482 3:0.412043 4:0.485752 5:0.17921 6:0.402831 7:0.381498 8:0.261336 9:0.399747 10:0.257073 11:0.332932 12:0.361176 13:0.368646 14:0.283023 15:0.0947276 16:0.16235 17:0.142039 18:0.20795 19:0.657819 20:0.264204 21:0.086196 22:0.205834 23:0.276586 24:0.259027 25:0.259341 26:0.38402 27:0.138817 28:0.195759 29:0.640893 30:0.611655 
0 13.41260122935378 1:0.264541 2:0.264154 3:0.447053 4:0.567048 5:0.633768 6:0.518457 7:0.465839 8:0.472583 9:0.549838 10:0.569037 11:0.366458 12:0.590333 13:0.301053 14:0.336729 15:0.340945 16:0.246449 17:0.377945 18:0.224953 19:0.299294 20:0.34272 21:0.247808 22:0.264293 23:0.251035 24:0.419623 25:0.203743 26:0.393387 27:0.382443 28:0.547844 29:0.553298 30:0.570822 
12.42128879553451 5.998967959770634 1:0.0907332 2:0.15551 3:0.323427 4:0.226421 5:0.442627 6:0.603318 7:0.504551 8:0.266483 9:0.236069 10:0.296474 11:0.212635 12:0.127468 13:0.0775746 14:0.158771 15:0.379281 16:0.0734581 17:0.374065 18:0.196626 19:0.20904 20:0.216818 21:0.145107 22:0.36243 23:0.309585 24:0.292392 25:0.363183 26:0.440095 27:0.197817 28:0.392138 29:0.394905 30:0.291969 
0.1074656136364008 5.730893753351333 1:0.0840041 2:0.324502 3:0.17266 4:0.559972 5:0.651183 6:0.0517379 7:0.210943 8:0.325007 9:0.16368 10:0.329981 11:0.205234 12:0.318282 13:0.133399 14:0.152691 15:0.324699 16:0.554065 17:0.214601 18:0.229541 19:0.302125 20:0.0512797 21:0.213045 22:0.416798 23:0.123506 24:0.119014 25:0.132489 26:0.201603 27:0.357972 28:0.46167 29:0.153018 30:0.131617 
5.578247018488903 22.37895280724101 1:0.128869 2:0.14505 3:0.327667 4:0.377659 5:0.381902 6:0.389444 7:0.171529 8:0.289855 9:0.221678 10:0.155529 11:0.146708 12:0.0663178 13:0.0480705 14:0.303052 15:0.129709 16:0.143474 17:0.101247 18:0.295713 19:0.137483 20:0.144774 21:0.156727 22:0.0919051 23:0.254982 24:0.271564 25:0.0788572 26:0.265791 27:0.300767 28:0.148238 29:0.534426 30:0.464637 
0 1.917760111320993 1:0.195254 2:0.28559 3:0.536646 4:0.373732 5:0.426955 6:0.669737 7:0.493171 8:0.467102 9:0.388015 10:0.554886 11:0.177093 12:0.342641 13:0.474535 14:0.0842361 15:0.33416 16:0.593206 17:0.362089 18:0.823843 19:0.351114 20:0.360756 21:0.313928 22:0.473703 23:0.325077 24:0.67338 25:0.589294 26:0.273404 27:0.518248 28:0.360936 29:0.287899 30:0.0761658 
0 1.016792407689591 1:0.211723 2:0.201607 3:0.390489 4:0.685097 5:0.795305 6:0.513093 7:0.773907 8:0.797531 9:0.308727 10:0.674263 11:0.169876 12:0.660586 13:0.245215 14:0.450578 15:0.236451 16:0.591399 17:0.201962 18:0.331422 19:0.484694 20:0.272052 21:0.30531 22:0.474399 23:0.445345 24:0.386092 25:0.583635 26:0.334532 27:0.643875 28:0.279972 29:0.495483 30:0.583899 
0 1.805105383020575 1:0.151392 2:0.228741 3:0.495483 4:0.293591 5:0.433125 6:0.583555 7:0.375333 8:0.375799 9:0.264736 10:0.529912 11:0.218182 12:0.290534 13:0.388752 14:0.448837 15:0.328693 16:0.540258 17:0.169175 18:0.454001 19:0.283192 20:0.122644 21:0.0944233 22:0.17842 23:0.171538 24:0.0625899 25:0.291331 26:0.325604 27:0.154601 29:0.634769 30:0.520859 
3.131955713883213 4.846810511576077 1:0.0745003 2:0.101121 3:0.17773 4:0.421261 5:0.327668 6:0.33985 7:0.336311 8:0.174984 9:0.372583 10:0.274756 11:0.144447 12:0.331503 13:0.253138 14:0.249877 15:0.2113 16:0.419692 17:0.317979 18:0.144799 19:0.271755 20:0.0819328 21:0.174516 22:0.39219 23:0.0738123 24:0.184994 25:0.289657 26:0.133728 27:0.208439 28:0.320915 29:0.599993 30:0.446336 
2.779249285987937 0 1:0.231378 2:0.210279 3:0.374028 4:0.368458 5:0.427969 6:0.477001 7:0.174633 8:0.304942 9:0.386734 10:0.470647 11:0.328602 12:0.454614 13:0.125745 14:0.628351 15:0.0697692 16:0.536467 17:0.190796 18:0.517304 19:0.196966 20:0.152594 21:0.448225 22:0.660471 23:0.116839 24:0.769237 25:0.444693 26:0.605773 27:0.747929 28:0.306097 29:0.468378 30:0.582054 
0 1.330213855404712 1:0.108514 2:0.226894 3:0.634143 4:0.638796 5:0.281478 6:0.296199 7:0.343004 8:0.261399 9:0.26131 10:0.216975 11:0.206269 12:0.191868 13:0.221123 14:0.341281 15:0.0629572 16:0.475561 17:0.131126 18:0.418618 19:0.343869 20:0.448256 21:0.178781 22:0.373775 23:0.114909 24:0.0815362 25:0.0981777 26:0.342306 27:0.313531 28:0.344534 29:0.495311 30:0.343965 
3.957344399792865 0 1:0.0311152 2:0.0811913 3:0.0925827 4:0.141739 5:0.217987 6:0.275953 7:0.0953933 8:0.209374 9:0.261343 10:0.0868543 11:0.206134 12:0.0440527 13:0.0505065 14:0.0890977 15:0.20045 16:0.498148 17:0.380273 18:0.113627 19:0.106788 20:0.209429 21:0.0478166 22:0.1325 23:0.158787 24:0.0791455 25:0.161663 26:0.156664 27:0.206851 28:0.0750519 29:0.460241 30:0.235183 
10.31034456789522 0.5244305519476955 1:0.0889663 2:0.0404566 3:0.115741 4:0.237247 5:0.0977731 6:0.265546 7:0.269831 8:0.0825128 9:0.1718 10:0.100958 11:0.232895 12:0.155319 13:0.283496 14:0.273188 15:0.163812 16:0.0888922 17:0.0916726 18:0.121655 19:0.155025 20:0.141922 21:0.102624 22:0.135472 23:0.0291816 24:0.191623 25:0.13063 26:0.143264 27:0.106553 28:0.17866 29:0.544133 30:0.383512 
-0 25.04976653324596 1:0.0534184 2:0.177665 3:0.130467 4:0.330138 5:0.109823 6:0.303879 7:0.111103 8:0.213575 9:0.0552178 10:0.305919 11:0.063292 12:0.190233 13:0.0603437 14:0.166972 15:0.0408029 16:0.170078 17:0.0816759 18:0.124968 19:0.0926242 20:0.189488 21:0.0646594 22:0.149937 23:0.09777 24:0.116002 25:0.198345 26:0.184666 27:0.166918 28:0.114645 29:0.18221 30:0.331406 
-14.9909464856922 32 1:0.192359 2:0.213101 3:0.330725 4:0.428834 5:0.376341 6:0.395429 7:0.346867 8:0.371591 9:0.274395 10:0.310188 11:0.272817 12:0.233835 13:0.188285 14:0.252347 15:0.176724 16:0.259139 17:0.217205 18:0.228325 19:0.218664 20:0.239017 21:0.168082 22:0.352443 23:0.292437 24:0.441194 25:0.360467 26:0.307836 27:0.35088 28:0.240157 29:0.324103 30:0.54975 
-0 32 1:0.118207 2:0.0713647 3:0.257404 4:0.106614 5:0.185675 6:0.204362 7:0.122335 8:0.208425 9:0.172253 10:0.122619 11:0.156327 12:0.0727372 13:0.0983989 14:0.123823 15:0.0554204 16:0.143877 17:0.0626626 18:0.0836778 19:0.163833 20:0.0897124 21:0.110161 22:0.0887307 23:0.118793 24:0.160387 25:0.119865 26:0.162943 27:0.20314 28:0.0938767 29:0.121918 30:0.25359 
-12.92794165009538 0 1:0.163117 2:0.119984 3:0.366236 4:0.177245 5:0.368692 6:0.278661 7:0.230291 8:0.17547 9:0.126266 10:0.245965 11:0.144948 12:0.196697 13:0.164116 14:0.153711 15:0.131551 16:0.198932 17:0.13144 18:0.15148 19:0.167626 20:0.173964 21:0.182282 22:0.207659 23:0.176757 24:0.204898 25:0.17284 26:0.199011 27:0.170406 29:0.423422 30:0.42242 
-0 32 1:0.11633 2:0.139368 3:0.302315 4:0.342156 5:0.217168 6:0.174587 7:0.168073 8:0.152083 9:0.152351 10:0.105224 11:0.147938 12:0.156566 13:0.0988135 14:0.133179 15:0.0576963 16:0.159831 17:0.152988 18:0.21569 19:0.199964 20:0.192863 21:0.132014 22:0.156534 23:0.247573 24:0.377194 25:0.288869 26:0.261511 27:0.272925 28:0.342049 29:0.296139 30:0.256033 
-7.52701721865482 16.14707157649996 1:0.263389 2:0.198372 3:0.367778 4:0.180278 5:0.30756 6:0.25761 7:0.227998 8:0.204951 9:0.196317 10:0.251564 11:0.146341 12:0.238118 13:0.127 14:0.163677 15:0.0961917 16:0.195393 17:0.177495 18:0.199155 19:0.193713 20:0.235118 21:0.131146 22:0.322392 23:0.199283 24:0.239095 25:0.302042 26:0.290617 27:0.272321 28:0.207774 29:0.741142 30:0.607012 
-3.463620256647753 0 1:0.123747 2:0.186236 3:0.195807 4:0.409061 5:0.362032 6:0.223134 7:0.354862 8:0.31871 9:0.195947 10:0.264194 11:0.187214 12:0.247627 13:0.153591 14:0.191154 15:0.117609 16:0.267771 17:0.175039 18:0.263901 19:0.281084 20:0.22022 21:0.19218 22:0.272826 23:0.249282 24:0.377156 25:0.385698 26:0.358201 27:0.340053 28:0.350719 29:0.444836 30:0.31171 
-6.814477477529077 8.180811804286373 1:0.310598 2:0.325399 3:0.53442 4:0.503236 5:0.566791 6:0.635255 7:0.543581 8:0.48267 9:0.361749 10:0.36893 11:0.371132 12:0.524813 13:0.28827 14:0.245052 15:0.17154 16:0.510901 17:0.449633 18:0.434372 19:0.175279 20:0.3536 21:0.399084 22:0.638843 23:0.355993 24:0.281931 25:0.49964 26:0.717314 27:0.762261 28:0.336473 29:0.410808 30:0.535674 
-0 32 1:0.0619378 2:0.145048 3:0.31588 4:0.136254 5:0.214103 6:0.110886 7:0.116729 8:0.154811 9:0.0799073 10:0.182409 11:0.0750182 12:0.130124 13:0.0898944 14:0.0880897 15:0.037701 16:0.0771264 17:0.086237 18:0.0444584 19:0.0806874 20:0.074526 21:0.0180667 22:0.100997 23:0.131499 24:0.062579 25:0.0952938 26:0.115732 27:0.109742 28:0.104823 29:0.326413 30:0.177437 
-0 32 1:0.119313 2:0.0115322 3:0.270392 4:0.209735 5:0.0434221 6:0.210908 7:0.249263 8:0.0496496 9:0.119433 10:0.233529 11:0.133989 12:0.123647 13:0.130445 14:0.102314 15:0.0454981 16:0.165067 17:0.0721676 18:0.0816834 19:0.183577 20:0.106598 21:0.0697846 22:0.245905 23:0.140273 24:0.200519 25:0.201444 26:0.206176 27:0.256099 28:0.175948 29:0.306843 30:0.450282 
-4.363605002841452 32 1:0.168192 2:0.176751 3:0.143627 4:0.341559 5:0.315323 6:0.189085 7:0.272665 8:0.13446 9:0.105358 10:0.211158 11:0.0522534 12:0.118138 13:0.103183 14:0.0350242 15:0.0819985 16:0.116982 17:0.0165157 18:0.0665199 19:0.104914 20:0.0435546 21:0.0541902 22:0.0670285 23:0.0854596 24:0.136822 25:0.0895617 26:0.0705704 27:0.133586 28:0.083931 29:0.421648 30:0.117566 
-0 32 1:0.122811 2:0.165481 3:0.362887 4:0.301683 5:0.324877 6:0.366164 7:0.285552 8:0.307435 9:0.228672 10:0.265996 11:0.208004 12:0.203094 13:0.15548 14:0.217961 15:0.148941 16:0.248364 17:0.213144 18:0.211625 19:0.206511 20:0.194843 21:0.149696 22:0.238947 23:0.197131 24:0.303507 25:0.312481 26:0.254818 27:0.276462 28:0.235683 29:0.287168 30:0.288847 
-7.046171167386924 20.1540332473969 1:0.198955 2:0.167411 3:0.240517 4:0.219695 5:0.298028 6:0.334434 7:0.205548 8:0.188719 9:0.175074 10:0.245966 11:0.140985 12:0.165602 13:0.140053 14:0.188651 15:0.101967 16:0.182414 17:0.154974 18:0.156105 19:0.229093 20:0.189856 21:0.148225 22:0.208695 23:0.138722 24:0.194788 25:0.226867 26:0.336996 27:0.226311 28:0.24796 29:0.537161 30:0.433236 
-2.822818796000109 7.085210724653977 1:0.124844 2:0.119289 3:0.226519 4:0.19633 5:0.219615 6:0.178677 7:0.212304 8:0.234834 9:0.12562 10:0.245828 11:0.262241 12:0.228116 13:0.144922 14:0.277608 15:0.108587 16:0.257477 17:0.297422 18:0.142647 19:0.285468 20:0.311216 21:0.174717 22:0.277945 23:0.391105 24:0.238415 25:0.40961 26:0.526468 27:0.351289 28:0.532992 29:0.29202 30:0.167358 
-9.414408866781818 32 1:0.107576 2:0.177378 3:0.311804 4:0.258826 5:0.0686456 6:0.292783 7:0.271252 8:0.0448792 9:0.0956423 10:0.18021 11:0.0594335 12:0.069236 13:0.0910422 14:0.11329 15:0.053227 16:0.0639014 17:0.117449 18:0.114112 19:0.064407 20:0.0804511 21:0.121362 22:0.106958 23:0.142275 24:0.144711 25:0.162633 26:0.0639398 27:0.122087 28:0.160143 29:0.449881 30:0.322111 
-0 4.78012862619691 1:0.0659916 2:0.205792 3:0.168148 4:0.367884 5:0.227882 6:0.238097 7:0.255705 8:0.244359 9:0.159127 10:0.223552 11:0.159888 12:0.188776 13:0.132924 14:0.193952 15:0.135309 16:0.241422 17:0.15 18:0.256123 19:0.221935 20:0.142714 21:0.149737 22:0.199205 23:0.148867 24:0.241451 25:0.267069 26:0.302068 27:0.266933 28:0.244042 29:0.350207 30:0.230016 
-18.97830588120764 6.842438108689612 1:0.162721 2:0.166843 3:0.364641 4:0.361406 5:0.413801 6:0.455002 7:0.357041 8:0.24643 9:0.276226 10:0.368738 11:0.255287 12:0.248767 13:0.170491 14:0.286946 15:0.17973 16:0.272219 17:0.243142 18:0.249253 19:0.366956 20:0.222312 21:0.247731 22:0.364447 23:0.343441 24:0.383075 25:0.483618 26:0.502149 27:0.555144 28:0.437465 29:0.480536 30:0.377917 
-17.40636078041322 0.4639700267473105 1:0.114963 2:0.141253 3:0.319561 4:0.388533 5:0.352159 6:0.348053 7:0.208866 8:0.299464 9:0.156769 10:0.353304 11:0.268012 12:0.257754 13:0.194394 14:0.0995845 15:0.225912 16:0.266015 17:0.259979 18:0.285279 19:0.224468 20:0.329995 21:0.127413 22:0.354372 23:0.246514 24:0.295167 25:0.323205 26:0.205608 27:0.359606 28:0.330418 29:0.552348 30:0.156755 
-3.086992962829251 8.000304141954945 
-2.991544316933335 -2.23050244696093 1:0.133267 2:0.0964901 3:0.430463 4:0.303081 5:0.261509 6:0.29422 7:0.231834 8:0.280417 9:0.175251 10:0.169196 11:0.184473 12:0.162935 13:0.0633519 14:0.16596 15:0.0602637 16:0.102894 17:0.179825 18:0.112236 19:0.124079 20:0.135181 21:0.127418 22:0.211021 23:0.195423 24:0.148501 25:0.287203 26:0.247207 27:0.346112 28:0.216818 29:0.245592 30:0.32176 
-1.759277834882367 -5.695173617195712 1:0.225303 2:0.275068 3:0.452637 4:0.14109 5:0.170274 6:0.529434 7:0.530133 8:0.310979 9:0.141283 10:0.224967 11:0.337213 12:0.430762 13:0.252204 14:0.258702 15:0.0688328 16:0.155086 17:0.287685 18:0.343382 19:0.16329 20:0.0665428 21:0.126887 22:0.372648 23:0.317715 24:0.185415 25:0.0698804 26:0.263996 27:0.434533 28:0.313674 29:0.0333166 30:0.269224 
-3.358502431985818 -2.97335306693317 1:0.16697 2:0.421364 3:0.47065 4:0.375033 5:0.548412 6:0.41188 7:0.317478 8:0.349439 9:0.211862 10:0.314517 11:0.23391 12:0.217967 13:0.190984 14:0.226511 15:0.17615 16:0.187591 17:0.217558 18:0.163987 19:0.181986 20:0.166188 21:0.170931 22:0.159022 23:0.191295 24:0.193385 25:0.282311 26:0.21929 27:0.226633 29:1 30:0.491581 
-0 -7.018659099556311 1:0.107595 2:0.199025 3:0.231257 4:0.0890032 5:0.297479 6:0.217584 7:0.0946989 8:0.205569 9:0.127377 10:0.104994 11:0.11611 12:0.0494635 13:0.0558732 14:0.0801954 15:0.0795645 16:0.0915469 17:0.121807 18:0.0545635 19:0.0340979 20:0.132531 21:0.0697376 22:0.0741967 23:0.0919618 24:0.0996545 25:0.152078 26:0.19595 27:0.0622807 28:0.0990108 29:0.452203 30:0.373966 
-0 -6.699682361544924 1:0.154395 2:0.144416 3:0.314625 4:0.109016 5:0.299379 6:0.270776 7:0.108798 8:0.101134 9:0.208673 10:0.190566 11:0.0811657 12:0.0939175 13:0.124174 14:0.128744 15:0.0422985 16:0.12711 17:0.0718118 18:0.0697834 19:0.189057 20:0.0638657 21:0.0750995 22:0.166251 23:0.0769596 24:0.262839 25:0.118276 26:0.0590781 27:0.235234 28:0.194193 29:0.383189 30:0.427994 
-9.666917883630918 -3.28377473647301 1:0.171716 2:0.290108 3:0.508419 4:0.418585 5:0.472509 6:0.439749 7:0.579724 8:0.513138 9:0.457309 10:0.370025 11:0.183529 12:0.465916 13:0.375373 14:0.406015 15:0.245408 16:0.34749 17:0.335117 18:0.420864 19:0.416502 20:0.332572 21:0.293374 22:0.405253 23:0.343161 24:0.470476 25:0.461134 26:0.472004 27:0.421779 28:0.382169 29:0.321707 30:0.212692 
-2.26662388737933 -0 1:0.234749 2:0.242478 3:0.942239 4:0.615569 5:0.714507 6:0.472478 7:0.53996 8:0.592133 9:0.326835 10:0.550564 11:0.340034 12:0.321173 13:0.314931 14:0.267805 15:0.257656 16:0.396934 17:0.296857 18:0.213882 19:0.339011 20:0.345282 21:0.216285 22:0.310925 23:0.385017 24:0.321524 25:0.455842 26:0.278305 27:0.235647 28:0.463057 29:0.332139 30:0.561573 
-7.277154449689272 -0 1:0.191848 2:0.231638 3:0.538731 4:0.258877 5:0.428401 6:0.323708 7:0.349191 8:0.158401 9:0.319407 10:0.164181 11:0.240797 12:0.138255 13:0.200017 14:0.0978947 15:0.142261 16:0.144387 17:0.148429 18:0.15449 19:0.188533 20:0.101326 21:0.0682906 22:0.0661296 23:0.0988516 24:0.0985613 25:0.161176 26:0.0502664 27:0.223038 28:0.18157 29:0.330709 30:0.49624 
-3.011252914056923 -0 1:0.235581 2:0.0556916 3:0.390924 4:0.611999 5:0.302733 6:0.197107 7:0.32741 8:0.333075 9:0.153867 10:0.229111 11:0.211298 12:0.297173 13:0.0711432 14:0.209827 15:0.169718 16:0.140712 17:0.123289 18:0.319193 19:0.203356 20:0.150912 21:0.154168 22:0.383143 23:0.0667701 24:0.278643 25:0.293318 26:0.324569 27:0.181822 28:0.230465 29:0.209595 30:0.608609 
-16.08235022196475 -0 1:0.162358 2:0.312027 3:0.200223 4:0.533616 5:0.603056 6:0.412065 7:0.337137 8:0.324056 9:0.302246 10:0.392128 11:0.19392 12:0.273489 13:0.251252 14:0.292467 15:0.14192 16:0.315268 17:0.257821 18:0.250939 19:0.171279 20:0.211698 21:0.203853 22:0.25767 23:0.296128 24:0.117166 25:0.356101 26:0.279847 27:0.494766 28:0.208734 29:0.338789 30:0.581546 
-0.7415813353062493 -0 1:1 2:1 3:1 4:0.755542 5:0.334584 6:0.882919 7:0.856286 8:0.376844 9:0.511677 10:0.476614 11:0.107814 12:0.250451 13:0.268748 14:0.175409 15:0.120505 16:0.22995 17:0.224869 18:0.136182 19:0.3323 20:0.131263 21:0.309761 22:0.339279 23:0.176 24:0.25539 25:0.272021 26:0.281634 27:0.117584 28:0.396933 29:0.864869 30:0.801404 
-3.12354606014331 -0.7121927538650478 1:0.193696 2:0.195163 3:0.328064 4:0.279076 5:0.300152 6:0.401113 7:0.427836 8:0.353138 9:0.350014 10:0.411907 11:0.235157 12:0.228178 13:0.215958 14:0.349589 15:0.163682 16:0.133175 17:0.171176 18:0.257868 19:0.451697 20:0.269013 21:0.1115 22:0.336014 23:0.452447 24:0.638428 25:0.396445 26:0.189372 27:0.517996 28:0.495992 29:0.0998596 30:0.107783 
-14.95637978990427 -6.273556876466512 1:0.219789 2:0.223855 3:0.398537 4:0.471226 5:0.287829 6:0.599538 7:0.262691 8:0.297584 9:0.296912 10:0.3454 11:0.231121 12:0.175188 13:0.255115 14:0.197479 15:0.111699 16:0.284777 17:0.163967 18:0.170384 19:0.127078 20:0.270175 21:0.134841 22:0.162017 23:0.238509 24:0.302235 25:0.175809 26:0.205037 27:0.392156 28:0.328879 29:0.71244 30:0.244375 
-0 -10.78209520222766 1:0.157498 2:0.0974295 3:0.267758 4:0.184436 5:0.0984424 6:0.243158 7:0.162503 8:0.131332 9:0.217067 10:0.189027 11:0.145375 12:0.17814 13:0.0491245 14:0.106358 15:0.0397006 16:0.157424 17:0.0684886 18:0.116519 19:0.108341 20:0.100938 21:0.0302087 22:0.122171 23:0.0417791 24:0.122408 25:0.0724647 26:0.0363024 27:0.102274 28:0.110125 29:0.207327 30:0.420304 
-0.70368465179054 -0 1:0.358981 2:0.369476 3:0.530251 4:0.360563 5:0.517038 6:0.506894 7:0.31315 8:0.229912 9:0.348123 10:0.393787 11:0.267149 12:0.13463 13:0.158775 14:0.30372 15:0.156691 16:0.218987 17:0.180587 18:0.37649 19:0.319329 20:0.266887 21:0.156128 22:0.298262 23:0.408412 24:0.321717 25:0.378992 26:0.346466 27:0.480673 28:0.314702 29:0.278368 30:0.403758 
-3.500483941544098 -14.47604840304108 1:0.125475 2:0.16865 3:0.344871 4:0.291966 5:0.104732 6:0.185068 7:0.281253 8:0.11516 9:0.0720899 10:0.238187 11:0.151664 12:0.0964772 13:0.0792067 14:0.0991153 15:0.0592658 16:0.0911517 17:0.0636038 18:0.148151 19:0.0952738 20:0.0477086 21:0.0545923 22:0.0863924 23:0.099663 24:0.0405885 25:0.113338 26:0.157332 27:0.151416 28:0.132113 29:0.599286 30:0.422529 
-10.81711138548487 -1.475248130098732 1:0.128233 2:0.266924 3:0.523836 4:0.51982 5:0.534929 6:0.43915 7:0.338609 8:0.212449 9:0.258918 10:0.341169 11:0.235446 12:0.409185 13:0.337685 14:0.321629 15:0.239422 16:0.516719 17:0.0756378 18:0.201822 19:0.330528 20:0.246396 21:0.154251 22:0.438575 23:0.286864 24:0.394716 25:0.417363 26:0.358898 27:0.338011 28:0.272295 29:0.267112 30:0.399493 
-0 -32 1:0.139872 2:0.228512 3:0.404204 4:0.438025 5:0.15519 6:0.35471 7:0.257393 8:0.197307 9:0.197704 10:0.353991 11:0.204151 12:0.129431 13:0.158253 14:0.239234 15:0.133979 16:0.20213 17:0.204416 18:0.1559 19:0.227719 20:0.216565 21:0.109568 22:0.238272 23:0.265029 24:0.267751 25:0.334378 26:0.379159 27:0.316385 28:0.35869 29:0.413888 30:0.431392 
-1.799931005450944 -0 1:0.177832 2:0.588239 3:0.787661 4:0.419612 5:0.479362 6:0.441179 7:0.673272 8:0.302327 9:0.420149 10:0.377635 11:0.429469 12:0.363944 13:0.319364 14:0.314697 15:0.192964 16:0.473568 17:0.350676 18:0.430964 19:0.285982 20:0.365778 21:0.13912 22:0.518322 23:0.261707 24:0.386189 25:0.186352 26:0.503628 27:0.335519 28:0.370514 29:0.394341 30:0.657616 
-0.09285384871216457 -0 1:0.374985 2:0.365088 3:0.697397 4:0.394062 5:0.329296 6:0.606955 7:0.368843 8:0.256883 9:0.321439 10:0.278059 11:0.224236 12:0.333288 13:0.111815 14:0.428485 15:0.129502 16:0.441595 17:0.29243 18:0.210277 19:0.36093 20:0.168641 21:0.323846 22:0.268625 23:0.365204 24:0.256082 25:0.376046 26:0.45207 27:0.322187 28:0.550667 29:0.45543 30:0.827432 
-8.367137748316251 -3.913741166315398 1:0.288052 2:0.339292 3:0.578521 4:0.497674 5:0.511853 6:0.654428 7:0.615794 8:0.342876 9:0.263642 10:0.373464 11:0.389426 12:0.34522 13:0.234193 14:0.29448 15:0.213693 16:0.365353 17:0.267432 18:0.302934 19:0.373606 20:0.21249 21:0.30296 22:0.495696 23:0.276359 24:0.587128 25:0.527018 26:0.55743 27:0.380111 28:0.590616 29:0.983743 30:0.915422 
-5.573930182646398 -0 1:0.224318 2:0.125927 3:0.178593 4:0.285472 5:0.283741 6:0.176132 7:0.194429 8:0.154535 9:0.09849 10:0.191093 11:0.212669 12:0.137022 13:0.0458159 14:0.160564 15:0.143083 16:0.10035 17:0.0761462 18:0.194681 19:0.194503 20:0.0689258 21:0.0963906 22:0.186252 23:0.0630406 24:0.0949658 25:0.218457 26:0.181772 27:0.148767 28:0.12587 29:0.264246 30:0.440358 
-0.07116820869893495 -9.005003412404159 1:0.167768 2:0.139997 3:0.314599 4:0.287964 5:0.372969 6:0.289221 7:0.200675 8:0.164519 9:0.160417 10:0.106513 11:0.0748617 12:0.12077 13:0.0937536 14:0.123819 15:0.0455878 16:0.155144 17:0.09679 18:0.0797146 19:0.111283 20:0.0912663 21:0.102523 22:0.143024 23:0.0898254 24:0.133996 25:0.161208 26:0.186523 27:0.152705 28:0.136927 29:0.448428 30:0.32071 
-0 -15.12067089674552 1:0.0842263 2:0.12777 3:0.301394 4:0.472509 5:0.0379159 6:0.330229 7:0.240227 8:0.191818 9:0.255417 10:0.27691 11:0.170643 12:0.190996 13:0.098379 14:0.224977 15:0.067763 16:0.159988 17:0.189979 18:0.116582 19:0.162218 20:0.203838 21:0.144559 22:0.244941 23:0.259346 24:0.239987 25:0.265437 26:0.286432 27:0.186389 28:0.260042 29:0.0857969 30:0.350124 
-4.390904200845982 -0 1:0.0837347 2:0.326156 3:0.292389 4:0.313916 5:0.675766 6:0.725962 7:0.75637 8:0.210492 9:0.422567 10:0.383582 11:0.254797 12:0.294342 13:0.206528 14:0.354992 15:0.199787 16:0.38502 17:0.304498 18:0.327191 19:0.26306 20:0.319413 21:0.113658 22:0.179104 23:0.389701 24:0.469387 25:0.55179 26:0.654592 27:0.678387 28:0.746722 29:0.411909 30:0.444308 
-7.603694836868525 -0 1:0.265721 2:0.211656 3:0.573201 4:0.678933 5:0.364302 6:0.374784 7:0.531805 8:0.352394 9:0.32734 10:0.506027 11:0.310168 12:0.283191 13:0.258752 14:0.370947 15:0.139311 16:0.36036 17:0.322629 18:0.315295 19:0.307326 20:0.304503 21:0.269899 22:0.239169 23:0.251878 24:0.459887 25:0.389935 26:0.333585 27:0.365993 28:0.53848 29:0.547963 30:0.438798 
-14.35225465963895 -3.798808331726824 1:0.302912 2:0.271452 3:0.323886 4:0.412323 5:0.451795 6:0.327495 7:0.27415 8:0.248372 9:0.243113 10:0.237314 11:0.170608 12:0.275584 13:0.109541 14:0.240015 15:0.136801 16:0.178651 17:0.183303 18:0.168333 19:0.199327 20:0.172702 21:0.125445 22:0.227056 23:0.261176 24:0.270252 25:0.201588 26:0.194509 27:0.224224 28:0.234493 29:0.731996 30:0.32896 
-0 -15.70189237161148 1:0.0550202 2:0.170746 3:0.310297 4:0.237876 5:0.113191 6:0.226684 7:0.360412 8:0.163682 9:0.0511226 10:0.0546762 11:0.0153495 12:0.0282831 13:0.0882051 14:0.107486 15:0.0538841 16:0.0498868 17:0.0944035 18:0.0342208 19:0.126398 20:0.0565821 21:0.0627656 22:0.0827196 23:0.136092 24:0.165315 25:0.226575 26:0.0758512 27:0.0445045 28:0.132551 29:0.110427 30:0.362846 
-15.11879766044297 -32 1:0.0247479 2:0.0921964 3:0.114893 4:0.151332 5:0.15134 6:0.196175 7:0.235492 8:0.125298 9:0.0682566 10:0.119473 11:0.028789 12:0.0927738 13:0.0514406 14:0.0713624 15:0.082577 16:0.129948 17:0.0459436 18:0.0739295 19:0.0486191 20:0.0657763 21:0.0387329 22:0.186941 23:0.099571 24:0.196617 25:0.066029 26:0.107034 27:0.121044 28:0.106585 29:0.366645 30:0.326577 
-7.007350911046516 -10.41537430733 1:0.0651311 2:0.23265 3:0.198978 4:0.360203 5:0.551098 6:0.556885 7:0.478568 8:0.420185 9:0.307109 10:0.375592 11:0.320104 12:0.43505 13:0.182141 14:0.277629 15:0.166829 16:0.232731 17:0.233456 18:0.239196 19:0.214851 20:0.18302 21:0.238691 22:0.283197 23:0.33364 24:0.386984 25:0.490739 26:0.368608 27:0.482233 28:0.423634 29:0.287082 30:0.192254 
-0 -28.07838909809254 1:0.268023 2:0.211698 3:0.219391 4:0.147847 5:0.232867 6:0.133095 7:0.0945338 8:0.139373 9:0.199466 10:0.243478 11:0.177901 12:0.154262 13:0.0631587 14:0.0808775 15:0.0746591 16:0.124084 17:0.124721 18:0.0720581 19:0.147045 20:0.170343 21:0.11919 22:0.173461 23:0.122833 24:0.346627 25:0.205229 26:0.23319 27:0.328316 28:0.0903156 29:0.489802 30:0.520166 
-0 -14.99527760996559 1:0.251198 2:0.172437 3:0.424065 4:0.40994 5:0.491251 6:0.392884 7:0.414273 8:0.381591 9:0.352465 10:0.36254 11:0.2769 12:0.334494 13:0.17046 14:0.26765 15:0.171526 16:0.301464 17:0.233698 18:0.287107 19:0.162767 20:0.293566 21:0.150648 22:0.298048 23:0.294171 24:0.34284 25:0.372559 26:0.306751 27:0.322996 28:0.3126 29:0.373786 30:0.393421 
-0 -8.733950156040134 1:0.15194 2:0.19834 3:0.449076 4:0.233304 5:0.292748 6:0.309164 7:0.10615 8:0.0810718 9:0.12038 10:0.155696 11:0.0767289 12:0.0890722 13:0.0799012 14:0.112913 15:0.0837778 16:0.103576 17:0.0785253 18:0.145942 19:0.0889021 20:0.0627281 21:0.0280164 22:0.108896 23:0.129558 24:0.108846 25:0.15622 26:0.134367 27:0.131037 28:0.0838071 29:0.132687 30:0.252412 
-0 -29.79194202338631 1:0.116037 2:0.117944 3:0.330913 4:0.331242 5:0.197277 6:0.110058 7:0.151663 8:0.153454 9:0.135764 10:0.188178 11:0.0999843 12:0.117515 13:0.0963917 14:0.0723201 15:0.0837941 16:0.215397 17:0.13227 18:0.0809835 19:0.138954 20:0.150466 21:0.11446 22:0.178367 23:0.146574 24:0.151022 25:0.226038 26:0.191722 27:0.203296 28:0.279079 29:0.286783 30:0.0408522 
-0 -30.91698762992507 1:0.179038 2:0.147941 3:0.252241 4:0.412757 5:0.346765 6:0.278925 7:0.226235 8:0.271218 9:0.204697 10:0.254039 11:0.207703 12:0.213913 13:0.142469 14:0.198462 15:0.135651 16:0.253805 17:0.180218 18:0.244153 19:0.275895 20:0.208958 21:0.115552 22:0.273728 23:0.209908 24:0.286075 25:0.279072 26:0.322418 27:0.316833 28:0.304362 29:0.0991955 30:0.392705 
-0 -32 1:0.130296 2:0.0903318 3:0.161977 4:0.136656 5:0.182188 6:0.100358 7:0.185971 8:0.101545 9:0.0909275 10:0.131425 11:0.0992453 12:0.0973528 13:0.0611058 14:0.068845 15:0.0399429 16:0.0977127 17:0.0999131 18:0.0672545 19:0.134505 20:0.0803405 21:0.128886 22:0.0704078 23:0.0459208 24:0.0823136 25:0.20292 26:0.135217 27:0.160657 28:0.212009 29:0.418872 30:0.217387 
-7.962560938399908 -0 1:0.197982 2:0.111089 3:0.372057 4:0.421434 5:0.275355 6:0.296101 7:0.33051 8:0.302438 9:0.250838 10:0.245729 11:0.2487 12:0.284073 13:0.146675 14:0.23651 15:0.168697 16:0.320077 17:0.203476 18:0.274565 19:0.223295 20:0.203177 21:0.129671 22:0.303017 23:0.272015 24:0.286843 25:0.413766 26:0.319542 27:0.359157 28:0.41559 29:0.230911 30:0.418222 
-0 -0.3349693089961353 1:0.209302 2:0.515024 3:0.498055 4:0.26763 5:0.473608 6:0.699218 7:0.659436 8:0.360112 9:0.244545 10:0.319237 11:0.178985 12:0.387929 13:0.253791 14:0.199537 15:0.123055 16:0.155362 17:0.189908 18:0.12394 19:0.285336 20:0.233616 21:0.161102 22:0.376783 23:0.164498 24:0.284202 25:0.31781 26:0.302551 27:0.359194 28:0.278646 29:0.513423 30:0.68925 
-0 -22.82014098669127 1:0.111245 2:0.107754 3:0.229528 4:0.240567 5:0.215215 6:0.1208 7:0.0703561 8:0.152091 9:0.0825285 10:0.133336 11:0.0756829 12:0.090783 13:0.0752372 14:0.147315 15:0.0506677 16:0.123931 17:0.0638907 18:0.0565761 19:0.102904 20:0.0618216 21:0.0294192 22:0.0885265 23:0.0831107 24:0.151773 25:0.136799 26:0.0474111 27:0.241724 28:0.100088 29:0.168 30:0.237649 
-7.714444888412046 -0 1:0.10312 2:0.289577 3:0.514396 4:0.254777 5:0.534902 6:0.50893 7:0.176845 8:0.375486 9:0.331744 10:0.218077 11:0.254636 12:0.356065 13:0.145936 14:0.185535 15:0.205712 16:0.178983 17:0.152567 18:0.246231 19:0.17276 20:0.143468 21:0.230687 22:0.133886 23:0.114524 24:0.331253 25:0.180034 26:0.12261 27:0.296378 28:0.218977 29:0.631606 30:0.839973 
-12.22455608351618 -1.456300796078397 1:0.100256 2:0.210033 3:0.392852 4:0.121251 5:0.355465 6:0.255366 7:0.126301 8:0.149908 9:0.126251 10:0.300168 11:0.159462 12:0.18005 13:0.147893 14:0.152217 15:0.0717776 16:0.218195 17:0.157329 18:0.0549759 19:0.196997 20:0.102712 21:0.0847607 22:0.135888 23:0.103128 24:0.212551 25:0.22443 26:0.216257 27:0.291878 28:0.272186 29:0.658747 30:0.510811 
