svm_type c_svc
kernel_type rbf
gamma 0.09
nr_class 3
total_sv 114
rho -2.04691 -1.88154 0.609832
label 1 2 3
nr_sv 38 33 43
SV
0.4079268231051888 4 1:0.347695 2:0.668071 3:0.532212 4:0.486543 5:0.180275 6:0.202566 7:0.544926 8:0.623061 9:0.20954 10:0.586431 11:0.452117 12:0.0837819 13:0.402291 14:0.0412588 15:0.383335 16:0.347311 17:0.113875 18:0.192686 19:0.216279 20:0.322275 21:0.234619 22:0.252054 23:0.270278 24:0.17606 25:0.209047 26:0.323008 27:0.320246 28:0.213096 29:0.51744 30:0.24824 
4 4 1:0.408094 2:0.694218 3:0.55663 4:0.525014 5:0.209065 6:0.193393 7:0.447979 8:0.346342 9:0.21987 10:0.321664 11:0.250687 12:0.0521935 13:0.098001 14:0.0904209 15:0.218527 16:0.0931389 17:0.146998 18:0.164724 19:0.177644 20:0.243658 21:0.255768 22:0.0705492 23:0.196013 24:0.0935103 25:0.0862195 26:0.125061 27:0.0831612 28:0.0527572 29:0.100008 30:0.0347027 
4 4 1:0.588218 2:0.527954 3:0.337241 4:0.323196 5:0.171409 6:0.258872 7:0.484677 8:0.280256 9:0.354592 10:0.398346 11:0.42338 12:0.180322 13:0.38898 14:0.602149 15:0.271715 16:0.391484 17:0.452135 18:0.258655 19:0.233366 20:0.397666 21:0.174291 22:0.480981 23:0.365781 24:0.258065 25:0.371618 26:0.386059 27:0.286112 28:0.672635 29:0.593243 30:0.354749 
0.9454692380633547 2.906784381125077 1:0.425071 2:0.603057 3:0.494334 4:0.555927 5:0.432513 6:0.354763 7:0.586391 8:0.268412 9:0.551302 10:0.173384 11:0.18321 12:0.585592 13:0.230977 14:0.520712 15:0.288011 16:0.361476 17:0.361387 18:0.179515 19:0.144787 20:0.404854 21:0.267836 22:0.66625 23:0.30723 24:0.363064 25:0.131051 26:0.11178 27:0.871627 28:0.485341 29:0.953337 30:0.327169 
4 4 1:0.628931 2:0.62308 3:0.411859 4:0.330931 5:0.106907 6:0.111086 7:0.706933 8:1 9:0.592532 10:0.271964 11:0.229195 12:0.466207 13:0.345938 14:0.225088 15:0.281884 16:0.151726 17:0.16692 18:0.0231955 19:0.119509 20:0.288555 21:0.102209 22:0.43482 23:0.385907 24:0.523137 25:0.372753 26:0.333654 27:0.265698 28:0.477997 29:0.523308 30:0.737277 
4 4 1:0.481243 2:0.710311 3:0.51212 4:0.294202 5:0.138241 6:0.276036 7:0.288166 8:0.249154 9:0.440102 10:0.189095 11:0.355852 12:0.25585 13:0.060377 14:0.505734 15:0.19517 16:0.108374 17:0.132752 18:0.191202 19:0.0472285 20:0.252411 21:0.328078 22:0.203834 23:0.334929 24:0.338224 25:0.333572 26:0.286083 27:0.556017 28:0.253305 29:0.165173 30:0.383327 
4 4 1:0.558471 2:0.802475 3:0.426907 4:0.292032 5:0.034604 6:0.0240782 7:0.123128 8:0.11498 9:0.207531 10:0.298508 11:0.385842 12:0.12138 13:0.364056 14:0.218167 15:0.256737 16:0.161236 17:0.229902 18:0.130871 19:0.0788 20:0.283249 21:0.140981 22:0.084343 23:0.0855167 24:0.149752 25:0.0497477 26:0.154251 27:0.155738 28:0.270343 29:0.133278 30:0.141892 
4 1.34134816511392 1:0.610145 2:0.839226 3:0.455298 4:0.176948 5:0.0978603 6:0.180072 7:0.330742 8:0.0958705 9:0.156259 10:0.497098 11:0.244316 12:0.117973 13:0.208667 14:0.561037 15:0.189808 16:0.263343 17:0.192362 18:0.383432 19:0.143676 20:0.383096 21:0.319648 22:0.150654 23:0.467152 24:0.335286 25:0.231617 26:0.247956 27:0.255275 28:0.114508 29:0.140723 30:0.23008 
0 4 1:0.533545 2:0.788157 3:0.552404 4:0.379665 5:0.0936479 6:0.102751 7:0.604527 8:0.682504 9:0.675452 10:0.838449 11:0.698672 12:0.360282 13:0.318148 14:0.396663 15:0.213247 16:0.111596 17:0.179553 18:0.26285 19:0.189362 20:0.464599 21:0.396044 22:0.0791909 23:0.502238 24:0.211366 25:0.246675 26:0.272378 27:0.144397 28:0.467908 29:0.292795 30:0.152135 
0 0.8615969530563327 1:0.409574 2:0.670994 3:0.464688 4:0.478438 5:0.310199 6:0.280211 7:0.41286 8:0.468931 9:0.539256 10:0.965302 11:0.664033 12:0.705009 13:0.401717 14:0.484454 15:0.418758 16:0.487922 17:0.342378 18:0.672448 19:0.158351 20:0.393046 21:0.445019 22:0.617929 23:0.454815 24:0.283956 25:0.464486 26:0.0800476 27:0.623131 28:0.236091 29:0.306687 30:0.244246 
4 4 1:0.459454 2:0.73085 3:0.37773 4:0.337095 5:0.134067 6:0.238951 7:0.370286 8:0.342983 9:0.539373 10:0.662328 11:0.252553 12:0.199709 13:0.25198 14:0.429679 15:0.369636 16:0.363431 17:0.175131 18:0.257399 19:0.151417 20:0.27451 21:0.268788 22:0.0963806 23:0.121449 24:0.256164 25:0.062654 26:0.307261 27:0.136829 28:0.2316 29:0.266822 30:0.115495 
4 0 1:0.598536 2:0.822338 3:0.508528 4:0.336315 5:0.0567519 6:0.0854754 7:0.257359 8:0.29461 9:0.396396 10:0.229111 11:0.179454 12:0.0440737 13:0.33454 14:0.429942 15:0.200381 16:0.412275 17:0.115662 18:0.0166985 19:0.102354 20:0.261911 21:0.41337 22:0.279609 23:0.491433 24:0.476607 25:0.132417 26:0.272535 27:0.249142 28:0.1895 29:0.0806266 30:0.314094 
0 4 1:0.438026 2:0.143469 3:0.310961 4:0.562462 5:0.38879 6:0.37216 7:0.508642 8:0.507543 9:0.360903 10:0.646088 11:0.835273 12:0.462203 13:0.198743 14:1 15:0.299544 16:0.502693 17:0.747548 18:0.294491 19:0.0969764 20:0.43015 21:0.131914 22:0.657566 23:0.407769 24:0.407786 25:0.52233 26:0.459882 27:0.551518 28:0.989457 29:0.872053 30:0.390575 
0 2.464487299187282 1:0.368779 2:0.340139 3:0.512143 4:0.870153 5:0.400636 6:0.287938 7:0.251474 8:0.556927 9:0.43993 10:0.409951 11:0.321735 12:0.0946086 13:0.472757 14:0.693815 15:0.339105 16:0.449316 17:0.254924 18:0.262884 19:0.413619 20:0.28289 21:0.117707 22:0.38402 23:0.553534 24:0.332271 25:0.38224 26:0.260646 27:0.114101 28:0.123077 29:1 30:0.826165 
2.777730586420762 0 1:0.537269 2:0.784214 3:0.589522 4:0.50889 5:0.157126 6:0.0654772 7:0.0936693 8:0.285636 9:0.255512 10:0.530695 11:0.539707 12:0.374616 13:0.471034 14:0.340221 15:0.322185 16:0.4704 17:0.244297 18:0.171829 19:0.330241 20:0.214803 21:0.41058 22:0.0902473 23:0.440638 24:0.184242 25:0.291599 26:0.490414 27:0.626199 28:0.854951 29:0.722967 30:0.635878 
0 0.2973043613165675 1:0.391447 2:0.726785 3:0.566306 4:0.55247 5:0.233099 6:0.223891 7:0.468241 8:0.554469 9:0.499511 10:0.540556 11:0.671751 12:0.489977 13:0.389412 14:0.580359 15:0.281176 16:0.667773 17:0.254771 18:0.536918 19:0.200816 20:0.620892 21:0.594658 22:0.264703 23:0.274062 24:0.427024 25:0.0978142 26:0.435263 27:0.59319 28:0.407734 29:0.453173 30:0.616302 
0.7374197262616546 0 1:0.495673 2:0.890934 3:0.624747 4:0.374421 5:0.0770786 6:0.181519 7:0.348175 8:0.203486 9:0.137343 10:0.227537 11:0.105958 12:0.295032 13:0.356233 14:0.171172 15:0.503524 16:0.360582 17:0.294076 18:0.200215 19:0.392045 20:0.444283 21:0.191014 22:0.162558 23:0.285326 24:0.116796 25:0.117482 26:0.148372 27:0.110407 28:0.156038 29:0.0666034 30:0.142722 
4 4 1:0.489207 2:0.787598 3:0.543948 4:0.366007 5:0.0727362 6:0.0894755 7:0.184391 8:0.0815803 9:0.457981 10:0.33836 11:0.440377 12:0.0998404 13:0.162723 14:0.175586 15:0.205062 16:0.169583 17:0.217371 18:0.238245 19:0.055729 20:0.11992 21:0.109426 22:0.101297 23:0.0729763 24:0.094315 25:0.137244 26:0.187461 27:0.198283 28:0.174572 29:0.29678 30:0.126086 
4 4 1:0.475939 2:0.718802 3:0.516188 4:0.358216 5:0.0971991 6:0.122788 7:0.380797 8:0.377863 9:0.332975 10:0.172233 11:0.241808 12:0.400798 13:0.0789506 14:0.297357 15:0.172839 16:0.139674 17:0.128928 18:0.156619 19:0.0934166 20:0.272897 21:0.120316 22:0.20281 23:0.298195 24:0.377314 25:0.109514 26:0.195058 27:0.255058 28:0.328874 29:0.171541 30:0.270204 
3.811301116193026 4 1:0.436932 2:0.446759 3:0.495088 4:0.721954 5:0.360554 6:0.416137 7:0.566666 8:0.603496 9:0.688783 10:0.403191 11:0.442588 12:0.380177 13:0.295789 14:0.226794 15:0.301761 16:0.392621 17:0.281278 18:0.296558 19:0.0852205 20:0.137158 21:0.104936 22:0.285903 23:0.372972 24:0.0724035 25:0.329645 26:0.469121 27:0.412533 28:0.213586 29:0.634675 30:0.615164 
4 0.6503019070939942 1:0.353661 2:0.651585 3:0.53004 4:0.502492 5:0.246303 6:0.237159 7:0.345693 8:0.370876 9:0.340209 10:0.0432711 11:0.313441 12:0.0654859 13:0.237085 14:0.587864 15:0.0865786 16:0.426894 17:0.163408 18:0.331859 19:0.155662 20:0.391904 21:0.127775 22:0.551519 23:0.229739 24:0.104028 25:0.265884 26:0.253462 27:0.393311 28:0.364043 29:0.502499 30:0.422215 
0 4 1:0.346758 2:0.743886 3:0.553298 4:0.570822 5:0.264541 6:0.264154 7:0.447053 8:0.567048 9:0.633768 10:0.518457 11:0.465839 12:0.472583 13:0.549838 14:0.569037 15:0.366458 16:0.590333 17:0.301053 18:0.336729 19:0.340945 20:0.246449 21:0.377945 22:0.224953 23:0.299294 24:0.34272 25:0.247808 26:0.264293 27:0.251035 28:0.419623 29:0.203743 30:0.393387 
4 4 1:0.61995 2:0.756829 3:0.394905 4:0.291969 5:0.0907332 6:0.15551 7:0.323427 8:0.226421 9:0.442627 10:0.603318 11:0.504551 12:0.266483 13:0.236069 14:0.296474 15:0.212635 16:0.127468 17:0.0775746 18:0.158771 19:0.379281 20:0.0734581 21:0.374065 22:0.196626 23:0.20904 24:0.216818 25:0.145107 26:0.36243 27:0.309585 28:0.292392 29:0.363183 30:0.440095 
4 4 1:0.589753 2:0.780528 3:0.153018 4:0.131617 5:0.0840041 6:0.324502 7:0.17266 8:0.559972 9:0.651183 10:0.0517379 11:0.210943 12:0.325007 13:0.16368 14:0.329981 15:0.205234 16:0.318282 17:0.133399 18:0.152691 19:0.324699 20:0.554065 21:0.214601 22:0.229541 23:0.302125 24:0.0512797 25:0.213045 26:0.416798 27:0.123506 28:0.119014 29:0.132489 30:0.201603 
4 4 1:0.506285 2:0.800621 3:0.534426 4:0.464637 5:0.128869 6:0.14505 7:0.327667 8:0.377659 9:0.381902 10:0.389444 11:0.171529 12:0.289855 13:0.221678 14:0.155529 15:0.146708 16:0.0663178 17:0.0480705 18:0.303052 19:0.129709 20:0.143474 21:0.101247 22:0.295713 23:0.137483 24:0.144774 25:0.156727 26:0.0919051 27:0.254982 28:0.271564 29:0.0788572 30:0.265791 
0.4810636593995491 0 1:0.612664 2:0.851944 3:0.327155 4:0.211787 5:0.157222 6:0.0824362 7:0.30217 8:0.799823 9:0.146318 10:0.187286 11:0.242786 12:0.476813 13:0.226313 14:0.13238 15:0.268787 16:0.571622 17:0.22333 18:0.4519 19:0.605444 20:0.294691 21:0.218706 22:0.584056 23:0.304857 24:0.393127 25:0.121414 26:0.212775 27:0.593008 28:0.200171 29:0.336411 30:0.356874 
0 0.7654878421265966 1:0.263723 2:0.57535 3:0.495483 4:0.583899 5:0.211723 6:0.201607 7:0.390489 8:0.685097 9:0.795305 10:0.513093 11:0.773907 12:0.797531 13:0.308727 14:0.674263 15:0.169876 16:0.660586 17:0.245215 18:0.450578 19:0.236451 20:0.591399 21:0.201962 22:0.331422 23:0.484694 24:0.272052 25:0.30531 26:0.474399 27:0.445345 28:0.386092 29:0.583635 30:0.334532 
0 1.948739628872681 1:0.39086 2:0.770174 3:0.634769 4:0.520859 5:0.151392 6:0.228741 7:0.495483 8:0.293591 9:0.433125 10:0.583555 11:0.375333 12:0.375799 13:0.264736 14:0.529912 15:0.218182 16:0.290534 17:0.388752 18:0.448837 19:0.328693 20:0.540258 21:0.169175 22:0.454001 23:0.283192 24:0.122644 25:0.0944233 26:0.17842 27:0.171538 28:0.0625899 29:0.291331 30:0.325604 
0.5799401165467611 0 1:0.513582 2:0.833197 3:0.599993 4:0.446336 5:0.0745003 6:0.101121 7:0.17773 8:0.421261 9:0.327668 10:0.33985 11:0.336311 12:0.174984 13:0.372583 14:0.274756 15:0.144447 16:0.331503 17:0.253138 18:0.249877 19:0.2113 20:0.419692 21:0.317979 22:0.144799 23:0.271755 24:0.0819328 25:0.174516 26:0.39219 27:0.0738123 28:0.184994 29:0.289657 30:0.133728 
0.3813332748010693 0.3473827008183901 1:0.371427 2:0.615882 3:0.468378 4:0.582054 5:0.231378 6:0.210279 7:0.374028 8:0.368458 9:0.427969 10:0.477001 11:0.174633 12:0.304942 13:0.386734 14:0.470647 15:0.328602 16:0.454614 17:0.125745 18:0.628351 19:0.0697692 20:0.536467 21:0.190796 22:0.517304 23:0.196966 24:0.152594 25:0.448225 26:0.660471 27:0.116839 28:0.769237 29:0.444693 30:0.605773 
0 2.232078839334953 1:0.343745 2:0.663497 3:0.56546 4:0.593616 5:0.238704 6:0.241703 7:0.549954 8:0.672774 9:0.522085 10:0.437866 11:0.588673 12:0.568594 13:0.2416 14:0.663963 15:0.48535 16:0.367543 17:0.443773 18:0.26403 19:0.421415 20:0.145278 21:0.367755 22:0.717181 23:0.238627 24:0.292548 25:0.0900737 26:0.28655 27:0.187672 28:0.205814 29:0.125073 30:0.141197 
1.934794287276056 0 1:0.635532 2:0.76042 3:0.244106 4:0.210445 5:0.213258 6:0.271052 7:0.570046 8:0.268897 9:0.182547 10:0.161812 11:0.198564 12:0.332858 13:0.153699 14:0.549282 15:0.227717 16:0.373046 17:0.187695 18:0.28302 19:0.328323 20:0.750789 21:0.446403 22:0.341048 23:0.472239 24:1 25:0.148251 26:0.409187 27:0.29046 28:0.431369 29:0.327655 30:0.845578 
0 4 1:0.509035 2:0.780229 3:0.495311 4:0.343965 5:0.108514 6:0.226894 7:0.634143 8:0.638796 9:0.281478 10:0.296199 11:0.343004 12:0.261399 13:0.26131 14:0.216975 15:0.206269 16:0.191868 17:0.221123 18:0.341281 19:0.0629572 20:0.475561 21:0.131126 22:0.418618 23:0.343869 24:0.448256 25:0.178781 26:0.373775 27:0.114909 28:0.0815362 29:0.0981777 30:0.342306 
4 4 1:0.503208 2:0.743084 3:0.460241 4:0.235183 5:0.0311152 6:0.0811913 7:0.0925827 8:0.141739 9:0.217987 10:0.275953 11:0.0953933 12:0.209374 13:0.261343 14:0.0868543 15:0.206134 16:0.0440527 17:0.0505065 18:0.0890977 19:0.20045 20:0.498148 21:0.380273 22:0.113627 23:0.106788 24:0.209429 25:0.0478166 26:0.1325 27:0.158787 28:0.0791455 29:0.161663 30:0.156664 
0 1.717064056821317 1:0.452021 2:0.464933 3:0.51594 4:0.688039 5:0.389346 6:0.31528 7:0.283744 8:0.330499 9:0.401423 10:0.146642 11:0.303896 12:0.388752 13:0.363677 14:0.345467 15:0.636146 16:0.467143 17:0.411958 18:0.495513 19:0.39387 20:0.466583 21:0.151371 22:0.44235 23:0.249939 24:0.403986 25:0.161048 26:0.535719 27:0.696288 28:0.613011 29:0.662557 30:0.320862 
4 4 1:0.596856 2:0.865924 3:0.544133 4:0.383512 5:0.0889663 6:0.0404566 7:0.115741 8:0.237247 9:0.0977731 10:0.265546 11:0.269831 12:0.0825128 13:0.1718 14:0.100958 15:0.232895 16:0.155319 17:0.283496 18:0.273188 19:0.163812 20:0.0888922 21:0.0916726 22:0.121655 23:0.155025 24:0.141922 25:0.102624 26:0.135472 27:0.0291816 28:0.191623 29:0.13063 30:0.143264 
0 3.016043903645494 1:0.516715 2:0.475751 3:0.328573 4:0.647137 5:0.320151 6:0.242789 7:0.378526 8:0.265214 9:0.24578 10:0.266927 11:0.311558 12:0.643581 13:0.675556 14:0.637882 15:0.181449 16:0.341907 17:0.323638 18:0.412608 19:0.109102 20:0.48884 21:0.412332 22:0.470181 23:0.330568 24:0.220027 25:0.575787 26:0.806713 27:0.546433 28:0.481747 29:0.257503 30:0.66187 
4 4 1:0.488998 2:0.764018 3:0.641622 4:0.5895 5:0.171443 6:0.175822 7:0.379262 8:0.411398 9:0.360318 10:0.333842 11:0.328238 12:0.274139 13:0.186467 14:0.130838 15:0.151224 16:0.281124 17:0.107713 18:0.393051 19:0.225686 20:0.218817 21:0.311458 22:0.186943 23:0.348451 24:0.119747 25:0.163476 26:0.266144 27:0.232525 28:0.270794 29:0.128151 30:0.159744 
-0 3.421692564313522 1:0.0914124 2:0.498419 3:0.18221 4:0.331406 5:0.0534184 6:0.177665 7:0.130467 8:0.330138 9:0.109823 10:0.303879 11:0.111103 12:0.213575 13:0.0552178 14:0.305919 15:0.063292 16:0.190233 17:0.0603437 18:0.166972 19:0.0408029 20:0.170078 21:0.0816759 22:0.124968 23:0.0926242 24:0.189488 25:0.0646594 26:0.149937 27:0.09777 28:0.116002 29:0.198345 30:0.184666 
-0 4 1:0.717309 2:0.201231 3:0.326862 4:0.245259 5:0.184145 6:0.115131 7:0.30531 8:0.197688 9:0.149211 10:0.291458 11:0.192779 12:0.0690258 13:0.0896846 14:0.257896 15:0.0723676 16:0.0808488 17:0.0969997 18:0.112394 19:0.0491919 20:0.153558 21:0.0913852 22:0.0845468 23:0.136057 24:0.0866499 25:0.058166 26:0.152247 27:0.0974086 28:0.0987602 29:0.14051 30:0.18887 
-4 4 1:0.504592 2:0.625991 3:0.324103 4:0.54975 5:0.192359 6:0.213101 7:0.330725 8:0.428834 9:0.376341 10:0.395429 11:0.346867 12:0.371591 13:0.274395 14:0.310188 15:0.272817 16:0.233835 17:0.188285 18:0.252347 19:0.176724 20:0.259139 21:0.217205 22:0.228325 23:0.218664 24:0.239017 25:0.168082 26:0.352443 27:0.292437 28:0.441194 29:0.360467 30:0.307836 
-0 4 1:0.205796 2:0.487604 3:0.121918 4:0.25359 5:0.118207 6:0.0713647 7:0.257404 8:0.106614 9:0.185675 10:0.204362 11:0.122335 12:0.208425 13:0.172253 14:0.122619 15:0.156327 16:0.0727372 17:0.0983989 18:0.123823 19:0.0554204 20:0.143877 21:0.0626626 22:0.0836778 23:0.163833 24:0.0897124 25:0.110161 26:0.0887307 27:0.118793 28:0.160387 29:0.119865 30:0.162943 
-4 4 1:0.322206 2:0.728805 3:0.423422 4:0.42242 5:0.163117 6:0.119984 7:0.366236 8:0.177245 9:0.368692 10:0.278661 11:0.230291 12:0.17547 13:0.126266 14:0.245965 15:0.144948 16:0.196697 17:0.164116 18:0.153711 19:0.131551 20:0.198932 21:0.13144 22:0.15148 23:0.167626 24:0.173964 25:0.182282 26:0.207659 27:0.176757 28:0.204898 29:0.17284 30:0.199011 
-4 4 1:0.789112 2:0.76585 3:0.296139 4:0.256033 5:0.11633 6:0.139368 7:0.302315 8:0.342156 9:0.217168 10:0.174587 11:0.168073 12:0.152083 13:0.152351 14:0.105224 15:0.147938 16:0.156566 17:0.0988135 18:0.133179 19:0.0576963 20:0.159831 21:0.152988 22:0.21569 23:0.199964 24:0.192863 25:0.132014 26:0.156534 27:0.247573 28:0.377194 29:0.288869 30:0.261511 
-4 4 1:0.334614 2:0.699559 3:0.741142 4:0.607012 5:0.263389 6:0.198372 7:0.367778 8:0.180278 9:0.30756 10:0.25761 11:0.227998 12:0.204951 13:0.196317 14:0.251564 15:0.146341 16:0.238118 17:0.127 18:0.163677 19:0.0961917 20:0.195393 21:0.177495 22:0.199155 23:0.193713 24:0.235118 25:0.131146 26:0.322392 27:0.199283 28:0.239095 29:0.302042 30:0.290617 
-0 4 1:0.612322 2:0.360048 3:0.222005 4:0.19061 5:0.0781637 6:0.0472638 7:0.121611 8:0.0796577 9:0.122309 10:0.192222 11:0.110989 12:0.107386 13:0.0861868 14:0.169366 15:0.0764492 16:0.103032 17:0.0759273 18:0.118266 19:0.101188 20:0.174106 21:0.10789 22:0.0960173 23:0.140218 24:0.0962156 25:0.120728 26:0.267271 27:0.154257 28:0.209381 29:0.252708 30:0.279505 
-4 4 1:0.799908 2:0.292315 3:0.444836 4:0.31171 5:0.123747 6:0.186236 7:0.195807 8:0.409061 9:0.362032 10:0.223134 11:0.354862 12:0.31871 13:0.195947 14:0.264194 15:0.187214 16:0.247627 17:0.153591 18:0.191154 19:0.117609 20:0.267771 21:0.175039 22:0.263901 23:0.281084 24:0.22022 25:0.19218 26:0.272826 27:0.249282 28:0.377156 29:0.385698 30:0.358201 
-4 0 1:0.668115 2:1 3:0.503448 4:0.417454 5:0.192229 6:0.135777 7:0.318672 8:0.258145 9:0.265687 10:0.310956 11:0.177998 12:0.175898 13:0.183707 14:0.268755 15:0.201058 16:0.203644 17:0.153492 18:0.169062 19:0.11416 20:0.207451 21:0.198067 22:0.278289 23:0.277367 24:0.226898 25:0.167884 26:0.270261 27:0.275074 28:0.37183 29:0.340222 30:0.488576 
-4 1.627537011430783 1:0.798466 2:0.944418 3:0.294312 4:0.326466 5:0.111143 6:0.11519 7:0.216953 8:0.175036 9:0.197565 10:0.169131 11:0.203629 12:0.185037 13:0.132887 14:0.211058 15:0.157122 16:0.150161 17:0.0884701 18:0.179653 19:0.097974 20:0.160419 21:0.140848 22:0.167292 23:0.195952 24:0.206339 25:0.131821 26:0.278709 27:0.238847 28:0.328922 29:0.315375 30:0.223553 
-4 4 1:0.776589 2:0.610804 3:0.410808 4:0.535674 5:0.310598 6:0.325399 7:0.53442 8:0.503236 9:0.566791 10:0.635255 11:0.543581 12:0.48267 13:0.361749 14:0.36893 15:0.371132 16:0.524813 17:0.28827 18:0.245052 19:0.17154 20:0.510901 21:0.449633 22:0.434372 23:0.175279 24:0.3536 25:0.399084 26:0.638843 27:0.355993 28:0.281931 29:0.49964 30:0.717314 
-0.05697882806742052 4 1:0.567886 2:0.539182 3:0.334486 4:0.269758 5:0.0848662 6:0.0982563 7:0.178813 8:0.177488 9:0.128501 10:0.210135 11:0.153911 12:0.1344 13:0.161221 14:0.263507 15:0.169497 16:0.16064 17:0.118717 18:0.192268 19:0.0841104 20:0.200183 21:0.182028 22:0.156957 23:0.222178 24:0.18562 25:0.143609 26:0.250761 27:0.225656 28:0.281624 29:0.340968 30:0.162656 
-0 4 1:0.725517 2:0.115476 3:0.326413 4:0.177437 5:0.0619378 6:0.145048 7:0.31588 8:0.136254 9:0.214103 10:0.110886 11:0.116729 12:0.154811 13:0.0799073 14:0.182409 15:0.0750182 16:0.130124 17:0.0898944 18:0.0880897 19:0.037701 20:0.0771264 21:0.086237 22:0.0444584 23:0.0806874 24:0.074526 25:0.0180667 26:0.100997 27:0.131499 28:0.062579 29:0.0952938 30:0.115732 
-4 4 1:0.807537 2:0.669892 3:0.319004 4:0.296731 5:0.126331 6:0.14124 7:0.180453 8:0.202006 9:0.191353 10:0.208587 11:0.182391 12:0.168021 13:0.130904 14:0.178489 15:0.108501 16:0.176166 17:0.109877 18:0.161246 19:0.140037 20:0.205859 21:0.166331 22:0.197145 23:0.307229 24:0.190205 25:0.140262 26:0.219214 27:0.196948 28:0.280108 29:0.450299 30:0.367569 
-0 4 1:0.59176 2:0.265696 3:0.306843 4:0.450282 5:0.119313 6:0.0115322 7:0.270392 8:0.209735 9:0.0434221 10:0.210908 11:0.249263 12:0.0496496 13:0.119433 14:0.233529 15:0.133989 16:0.123647 17:0.130445 18:0.102314 19:0.0454981 20:0.165067 21:0.0721676 22:0.0816834 23:0.183577 24:0.106598 25:0.0697846 26:0.245905 27:0.140273 28:0.200519 29:0.201444 30:0.206176 
-4 4 1:0.246742 2:0.407457 3:0.421648 4:0.117566 5:0.168192 6:0.176751 7:0.143627 8:0.341559 9:0.315323 10:0.189085 11:0.272665 12:0.13446 13:0.105358 14:0.211158 15:0.0522534 16:0.118138 17:0.103183 18:0.0350242 19:0.0819985 20:0.116982 21:0.0165157 22:0.0665199 23:0.104914 24:0.0435546 25:0.0541902 26:0.0670285 27:0.0854596 28:0.136822 29:0.0895617 30:0.0705704 
-4 4 1:0.0982433 2:0.561986 3:0.287168 4:0.288847 5:0.122811 6:0.165481 7:0.362887 8:0.301683 9:0.324877 10:0.366164 11:0.285552 12:0.307435 13:0.228672 14:0.265996 15:0.208004 16:0.203094 17:0.15548 18:0.217961 19:0.148941 20:0.248364 21:0.213144 22:0.211625 23:0.206511 24:0.194843 25:0.149696 26:0.238947 27:0.197131 28:0.303507 29:0.312481 30:0.254818 
-0 4 1:0.415359 2:0.440618 3:0.361968 4:0.21305 5:0.0984719 6:0.109054 7:0.136512 8:0.160512 9:0.146319 10:0.200002 11:0.17688 12:0.1372 13:0.148589 14:0.154504 15:0.0921635 16:0.153035 17:0.108481 18:0.120785 19:0.094241 20:0.19141 21:0.0986556 22:0.173542 23:0.121294 24:0.127291 25:0.0977808 26:0.198735 27:0.145103 28:0.236765 29:0.235288 30:0.242816 
-4 4 1:0.246139 2:0.562372 3:0.537161 4:0.433236 5:0.198955 6:0.167411 7:0.240517 8:0.219695 9:0.298028 10:0.334434 11:0.205548 12:0.188719 13:0.175074 14:0.245966 15:0.140985 16:0.165602 17:0.140053 18:0.188651 19:0.101967 20:0.182414 21:0.154974 22:0.156105 23:0.229093 24:0.189856 25:0.148225 26:0.208695 27:0.138722 28:0.194788 29:0.226867 30:0.336996 
-4 4 1:0.663304 2:0.652189 3:0.490739 4:0.329304 5:0.121344 6:0.133868 7:0.240713 8:0.301202 9:0.169297 10:0.139457 11:0.158018 12:0.248289 13:0.132972 14:0.215338 15:0.118795 16:0.152462 17:0.146846 18:0.14104 19:0.138455 20:0.208283 21:0.123671 22:0.171346 23:0.251338 24:0.241571 25:0.124401 26:0.202667 27:0.263571 28:0.420562 29:0.349113 30:0.267435 
-4 4 1:0.726898 2:0.489577 3:0.29202 4:0.167358 5:0.124844 6:0.119289 7:0.226519 8:0.19633 9:0.219615 10:0.178677 11:0.212304 12:0.234834 13:0.12562 14:0.245828 15:0.262241 16:0.228116 17:0.144922 18:0.277608 19:0.108587 20:0.257477 21:0.297422 22:0.142647 23:0.285468 24:0.311216 25:0.174717 26:0.277945 27:0.391105 28:0.238415 29:0.40961 30:0.526468 
-0 4 1:0.776102 2:0.100568 3:0.449881 4:0.322111 5:0.107576 6:0.177378 7:0.311804 8:0.258826 9:0.0686456 10:0.292783 11:0.271252 12:0.0448792 13:0.0956423 14:0.18021 15:0.0594335 16:0.069236 17:0.0910422 18:0.11329 19:0.053227 20:0.0639014 21:0.117449 22:0.114112 23:0.064407 24:0.0804511 25:0.121362 26:0.106958 27:0.142275 28:0.144711 29:0.162633 30:0.0639398 
-4 4 1:0.644598 2:0.62209 3:0.334722 4:0.2085 5:0.0748577 6:0.121794 7:0.234818 8:0.165196 9:0.209929 10:0.259918 11:0.192966 12:0.207075 13:0.238697 14:0.297236 15:0.212348 16:0.177929 17:0.149372 18:0.264699 19:0.155784 20:0.250268 21:0.176218 22:0.241868 23:0.289234 24:0.218835 25:0.147906 26:0.343977 27:0.231103 28:0.207908 29:0.351214 30:0.325721 
-0 4 1:0.586164 2:0.363151 3:0.285435 4:0.18918 5:0.0808045 6:0.0830294 7:0.180524 8:0.174391 9:0.146663 10:0.135739 11:0.147154 12:0.113948 13:0.104714 14:0.202906 15:0.0977017 16:0.0910633 17:0.0987494 18:0.151646 19:0.0934021 20:0.196009 21:0.125788 22:0.111781 23:0.154138 24:0.160083 25:0.133197 26:0.204326 27:0.177101 28:0.190734 29:0.271049 30:0.149292 
-4 2.464203296092468 1:0.0995761 2:0.516905 3:0.350207 4:0.230016 5:0.0659916 6:0.205792 7:0.168148 8:0.367884 9:0.227882 10:0.238097 11:0.255705 12:0.244359 13:0.159127 14:0.223552 15:0.159888 16:0.188776 17:0.132924 18:0.193952 19:0.135309 20:0.241422 21:0.15 22:0.256123 23:0.221935 24:0.142714 25:0.149737 26:0.199205 27:0.148867 28:0.241451 29:0.267069 30:0.302068 
-4 0 1:0.582502 2:0.708725 3:0.49967 4:0.237095 5:0.185746 6:0.107086 7:0.274972 8:0.19826 9:0.233369 10:0.137249 11:0.162078 12:0.151638 13:0.174352 14:0.206241 15:0.125748 16:0.151315 17:0.106761 18:0.162437 19:0.114617 20:0.227505 21:0.192622 22:0.236948 23:0.208438 24:0.184287 25:0.105937 26:0.273134 27:0.313765 28:0.239622 29:0.354348 30:0.284602 
-0 4 1:0.677138 2:0.410792 3:0.0671091 4:0.268749 5:0.140678 6:0.162432 7:0.357169 8:0.11362 9:0.245455 10:0.270568 11:0.31901 12:0.186998 13:0.0360003 14:0.200698 15:0.22351 16:0.227083 17:0.127008 18:0.14436 19:0.0963015 20:0.170059 21:0.160541 22:0.199584 23:0.1653 24:0.212591 25:0.175531 26:0.251106 27:0.191613 28:0.209898 29:0.224033 30:0.207398 
-4 4 1:0.507723 2:0.689359 3:0.480536 4:0.377917 5:0.162721 6:0.166843 7:0.364641 8:0.361406 9:0.413801 10:0.455002 11:0.357041 12:0.24643 13:0.276226 14:0.368738 15:0.255287 16:0.248767 17:0.170491 18:0.286946 19:0.17973 20:0.272219 21:0.243142 22:0.249253 23:0.366956 24:0.222312 25:0.247731 26:0.364447 27:0.343441 28:0.383075 29:0.483618 30:0.502149 
-0 4 1:0.560711 2:0.561756 3:0.34849 4:0.283482 5:0.0997184 6:0.108218 7:0.182788 8:0.151594 9:0.149778 10:0.149898 11:0.212975 12:0.136943 13:0.121939 14:0.150243 15:0.137366 16:0.12091 17:0.0881283 18:0.122602 19:0.0727291 20:0.193539 21:0.121162 22:0.15669 23:0.155015 24:0.135688 25:0.110802 26:0.200053 27:0.145208 28:0.258357 29:0.281741 30:0.23116 
-4 4 1:0.404364 2:0.312478 3:0.552348 4:0.156755 5:0.114963 6:0.141253 7:0.319561 8:0.388533 9:0.352159 10:0.348053 11:0.208866 12:0.299464 13:0.156769 14:0.353304 15:0.268012 16:0.257754 17:0.194394 18:0.0995845 19:0.225912 20:0.266015 21:0.259979 22:0.285279 23:0.224468 24:0.329995 25:0.127413 26:0.354372 27:0.246514 28:0.295167 29:0.323205 30:0.205608 
-4 4 1:0.857951 2:0.557511 3:0.198974 4:0.265488 5:0.117185 6:0.148167 7:0.201172 8:0.241701 9:0.187287 10:0.268269 11:0.202679 12:0.2088 13:0.199073 14:0.312188 15:0.190077 16:0.197861 17:0.142456 18:0.172726 19:0.128558 20:0.22982 21:0.150883 22:0.194737 23:0.236161 24:0.271714 25:0.173914 26:0.314287 27:0.18113 28:0.367764 29:0.29154 30:0.282107 
-0 4 1:0.7209 
-0 -4 1:0.829762 2:0.317085 3:0.245592 4:0.32176 5:0.133267 6:0.0964901 7:0.430463 8:0.303081 9:0.261509 10:0.29422 11:0.231834 12:0.280417 13:0.175251 14:0.169196 15:0.184473 16:0.162935 17:0.0633519 18:0.16596 19:0.0602637 20:0.102894 21:0.179825 22:0.112236 23:0.124079 24:0.135181 25:0.127418 26:0.211021 27:0.195423 28:0.148501 29:0.287203 30:0.247207 
-4 -4 1:0.569354 2:0.502429 3:0.0333166 4:0.269224 5:0.225303 6:0.275068 7:0.452637 8:0.14109 9:0.170274 10:0.529434 11:0.530133 12:0.310979 13:0.141283 14:0.224967 15:0.337213 16:0.430762 17:0.252204 18:0.258702 19:0.0688328 20:0.155086 21:0.287685 22:0.343382 23:0.16329 24:0.0665428 25:0.126887 26:0.372648 27:0.317715 28:0.185415 29:0.0698804 30:0.263996 
-4 -0.1494101089555693 1:0.634721 2:0.691926 3:1 4:0.491581 5:0.16697 6:0.421364 7:0.47065 8:0.375033 9:0.548412 10:0.41188 11:0.317478 12:0.349439 13:0.211862 14:0.314517 15:0.23391 16:0.217967 17:0.190984 18:0.226511 19:0.17615 20:0.187591 21:0.217558 22:0.163987 23:0.181986 24:0.166188 25:0.170931 26:0.159022 27:0.191295 28:0.193385 29:0.282311 30:0.21929 
-0 -4 1:0.734945 2:0.379804 3:0.452203 4:0.373966 5:0.107595 6:0.199025 7:0.231257 8:0.0890032 9:0.297479 10:0.217584 11:0.0946989 12:0.205569 13:0.127377 14:0.104994 15:0.11611 16:0.0494635 17:0.0558732 18:0.0801954 19:0.0795645 20:0.0915469 21:0.121807 22:0.0545635 23:0.0340979 24:0.132531 25:0.0697376 26:0.0741967 27:0.0919618 28:0.0996545 29:0.152078 30:0.19595 
-0 -4 1:0.48794 2:0.243771 3:0.383189 4:0.427994 5:0.154395 6:0.144416 7:0.314625 8:0.109016 9:0.299379 10:0.270776 11:0.108798 12:0.101134 13:0.208673 14:0.190566 15:0.0811657 16:0.0939175 17:0.124174 18:0.128744 19:0.0422985 20:0.12711 21:0.0718118 22:0.0697834 23:0.189057 24:0.0638657 25:0.0750995 26:0.166251 27:0.0769596 28:0.262839 29:0.118276 30:0.0590781 
-4 -4 1:0.770716 2:0.798039 3:0.321707 4:0.212692 5:0.171716 6:0.290108 7:0.508419 8:0.418585 9:0.472509 10:0.439749 11:0.579724 12:0.513138 13:0.457309 14:0.370025 15:0.183529 16:0.465916 17:0.375373 18:0.406015 19:0.245408 20:0.34749 21:0.335117 22:0.420864 23:0.416502 24:0.332572 25:0.293374 26:0.405253 27:0.343161 28:0.470476 29:0.461134 30:0.472004 
-4 -0 1:0.391458 2:0.654489 3:0.332139 4:0.561573 5:0.234749 6:0.242478 7:0.942239 8:0.615569 9:0.714507 10:0.472478 11:0.53996 12:0.592133 13:0.326835 14:0.550564 15:0.340034 16:0.321173 17:0.314931 18:0.267805 19:0.257656 20:0.396934 21:0.296857 22:0.213882 23:0.339011 24:0.345282 25:0.216285 26:0.310925 27:0.385017 28:0.321524 29:0.455842 30:0.278305 
-0 -4 1:0.825967 2:0.211282 3:0.370609 4:0.392457 5:0.135046 6:0.0609584 7:0.386962 8:0.37517 9:0.120496 10:0.154102 11:0.147634 12:0.138387 13:0.0922003 14:0.110649 15:0.087321 16:0.0878821 17:0.0917848 18:0.102846 19:0.0975638 20:0.0248818 21:0.0737346 22:0.0802017 23:0.0814359 24:0.0727351 25:0.0588387 26:0.129414 27:0.0620542 28:0.0673475 29:0.15118 30:0.135639 
-4 -0 1:0.72121 2:0.346706 3:0.338789 4:0.581546 5:0.162358 6:0.312027 7:0.200223 8:0.533616 9:0.603056 10:0.412065 11:0.337137 12:0.324056 13:0.302246 14:0.392128 15:0.19392 16:0.273489 17:0.251252 18:0.292467 19:0.14192 20:0.315268 21:0.257821 22:0.250939 23:0.171279 24:0.211698 25:0.203853 26:0.25767 27:0.296128 28:0.117166 29:0.356101 30:0.279847 
-4 -4 1:0.563555 2:0.58226 3:0.0998596 4:0.107783 5:0.193696 6:0.195163 7:0.328064 8:0.279076 9:0.300152 10:0.401113 11:0.427836 12:0.353138 13:0.350014 14:0.411907 15:0.235157 16:0.228178 17:0.215958 18:0.349589 19:0.163682 20:0.133175 21:0.171176 22:0.257868 23:0.451697 24:0.269013 25:0.1115 26:0.336014 27:0.452447 28:0.638428 29:0.396445 30:0.189372 
-4 -4 1:0.62549 2:0.577393 3:0.71244 4:0.244375 5:0.219789 6:0.223855 7:0.398537 8:0.471226 9:0.287829 10:0.599538 11:0.262691 12:0.297584 13:0.296912 14:0.3454 15:0.231121 16:0.175188 17:0.255115 18:0.197479 19:0.111699 20:0.284777 21:0.163967 22:0.170384 23:0.127078 24:0.270175 25:0.134841 26:0.162017 27:0.238509 28:0.302235 29:0.175809 30:0.205037 
-0 -0.3281530399154732 1:0.864202 2:0.190402 3:0.207327 4:0.420304 5:0.157498 6:0.0974295 7:0.267758 8:0.184436 9:0.0984424 10:0.243158 11:0.162503 12:0.131332 13:0.217067 14:0.189027 15:0.145375 16:0.17814 17:0.0491245 18:0.106358 19:0.0397006 20:0.157424 21:0.0684886 22:0.116519 23:0.108341 24:0.100938 25:0.0302087 26:0.122171 27:0.0417791 28:0.122408 29:0.0724647 30:0.0363024 
-4 -0 1:0.797148 2:0.701029 3:0.727587 4:0.561891 5:0.264869 6:0.379766 7:0.3715 8:0.405732 9:0.431702 10:0.429934 11:0.200099 12:0.308232 13:0.101922 14:0.332594 15:0.100363 16:0.157172 17:0.181621 18:0.15156 19:0.111664 20:0.129576 21:0.141843 22:0.149101 23:0.0893786 24:0.1951 25:0.118355 26:0.236112 27:0.160007 28:0.310038 29:0.141354 30:0.109347 
-4 -4 1:0.470144 2:0.297442 3:0.599286 4:0.422529 5:0.125475 6:0.16865 7:0.344871 8:0.291966 9:0.104732 10:0.185068 11:0.281253 12:0.11516 13:0.0720899 14:0.238187 15:0.151664 16:0.0964772 17:0.0792067 18:0.0991153 19:0.0592658 20:0.0911517 21:0.0636038 22:0.148151 23:0.0952738 24:0.0477086 25:0.0545923 26:0.0863924 27:0.099663 28:0.0405885 29:0.113338 30:0.157332 
-4 -3.530906648726464 1:0.475978 2:0.376732 3:0.267112 4:0.399493 5:0.128233 6:0.266924 7:0.523836 8:0.51982 9:0.534929 10:0.43915 11:0.338609 12:0.212449 13:0.258918 14:0.341169 15:0.235446 16:0.409185 17:0.337685 18:0.321629 19:0.239422 20:0.516719 21:0.0756378 22:0.201822 23:0.330528 24:0.246396 25:0.154251 26:0.438575 27:0.286864 28:0.394716 29:0.417363 30:0.358898 
-0 -0.6052914107355232 1:0.846032 2:0.196033 3:0.413888 4:0.431392 5:0.139872 6:0.228512 7:0.404204 8:0.438025 9:0.15519 10:0.35471 11:0.257393 12:0.197307 13:0.197704 14:0.353991 15:0.204151 16:0.129431 17:0.158253 18:0.239234 19:0.133979 20:0.20213 21:0.204416 22:0.1559 23:0.227719 24:0.216565 25:0.109568 26:0.238272 27:0.265029 28:0.267751 29:0.334378 30:0.379159 
-4 -0 1:0.503239 2:0.293873 3:0.394341 4:0.657616 5:0.177832 6:0.588239 7:0.787661 8:0.419612 9:0.479362 10:0.441179 11:0.673272 12:0.302327 13:0.420149 14:0.377635 15:0.429469 16:0.363944 17:0.319364 18:0.314697 19:0.192964 20:0.473568 21:0.350676 22:0.430964 23:0.285982 24:0.365778 25:0.13912 26:0.518322 27:0.261707 28:0.386189 29:0.186352 30:0.503628 
-3.078287634978733 -0 1:0.461853 2:0.656099 3:0.394975 4:0.542596 5:0.190938 6:0.456373 7:0.761232 8:0.534331 9:0.927836 10:0.524949 11:0.604682 12:0.352095 13:0.402628 14:0.732865 15:0.170508 16:0.32251 17:0.13457 18:0.359133 19:0.0754104 20:0.216077 21:0.0737128 22:0.123385 23:0.126436 24:0.0501647 25:0.144549 26:0.214612 27:0.308188 28:0.179139 29:0.325608 30:0.304547 
-4 -0 1:0.725286 2:0.476977 3:0.45543 4:0.827432 5:0.374985 6:0.365088 7:0.697397 8:0.394062 9:0.329296 10:0.606955 11:0.368843 12:0.256883 13:0.321439 14:0.278059 15:0.224236 16:0.333288 17:0.111815 18:0.428485 19:0.129502 20:0.441595 21:0.29243 22:0.210277 23:0.36093 24:0.168641 25:0.323846 26:0.268625 27:0.365204 28:0.256082 29:0.376046 30:0.45207 
-4 -0 1:0.679186 2:0.608867 3:0.983743 4:0.915422 5:0.288052 6:0.339292 7:0.578521 8:0.497674 9:0.511853 10:0.654428 11:0.615794 12:0.342876 13:0.263642 14:0.373464 15:0.389426 16:0.34522 17:0.234193 18:0.29448 19:0.213693 20:0.365353 21:0.267432 22:0.302934 23:0.373606 24:0.21249 25:0.30296 26:0.495696 27:0.276359 28:0.587128 29:0.527018 30:0.55743 
-0 -4 1:0.612101 2:0.230987 3:0.264246 4:0.440358 5:0.224318 6:0.125927 7:0.178593 8:0.285472 9:0.283741 10:0.176132 11:0.194429 12:0.154535 13:0.09849 14:0.191093 15:0.212669 16:0.137022 17:0.0458159 18:0.160564 19:0.143083 20:0.10035 21:0.0761462 22:0.194681 23:0.194503 24:0.0689258 25:0.0963906 26:0.186252 27:0.0630406 28:0.0949658 29:0.218457 30:0.181772 
-4 -4 1:0.539191 2:0.52391 3:0.448428 4:0.32071 5:0.167768 6:0.139997 7:0.314599 8:0.287964 9:0.372969 10:0.289221 11:0.200675 12:0.164519 13:0.160417 14:0.106513 15:0.0748617 16:0.12077 17:0.0937536 18:0.123819 19:0.0455878 20:0.155144 21:0.09679 22:0.0797146 23:0.111283 24:0.0912663 25:0.102523 26:0.143024 27:0.0898254 28:0.133996 29:0.161208 30:0.186523 
-0 -4 1:0.592603 2:0.258661 3:0.0857969 4:0.350124 5:0.0842263 6:0.12777 7:0.301394 8:0.472509 9:0.0379159 10:0.330229 11:0.240227 12:0.191818 13:0.255417 14:0.27691 15:0.170643 16:0.190996 17:0.098379 18:0.224977 19:0.067763 20:0.159988 21:0.189979 22:0.116582 23:0.162218 24:0.203838 25:0.144559 26:0.244941 27:0.259346 28:0.239987 29:0.265437 30:0.286432 
-4 -4 1:0.835256 2:0.612526 3:0.0352417 4:0.155655 5:0.131175 6:0.296357 7:0.336874 8:0.393629 9:0.263085 10:0.181022 11:0.200474 12:0.122238 13:0.235681 14:0.200311 15:0.116862 16:0.106101 17:0.109417 18:0.148497 19:0.130556 20:0.197767 21:0.0932514 22:0.154197 23:0.123636 24:0.14874 25:0.070342 26:0.245893 27:0.122341 28:0.172507 29:0.248279 30:0.0857348 
-4 -4 1:0.206286 2:0.647811 3:0.411909 4:0.444308 5:0.0837347 6:0.326156 7:0.292389 8:0.313916 9:0.675766 10:0.725962 11:0.75637 12:0.210492 13:0.422567 14:0.383582 15:0.254797 16:0.294342 17:0.206528 18:0.354992 19:0.199787 20:0.38502 21:0.304498 22:0.327191 23:0.26306 24:0.319413 25:0.113658 26:0.179104 27:0.389701 28:0.469387 29:0.55179 30:0.654592 
-4 -0 1:0.544894 2:0.212317 3:0.547963 4:0.438798 5:0.265721 6:0.211656 7:0.573201 8:0.678933 9:0.364302 10:0.374784 11:0.531805 12:0.352394 13:0.32734 14:0.506027 15:0.310168 16:0.283191 17:0.258752 18:0.370947 19:0.139311 20:0.36036 21:0.322629 22:0.315295 23:0.307326 24:0.304503 25:0.269899 26:0.239169 27:0.251878 28:0.459887 29:0.389935 30:0.333585 
-4 -4 1:0.599946 2:0.718085 3:0.731996 4:0.32896 5:0.302912 6:0.271452 7:0.323886 8:0.412323 9:0.451795 10:0.327495 11:0.27415 12:0.248372 13:0.243113 14:0.237314 15:0.170608 16:0.275584 17:0.109541 18:0.240015 19:0.136801 20:0.178651 21:0.183303 22:0.168333 23:0.199327 24:0.172702 25:0.125445 26:0.227056 27:0.261176 28:0.270252 29:0.201588 30:0.194509 
-0 -4 1:0.773485 2:0.239299 3:0.110427 4:0.362846 5:0.0550202 6:0.170746 7:0.310297 8:0.237876 9:0.113191 10:0.226684 11:0.360412 12:0.163682 13:0.0511226 14:0.0546762 15:0.0153495 16:0.0282831 17:0.0882051 18:0.107486 19:0.0538841 20:0.0498868 21:0.0944035 22:0.0342208 23:0.126398 24:0.0565821 25:0.0627656 26:0.0827196 27:0.136092 28:0.165315 29:0.226575 30:0.0758512 
-0 -4 1:0.507013 2:0.130936 3:0.366645 4:0.326577 5:0.0247479 6:0.0921964 7:0.114893 8:0.151332 9:0.15134 10:0.196175 11:0.235492 12:0.125298 13:0.0682566 14:0.119473 15:0.028789 16:0.0927738 17:0.0514406 18:0.0713624 19:0.082577 20:0.129948 21:0.0459436 22:0.0739295 23:0.0486191 24:0.0657763 25:0.0387329 26:0.186941 27:0.099571 28:0.196617 29:0.066029 30:0.107034 
-4 -4 1:0.52491 2:0.59702 3:0.287082 4:0.192254 5:0.0651311 6:0.23265 7:0.198978 8:0.360203 9:0.551098 10:0.556885 11:0.478568 12:0.420185 13:0.307109 14:0.375592 15:0.320104 16:0.43505 17:0.182141 18:0.277629 19:0.166829 20:0.232731 21:0.233456 22:0.239196 23:0.214851 24:0.18302 25:0.238691 26:0.283197 27:0.33364 28:0.386984 29:0.490739 30:0.368608 
-0 -4 1:0.731665 2:0.388463 3:0.301095 4:0.292819 5:0.234329 6:0.167583 7:0.20755 8:0.359899 9:0.289861 10:0.309166 11:0.244295 12:0.139069 13:0.127295 14:0.0495108 15:0.137278 16:0.137356 17:0.0695024 18:0.0841645 19:0.0423936 20:0.113256 21:0.0908521 22:0.0935081 23:0.122862 24:0.0699712 25:0.0904694 26:0.0978367 27:0.0372588 28:0.151861 29:0.148536 30:0.14997 
-0 -4 1:0.60031 2:0.311735 3:0.293974 4:0.415723 5:0.119845 6:0.129538 7:0.292243 8:0.358197 9:0.20325 10:0.205812 11:0.231541 12:0.130485 13:0.0527901 14:0.174147 15:0.0738837 16:0.0876455 17:0.0304144 18:0.102686 19:0.0358657 20:0.0629817 21:0.0516225 22:0.0578043 23:0.0778869 24:0.0585277 25:0.0697654 26:0.0608773 27:0.105042 28:0.0848283 29:0.133119 30:0.123633 
-4 -4 1:0.619731 2:0.719712 3:0.489802 4:0.520166 5:0.268023 6:0.211698 7:0.219391 8:0.147847 9:0.232867 10:0.133095 11:0.0945338 12:0.139373 13:0.199466 14:0.243478 15:0.177901 16:0.154262 17:0.0631587 18:0.0808775 19:0.0746591 20:0.124084 21:0.124721 22:0.0720581 23:0.147045 24:0.170343 25:0.11919 26:0.173461 27:0.122833 28:0.346627 29:0.205229 30:0.23319 
-4 -4 1:0.396652 2:0.663352 3:0.373786 4:0.393421 5:0.251198 6:0.172437 7:0.424065 8:0.40994 9:0.491251 10:0.392884 11:0.414273 12:0.381591 13:0.352465 14:0.36254 15:0.2769 16:0.334494 17:0.17046 18:0.26765 19:0.171526 20:0.301464 21:0.233698 22:0.287107 23:0.162767 24:0.293566 25:0.150648 26:0.298048 27:0.294171 28:0.34284 29:0.372559 30:0.306751 
-0 -2.899671663503743 1:0.815196 2:0.370514 3:0.132687 4:0.252412 5:0.15194 6:0.19834 7:0.449076 8:0.233304 9:0.292748 10:0.309164 11:0.10615 12:0.0810718 13:0.12038 14:0.155696 15:0.0767289 16:0.0890722 17:0.0799012 18:0.112913 19:0.0837778 20:0.103576 21:0.0785253 22:0.145942 23:0.0889021 24:0.0627281 25:0.0280164 26:0.108896 27:0.129558 28:0.108846 29:0.15622 30:0.134367 
-4 -4 1:0.58294 2:0.520005 3:0.286783 4:0.0408522 5:0.116037 6:0.117944 7:0.330913 8:0.331242 9:0.197277 10:0.110058 11:0.151663 12:0.153454 13:0.135764 14:0.188178 15:0.0999843 16:0.117515 17:0.0963917 18:0.0723201 19:0.0837941 20:0.215397 21:0.13227 22:0.0809835 23:0.138954 24:0.150466 25:0.11446 26:0.178367 27:0.146574 28:0.151022 29:0.226038 30:0.191722 
-0.4362471802419121 -4 1:0.531518 2:0.1807 3:0.0991955 4:0.392705 5:0.179038 6:0.147941 7:0.252241 8:0.412757 9:0.346765 10:0.278925 11:0.226235 12:0.271218 13:0.204697 14:0.254039 15:0.207703 16:0.213913 17:0.142469 18:0.198462 19:0.135651 20:0.253805 21:0.180218 22:0.244153 23:0.275895 24:0.208958 25:0.115552 26:0.273728 27:0.209908 28:0.286075 29:0.279072 30:0.322418 
-0.9703767291672594 -0 1:0.672467 2:0.298393 3:0.192887 4:0.655494 5:0.290079 6:0.144738 7:0.267889 8:0.485599 9:0.410287 10:0.276689 11:0.268769 12:0.365917 13:0.287645 14:0.353437 15:0.183524 16:0.314895 17:0.212279 18:0.22096 19:0.133136 20:0.211608 21:0.161955 22:0.187688 23:0.274856 24:0.198079 25:0.115977 26:0.305352 27:0.187601 28:0.2121 29:0.301631 30:0.182034 
-0 -4 1:0.782885 2:0.245937 3:0.418872 4:0.217387 5:0.130296 6:0.0903318 7:0.161977 8:0.136656 9:0.182188 10:0.100358 11:0.185971 12:0.101545 13:0.0909275 14:0.131425 15:0.0992453 16:0.0973528 17:0.0611058 18:0.068845 19:0.0399429 20:0.0977127 21:0.0999131 22:0.0672545 23:0.134505 24:0.0803405 25:0.128886 26:0.0704078 27:0.0459208 28:0.0823136 29:0.20292 30:0.135217 
-4 -4 1:0.520193 2:0.211905 3:0.230911 4:0.418222 5:0.197982 6:0.111089 7:0.372057 8:0.421434 9:0.275355 10:0.296101 11:0.33051 12:0.302438 13:0.250838 14:0.245729 15:0.2487 16:0.284073 17:0.146675 18:0.23651 19:0.168697 20:0.320077 21:0.203476 22:0.274565 23:0.223295 24:0.203177 25:0.129671 26:0.303017 27:0.272015 28:0.286843 29:0.413766 30:0.319542 
-0 -4 1:0.702066 2:0.225113 3:0.168 4:0.237649 5:0.111245 6:0.107754 7:0.229528 8:0.240567 9:0.215215 10:0.1208 11:0.0703561 12:0.152091 13:0.0825285 14:0.133336 15:0.0756829 16:0.090783 17:0.0752372 18:0.147315 19:0.0506677 20:0.123931 21:0.0638907 22:0.0565761 23:0.102904 24:0.0618216 25:0.0294192 26:0.0885265 27:0.0831107 28:0.151773 29:0.136799 30:0.0474111 
-2.063708494124702 -0 1:0.598908 2:0.446201 3:0.546315 4:0.845002 5:0.242284 6:0.594452 7:0.69155 8:0.563519 9:0.623141 10:0.433183 11:0.324621 12:0.396638 13:0.344472 14:0.379817 15:0.329559 16:0.233573 17:0.110106 18:0.205638 19:0.17205 20:0.312824 21:0.237173 22:0.315357 23:0.277185 24:0.208041 25:0.179644 26:0.181504 27:0.241595 28:0.336952 29:0.449362 30:0.283022 
-0 -4 1:0.639854 2:0.213147 3:0.658747 4:0.510811 5:0.100256 6:0.210033 7:0.392852 8:0.121251 9:0.355465 10:0.255366 11:0.126301 12:0.149908 13:0.126251 14:0.300168 15:0.159462 16:0.18005 17:0.147893 18:0.152217 19:0.0717776 20:0.218195 21:0.157329 22:0.0549759 23:0.196997 24:0.102712 25:0.0847607 26:0.135888 27:0.103128 28:0.212551 29:0.22443 30:0.216257 
