svm_type c_svc
kernel_type rbf
gamma 0.5
nr_class 3
total_sv 107
rho -2.71177 -3.28764 -0.0676671
label 1 2 3
nr_sv 36 28 43
SV
0 13.49629249911393 1:0.633394 2:0.550384 3:0.482975 4:0.433642 5:0.154945 6:0.340616 7:0.438542 8:0.414995 9:0.384361 10:0.214296 11:0.412071 12:0.39386 13:0.306594 14:0.486108 15:0.406338 16:0.294386 17:0.402381 18:0.313821 19:0.304454 20:0.458684 21:0.381787 22:0.302004 23:0.37789 24:0.381385 25:0.562541 26:0.249598 27:0.171454 28:0.378806 29:0.435331 30:0.195426 
0.04713701044355598 0 1:0.260909 2:0.405839 3:0.393776 4:0.333922 5:0.248798 6:0.624504 7:0.397577 8:0.721369 9:0.600572 10:0.491708 11:0.718928 12:0.599572 13:0.348812 14:0.873122 15:0.552456 16:0.261225 17:0.426979 18:0.299009 19:0.0907179 20:0.481478 21:0.219584 22:0.906403 23:1 24:0.525055 25:0.601435 26:0.358448 27:0.309932 28:0.343751 29:0.788504 30:0.415952 
1.577746349373458 1.074449042026743 1:0.162164 2:0.179715 3:0.552411 4:0.402366 5:0.648784 6:0.403048 7:0.120304 8:0.217283 9:0.0244903 10:0.2787 11:0.270621 12:0.0869696 13:0.083206 14:0.318272 15:0.311514 16:0.343509 17:0.350484 18:0.119243 19:0.166927 20:0.284512 21:0.185315 22:0.400765 23:0.472172 24:0.150298 25:0.55092 26:0.293227 27:0.293748 28:0.427932 29:0.465864 30:0.445739 
5.848860732873541 9.128513110257087 1:0.10489 3:0.109003 4:0.0934503 5:0.034464 6:0.405222 7:0.308898 8:0.250548 9:0.392502 10:0.229937 11:0.148758 12:0.382962 13:0.312686 14:0.303107 15:0.182966 16:0.299762 17:0.102858 18:0.352233 19:0.263666 20:0.500207 21:0.374793 22:0.297556 23:0.206894 24:0.275586 25:0.210009 26:0.168236 27:0.276303 28:0.390434 29:0.160182 30:0.351028 
7.104564338814485 5.536758191544132 1:0.636576 2:0.382498 3:0.332888 4:0.367703 5:0.335511 6:0.126806 7:0.258743 8:0.22075 9:0.246359 10:0.252041 11:0.238392 12:0.285706 13:0.1405 14:0.0907049 15:0.338728 16:0.0638281 17:0.286529 18:0.133749 19:0.139938 20:0.148804 21:0.249252 22:0.231654 23:0.0819133 24:0.297974 25:0.334506 26:0.237066 27:0.46023 28:0.109992 29:0.186119 30:0.39955 
6.692867761369253 2.701849046973472 1:0.31936 2:0.256551 3:0.0364657 4:0.112648 5:0.213831 6:0.329593 7:0.159544 8:0.327698 9:0.111756 10:0.270319 11:0.0740687 12:0.302882 13:0.149971 14:0.483745 15:0.412822 16:0.240907 17:0.169695 18:0.363928 19:0.134027 20:0.117198 21:0.108812 22:0.0318325 23:0.0342889 24:0.0106079 25:0.100899 26:0.115577 27:0.285193 28:0.15999 29:0.378795 30:0.136207 
0 3.90847536934345 1:0.564495 2:0.191317 3:0.102863 4:0.268156 5:0.206975 6:0.248306 7:0.295381 8:0.268732 9:0.298753 10:0.35579 11:0.245926 12:0.220469 13:0.397286 14:0.260736 15:0.321107 16:0.216628 17:0.0941004 18:0.611837 19:0.271607 20:0.231548 21:0.310592 22:0.0806281 23:0.361908 24:0.120776 25:0.172957 26:0.108078 27:0.156864 28:0.131597 29:0.316113 30:0.00836719 
0 2.974892297216802 1:0.488773 2:0.470108 3:0.538406 4:0.410437 5:0.558262 6:0.541925 7:0.720528 8:0.396511 9:0.702833 10:0.548318 11:0.513318 12:0.196964 13:0.655622 14:0.408854 15:0.559375 16:0.372961 17:0.334666 18:0.467018 19:0.0530999 20:0.407762 21:0.200136 22:0.242622 23:0.236285 24:0.272065 25:0.298361 26:0.232862 27:0.323814 28:0.382226 29:0.635724 30:0.394411 
0 1.089975568510721 1:0.602222 2:0.520306 3:0.644735 4:0.751561 5:0.507167 6:0.490034 7:0.493159 8:0.288868 9:0.269063 10:0.424056 11:0.221579 12:0.354773 13:0.761289 14:0.372168 15:0.450575 16:0.0577941 17:0.160548 18:0.119828 19:0.179838 20:0.239722 21:0.558282 22:0.210842 23:0.187882 24:0.322442 25:0.366293 26:0.330174 27:0.366849 28:0.397712 29:0.323891 30:0.18353 
3.053732954682276 17.72825624905592 1:0.599138 2:0.611607 3:0.588297 4:0.372161 5:0.2479 6:0.236662 7:0.396574 8:0.0606116 9:0.298435 10:0.169789 11:0.192958 12:0.138981 13:0.227648 14:0.172108 15:0.224623 16:0.0699368 17:0.188068 18:0.0975961 19:0.137712 20:0.159709 21:0.348293 22:0.130121 23:0.170263 24:0.175464 25:0.0474266 26:0.249808 27:0.281884 28:0.204074 29:0.489828 30:0.315505 
3.029251144194622 4.060653865134791 1:0.399338 2:0.208322 3:0.15562 4:0.160473 5:0.0920321 6:0.108695 7:0.154997 8:0.235609 9:0.144549 10:0.243747 11:0.163807 12:0.363441 13:0.133259 14:0.151215 15:0.25926 16:0.135952 17:0.40161 18:0.170304 19:0.123644 21:0.296162 22:0.102292 23:0.0573239 24:0.0604474 25:0.206082 26:0.103932 27:0.0369059 28:0.0527845 29:0.258807 30:0.164807 
0 5.373713213329354 1:0.64101 2:0.731412 3:0.264543 4:0.478181 5:0.385799 6:0.32372 7:0.657315 8:0.532964 9:0.420741 10:0.511768 11:0.104273 12:0.502309 13:0.142045 14:0.42351 15:0.103259 16:0.2254 17:0.319744 18:0.282178 19:0.13534 20:0.215738 21:0.249383 22:0.0991122 23:0.4055 24:0.138927 25:0.475144 26:0.284397 27:0.274239 28:0.198104 29:0.166262 30:0.225005 
0.5823656565503668 0.8942008300292169 1:0.075104 2:0.283642 3:0.362651 4:0.13354 5:0.186055 6:0.471038 7:0.430354 8:0.456922 9:0.280027 10:0.642465 11:0.147437 12:0.257201 13:0.315572 14:0.284435 15:0.536618 16:0.180524 17:0.351024 18:0.219293 19:0.397592 20:0.623715 21:0.41032 22:0.542351 23:0.386805 24:0.168324 25:0.30375 26:0.203389 27:0.668113 28:0.352486 29:0.498986 30:0.178157 
1.558629079281757 0.9925401674099895 1:0.364106 2:0.26151 3:0.0714541 4:0.0762555 5:0.265285 6:0.23406 7:0.63011 8:0.248101 9:0.202413 10:0.275409 11:0.648616 12:0.455756 13:0.184739 14:0.16918 15:0.438802 16:0.279863 17:0.468781 18:0.417967 19:0.309123 20:0.51514 21:0.150388 22:0.290915 23:0.823485 24:0.694644 25:0.328735 26:0.347958 27:0.623828 28:0.43706 29:0.469423 30:0.285996 
1.048831421243687 0 1:0.205196 2:0.173848 3:0.204751 4:0.172907 5:0.0581786 6:0.128995 7:0.0346327 9:0.0896436 10:0.259042 11:0.584424 12:0.364296 13:0.426519 14:0.523819 15:0.224754 16:0.370452 17:0.220656 18:0.262993 19:0.118149 20:0.383838 21:0.645152 22:0.444468 23:0.21663 24:0.350561 25:0.575441 26:0.234376 27:0.364496 28:0.364819 29:0.433265 30:0.127713 
5.95774375150333 11.25546707386657 1:0.466725 2:0.475573 3:0.51461 4:0.339699 5:0.356513 6:0.178471 7:0.138396 8:0.0677353 9:0.0327912 10:0.204024 11:0.187649 12:0.19745 13:0.390881 14:0.266314 15:0.117707 16:0.299097 17:0.376141 18:0.183094 19:0.271145 20:0.231831 21:0.217327 22:0.306604 23:0.311407 24:0.225094 25:0.37403 26:0.37775 27:0.45889 28:0.309796 29:0.523786 30:0.43149 
4.818435086486907 2.305501410684182 1:0.408147 2:0.0566731 3:0.187387 4:0.205695 5:0.0828287 6:0.125995 7:0.0100409 8:0.131745 9:7.08576e-05 10:0.200311 11:0.369558 12:0.0639222 13:0.105985 14:0.378798 15:0.184789 16:0.126696 17:0.151193 18:0.428642 19:0.0583591 20:0.216171 21:0.37219 22:0.250497 23:0.217176 24:0.127544 25:0.190928 26:0.147452 27:0.222655 28:0.167653 29:0.172536 30:0.200998 
9.205172718869031 7.4920070883982 1:0.54732 2:0.362937 3:0.14874 4:0.110059 5:0.241758 6:0.304788 7:0.55417 8:0.233244 9:0.162984 10:0.207879 11:0.0274938 12:0.190835 13:0.0878811 14:0.267649 15:0.120162 16:0.255737 17:0.20396 18:0.166094 19:0.142344 20:0.418802 21:0.148073 22:0.161735 23:0.126301 24:0.120269 25:0.445719 26:0.0457011 27:0.272271 28:0.0974878 29:0.362979 30:0.387652 
0.422578503663882 0.7087581732862793 1:0.0845153 2:0.283918 3:0.477982 4:0.552213 5:0.722129 6:0.235988 7:0.186756 8:0.444076 9:0.18756 10:0.562451 11:0.0597699 12:0.488368 13:0.575259 14:0.129167 15:0.430584 16:0.205965 17:0.328321 18:0.432734 19:0.356598 20:0.59405 21:0.575531 22:0.23322 23:0.518756 24:0.250096 25:0.528615 26:0.235612 27:0.609151 28:0.368092 29:0.41798 30:0.130324 
0 7.594297702490573 1:0.712251 2:0.421674 3:0.236672 4:0.308743 5:0.439676 6:0.650614 7:0.613192 8:0.0636877 9:0.442217 10:0.581487 11:0.206556 12:0.397819 13:0.15576 14:0.317767 15:0.177813 16:0.214347 17:0.143805 18:0.107696 19:0.280038 20:0.157565 21:0.141455 22:0.12398 23:0.191163 24:0.34645 25:0.353403 26:0.174926 27:0.212036 28:0.429395 29:0.337717 30:0.144352 
2.248871211738074 4.221338568749975 1:0.192244 2:0.0792952 3:0.137407 4:0.206529 5:0.639689 6:0.515597 7:0.358068 8:0.330912 9:0.12247 10:0.395512 11:0.34504 12:0.20758 13:0.244636 14:0.226921 15:0.141194 16:0.129577 17:0.370715 18:0.177133 19:0.371205 20:0.184387 21:0.282087 22:0.153975 23:0.176187 24:0.121492 25:0.406063 26:0.176706 27:0.335604 28:0.270427 29:0.148332 30:0.319686 
0 1.338176951973026 1:0.718529 2:0.467863 3:0.481566 4:0.249243 5:0.34187 6:0.248927 7:0.299292 8:0.363022 9:0.443004 10:0.745108 11:0.415736 12:0.314332 13:0.729258 14:0.572317 15:0.609579 16:0.501721 17:0.210286 18:0.592199 19:0.24118 20:0.686462 21:0.511465 22:0.0652032 23:0.246959 24:0.168408 25:0.471491 26:0.451068 27:0.579267 28:0.57857 29:0.519142 30:0.471151 
0.5124721400682125 0 1:0.0300278 2:0.0719683 3:0.216777 4:0.279008 5:0.277884 6:0.395236 7:0.360983 8:0.183695 9:0.167578 10:0.566388 11:0.270233 12:0.619334 13:0.599358 14:0.341133 15:0.188585 16:0.101932 17:0.615364 18:0.168836 19:0.265555 20:0.16317 21:0.338944 22:0.274696 23:0.13091 24:0.440207 25:0.206831 26:0.339264 27:0.296777 28:0.33444 29:0.345778 30:0.373486 
3.739446321392951 1.312569532922222 1:0.407257 2:0.378337 3:0.344303 4:0.0821197 5:0.279858 6:0.334188 7:0.672522 8:0.481092 9:0.423844 10:0.462088 11:0.520246 12:0.36145 13:0.443571 14:0.373777 15:0.25552 18:0.32285 19:0.0974785 20:0.210382 21:0.152567 22:0.183154 23:0.209138 24:0.059604 25:0.226167 26:0.0278823 27:0.0715474 28:0.161891 29:0.319034 30:0.0651268 
0 0.2213624464848466 1:0.381525 2:0.46106 3:0.550542 4:0.361102 5:0.442686 6:0.739364 7:0.306216 8:0.614594 9:0.224534 10:0.288464 11:0.663496 12:0.566494 13:0.800317 14:0.527906 15:0.404242 16:0.24274 17:0.198288 18:0.545737 19:0.315848 20:0.439597 21:0.163233 22:0.195716 23:0.159087 24:0.3432 25:0.398657 26:0.210849 27:0.361764 28:0.162803 29:0.51892 30:0.345666 
0 6.054053849732796 1:0.394306 2:0.322576 3:0.21842 4:0.155328 5:0.366837 6:0.192731 7:0.232989 8:0.330909 9:0.0280186 10:0.433756 11:0.319912 12:0.298059 13:0.104931 14:0.250243 15:0.389949 16:0.15551 17:0.202264 18:0.191149 19:0.107051 20:0.315386 21:0.58919 22:0.356111 23:0.47826 24:0.531013 25:0.236322 26:0.395575 27:0.41148 28:0.257272 29:0.361014 30:0.208951 
0 4.610297238528256 1:0.217854 2:0.467761 3:0.126408 4:0.113453 5:0.16461 6:0.325286 7:0.673937 8:0.26184 9:0.309488 10:0.515383 11:0.235635 12:0.25173 13:0.173525 14:0.102711 15:0.286996 16:0.17929 17:0.130382 18:0.096764 19:0.118591 20:0.151606 21:0.200486 22:0.11649 23:0.171717 24:0.0707919 25:0.182878 26:0.0572968 27:0.396897 28:0.170068 29:0.111249 30:0.169783 
0 11.66345570408786 1:0.71134 2:0.515766 3:0.343194 4:0.55683 5:0.497892 6:0.352237 7:0.639713 8:0.168029 9:0.433351 10:0.434349 11:0.34696 12:0.356368 13:0.214746 14:0.314253 15:0.48462 16:0.216841 17:0.0989461 18:0.263333 19:0.288487 20:0.267431 21:0.345687 22:0.251529 23:0.406315 24:0.369027 25:0.422307 26:0.216409 27:0.529746 28:0.36471 29:0.647002 30:0.22821 
2.781187673807509 6.420097347864024 1:0.0937516 2:0.0179866 3:0.298595 4:0.324821 5:0.596667 6:0.658672 7:0.653836 8:0.471729 9:0.15411 10:0.144318 11:0.0391223 12:0.242893 13:0.222527 14:0.341915 15:0.0599765 16:0.0701908 17:0.147101 18:0.241521 19:0.243606 20:0.283918 21:0.184112 22:0.129661 23:0.25495 24:0.111583 25:0.143542 26:0.0831291 27:0.258352 28:0.190929 29:0.302551 30:0.250426 
0.9597803406540838 11.45749476303782 1:0.52641 2:0.424087 3:0.398894 4:0.309008 5:0.463166 6:0.277383 7:0.178169 8:0.244753 9:0.144202 10:0.315249 11:0.07195 12:0.125772 13:0.0973953 14:0.518916 15:0.375078 16:0.131164 17:0.190344 18:0.37006 19:0.419239 20:0.391274 21:0.164541 22:0.222875 23:0.184032 24:0.324672 25:0.288948 26:0.171522 27:0.253337 28:0.30087 29:0.332449 30:0.245735 
2.623425247046605 1.10639060270805 1:0.544572 2:0.56115 3:0.440836 4:0.227535 5:0.363255 6:0.235124 7:0.320305 8:0.385182 9:0.514007 10:0.409648 11:0.364778 12:0.672123 13:0.661827 14:0.658451 15:0.543071 16:0.381226 17:0.266224 18:0.739689 19:0.497495 20:0.408431 21:0.347273 22:0.291331 23:0.350524 24:0.468768 25:0.727194 26:0.411339 27:0.514031 28:0.444431 29:0.803481 30:0.323795 
3.345302590117578 3.150307181821633 1:0.182362 2:0.362332 3:0.500148 4:0.281602 5:0.109745 6:0.103839 7:0.228338 8:0.236586 9:0.286572 10:0.194878 11:0.0950697 12:0.238083 13:0.758891 14:0.124897 15:0.113543 16:0.163345 17:0.170237 18:0.155891 19:0.186183 20:0.341554 21:0.22506 22:0.0399673 23:0.136739 24:0.216655 25:0.282581 26:0.139377 27:0.412524 28:0.0479071 29:0.160243 30:0.347344 
0 1.644478770785529 1:0.257703 2:0.243226 3:0.241154 4:0.506373 5:1 6:0.738183 7:0.292022 8:0.303987 9:0.00557432 10:0.161105 11:0.186794 12:0.155347 13:0.428994 14:0.425673 15:0.122673 16:0.266066 17:0.390095 18:0.276264 19:0.218475 20:0.117123 21:0.12502 22:0.2426 23:0.240089 24:0.183545 25:0.305005 26:0.396067 27:0.0884542 28:0.405568 29:0.356649 30:0.269701 
6.559686316397546 8.930935352777468 1:0.367984 2:0.310838 3:0.283211 4:0.0846625 5:0.140989 6:0.169277 7:0.0821649 8:0.132107 9:0.228531 10:0.150339 11:0.188591 12:0.137812 13:0.144196 14:0.179489 15:0.417912 16:0.220188 17:0.131571 18:0.160259 19:0.0403563 20:0.336012 21:0.181659 22:0.186207 23:0.059733 24:0.0572077 25:0.160546 26:0.104051 27:0.0391864 28:0.140356 29:0.0212458 30:0.0944163 
0 3.141474948538533 1:0.781601 2:0.587011 3:0.627901 4:0.0210721 5:0.731647 6:0.703484 7:0.641323 8:0.545081 9:0.380516 10:0.230723 11:0.300933 12:0.179845 13:0.26707 14:0.178834 15:0.305093 16:0.312033 17:0.219669 18:0.257454 19:0.299856 20:0.213887 21:0.29495 22:0.362445 23:0.140144 24:0.420893 25:0.37116 26:0.437412 27:0.355407 28:0.30166 29:0.779196 30:0.240649 
5.371416001900205 3.851118920525837 1:0.303338 2:0.234209 3:0.174992 4:0.112257 5:0.13343 6:0.212665 7:0.190707 8:0.057375 9:0.0760868 10:0.0984082 11:0.0193136 12:0.0457029 13:0.0421301 14:0.152204 15:0.324343 16:0.24404 17:0.108158 18:0.302006 19:0.117677 20:0.434205 21:0.423718 22:0.290049 23:0.260576 24:0.229404 25:0.286551 26:0.241579 27:0.185292 28:0.118781 29:0.425184 30:0.216767 
-6.999357576874853 31.39205450426133 1:0.365926 2:0.142482 3:0.153304 4:0.204541 5:0.318383 6:0.209776 7:0.3053 8:0.173993 9:0.159958 10:0.248182 11:0.149361 12:0.146162 13:0.143338 14:0.289485 15:0.249719 16:0.0639796 17:0.10004 18:0.241589 19:0.0390077 20:0.190983 21:0.209191 22:0.113544 23:0.172886 24:0.0390394 25:0.293643 26:0.277497 27:0.243548 28:0.201896 29:0.245989 30:0.300568 
-0 20.95393113947955 1:0.347518 2:0.212473 3:0.183928 4:0.227102 5:0.0709767 6:0.16674 7:0.241841 8:0.186847 9:0.167528 10:0.192021 11:0.102939 12:0.180678 13:0.155776 14:0.158818 15:0.115762 16:0.0915133 17:0.123545 18:0.123906 19:0.0987299 20:0.239943 21:0.150074 22:0.129299 23:0.166795 24:0.160812 25:0.172838 26:0.11026 27:0.197415 28:0.26135 29:0.261685 30:0.284718 
-2.374125936948043 0 1:0.0540634 2:0.0106401 3:0.0973313 4:0.058109 5:0.0774238 6:0.0634887 7:0.0586791 8:0.0706197 9:0.113494 10:0.0918687 11:0.10573 12:0.0892066 13:0.0946973 14:0.100811 15:0.171385 16:0.099009 17:0.0977667 18:0.130961 19:0.111953 20:0.117418 21:0.0399064 22:0.0837506 23:0.180391 24:0.142111 25:0.192095 26:0.121553 27:0.182721 28:0.110277 29:0.229021 30:0.246947 
-5.391069431549536 15.92712118934872 1:0.642695 2:0.528721 3:0.135409 5:0.18487 6:0.0428614 7:0.284695 8:0.135809 9:0.0826071 10:0.0834868 11:0.0300173 12:0.0806893 13:0.140398 14:0.0820563 15:0.157437 16:0.068629 17:0.107804 18:0.023362 19:0.0556509 20:0.244744 21:0.10713 22:0.166772 23:0.0617112 24:0.0941174 25:0.153524 26:0.157212 27:0.266968 28:0.201057 29:0.197196 30:0.260055 
-0 19.3159627406771 1:0.122398 2:0.0200372 3:0.010482 4:0.0117182 5:0.0651714 6:0.0578722 8:0.0506692 9:0.088914 10:0.0346258 11:0.0348957 12:0.107105 13:0.0627629 16:0.06501 17:0.0513191 18:0.103939 19:0.0353374 20:0.041632 21:0.0757882 22:0.0420108 23:0.0305068 24:0.0566713 25:0.125574 26:0.0398394 27:0.0593754 28:0.112941 29:0.0598832 30:0.119341 
-18.88605119502214 32 1:0.534821 2:0.260186 3:0.345549 4:0.209411 5:0.324422 6:0.237177 7:0.243187 8:0.172614 9:0.171837 10:0.219156 11:0.149609 12:0.296296 13:0.155964 14:0.283783 15:0.0912076 16:0.155432 17:0.0753835 18:0.222558 19:0.142296 20:0.241201 21:0.200734 22:0.156777 23:0.116201 24:0.0923741 25:0.236097 26:0.083622 27:0.205126 28:0.162229 29:0.30173 30:0.2104 
-13.28152347674572 32 1:0.30022 2:0.420544 3:0.305127 4:0.280196 5:0.197528 6:0.276862 7:0.357832 8:0.218681 9:0.195482 10:0.158808 11:0.240237 12:0.347289 13:0.280662 14:0.211448 15:0.23893 16:0.174178 17:0.131632 18:0.210957 19:0.163711 20:0.257692 21:0.194446 22:0.306744 23:0.157678 24:0.170021 25:0.284149 26:0.186472 27:0.23487 28:0.231339 29:0.310144 30:0.229289 
-3.180615034395814 18.14294848836361 1:0.184602 2:0.0900172 3:0.136287 4:0.0813174 5:0.163635 6:0.206005 7:0.209565 8:0.120184 9:0.213023 10:0.189207 11:0.140908 12:0.227739 13:0.185351 14:0.221249 15:0.265858 16:0.153248 17:0.19798 18:0.225673 19:0.149119 20:0.276129 21:0.250228 22:0.163237 23:0.164004 24:0.31036 25:0.465168 26:0.250912 27:0.429284 28:0.36491 29:0.263019 30:0.391881 
-0 32 1:0.410582 2:0.20159 3:0.191798 4:0.196433 5:0.291034 6:0.14792 7:0.21255 8:0.149097 9:0.186517 10:0.104681 11:0.135281 12:0.15482 13:0.118101 14:0.114251 15:0.176683 16:0.0581067 17:0.11531 18:0.180664 19:0.141705 20:0.0573316 21:0.127023 22:0.159769 23:0.207569 24:0.0474712 25:0.185564 26:0.0729369 27:0.147666 28:0.296457 29:0.232699 30:0.16516 
-0.8115564877111615 8.28093369911714 1:0.363289 2:0.237108 3:0.19907 4:0.234929 5:0.337963 6:0.297041 7:0.295112 8:0.293903 9:0.426738 10:0.303694 11:0.432184 12:0.439041 13:0.370566 14:0.46919 15:0.427054 16:0.424185 17:0.31117 18:0.694186 19:0.327397 20:0.469744 21:0.621044 22:0.357191 23:0.450626 24:0.551245 25:0.843267 26:0.399405 27:0.597805 28:0.695178 29:0.755498 30:0.422241 
-2.808852476505431 1.394203678600776 1:0.522821 2:0.568262 3:0.530123 4:0.22645 5:0.178779 6:0.481687 7:0.622763 8:0.237499 9:0.664568 10:0.319277 11:0.435888 12:0.479683 13:0.602317 14:0.541499 15:0.362118 16:0.398579 17:0.79711 18:0.701573 19:0.437034 20:0.38455 21:0.74555 22:0.780819 23:0.86189 24:0.472124 25:0.539677 26:0.664375 27:1 28:1 29:0.575629 30:0.551311 
-1.971628622172639 2.43988466194117 1:0.189484 2:0.121529 3:0.114341 4:0.0488116 5:0.0607553 6:0.1824 7:0.0530859 8:0.123428 9:0.1756 10:0.13541 11:0.0673964 12:0.126501 13:0.0798396 14:0.211638 15:0.118967 16:0.111714 17:0.109459 18:0.0928669 19:0.0902341 20:0.059317 21:0.127373 22:0.081083 23:0.228397 24:0.0839274 25:0.216809 26:0.0397639 27:0.255912 28:0.12491 29:0.228823 30:0.176605 
-2.365195790899171 0 1:0.091906 2:0.0864871 3:0.17918 4:0.0407855 5:0.106716 6:0.136215 7:0.109406 8:0.0836321 9:0.147661 10:0.109887 11:0.0467685 12:0.182958 13:0.134559 14:0.276992 15:0.204575 16:0.152428 17:0.186161 18:0.231506 19:0.240859 20:0.233314 21:0.178346 22:0.146157 23:0.335387 24:0.163604 25:0.31855 26:0.191965 27:0.328721 28:0.314822 29:0.283329 30:0.322196 
-0 32 1:0.101739 2:0.292384 3:0.192011 4:0.145191 5:0.0752312 6:0.0974319 7:0.118432 8:0.169932 9:0.122595 10:0.138013 11:0.0507189 12:0.0796021 13:0.11011 14:0.116973 15:0.0878752 16:0.0609553 17:0.183462 18:0.0761657 19:0.0771875 20:0.114158 21:0.164512 22:0.10203 23:0.155234 24:0.102064 25:0.114007 26:0.144305 27:0.315328 28:0.22436 29:0.263837 30:0.125175 
-0 32 1:0.113378 2:0.0773161 4:0.0375887 5:0.070807 6:0.0489623 7:0.0258226 8:0.0712629 9:0.0358037 10:0.0624357 11:0.00222209 13:0.0263176 14:0.0695644 15:0.0511696 16:0.013531 17:0.00692902 18:0.0698981 19:0.0326507 20:0.0486226 21:0.0749293 22:0.0190527 23:0.0785645 24:0.0533001 25:0.12945 26:0.0244428 27:0.0424831 28:0.135137 29:0.157093 30:0.0624941 
-0 32 1:0.10928 2:0.0870395 3:0.0793022 4:0.000383659 5:0.0341909 6:0.139662 7:0.122696 8:0.0621356 9:0.0201818 10:0.0885915 11:0.0710684 12:0.100303 13:0.0346883 14:0.0932324 15:0.0489624 16:0.0807497 17:0.0419064 18:0.104054 19:0.0313197 20:0.130089 21:0.0675436 23:0.0926371 24:0.0699868 25:0.191129 26:0.024561 27:0.084155 28:0.185439 29:0.0356454 30:0.170416 
-0 32 1:0.254076 2:0.116504 3:0.163273 4:0.12891 5:0.0977005 6:0.0919079 7:0.126415 8:0.104739 9:0.142061 10:0.111042 11:0.101519 12:0.191721 13:0.173866 14:0.146688 15:0.148178 16:0.0406319 17:0.0931302 18:0.052162 19:0.0764007 20:0.129876 21:0.132592 22:0.120696 23:0.147204 24:0.153148 25:0.145175 26:0.148946 27:0.0901498 28:0.167899 29:0.139293 30:0.257315 
-0.3537518252992096 4.684621823539549 1:0.154998 2:0.210294 3:0.219095 4:0.208791 5:0.207779 6:0.23228 7:0.254826 8:0.165607 9:0.227137 10:0.21569 11:0.186342 12:0.254208 13:0.286778 14:0.258883 15:0.18615 16:0.198983 17:0.22527 18:0.627652 19:0.3131 20:0.410065 21:0.419066 22:0.276225 23:0.477059 24:0.38321 25:0.677212 26:0.375269 27:0.467388 28:0.442262 29:0.423331 30:0.379097 
-3.357003748800066 4.936754116527978 1:0.142571 2:0.245 3:0.140043 4:0.154081 5:0.313056 6:0.254525 7:0.262999 8:0.276279 9:0.169399 10:0.191853 11:0.384368 12:0.204222 13:0.302218 14:0.475137 15:0.2735 16:0.223382 17:0.499979 18:0.336183 19:0.200468 20:0.564593 21:0.373801 22:0.162138 23:0.591648 24:0.43049 25:0.475322 26:0.462464 27:0.416911 28:0.547423 29:0.839765 30:0.514204 
-0 32 1:0.0888292 2:0.142597 3:0.263088 4:0.109651 5:0.129956 6:0.115018 7:0.0415952 8:0.0765719 9:0.0938463 10:0.151363 11:0.0516242 12:0.118863 13:0.0741094 14:0.083488 15:0.10752 16:0.0460503 17:0.0583171 18:0.100114 19:0.090394 20:0.0188009 21:0.142115 22:0.0640961 23:0.168187 24:0.0941865 25:0.140857 26:0.184464 27:0.121441 28:0.0888314 29:0.296003 30:0.146106 
-0 0.5917241315415186 1:0.211862 2:0.161516 3:0.220458 4:0.189426 5:0.221387 6:0.20689 7:0.204409 8:0.156573 9:0.280012 10:0.261336 11:0.27531 12:0.288877 13:0.220987 14:0.42099 15:0.356108 16:0.222685 17:0.29524 18:0.414855 19:0.274724 20:0.356507 21:0.360517 22:0.374188 23:0.430107 24:0.435992 25:0.437034 26:0.333859 27:0.635467 28:0.686455 29:0.610197 30:0.456783 
-2.966069473511864 32 1:0.26605 2:0.404317 3:0.127959 4:0.256975 5:0.30602 6:0.307975 7:0.261925 8:0.194357 9:0.301612 10:0.246311 11:0.141516 12:0.254304 13:0.254068 14:0.256056 15:0.149686 16:0.141555 17:0.102725 18:0.162849 19:0.166324 20:0.235148 21:0.163314 22:0.255488 23:0.127243 24:0.127214 25:0.126136 26:0.145552 27:0.281732 28:0.252535 29:0.127681 30:0.13643 
-0 12.09442595568967 1:0.47944 2:0.263475 3:0.295622 4:0.339261 5:0.309917 6:0.327123 7:0.447124 8:0.168986 9:0.281445 10:0.229114 11:0.170281 12:0.335645 13:0.103294 14:0.286974 15:0.158312 16:0.130676 17:0.0986427 18:0.259432 19:0.191602 20:0.214081 21:0.12876 22:0.189563 23:0.293802 24:0.176263 25:0.20288 26:0.133297 27:0.333749 28:0.303711 29:0.472783 30:0.199563 
-2.393680056789715 0 1:0.203583 2:0.600029 3:0.22399 4:0.0850061 5:0.127599 6:0.120754 7:0.401407 8:0.18769 9:0.129475 10:0.0858076 11:0.0744475 12:0.267607 13:0.248338 14:0.221161 15:0.279052 16:0.116687 17:0.217719 18:0.419236 19:0.0733029 20:0.303665 21:0.305549 22:0.383568 23:0.308028 24:0.244197 25:0.351085 26:0.306402 27:0.311902 28:0.354843 29:0.300135 30:0.462758 
-0 11.64392114551108 1:0.168533 2:0.182275 3:0.16521 4:0.116995 5:0.0931575 6:0.158961 7:0.129686 8:0.133227 9:0.223083 10:0.228099 11:0.120404 12:0.285979 13:0.149275 14:0.279457 15:0.225162 16:0.159007 17:0.231063 18:0.406227 19:0.295755 20:0.335666 21:0.304024 22:0.250485 23:0.250014 24:0.347266 25:0.399255 26:0.223397 27:0.305634 28:0.608857 29:0.393552 30:0.378395 
-8.326637010522033 8.260546601160371 1:0.37157 2:0.140039 3:0.274357 4:0.274932 5:0.352291 6:0.545458 7:0.203838 8:0.499493 9:0.269758 10:0.297427 11:0.271121 12:0.270468 13:0.588511 14:0.24302 15:0.567316 16:0.0175119 17:0.438919 18:0.490636 19:0.16668 20:0.456913 21:0.197544 22:0.376067 23:0.0816056 24:0.2624 25:0.453063 26:0.120691 27:0.497942 28:0.214316 29:0.469135 30:0.216825 
-2.546785736841001 0.6160067870525588 1:0.217379 2:0.163378 3:0.210582 4:0.177629 5:0.232543 6:0.226312 7:0.399173 8:0.228971 9:0.31874 10:0.396769 11:0.230778 12:0.48913 13:0.217218 14:0.486357 15:0.369002 16:0.215861 17:0.342323 18:0.407336 19:0.449936 20:0.411239 21:0.650045 22:0.409001 23:0.560733 24:0.391573 25:0.576123 26:0.490025 27:0.494427 28:0.531539 29:0.775288 30:0.564499 
-1.07560047188452 0 1:0.283795 2:0.352019 3:0.306429 4:0.287717 5:0.393325 6:0.287705 7:0.412466 8:0.301 9:0.346483 10:0.406152 11:0.410653 12:0.474651 13:0.339572 14:0.476318 15:0.506288 16:0.444303 17:0.572025 18:0.80853 19:0.441915 20:0.639826 21:0.700604 22:0.50963 23:0.776707 24:0.657216 25:0.879555 26:0.66522 27:0.712442 28:0.808737 29:0.7783 30:1 
-5.548733147707213 -10.13484144476626 1:0.649812 2:0.10892 3:0.260058 4:0.215478 5:0.322286 6:0.297402 7:0.189134 8:0.327562 9:0.149112 10:0.287837 11:0.29359 12:0.379577 13:0.251773 14:0.15032 15:0.146649 16:0.211175 17:0.300266 18:0.342886 19:0.324282 20:0.388364 21:0.368458 22:0.247016 23:0.428525 24:0.278098 25:0.559429 26:0.345039 27:0.391456 28:0.415949 29:0.358396 30:0.385181 
-1.561898814708205 -0 1:0.194267 2:0.279652 3:0.433229 4:0.305415 5:0.454647 6:0.24376 7:0.19752 8:0.353716 9:0.262984 10:0.309818 11:0.260398 12:0.335605 13:0.325201 14:0.365744 15:0.297207 16:0.277041 17:0.296406 18:0.202903 19:0.246629 20:0.2338 21:0.126609 22:0.301085 23:0.317295 24:0.137825 25:0.335412 26:0.208349 27:0.310648 28:0.461677 29:0.349709 30:0.216629 
-0 -32 1:0.0463235 2:0.141887 3:0.0876675 4:0.0207204 7:0.070643 8:0.0056642 9:0.0324734 10:0.0526652 11:0.0279734 12:0.0502112 13:0.0335811 14:0.0578584 15:0.0818268 16:0.0694197 17:0.0267028 18:0.0878785 19:0.0554836 20:0.0451407 21:0.0281146 22:0.0403548 23:0.161732 24:0.0637904 25:0.0825433 26:0.0552009 27:0.0580851 28:0.160768 29:0.120372 30:0.127362 
-0 -27.1676620008705 1:0.098625 2:0.153477 3:0.180861 4:0.0928722 5:0.101471 6:0.207461 7:0.0746293 8:0.0821077 9:0.059973 10:0.0958403 11:0.0329774 12:0.133717 13:0.155208 14:0.16855 15:0.0957978 16:0.116857 17:0.108321 18:0.114922 19:0.140495 20:0.0351478 22:0.165109 23:0.0405547 24:0.0105209 25:0.16179 26:0.120814 27:0.0600494 28:0.086224 29:0.0815579 30:0.165891 
-0 -15.20064951929981 1:0.103661 2:0.255956 3:0.165816 4:0.0470397 5:0.272384 6:0.220402 7:0.253538 8:0.175186 9:0.0606369 10:0.123124 11:0.145156 12:0.24721 13:0.105205 14:0.0854626 15:0.0797251 16:0.141686 17:0.186323 18:0.0912414 19:0.0817503 20:0.131967 21:0.238322 22:0.0368033 23:0.0726159 24:0.157396 25:0.262417 26:0.140546 27:0.240772 28:0.195695 29:0.166706 30:0.258494 
-3.596827444990091 -0 1:0.806712 2:0.64312 3:0.641985 4:0.500332 5:0.534438 6:0.558669 7:0.554059 8:0.394105 9:0.415397 10:0.436959 11:0.35163 12:0.402195 13:0.357078 14:0.449707 15:0.351828 16:0.303369 17:0.417118 18:0.35029 19:0.31645 20:0.484927 21:0.484682 22:0.355477 23:0.487132 24:0.386221 25:0.621428 26:0.389226 27:0.558076 28:0.506846 29:0.606275 30:0.376259 
-2.394931784996961 -0.25793416378433 1:0.428614 2:0.927235 3:0.637625 4:0.896928 5:0.75425 6:0.956043 7:0.385494 8:0.343149 9:0.964287 10:0.300929 11:0.461573 12:0.256752 13:0.450482 14:0.266814 15:0.316862 16:0.314285 17:0.282315 18:0.69618 19:0.287448 20:0.450171 21:0.429364 22:0.215421 23:0.251739 24:0.180584 25:0.647397 26:1 27:0.474895 28:0.859574 29:0.592309 30:0.233135 
-0 -6.243752541244113 1:0.399211 2:0.21132 3:0.158592 4:0.174889 5:0.16487 6:0.0782233 7:0.128162 8:0.0604739 9:0.197837 10:0.131855 11:0.106254 12:0.131662 13:0.128079 14:0.0672681 15:0.227639 16:0.0527715 17:0.00223799 18:0.0648653 19:0.0400852 20:0.112489 21:0.105741 22:0.143109 23:0.0956552 24:0.12405 25:0.301345 26:0.0761982 27:0.0893117 28:0.265889 29:0.254038 30:0.0823964 
-1.142479451817001 -0 1:0.420337 2:0.566793 3:0.194705 4:0.103684 5:0.224761 6:0.353227 7:0.225396 8:0.00775884 9:0.0340917 10:0.200358 11:0.124654 12:0.101243 13:0.0807002 14:0.117629 15:0.166864 16:0.041428 17:0.0532717 18:0.107495 19:0.0880371 20:0.144422 21:0.0992475 22:0.0346273 23:0.206889 24:0.115135 25:0.231849 26:0.0777643 27:0.0471397 28:0.132213 29:0.127189 30:0.101657 
-3.080267912407701 -0.6898052782086461 1:0.818006 2:0.9631 3:0.692513 4:0.407081 5:0.298796 6:0.472418 7:0.990839 8:0.681426 9:0.577175 10:0.202957 11:0.394756 12:0.783331 13:0.162519 14:0.341624 15:0.408438 16:0.146879 17:0.548049 18:0.431314 19:0.320711 20:0.64129 21:0.300301 22:0.463669 23:0.606123 24:0.567887 25:0.42117 26:0.147524 27:0.598792 28:0.299642 29:0.400988 30:0.673708 
-9.5585878686384 -24.00172856749349 1:0.0894138 2:0.179759 3:0.23859 4:0.37678 5:0.218561 6:0.292882 7:0.105401 8:0.22369 9:0.379878 10:0.328288 11:0.250199 12:0.224268 13:0.34336 14:0.357575 15:0.385986 16:0.20578 17:0.187931 18:0.379607 19:0.332657 20:0.459171 21:0.242441 22:0.34936 23:0.331239 24:0.447344 25:0.426184 26:0.241633 27:0.343362 28:0.362602 29:0.536578 30:0.349457 
-1.862157502839858 -0 1:0.405802 2:0.388144 3:0.323316 4:0.128605 5:0.313784 6:0.468824 7:0.286715 8:0.160069 9:0.294093 10:0.294141 11:0.0882959 12:0.18497 13:0.353158 14:0.321944 15:0.135687 16:0.236967 17:0.255238 18:0.198361 19:0.247531 20:0.350384 21:0.33586 22:0.167145 23:0.378581 24:0.398263 25:0.357995 26:0.202346 27:0.533278 28:0.356719 29:0.361691 30:0.274063 
-0 -21.52769188099586 1:0.2632 2:0.0995495 3:0.219442 4:0.212683 5:0.199106 6:0.0999756 7:0.147248 8:0.152158 9:0.12206 10:0.0909136 11:0.043828 12:0.108762 13:0.0626205 14:0.0886502 15:0.0476623 16:0.0738646 17:0.138616 18:0.111035 19:0.078302 20:0.1079 21:0.0844364 22:0.0837478 23:0.0769499 24:0.0521001 25:0.102995 26:0.0623829 27:0.0733842 28:0.152699 29:0.152122 30:0.0723286 
-0 -22.25162363071335 1:0.221209 2:0.254522 3:0.107686 4:0.111248 5:0.0628776 6:0.119872 7:0.128439 8:0.0980473 9:0.0953291 10:0.129426 11:0.0822735 12:0.0542861 13:0.122638 14:0.0671676 15:0.114258 16:0.0405603 17:0.0114406 18:0.167909 19:0.0546281 20:0.0908802 21:0.0723456 22:0.0287606 23:0.123675 24:0.139698 25:0.142622 26:0.147272 27:0.118569 28:0.135768 29:0.170806 30:0.10859 
-0 -12.07353737156324 1:0.0922055 2:0.0958223 3:0.107865 4:0.0927632 5:0.161208 6:0.0587733 7:0.113129 8:0.0659388 9:0.134125 11:0.0685482 12:0.0631769 13:0.0414028 14:0.120215 15:0.105108 16:0.0616369 17:0.016183 18:0.100527 19:0.0707255 20:0.0806976 21:0.0556267 22:0.0632551 23:0.0718547 24:0.0492587 25:0.0555809 26:0.0455181 27:0.0695824 28:0.114375 29:0.0533736 30:0.0911153 
-3.921963161693997 -2.002577095790211 1:0.458611 2:0.667852 3:0.52483 4:0.534259 5:0.579178 6:1 7:0.812062 8:0.49669 9:0.688877 10:0.712627 11:0.542 12:1 13:0.833111 14:0.677184 15:1 16:0.591831 17:0.609637 18:0.821168 19:0.51631 20:0.706568 21:0.775103 22:0.640509 23:0.791543 24:0.523686 25:1 26:0.533545 27:0.72022 28:0.452231 29:0.919957 30:0.472641 
-0 -32 1:0.41783 2:0.278222 3:0.215563 4:0.155191 5:0.27746 6:0.243806 7:0.280532 8:0.145708 9:0.198674 10:0.241982 11:0.120375 12:0.143941 13:0.147794 14:0.245909 15:0.226135 16:0.133154 17:0.129175 18:0.271418 19:0.107476 20:0.211413 21:0.17779 22:0.180809 23:0.200208 24:0.192818 25:0.242208 26:0.173424 27:0.173829 28:0.307956 29:0.30187 30:0.284159 
-0.741432655585377 -0 1:0.161083 2:0.416556 3:0.0871356 4:0.0915508 5:0.253724 6:0.141143 7:0.321549 8:0.103784 9:0.144255 10:0.113279 11:0.109889 12:0.129009 13:0.059399 14:0.220452 15:0.0798671 16:0.145435 17:0.00582599 18:0.181612 19:0.00992312 20:0.166829 21:0.0960276 22:0.130553 23:0.142601 24:0.148416 25:0.165997 26:0.110122 27:0.129097 
-9.109180038926171 -0.5008951224718341 1:0.490039 2:0.492971 3:0.237802 4:0.569749 5:0.675503 6:0.474957 7:0.86248 8:0.362504 9:0.189955 10:0.317046 11:0.236241 12:0.200854 13:0.251236 14:0.285146 15:0.147473 16:0.197159 17:0.211098 18:0.222095 19:0.239318 20:0.297481 21:0.303325 22:0.0963347 23:0.174846 24:0.101519 25:0.252299 26:0.151648 27:0.225751 28:0.438352 29:0.273203 30:0.277418 
-1.617726499689257 -0 1:0.328212 2:0.429129 3:0.429677 4:0.380935 5:0.472997 6:0.384304 7:0.294185 8:0.208161 9:0.331991 10:0.251729 11:0.389621 12:0.366439 13:0.252094 14:0.241137 15:0.335585 16:0.14821 17:0.314601 18:0.140797 19:0.169501 20:0.205996 21:0.329371 22:0.249583 23:0.351355 24:0.284389 25:0.566918 26:0.341421 27:0.244168 28:0.369261 29:0.432351 30:0.29842 
-2.400605346365991 -0 1:0.490926 2:0.414895 3:0.61269 4:0.332621 5:0.311732 6:0.357729 7:0.37939 8:0.302306 9:0.42604 10:0.493647 11:0.375713 12:0.587854 13:0.343215 14:0.587167 15:0.238715 16:0.149491 17:0.368915 18:0.375576 19:0.422054 20:0.244089 21:0.335249 22:0.240006 23:0.323659 24:0.362649 25:0.434567 26:0.372214 27:0.310974 28:0.546416 29:0.590754 30:0.688002 
-19.56543361164482 -0 1:0.765192 2:0.568389 3:0.358703 4:0.280402 5:0.309464 6:0.296167 7:0.263635 8:0.175119 9:0.323204 10:0.373991 11:0.283522 12:0.296765 13:0.311884 14:0.385334 15:0.354721 16:0.241398 17:0.28781 18:0.213358 19:0.232253 20:0.445492 21:0.290705 22:0.319262 23:0.414859 24:0.271566 25:0.214935 26:0.332511 27:0.364685 28:0.380197 29:0.392895 30:0.267061 
-10.72930387648074 -15.6841356976626 1:0.561095 2:0.320033 3:0.210001 4:0.121462 5:0.252594 6:0.205904 7:0.381055 8:0.285382 9:0.347565 10:0.289653 11:0.27552 12:0.343255 13:0.405375 14:0.324209 15:0.291941 16:0.182591 17:0.125719 18:0.248346 19:0.219697 20:0.273764 21:0.319329 22:0.20634 23:0.259295 24:0.302334 25:0.474148 26:0.274812 27:0.39558 28:0.359427 29:0.452036 30:0.311486 
-0 -22.57887685217501 1:0.171457 2:0.116018 3:0.0988319 4:0.173438 5:0.114481 6:0.285526 7:0.164834 8:0.0789977 9:0.137527 10:0.117922 11:0.157766 12:0.234016 13:0.0963784 14:0.203312 15:0.176268 16:0.0589097 17:0.263083 18:0.0950708 19:0.00651451 20:0.178442 21:0.172086 22:0.0382462 23:0.166524 24:0.134542 25:0.066077 26:0.100732 27:0.201904 28:0.132635 29:0.313642 30:0.0724684 
-9.571403055104744 -0 1:0.234227 2:0.428194 3:0.39789 4:0.424875 5:0.489563 6:0.437962 7:0.283927 8:0.216595 9:0.380826 10:0.251689 11:0.289181 12:0.362392 13:0.236756 14:0.290897 15:0.221506 16:0.174547 17:0.222809 18:0.34755 19:0.258543 20:0.193997 21:0.217996 22:0.204316 23:0.096737 24:0.196495 25:0.320664 26:0.156147 27:0.236494 28:0.175597 29:0.358772 30:0.151868 
-0 -15.39341546734015 1:0.0868578 2:0.362943 3:0.219656 4:0.224732 5:0.458868 6:0.202016 7:0.355157 8:0.388399 9:0.383511 10:0.294732 11:0.352553 12:0.366986 13:0.202015 14:0.243149 15:0.104393 16:0.141954 17:0.250498 18:0.214418 19:0.151446 20:0.153717 21:0.282383 22:0.207502 23:0.176521 25:0.329312 26:0.358729 27:0.603418 28:0.557564 29:0.0586871 30:0.174305 
-6.831970405644875 -0 1:0.482401 2:0.565787 3:0.2311 4:0.197396 5:0.290564 6:0.303037 7:0.292858 8:0.134624 9:0.169784 10:0.179244 11:0.115504 12:0.12751 13:0.252309 14:0.261538 15:0.0926369 16:0.200209 17:0.211735 18:0.182563 19:0.152413 20:0.143873 21:0.140439 22:0.152876 23:0.118966 24:0.203361 25:0.254044 26:0.160709 27:0.188729 28:0.244191 29:0.273148 30:0.330396 
-0 -32 1:0.202465 2:0.203788 3:0.2196 4:0.162645 5:0.114486 6:0.170455 7:0.180115 8:0.0505497 9:0.0455018 10:0.06832 11:0.0799912 12:0.187053 13:0.229404 14:0.133916 15:0.110943 16:0.118224 17:0.083734 18:0.178119 19:0.037818 20:0.175377 21:0.138544 22:0.0970639 23:0.135605 24:0.102116 25:0.182117 26:0.0993569 27:0.116229 28:0.245712 29:0.206615 30:0.200636 
-6.603933069132196 -0 1:0.117584 2:0.0239851 3:0.0168099 4:0.105986 5:0.146546 6:0.260843 7:0.00675608 8:0.0613482 9:0.06829 10:0.0454069 11:0.0510409 12:0.030632 13:0.0225226 14:0.113724 15:0.143629 16:0.0614337 17:0.140116 18:0.0566379 19:0.0203038 20:0.117553 21:0.083816 22:0.125036 23:0.0903619 24:0.0540443 25:0.0762794 26:0.0798044 27:0.185862 
-0 -32 1:0.401158 2:0.220679 3:0.115138 4:0.136946 5:0.10207 6:0.205457 7:0.10092 8:0.132138 9:0.0617429 10:0.155378 11:0.0461927 12:0.0784757 13:0.0106421 14:0.150321 15:0.104527 16:0.0169456 17:0.0862279 19:0.062333 20:0.0477718 21:0.116656 22:0.0500886 23:0.087781 24:0.12601 25:0.172779 26:0.0849995 27:0.18546 28:0.086177 29:0.166949 30:0.151989 
-11.18148285158659 -0 1:0.490266 2:0.66905 3:0.703445 4:0.417182 5:0.261728 6:0.436053 7:0.517005 8:0.49014 9:0.459342 10:0.282183 11:0.241716 12:0.167588 13:0.06468 14:0.2451 15:0.364962 16:0.147281 17:0.101074 18:0.365587 19:0.204087 20:0.234612 21:0.383764 22:0.231642 23:0.152855 24:0.195105 25:0.341318 26:0.261039 27:0.418555 28:0.23805 29:0.341546 30:0.424725 
-1.862466941946474 -0 1:0.145429 2:0.0941557 3:0.250144 4:0.186297 5:0.142261 6:0.0970661 7:0.309666 8:0.0682426 9:0.142327 10:0.113312 11:0.106885 12:0.0649815 13:0.049514 14:0.0877211 15:0.111281 16:0.0700084 17:0.00666493 18:0.0343764 19:0.0582729 20:0.0436881 21:0.168804 22:0.0901542 23:0.0258495 24:0.094511 25:0.0960933 26:0.088463 27:0.0162458 28:0.0706888 29:0.145216 30:0.159307 
-13.45230338746935 -5.041004732501565 1:0.361543 2:0.291158 3:0.280165 4:0.254661 5:0.323616 6:0.193732 7:0.385397 8:0.11362 9:0.105402 10:0.156647 11:0.112456 12:0.243325 13:0.267263 14:0.316436 15:0.199288 16:0.0756351 17:0.17429 18:0.273556 19:0.120478 20:0.280081 21:0.163619 22:0.157382 23:0.153897 24:0.258871 25:0.230851 26:0.0288039 27:0.314356 28:0.220584 29:0.357707 30:0.140763 
-11.91959193527182 -0 1:0.714308 2:0.523665 3:0.458096 4:0.41663 5:0.385957 6:0.671633 7:0.741956 8:0.271243 9:0.12438 10:0.450836 11:0.316114 12:0.241566 13:0.19208 14:0.186861 15:0.391032 16:0.298963 17:0.271252 18:0.223616 19:0.293405 20:0.317469 21:0.413003 22:0.224655 23:0.539339 24:0.182215 25:0.118468 26:0.230531 27:0.228179 28:0.239376 29:0.628034 30:0.243215 
-5.332520876265662 -4.188912817458944 1:0.280922 2:0.340014 3:0.382398 4:0.521343 5:0.114616 6:0.0104276 7:0.065859 8:0.268926 9:0.311764 10:0.206271 11:0.238501 12:0.317192 13:0.165794 14:0.16804 15:0.142184 16:0.114246 17:0.0345827 18:0.0875891 19:0.315997 20:0.183069 21:0.208203 22:0.0170936 23:0.122994 24:0.184879 25:0.324383 26:0.0359962 27:0.0869523 28:0.157437 29:0.211142 30:0.250826 
-0 -0.7508038814471337 1:0.311589 2:0.0187454 3:0.231748 4:0.605322 5:0.569133 6:0.394778 7:0.158857 8:0.249582 9:0.350413 10:0.129968 11:0.131105 12:0.0624127 13:0.171701 14:0.175141 15:0.0575723 16:0.0122604 17:0.0778547 18:0.088728 19:0.106101 20:0.124866 21:0.197267 22:0.0214916 23:0.0851813 24:0.081026 25:0.232641 26:0.113236 27:0.231045 28:0.261033 29:0.139918 30:0.190401 
-3.247219373118383 -8.39193949208274 1:0.261077 2:0.316191 3:0.307286 4:0.256219 5:0.265724 6:0.247013 7:0.260303 8:0.115061 9:0.206871 10:0.177468 11:0.114631 12:0.115896 13:0.048994 14:0.117748 15:0.155411 16:0.077758 17:0.151662 18:0.203511 19:0.151907 20:0.24669 21:0.135115 22:0.0730119 23:0.0656262 24:0.144278 25:0.237597 26:0.123331 27:0.290017 28:0.102641 29:0.347853 30:0.172698 
-4.558538810030552 -32 1:0.489403 2:0.173926 3:0.302354 4:0.107034 5:0.327133 6:0.107952 7:0.249744 8:0.10774 9:0.199059 10:0.135588 11:0.194085 12:0.153753 13:0.1206 14:0.247947 15:0.129766 16:0.0681382 17:0.0750017 18:0.204306 19:0.147604 20:0.231673 21:0.156939 22:0.104523 23:0.174712 24:0.119662 25:0.297469 26:0.0384315 27:0.274895 28:0.222019 29:0.166636 30:0.220573 
-0 -21.41054309833134 1:0.00987147 2:0.240136 3:0.13256 4:0.169883 5:0.0817576 6:0.114727 7:0.150621 8:0.122417 9:0.0844993 10:0.0671631 11:0.0563178 12:0.0923208 13:0.122946 14:0.107706 15:0.174882 16:0.0631842 17:0.0196985 18:0.0741877 19:0.054021 20:0.123121 21:0.0972099 22:0.0636883 23:0.127135 24:0.095815 25:0.177731 26:0.131787 27:0.18271 28:0.228331 29:0.10585 30:0.13667 
-0 -8.898022923338225 1:0.298953 2:0.377526 3:0.41729 4:0.283087 5:0.284679 6:0.180672 7:0.406732 8:0.303183 9:0.239065 10:0.221967 11:0.237994 12:0.334497 13:0.264091 14:0.251223 15:0.30478 16:0.185047 17:0.251003 18:0.309905 19:0.225053 20:0.225063 21:0.4219 22:0.276625 23:0.419859 24:0.285634 25:0.36687 26:0.309653 27:0.511664 28:0.517284 29:0.500047 30:0.366992 
-0 -12.07085230563513 1:0.50204 2:0.326359 3:0.0878732 4:0.222479 5:0.294894 6:0.208743 7:0.17125 8:0.193172 9:0.230688 10:0.130559 11:0.103535 12:0.221748 13:0.124938 14:0.218622 15:0.231496 16:0.0741256 17:0.117773 18:0.238419 19:0.0591201 20:0.112907 21:0.226687 22:0.273811 23:0.0508647 24:0.229104 25:0.344408 26:0.0385809 27:0.113958 28:0.325198 29:0.334977 30:0.294766 
-0 -0.213834777637649 1:0.200125 2:0.732018 3:0.183624 4:0.357899 5:0.163353 6:0.313713 7:0.264416 8:0.29746 9:0.386669 10:0.395137 11:0.305167 12:0.398884 13:0.366329 14:0.395114 15:0.323461 16:0.309396 17:0.30155 18:0.382765 19:0.298505 20:0.399863 21:0.479408 22:0.302076 23:0.418764 24:0.491923 25:0.58776 26:0.383329 27:0.426461 28:0.685084 29:0.696867 30:0.592045 
-16.04719325514687 -32 1:0.437234 2:0.338247 3:0.201641 4:0.149439 5:0.217457 6:0.279663 7:0.339396 8:0.250436 9:0.217141 10:0.290773 11:0.0402024 12:0.273582 13:0.188931 14:0.207732 15:0.263106 16:0.145421 17:0.203003 18:0.159027 19:0.109541 20:0.208834 21:0.319975 22:0.228956 23:0.166849 24:0.186164 25:0.183475 26:0.25363 27:0.191339 28:0.313579 29:0.289372 30:0.238891 
