svm_type c_svc
kernel_type rbf
gamma 2
nr_class 3
total_sv 145
rho -0.805225 -0.673827 0.449167
label 1 2 3
nr_sv 62 31 52
SV
0.2441340051369175 1.958861691909272 1:0.298708 2:0.397294 3:0.533477 4:0.592688 5:0.633394 6:0.550384 7:0.482975 8:0.433642 9:0.154945 10:0.340616 11:0.438542 12:0.414995 13:0.384361 14:0.214296 15:0.412071 16:0.39386 17:0.306594 18:0.486108 19:0.406338 20:0.294386 21:0.402381 22:0.313821 23:0.304454 24:0.458684 25:0.381787 26:0.302004 27:0.37789 28:0.381385 29:0.562541 30:0.249598 
0.4646694420558807 0.270297219486428 1:0.386284 2:0.572272 3:0.653787 4:0.364102 5:0.136806 6:0.210582 7:0.228845 8:0.24134 9:0.497882 10:0.318498 11:0.303057 12:0.151901 13:0.147068 14:0.302954 15:0.0995549 16:0.200399 17:0.0210513 18:0.241547 19:0.431129 20:0.205822 21:0.298873 22:0.482236 23:0.142519 24:0.274895 25:0.429182 26:0.417685 27:0.63028 28:0.264022 29:0.437623 30:0.0359329 
0.1624714957229943 0.2736158312418359 1:0.325686 2:0.329312 3:0.0990764 4:0.425831 5:0.551038 6:0.884121 7:0.84347 8:0.55809 9:0.342534 10:0.163252 11:0.23834 12:0.113231 13:0.1715 14:0.242605 15:0.281798 16:0.47551 17:0.430323 18:1 19:0.39702 20:0.227268 21:0.237924 22:0.328008 23:0.208428 24:0.250699 25:0.544946 26:0.426715 27:0.4384 28:0.237084 29:0.361845 30:0.160474 
0.2206693496472344 0.2827143147870064 1:0.413211 3:0.344092 4:0.411151 5:0.260909 6:0.405839 7:0.393776 8:0.333922 9:0.248798 10:0.624504 11:0.397577 12:0.721369 13:0.600572 14:0.491708 15:0.718928 16:0.599572 17:0.348812 18:0.873122 19:0.552456 20:0.261225 21:0.426979 22:0.299009 23:0.0907179 24:0.481478 25:0.219584 26:0.906403 27:1 28:0.525055 29:0.601435 30:0.358448 
0.2383840432683811 0.6711844235310014 1:0.515075 2:0.491425 3:0.455697 4:0.314617 5:0.162164 6:0.179715 7:0.552411 8:0.402366 9:0.648784 10:0.403048 11:0.120304 12:0.217283 13:0.0244903 14:0.2787 15:0.270621 16:0.0869696 17:0.083206 18:0.318272 19:0.311514 20:0.343509 21:0.350484 22:0.119243 23:0.166927 24:0.284512 25:0.185315 26:0.400765 27:0.472172 28:0.150298 29:0.55092 30:0.293227 
0.2847695161461118 0.6944428842685343 1:0.326892 2:0.733614 3:0.733589 4:0.376053 5:0.10489 7:0.109003 8:0.0934503 9:0.034464 10:0.405222 11:0.308898 12:0.250548 13:0.392502 14:0.229937 15:0.148758 16:0.382962 17:0.312686 18:0.303107 19:0.182966 20:0.299762 21:0.102858 22:0.352233 23:0.263666 24:0.500207 25:0.374793 26:0.297556 27:0.206894 28:0.275586 29:0.210009 30:0.168236 
0.2941325104835959 0.3724903877549581 1:0.476874 2:0.40392 3:0.184008 4:0.155218 5:0.333472 6:0.387817 7:0.264491 8:0.174265 9:0.940075 10:0.743673 11:0.300526 12:0.290353 13:0.244652 14:0.388078 15:0.532714 16:0.320588 17:0.00890866 18:0.282799 19:0.222922 20:0.00641891 21:0.193425 22:0.13154 23:0.423639 24:0.0782008 25:0.328454 26:0.1562 27:0.136986 28:0.174321 29:0.378737 30:0.0308528 
0.1725124034078572 1.843916231015313 1:0.407899 2:0.6819 3:0.645612 4:0.609389 5:0.636576 6:0.382498 7:0.332888 8:0.367703 9:0.335511 10:0.126806 11:0.258743 12:0.22075 13:0.246359 14:0.252041 15:0.238392 16:0.285706 17:0.1405 18:0.0907049 19:0.338728 20:0.0638281 21:0.286529 22:0.133749 23:0.139938 24:0.148804 25:0.249252 26:0.231654 27:0.0819133 28:0.297974 29:0.334506 30:0.237066 
0.2449779713547346 0.2852023537427221 1:0.419401 2:0.165942 3:0.191902 4:0.607772 5:0.538487 6:0.121302 7:0.25441 8:0.0763845 9:0.323207 10:0.307666 11:0.688665 12:1 13:0.804526 14:0.598293 15:0.297595 16:0.771972 17:0.347596 18:0.410398 19:0.313393 20:0.302764 21:0.39808 22:0.300971 23:0.133969 24:0.479423 25:0.788613 26:0.60971 27:0.646772 28:0.592407 29:0.688161 30:0.404991 
0.6082354175966601 1.004051539171244 1:0.478818 2:0.816216 3:0.499193 4:0.0623491 5:0.322696 6:0.167916 7:0.216183 8:0.209726 9:0.29801 10:0.176831 11:0.287389 12:0.166683 13:0.208377 14:0.212628 15:0.0254416 16:0.155419 17:0.132021 18:0.309609 19:0.490348 20:0.28735 21:0.167499 22:0.123584 23:0.303045 24:0.190255 25:0.437613 26:0.144975 27:0.562415 28:0.10258 29:0.463124 30:0.18223 
0.2173520640388983 0.5572637431238611 1:0.465104 2:0.857059 3:0.612689 4:0.407192 5:0.31936 6:0.256551 7:0.0364657 8:0.112648 9:0.213831 10:0.329593 11:0.159544 12:0.327698 13:0.111756 14:0.270319 15:0.0740687 16:0.302882 17:0.149971 18:0.483745 19:0.412822 20:0.240907 21:0.169695 22:0.363928 23:0.134027 24:0.117198 25:0.108812 26:0.0318325 27:0.0342889 28:0.0106079 29:0.100899 30:0.115577 
0.1847314282567211 0.3067605638934612 1:0.259146 2:0.3254 3:0.483932 4:0.79094 5:0.845531 6:0.634571 7:0.469473 8:0.28536 9:0.22231 10:0.515974 11:1 12:0.463554 13:0.701969 14:0.526289 15:0.474215 16:0.696183 17:0.605221 18:0.381242 19:0.637925 20:0.672068 21:0.299933 22:0.423002 23:0.165076 24:0.317026 25:1 26:0.224838 27:0.390968 28:0.440945 29:0.642819 30:0.332294 
0.2622650320632284 0.1896678334028795 1:0.41679 2:0.606355 3:0.269353 4:0.301419 5:0.155228 6:0.154919 7:0.10886 8:0.384838 9:0.229006 10:0.195342 11:0.229745 12:0.511292 13:0.244641 14:0.970858 15:0.38946 16:0.632502 17:0.462851 18:0.487323 19:0.377936 20:0.812837 21:0.575417 22:0.620657 23:0.406768 24:0.589842 25:0.146682 26:0.389527 27:0.614669 28:0.282099 29:0.594585 30:0.33964 
0.2075033302677957 0.8688841777294842 1:0.4227 2:0.590944 3:0.486691 4:0.467298 5:0.251134 6:0.109054 7:0.219828 8:0.124645 9:0.194394 10:0.272541 11:0.455429 12:0.224784 13:0.424363 14:0.75735 15:0.22698 16:0.593426 17:0.260031 18:0.485586 19:0.186806 20:0.356733 21:0.298514 22:0.289795 23:0.296554 24:0.283948 25:0.193172 26:0.203522 27:0.241038 28:0.3601 29:0.465343 30:0.442336 
0.1197141009790675 1.026182780399386 1:0.489984 2:0.741072 3:0.711202 4:0.663289 5:0.564495 6:0.191317 7:0.102863 8:0.268156 9:0.206975 10:0.248306 11:0.295381 12:0.268732 13:0.298753 14:0.35579 15:0.245926 16:0.220469 17:0.397286 18:0.260736 19:0.321107 20:0.216628 21:0.0941004 22:0.611837 23:0.271607 24:0.231548 25:0.310592 26:0.0806281 27:0.361908 28:0.120776 29:0.172957 30:0.108078 
0.06508855295500758 0.520045898723272 1:0.326292 2:0.601575 3:0.580547 4:0.618995 5:0.488773 6:0.470108 7:0.538406 8:0.410437 9:0.558262 10:0.541925 11:0.720528 12:0.396511 13:0.702833 14:0.548318 15:0.513318 16:0.196964 17:0.655622 18:0.408854 19:0.559375 20:0.372961 21:0.334666 22:0.467018 23:0.0530999 24:0.407762 25:0.200136 26:0.242622 27:0.236285 28:0.272065 29:0.298361 30:0.232862 
0.2399833047365428 0.3303883892831351 1:0.390954 2:0.361377 3:0.367611 4:0.592966 5:1 6:0.339009 7:0.0829684 8:0.150501 9:0.505557 10:0.461856 11:0.405264 12:0.134645 13:0.166793 14:0.255147 15:0.289048 16:0.304955 17:0.0118273 18:0.140199 19:0.75406 20:0.25448 21:0.469088 22:0.562478 23:0.0940747 24:0.448827 25:0.736329 26:0.181414 27:0.491183 28:0.586681 29:0.622364 30:0.256229 
0.2239811321033704 0.464168111795187 1:0.451741 2:0.0398843 3:0.147174 4:0.285684 5:0.602222 6:0.520306 7:0.644735 8:0.751561 9:0.507167 10:0.490034 11:0.493159 12:0.288868 13:0.269063 14:0.424056 15:0.221579 16:0.354773 17:0.761289 18:0.372168 19:0.450575 20:0.0577941 21:0.160548 22:0.119828 23:0.179838 24:0.239722 25:0.558282 26:0.210842 27:0.187882 28:0.322442 29:0.366293 30:0.330174 
0.7481528716650443 1.663969286844524 1:0.44751 2:0.686751 3:0.545216 4:0.457882 5:0.599138 6:0.611607 7:0.588297 8:0.372161 9:0.2479 10:0.236662 11:0.396574 12:0.0606116 13:0.298435 14:0.169789 15:0.192958 16:0.138981 17:0.227648 18:0.172108 19:0.224623 20:0.0699368 21:0.188068 22:0.0975961 23:0.137712 24:0.159709 25:0.348293 26:0.130121 27:0.170263 28:0.175464 29:0.0474266 30:0.249808 
0.009382061702572319 0.2794977787791557 1:0.419722 2:0.472678 3:0.600364 4:0.642931 5:0.71683 6:0.603443 7:0.654275 8:0.61922 9:0.569156 10:0.446062 11:0.200174 12:0.0683201 13:0.0658515 14:0.181819 15:0.268092 16:0.200434 17:0.249084 18:0.24326 19:0.384308 20:0.156482 21:0.527653 22:0.610553 23:0.33573 24:0.169209 25:0.34089 26:0.297774 27:0.405446 28:0.21096 29:0.194124 30:0.0494492 
1.643142578859385 2 1:0.605581 2:0.5653 3:0.402585 4:0.4254 5:0.399338 6:0.208322 7:0.15562 8:0.160473 9:0.0920321 10:0.108695 11:0.154997 12:0.235609 13:0.144549 14:0.243747 15:0.163807 16:0.363441 17:0.133259 18:0.151215 19:0.25926 20:0.135952 21:0.40161 22:0.170304 23:0.123644 25:0.296162 26:0.102292 27:0.0573239 28:0.0604474 29:0.206082 30:0.103932 
0.2212748246048608 0.7541823271397132 1:0.484783 2:0.218054 3:0.0244879 4:0.502825 5:0.64101 6:0.731412 7:0.264543 8:0.478181 9:0.385799 10:0.32372 11:0.657315 12:0.532964 13:0.420741 14:0.511768 15:0.104273 16:0.502309 17:0.142045 18:0.42351 19:0.103259 20:0.2254 21:0.319744 22:0.282178 23:0.13534 24:0.215738 25:0.249383 26:0.0991122 27:0.4055 28:0.138927 29:0.475144 30:0.284397 
0.32498882413077 0.3071157079801409 1:0.464655 2:0.23986 3:0.0129832 4:0.356219 6:0.271149 7:0.478522 8:0.299742 9:0.371665 10:0.414638 11:0.973051 12:0.232394 13:0.164317 14:0.306238 15:0.427233 16:0.324819 17:0.279767 18:0.925358 19:0.534394 20:0.349402 21:0.243535 22:0.139223 23:0.364881 24:0.451648 25:0.418069 26:0.311973 27:0.34705 28:0.431649 29:0.725309 30:0.153368 
0.6162127195373512 0.604369790872836 1:0.526258 2:0.685957 3:0.18782 4:0.0912453 5:0.075104 6:0.283642 7:0.362651 8:0.13354 9:0.186055 10:0.471038 11:0.430354 12:0.456922 13:0.280027 14:0.642465 15:0.147437 16:0.257201 17:0.315572 18:0.284435 19:0.536618 20:0.180524 21:0.351024 22:0.219293 23:0.397592 24:0.623715 25:0.41032 26:0.542351 27:0.386805 28:0.168324 29:0.30375 30:0.203389 
0.114809915633946 0.1999961976647141 1:0.361832 2:0.537046 3:0.625539 4:0.493157 5:0.169291 6:0.338311 7:0.491346 8:0.126877 9:0.373476 10:0.271823 11:0.372192 12:0.610225 13:0.280806 14:0.846985 15:0.516181 16:0.719251 17:0.505929 18:0.563214 19:0.302309 20:0.270861 21:0.573165 22:0.260918 23:0.237501 24:0.77178 25:0.107591 26:0.246991 27:0.0684535 28:0.162347 29:0.822932 30:0.222201 
0.3373537432350393 0.2525773725617003 1:0.463394 2:0.83262 3:0.819243 4:0.409373 5:0.177541 6:0.361873 7:0.40153 8:0.131214 9:0.114949 10:0.26667 11:0.318444 12:0.456858 13:0.504159 14:0.409543 15:0.309151 16:0.693506 17:0.60818 18:0.328771 19:0.585746 20:0.478313 21:0.718533 22:0.618022 23:0.286859 24:0.774715 25:0.486236 26:0.591093 27:0.383217 28:0.658079 29:0.423553 30:0.266522 
0.2106725798023411 0.4663358673265856 1:0.477388 2:0.532682 3:0.434597 4:0.41008 5:0.201347 6:0.284752 7:0.503731 8:0.307314 9:0.413011 10:0.513188 11:0.141563 12:0.0903361 13:0.339961 14:0.508533 15:0.1963 16:0.283415 17:0.466176 18:0.418932 19:0.540669 20:0.328788 21:0.397212 22:0.421812 23:0.724153 24:0.369985 25:0.225012 26:0.333037 27:0.240977 28:0.184327 29:0.212915 30:0.075929 
0.2175028738986447 0.3854212605802901 1:0.385598 2:0.337494 3:0.0471981 4:0.323714 5:0.815788 6:1 7:0.673553 8:0.229948 9:0.173119 10:0.177407 11:0.236083 12:0.134923 13:0.336391 14:0.492392 15:0.0801721 16:0.796082 17:0.347896 18:0.223911 19:0.401012 20:0.0805522 21:0.366184 22:0.429269 23:0.153737 24:0.252874 25:0.189993 26:0.233128 27:0.172897 28:0.291724 29:0.1875 30:0.0676878 
0.6603328680701861 0.5545752159032585 1:0.547531 2:0.538975 3:0.415236 4:0.120167 5:0.364106 6:0.26151 7:0.0714541 8:0.0762555 9:0.265285 10:0.23406 11:0.63011 12:0.248101 13:0.202413 14:0.275409 15:0.648616 16:0.455756 17:0.184739 18:0.16918 19:0.438802 20:0.279863 21:0.468781 22:0.417967 23:0.309123 24:0.51514 25:0.150388 26:0.290915 27:0.823485 28:0.694644 29:0.328735 30:0.347958 
0.6613070637482622 0.4996545808900204 1:0.417002 2:0.431026 3:0.506626 4:0.272803 5:0.205196 6:0.173848 7:0.204751 8:0.172907 9:0.0581786 10:0.128995 11:0.0346327 13:0.0896436 14:0.259042 15:0.584424 16:0.364296 17:0.426519 18:0.523819 19:0.224754 20:0.370452 21:0.220656 22:0.262993 23:0.118149 24:0.383838 25:0.645152 26:0.444468 27:0.21663 28:0.350561 29:0.575441 30:0.234376 
0.1757886414818499 0.3154680015573323 1:0.384946 2:0.303645 3:0.468834 4:0.353509 5:0.433509 6:0.632076 7:0.635246 8:1 9:0.565139 10:0.527739 11:0.242596 12:0.557202 13:0.11708 14:0.80365 15:0.509343 16:0.967819 17:0.244725 18:0.898661 19:0.379333 20:0.550664 21:0.395168 22:0.403748 23:0.297807 24:0.690923 25:0.506343 26:0.506946 27:0.590665 28:0.328085 29:0.82122 30:0.413326 
0.5697397740053348 1.78324630515776 1:0.386665 2:0.53276 3:0.586219 4:0.499945 5:0.466725 6:0.475573 7:0.51461 8:0.339699 9:0.356513 10:0.178471 11:0.138396 12:0.0677353 13:0.0327912 14:0.204024 15:0.187649 16:0.19745 17:0.390881 18:0.266314 19:0.117707 20:0.299097 21:0.376141 22:0.183094 23:0.271145 24:0.231831 25:0.217327 26:0.306604 27:0.311407 28:0.225094 29:0.37403 30:0.37775 
0.1960797882572232 0.3406556043359737 1:0.522613 2:0.517498 3:0.0956662 4:0.267176 5:0.701195 6:0.968905 7:0.464332 8:0.258816 9:0.269189 10:0.521285 11:0.680315 12:0.656032 13:1 14:0.450226 15:0.381266 16:0.564781 17:0.568911 18:0.505585 19:0.75455 20:0.358081 21:0.792549 22:0.460401 23:1 24:1 25:0.359322 26:1 27:0.554938 28:0.452044 29:0.378469 30:0.378477 
0.3968624864425458 0.3183995124462751 1:0.516095 2:0.650885 3:0.572481 4:0.474535 5:0.408147 6:0.0566731 7:0.187387 8:0.205695 9:0.0828287 10:0.125995 11:0.0100409 12:0.131745 13:7.08576e-05 14:0.200311 15:0.369558 16:0.0639222 17:0.105985 18:0.378798 19:0.184789 20:0.126696 21:0.151193 22:0.428642 23:0.0583591 24:0.216171 25:0.37219 26:0.250497 27:0.217176 28:0.127544 29:0.190928 30:0.147452 
1.697499932064416 2 1:0.503208 2:0.494175 3:0.359774 4:0.4779 5:0.54732 6:0.362937 7:0.14874 8:0.110059 9:0.241758 10:0.304788 11:0.55417 12:0.233244 13:0.162984 14:0.207879 15:0.0274938 16:0.190835 17:0.0878811 18:0.267649 19:0.120162 20:0.255737 21:0.20396 22:0.166094 23:0.142344 24:0.418802 25:0.148073 26:0.161735 27:0.126301 28:0.120269 29:0.445719 30:0.0457011 
0.3314418010163691 0.5420930903742369 1:0.494989 2:0.58556 3:0.46984 4:0.409837 5:0.0845153 6:0.283918 7:0.477982 8:0.552213 9:0.722129 10:0.235988 11:0.186756 12:0.444076 13:0.18756 14:0.562451 15:0.0597699 16:0.488368 17:0.575259 18:0.129167 19:0.430584 20:0.205965 21:0.328321 22:0.432734 23:0.356598 24:0.59405 25:0.575531 26:0.23322 27:0.518756 28:0.250096 29:0.528615 30:0.235612 
0 0.8732100206912682 1:0.425625 2:0.603827 3:0.62564 4:0.683859 5:0.712251 6:0.421674 7:0.236672 8:0.308743 9:0.439676 10:0.650614 11:0.613192 12:0.0636877 13:0.442217 14:0.581487 15:0.206556 16:0.397819 17:0.15576 18:0.317767 19:0.177813 20:0.214347 21:0.143805 22:0.107696 23:0.280038 24:0.157565 25:0.141455 26:0.12398 27:0.191163 28:0.34645 29:0.353403 30:0.174926 
0.3586537219195914 1.080489389322117 1:0.463032 2:0.747158 3:0.525118 4:0.256084 5:0.192244 6:0.0792952 7:0.137407 8:0.206529 9:0.639689 10:0.515597 11:0.358068 12:0.330912 13:0.12247 14:0.395512 15:0.34504 16:0.20758 17:0.244636 18:0.226921 19:0.141194 20:0.129577 21:0.370715 22:0.177133 23:0.371205 24:0.184387 25:0.282087 26:0.153975 27:0.176187 28:0.121492 29:0.406063 30:0.176706 
0.05921794994283607 0.3147790353865401 1:0.396131 2:0.398868 3:0.634705 4:0.494665 5:0.718529 6:0.467863 7:0.481566 8:0.249243 9:0.34187 10:0.248927 11:0.299292 12:0.363022 13:0.443004 14:0.745108 15:0.415736 16:0.314332 17:0.729258 18:0.572317 19:0.609579 20:0.501721 21:0.210286 22:0.592199 23:0.24118 24:0.686462 25:0.511465 26:0.0652032 27:0.246959 28:0.168408 29:0.471491 30:0.451068 
0.1106556720948772 0.1997926945579665 1:0.394474 2:0.875662 3:0.897169 4:0.420465 5:0.160368 6:0.173905 7:0.166556 8:0.303332 9:0.107573 10:0.248682 11:0.748112 12:0.383745 13:0.383148 14:0.883816 15:0.598311 16:0.580053 17:1 18:0.484305 19:0.512288 20:0.442922 21:0.0506456 22:0.269604 23:0.334735 24:0.391623 25:0.152078 26:0.246729 27:0.0840541 28:0.22197 29:0.29987 30:0.0875317 
0.4540917982000844 0.3886329882312355 1:0.468619 2:0.633419 3:0.348265 4:0.0728814 5:0.0300278 6:0.0719683 7:0.216777 8:0.279008 9:0.277884 10:0.395236 11:0.360983 12:0.183695 13:0.167578 14:0.566388 15:0.270233 16:0.619334 17:0.599358 18:0.341133 19:0.188585 20:0.101932 21:0.615364 22:0.168836 23:0.265555 24:0.16317 25:0.338944 26:0.274696 27:0.13091 28:0.440207 29:0.206831 30:0.339264 
0.4728031542041244 1.049528162166184 1:0.544727 2:0.556956 3:0.493036 4:0.411855 5:0.407257 6:0.378337 7:0.344303 8:0.0821197 9:0.279858 10:0.334188 11:0.672522 12:0.481092 13:0.423844 14:0.462088 15:0.520246 16:0.36145 17:0.443571 18:0.373777 19:0.25552 22:0.32285 23:0.0974785 24:0.210382 25:0.152567 26:0.183154 27:0.209138 28:0.059604 29:0.226167 30:0.0278823 
0.3832527590156576 0.4795723819852689 1:0.513663 2:0.58775 3:0.626151 4:0.221091 5:0.381525 6:0.46106 7:0.550542 8:0.361102 9:0.442686 10:0.739364 11:0.306216 12:0.614594 13:0.224534 14:0.288464 15:0.663496 16:0.566494 17:0.800317 18:0.527906 19:0.404242 20:0.24274 21:0.198288 22:0.545737 23:0.315848 24:0.439597 25:0.163233 26:0.195716 27:0.159087 28:0.3432 29:0.398657 30:0.210849 
0.1610518563444142 0.4136439606272037 1:0.490954 2:0.878824 3:0.542946 4:0.0809464 5:0.190894 6:0.321267 7:0.159913 8:0.115541 9:0.348038 10:0.277684 11:0.368111 12:0.208274 13:0.366524 14:0.414705 15:0.239976 16:0.557123 17:0.298418 18:0.367352 19:0.701229 20:0.594297 21:0.203951 22:0.446031 23:0.244059 24:0.348425 25:0.315963 26:0.197187 27:0.302301 28:0.415572 29:0.208621 30:0.139128 
0.06675697360622727 0.9789054712065257 1:0.44303 2:0.793001 3:0.702119 4:0.478068 5:0.394306 6:0.322576 7:0.21842 8:0.155328 9:0.366837 10:0.192731 11:0.232989 12:0.330909 13:0.0280186 14:0.433756 15:0.319912 16:0.298059 17:0.104931 18:0.250243 19:0.389949 20:0.15551 21:0.202264 22:0.191149 23:0.107051 24:0.315386 25:0.58919 26:0.356111 27:0.47826 28:0.531013 29:0.236322 30:0.395575 
0.2642203001810599 0.2576201430432573 1:0.509054 2:0.33117 3:0.209184 4:0.154809 5:0.19012 6:0.0424236 7:0.205329 8:0.26373 9:0.43028 10:0.424506 11:0.523988 12:0.346089 13:0.646157 14:1 15:0.387223 16:0.926606 17:0.426134 18:0.366452 19:0.190231 20:0.126138 21:0.52694 22:0.674743 23:0.239805 24:0.437464 25:0.2864 26:0.3488 27:0.435279 28:1 29:0.577169 30:0.440165 
0.5348949784119718 1.183553551143128 1:0.563889 2:0.529616 3:0.515234 4:0.278348 5:0.217854 6:0.467761 7:0.126408 8:0.113453 9:0.16461 10:0.325286 11:0.673937 12:0.26184 13:0.309488 14:0.515383 15:0.235635 16:0.25173 17:0.173525 18:0.102711 19:0.286996 20:0.17929 21:0.130382 22:0.096764 23:0.118591 24:0.151606 25:0.200486 26:0.11649 27:0.171717 28:0.0707919 29:0.182878 30:0.0572968 
0 1.138725701801328 1:0.23806 2:0.545352 3:0.65207 4:0.695522 5:0.71134 6:0.515766 7:0.343194 8:0.55683 9:0.497892 10:0.352237 11:0.639713 12:0.168029 13:0.433351 14:0.434349 15:0.34696 16:0.356368 17:0.214746 18:0.314253 19:0.48462 20:0.216841 21:0.0989461 22:0.263333 23:0.288487 24:0.267431 25:0.345687 26:0.251529 27:0.406315 28:0.369027 29:0.422307 30:0.216409 
0.291054696840733 0.934599273045757 1:0.488873 2:0.743388 3:0.57647 4:0.48669 5:0.0937516 6:0.0179866 7:0.298595 8:0.324821 9:0.596667 10:0.658672 11:0.653836 12:0.471729 13:0.15411 14:0.144318 15:0.0391223 16:0.242893 17:0.222527 18:0.341915 19:0.0599765 20:0.0701908 21:0.147101 22:0.241521 23:0.243606 24:0.283918 25:0.184112 26:0.129661 27:0.25495 28:0.111583 29:0.143542 30:0.0831291 
0.1877081581589501 0.2792432584754299 1:0.302895 2:0.425969 3:0.375259 4:0.406021 5:0.214686 6:0.427877 7:0.435748 8:0.536482 9:0.56701 10:0.665019 11:0.666853 12:0.726199 13:0.635048 14:0.520571 15:1 16:0.642701 17:0.551383 18:0.871444 19:0.190759 20:0.352281 21:0.77486 22:0.386046 23:0.473771 24:0.382269 25:0.566186 26:0.275258 27:0.589945 28:0.347203 29:0.679439 30:0.284816 
0.2368723802598165 1.555706683036782 1:0.430823 2:0.522198 3:0.700758 4:0.501747 5:0.52641 6:0.424087 7:0.398894 8:0.309008 9:0.463166 10:0.277383 11:0.178169 12:0.244753 13:0.144202 14:0.315249 15:0.07195 16:0.125772 17:0.0973953 18:0.518916 19:0.375078 20:0.131164 21:0.190344 22:0.37006 23:0.419239 24:0.391274 25:0.164541 26:0.222875 27:0.184032 28:0.324672 29:0.288948 30:0.171522 
0.3501656295753123 0.1279284297961795 1:0.357246 2:0.403033 3:0.497293 4:0.639327 5:0.544572 6:0.56115 7:0.440836 8:0.227535 9:0.363255 10:0.235124 11:0.320305 12:0.385182 13:0.514007 14:0.409648 15:0.364778 16:0.672123 17:0.661827 18:0.658451 19:0.543071 20:0.381226 21:0.266224 22:0.739689 23:0.497495 24:0.408431 25:0.347273 26:0.291331 27:0.350524 28:0.468768 29:0.727194 30:0.411339 
0.184524955898954 0.3219512244301939 1:0.392146 2:0.456687 3:0.682331 4:0.538953 5:0.624987 6:0.340973 7:0.476767 8:0.121668 9:0.213577 10:0.134648 11:0.117659 12:0.303158 13:0.293264 14:0.154098 15:0.296608 16:0.296138 17:0.696589 18:0.157405 19:0.186582 20:0.377714 21:0.665009 22:0.30315 23:0.13304 24:0.591184 25:0.663154 26:0.616984 27:0.394875 28:0.338419 29:0.273021 30:0.201343 
0.2090416624784247 0.3962543600073059 1:0.558196 2:0.568922 3:0.250126 4:0.383242 5:0.605533 6:0.719439 7:0.391674 8:0.258128 9:0.411843 10:0.477752 11:0.331665 12:0.483426 13:0.51913 14:0.92311 15:0.502034 16:0.725502 17:0.341844 18:0.36904 19:0.59895 20:0.23361 21:0.457063 22:0.623062 23:0.432713 24:0.34202 25:0.221652 26:0.251642 27:0.410527 28:0.279968 29:0.848652 30:0.481581 
0.3280310657797195 1.369195462271669 1:0.504233 2:0.600367 3:0.657987 4:0.647708 5:0.182362 6:0.362332 7:0.500148 8:0.281602 9:0.109745 10:0.103839 11:0.228338 12:0.236586 13:0.286572 14:0.194878 15:0.0950697 16:0.238083 17:0.758891 18:0.124897 19:0.113543 20:0.163345 21:0.170237 22:0.155891 23:0.186183 24:0.341554 25:0.22506 26:0.0399673 27:0.136739 28:0.216655 29:0.282581 30:0.139377 
0.2769475344691801 0.3499558245362313 1:0.527212 2:0.541642 3:0.347984 4:0.116708 5:0.257703 6:0.243226 7:0.241154 8:0.506373 9:1 10:0.738183 11:0.292022 12:0.303987 13:0.00557432 14:0.161105 15:0.186794 16:0.155347 17:0.428994 18:0.425673 19:0.122673 20:0.266066 21:0.390095 22:0.276264 23:0.218475 24:0.117123 25:0.12502 26:0.2426 27:0.240089 28:0.183545 29:0.305005 30:0.396067 
0.1951255488278269 0.2978122371003379 1:0.467716 2:0.903735 3:0.554986 4:0.225576 5:0.117529 6:0.169132 7:0.335058 8:0.356312 9:0.431248 10:0.0493599 11:0.531714 12:0.311525 13:0.618628 14:0.409663 15:0.068224 16:0.52236 17:0.584544 18:0.903656 19:0.707465 20:1 21:1 22:0.960892 23:0.323991 24:0.243258 25:0.436536 26:0.345698 27:0.256583 28:0.44109 29:0.305623 30:0.286767 
2 2 1:0.470577 2:0.499515 3:0.504153 4:0.367376 5:0.367984 6:0.310838 7:0.283211 8:0.0846625 9:0.140989 10:0.169277 11:0.0821649 12:0.132107 13:0.228531 14:0.150339 15:0.188591 16:0.137812 17:0.144196 18:0.179489 19:0.417912 20:0.220188 21:0.131571 22:0.160259 23:0.0403563 24:0.336012 25:0.181659 26:0.186207 27:0.059733 28:0.0572077 29:0.160546 30:0.104051 
0.1530310431450922 0.5939079990628093 1:0.367554 2:0.345539 4:0.730511 5:0.781601 6:0.587011 7:0.627901 8:0.0210721 9:0.731647 10:0.703484 11:0.641323 12:0.545081 13:0.380516 14:0.230723 15:0.300933 16:0.179845 17:0.26707 18:0.178834 19:0.305093 20:0.312033 21:0.219669 22:0.257454 23:0.299856 24:0.213887 25:0.29495 26:0.362445 27:0.140144 28:0.420893 29:0.37116 30:0.437412 
0.1932613661965925 0.3239200877621041 1:0.427207 2:0.276991 3:0.465101 4:0.21013 5:0.148105 6:0.657379 7:1 8:0.658974 9:0.713595 10:0.735446 11:0.279346 12:0.768867 13:0.316831 14:0.284808 15:0.336887 16:0.427294 17:0.201311 18:0.423073 19:0.633387 20:0.239857 21:0.768184 22:1 23:0.739537 24:0.688265 25:0.572776 26:0.490399 27:0.347571 28:0.102883 29:0.155372 30:0.449532 
0.1583933544590792 0.3097197582938721 1:0.476861 2:0.130737 3:0.709609 4:0.75327 5:0.476122 6:0.519151 7:0.288742 8:0.328426 9:0.44032 10:0.180954 11:0.0942936 12:0.219719 13:0.253922 14:0.475171 15:0.362248 16:0.477448 17:0.774813 18:0.442092 19:0.247172 20:0.588176 21:0.26717 22:0.627027 23:0.254597 24:0.424709 25:0.471427 26:0.472689 27:0.315538 28:0.225043 29:0.86274 30:0.263078 
0.7969023756584788 1.064402876238039 1:0.544376 2:0.690299 3:0.505183 4:0.423208 5:0.303338 6:0.234209 7:0.174992 8:0.112257 9:0.13343 10:0.212665 11:0.190707 12:0.057375 13:0.0760868 14:0.0984082 15:0.0193136 16:0.0457029 17:0.0421301 18:0.152204 19:0.324343 20:0.24404 21:0.108158 22:0.302006 23:0.117677 24:0.434205 25:0.423718 26:0.290049 27:0.260576 28:0.229404 29:0.286551 30:0.241579 
-0.4007086611663166 2 1:0.676874 2:0.181581 3:0.162302 4:0.0513949 5:0.365926 6:0.142482 7:0.153304 8:0.204541 9:0.318383 10:0.209776 11:0.3053 12:0.173993 13:0.159958 14:0.248182 15:0.149361 16:0.146162 17:0.143338 18:0.289485 19:0.249719 20:0.0639796 21:0.10004 22:0.241589 23:0.0390077 24:0.190983 25:0.209191 26:0.113544 27:0.172886 28:0.0390394 29:0.293643 30:0.277497 
-0 2 1:0.62496 2:0.441237 3:0.340291 4:0.084835 5:0.347518 6:0.212473 7:0.183928 8:0.227102 9:0.0709767 10:0.16674 11:0.241841 12:0.186847 13:0.167528 14:0.192021 15:0.102939 16:0.180678 17:0.155776 18:0.158818 19:0.115762 20:0.0915133 21:0.123545 22:0.123906 23:0.0987299 24:0.239943 25:0.150074 26:0.129299 27:0.166795 28:0.160812 29:0.172838 30:0.11026 
-0 0.02820651646177431 1:0.234197 2:0.15842 3:0.0609535 4:0.0487766 5:0.0540634 6:0.0106401 7:0.0973313 8:0.058109 9:0.0774238 10:0.0634887 11:0.0586791 12:0.0706197 13:0.113494 14:0.0918687 15:0.10573 16:0.0892066 17:0.0946973 18:0.100811 19:0.171385 20:0.099009 21:0.0977667 22:0.130961 23:0.111953 24:0.117418 25:0.0399064 26:0.0837506 27:0.180391 28:0.142111 29:0.192095 30:0.121553 
-1.417811069964494 1.826152830810867 1:0.363292 2:0.379834 3:0.505844 4:0.0607913 5:0.642695 6:0.528721 7:0.135409 9:0.18487 10:0.0428614 11:0.284695 12:0.135809 13:0.0826071 14:0.0834868 15:0.0300173 16:0.0806893 17:0.140398 18:0.0820563 19:0.157437 20:0.068629 21:0.107804 22:0.023362 23:0.0556509 24:0.244744 25:0.10713 26:0.166772 27:0.0617112 28:0.0941174 29:0.153524 30:0.157212 
-0.6760531445880126 0.3936667776659448 1:0.151895 2:0.204907 3:0.0857081 5:0.122398 6:0.0200372 7:0.010482 8:0.0117182 9:0.0651714 10:0.0578722 12:0.0506692 13:0.088914 14:0.0346258 15:0.0348957 16:0.107105 17:0.0627629 20:0.06501 21:0.0513191 22:0.103939 23:0.0353374 24:0.041632 25:0.0757882 26:0.0420108 27:0.0305068 28:0.0566713 29:0.125574 30:0.0398394 
-2 2 1:0.547604 2:0.430469 3:0.49177 4:0.470592 5:0.534821 6:0.260186 7:0.345549 8:0.209411 9:0.324422 10:0.237177 11:0.243187 12:0.172614 13:0.171837 14:0.219156 15:0.149609 16:0.296296 17:0.155964 18:0.283783 19:0.0912076 20:0.155432 21:0.0753835 22:0.222558 23:0.142296 24:0.241201 25:0.200734 26:0.156777 27:0.116201 28:0.0923741 29:0.236097 30:0.083622 
-0.2611826083343673 0.164703535542818 1:0.368502 2:0.354844 3:0.277402 4:0.222689 5:0.210457 6:0.269319 7:0.286833 8:0.17776 9:0.255273 10:0.273124 11:0.400628 12:0.350305 13:0.311602 14:0.408755 15:0.354849 16:0.4482 17:0.430461 18:0.53751 19:0.362432 20:0.184308 21:0.422111 22:0.567575 23:0.391502 24:0.421939 25:0.572165 26:0.467771 27:0.408252 28:0.556819 29:0.549932 30:0.502755 
-1.081180345748117 2 1:0.565229 2:0.54389 3:0.313225 4:0.272061 5:0.30022 6:0.420544 7:0.305127 8:0.280196 9:0.197528 10:0.276862 11:0.357832 12:0.218681 13:0.195482 14:0.158808 15:0.240237 16:0.347289 17:0.280662 18:0.211448 19:0.23893 20:0.174178 21:0.131632 22:0.210957 23:0.163711 24:0.257692 25:0.194446 26:0.306744 27:0.157678 28:0.170021 29:0.284149 30:0.186472 
-2 2 1:0.615323 2:0.72892 3:0.478856 4:0.292658 5:0.410582 6:0.20159 7:0.191798 8:0.196433 9:0.291034 10:0.14792 11:0.21255 12:0.149097 13:0.186517 14:0.104681 15:0.135281 16:0.15482 17:0.118101 18:0.114251 19:0.176683 20:0.0581067 21:0.11531 22:0.180664 23:0.141705 24:0.0573316 25:0.127023 26:0.159769 27:0.207569 28:0.0474712 29:0.185564 30:0.0729369 
-0.7644676392594085 0.9349325302319407 1:0.805667 2:0.445577 3:0.255648 4:0.143517 5:0.363289 6:0.237108 7:0.19907 8:0.234929 9:0.337963 10:0.297041 11:0.295112 12:0.293903 13:0.426738 14:0.303694 15:0.432184 16:0.439041 17:0.370566 18:0.46919 19:0.427054 20:0.424185 21:0.31117 22:0.694186 23:0.327397 24:0.469744 25:0.621044 26:0.357191 27:0.450626 28:0.551245 29:0.843267 30:0.399405 
-0.1063385903878514 0 1:0.507849 2:0.526037 3:0.239605 4:0.0792931 5:0.205819 6:0.151534 7:0.161643 8:0.129618 9:0.115281 10:0.177558 11:0.259388 12:0.185798 13:0.198824 14:0.242332 15:0.164362 16:0.332963 17:0.234777 18:0.29802 19:0.310316 20:0.217024 21:0.380521 22:0.441805 23:0.323877 24:0.344186 25:0.293493 26:0.342406 27:0.3463 28:0.355521 29:0.512446 30:0.417603 
-1.803537047408209 1.444660934710902 1:0.451342 2:0.3573 3:1 4:1 5:0.522821 6:0.568262 7:0.530123 8:0.22645 9:0.178779 10:0.481687 11:0.622763 12:0.237499 13:0.664568 14:0.319277 15:0.435888 16:0.479683 17:0.602317 18:0.541499 19:0.362118 20:0.398579 21:0.79711 22:0.701573 23:0.437034 24:0.38455 25:0.74555 26:0.780819 27:0.86189 28:0.472124 29:0.539677 30:0.664375 
-0.2007232051096742 0.1813986786562632 1:0.615415 2:0.597684 3:0.306312 4:0.223968 5:0.246465 6:0.210299 7:0.236456 8:0.131516 9:0.267121 10:0.252665 11:0.28782 12:0.234854 13:0.356383 14:0.290247 15:0.361574 16:0.310575 17:0.378493 18:0.354552 19:0.338227 20:0.221818 21:0.55157 22:0.516992 23:0.383589 24:0.381982 25:0.543584 26:0.449333 27:0.503434 28:0.44585 29:0.955356 30:0.469355 
-0.6001436647268197 1.206458238383742 1:0.167979 2:0.466354 3:0.386212 4:0.109981 5:0.189484 6:0.121529 7:0.114341 8:0.0488116 9:0.0607553 10:0.1824 11:0.0530859 12:0.123428 13:0.1756 14:0.13541 15:0.0673964 16:0.126501 17:0.0798396 18:0.211638 19:0.118967 20:0.111714 21:0.109459 22:0.0928669 23:0.0902341 24:0.059317 25:0.127373 26:0.081083 27:0.228397 28:0.0839274 29:0.216809 30:0.0397639 
-0.4488863468053907 0.4411712784741959 1:0.740059 2:0.441536 3:0.349321 4:0.239742 5:0.260462 6:0.297715 7:0.281179 8:0.181051 9:0.246213 10:0.293966 11:0.499868 12:0.236199 13:0.346047 14:0.328542 15:0.277558 16:0.357063 17:0.437434 18:0.347498 19:0.471383 20:0.292624 21:0.396705 22:0.530709 23:0.395238 24:0.343432 25:0.617248 26:0.488704 27:0.723717 28:0.486813 29:0.864438 30:0.539694 
-0.0058212245540527 1.383533633053712 1:0.53999 2:0.517197 3:0.17321 4:0.012327 5:0.101739 6:0.292384 7:0.192011 8:0.145191 9:0.0752312 10:0.0974319 11:0.118432 12:0.169932 13:0.122595 14:0.138013 15:0.0507189 16:0.0796021 17:0.11011 18:0.116973 19:0.0878752 20:0.0609553 21:0.183462 22:0.0761657 23:0.0771875 24:0.114158 25:0.164512 26:0.10203 27:0.155234 28:0.102064 29:0.114007 30:0.144305 
-0.6071908143363842 2 1:0.245442 2:0.250505 3:0.115564 4:0.308996 5:0.113378 6:0.0773161 8:0.0375887 9:0.070807 10:0.0489623 11:0.0258226 12:0.0712629 13:0.0358037 14:0.0624357 15:0.00222209 17:0.0263176 18:0.0695644 19:0.0511696 20:0.013531 21:0.00692902 22:0.0698981 23:0.0326507 24:0.0486226 25:0.0749293 26:0.0190527 27:0.0785645 28:0.0533001 29:0.12945 30:0.0244428 
-0 2 1:0.259698 2:0.348106 3:0.315091 4:0.103575 5:0.10928 6:0.0870395 7:0.0793022 8:0.000383659 9:0.0341909 10:0.139662 11:0.122696 12:0.0621356 13:0.0201818 14:0.0885915 15:0.0710684 16:0.100303 17:0.0346883 18:0.0932324 19:0.0489624 20:0.0807497 21:0.0419064 22:0.104054 23:0.0313197 24:0.130089 25:0.0675436 27:0.0926371 28:0.0699868 29:0.191129 30:0.024561 
-0 2 1:0.393134 2:0.42152 3:0.238441 4:0.170959 5:0.254076 6:0.116504 7:0.163273 8:0.12891 9:0.0977005 10:0.0919079 11:0.126415 12:0.104739 13:0.142061 14:0.111042 15:0.101519 16:0.191721 17:0.173866 18:0.146688 19:0.148178 20:0.0406319 21:0.0931302 22:0.052162 23:0.0764007 24:0.129876 25:0.132592 26:0.120696 27:0.147204 28:0.153148 29:0.145175 30:0.148946 
-0.3159307315548907 1.330266980840201 1:0.544569 2:0.339106 3:0.369243 4:0.262596 5:0.154998 6:0.210294 7:0.219095 8:0.208791 9:0.207779 10:0.23228 11:0.254826 12:0.165607 13:0.227137 14:0.21569 15:0.186342 16:0.254208 17:0.286778 18:0.258883 19:0.18615 20:0.198983 21:0.22527 22:0.627652 23:0.3131 24:0.410065 25:0.419066 26:0.276225 27:0.477059 28:0.38321 29:0.677212 30:0.375269 
-1.034567360068843 0.8753475403037783 1:0.333724 2:0.232643 3:0.238665 4:0.190292 5:0.142571 6:0.245 7:0.140043 8:0.154081 9:0.313056 10:0.254525 11:0.262999 12:0.276279 13:0.169399 14:0.191853 15:0.384368 16:0.204222 17:0.302218 18:0.475137 19:0.2735 20:0.223382 21:0.499979 22:0.336183 23:0.200468 24:0.564593 25:0.373801 26:0.162138 27:0.591648 28:0.43049 29:0.475322 30:0.462464 
-0.02443089249941999 2 1:0.592315 2:0.376789 3:0.133445 4:0.0957572 5:0.0888292 6:0.142597 7:0.263088 8:0.109651 9:0.129956 10:0.115018 11:0.0415952 12:0.0765719 13:0.0938463 14:0.151363 15:0.0516242 16:0.118863 17:0.0741094 18:0.083488 19:0.10752 20:0.0460503 21:0.0583171 22:0.100114 23:0.090394 24:0.0188009 25:0.142115 26:0.0640961 27:0.168187 28:0.0941865 29:0.140857 30:0.184464 
-0.3751776079056859 0.7870786896973982 1:0.204898 2:0.54332 3:0.134892 4:0.14157 5:0.211862 6:0.161516 7:0.220458 8:0.189426 9:0.221387 10:0.20689 11:0.204409 12:0.156573 13:0.280012 14:0.261336 15:0.27531 16:0.288877 17:0.220987 18:0.42099 19:0.356108 20:0.222685 21:0.29524 22:0.414855 23:0.274724 24:0.356507 25:0.360517 26:0.374188 27:0.430107 28:0.435992 29:0.437034 30:0.333859 
-0.3568147742421032 0.03470954938641008 1:0.475669 2:0.225502 3:0.19225 4:0.066926 5:0.206355 6:0.0850028 7:0.0957311 8:0.136407 9:0.0866629 10:0.20154 11:0.172078 12:0.0487289 13:0.186495 14:0.144492 15:0.141772 16:0.224927 17:0.231485 18:0.254538 19:0.26319 20:0.0988934 21:0.217492 22:0.350913 23:0.197657 24:0.338977 25:0.364766 26:0.218488 27:0.286412 28:0.355811 29:0.495422 30:0.237173 
-1.035474004161157 2 1:0.592427 2:0.391069 3:0.148685 4:0.452287 5:0.26605 6:0.404317 7:0.127959 8:0.256975 9:0.30602 10:0.307975 11:0.261925 12:0.194357 13:0.301612 14:0.246311 15:0.141516 16:0.254304 17:0.254068 18:0.256056 19:0.149686 20:0.141555 21:0.102725 22:0.162849 23:0.166324 24:0.235148 25:0.163314 26:0.255488 27:0.127243 28:0.127214 29:0.126136 30:0.145552 
-0.1902782771202728 0 1:0.379836 2:0.141158 3:0.0323394 4:0.0518188 5:0.133818 6:0.0890785 7:0.0747275 8:0.0642544 9:0.109425 10:0.0776409 11:0.11367 12:0.0933398 13:0.0769431 14:0.115746 15:0.0623539 16:0.146083 17:0.17445 18:0.165021 19:0.162496 20:0.142916 21:0.14646 22:0.206167 23:0.168856 24:0.184555 25:0.219237 26:0.239154 27:0.337636 28:0.205489 29:0.394596 30:0.183884 
-0.3277384400983704 1.499798030539298 1:0.597606 2:0.469446 3:0.247124 4:0.0655687 5:0.47944 6:0.263475 7:0.295622 8:0.339261 9:0.309917 10:0.327123 11:0.447124 12:0.168986 13:0.281445 14:0.229114 15:0.170281 16:0.335645 17:0.103294 18:0.286974 19:0.158312 20:0.130676 21:0.0986427 22:0.259432 23:0.191602 24:0.214081 25:0.12876 26:0.189563 27:0.293802 28:0.176263 29:0.20288 30:0.133297 
-2 1.82531253034411 1:0.320837 2:0.807296 3:0.511777 4:0.370641 5:0.203583 6:0.600029 7:0.22399 8:0.0850061 9:0.127599 10:0.120754 11:0.401407 12:0.18769 13:0.129475 14:0.0858076 15:0.0744475 16:0.267607 17:0.248338 18:0.221161 19:0.279052 20:0.116687 21:0.217719 22:0.419236 23:0.0733029 24:0.303665 25:0.305549 26:0.383568 27:0.308028 28:0.244197 29:0.351085 30:0.306402 
-2 1.853872090130917 1:0.429042 2:0.651002 3:0.463663 4:0.248968 5:0.37157 6:0.140039 7:0.274357 8:0.274932 9:0.352291 10:0.545458 11:0.203838 12:0.499493 13:0.269758 14:0.297427 15:0.271121 16:0.270468 17:0.588511 18:0.24302 19:0.567316 20:0.0175119 21:0.438919 22:0.490636 23:0.16668 24:0.456913 25:0.197544 26:0.376067 27:0.0816056 28:0.2624 29:0.453063 30:0.120691 
-0.8042513452725499 0.5182577379533521 1:0.226636 2:0.327376 3:0.100568 4:0.256563 5:0.217379 6:0.163378 7:0.210582 8:0.177629 9:0.232543 10:0.226312 11:0.399173 12:0.228971 13:0.31874 14:0.396769 15:0.230778 16:0.48913 17:0.217218 18:0.486357 19:0.369002 20:0.215861 21:0.342323 22:0.407336 23:0.449936 24:0.411239 25:0.650045 26:0.409001 27:0.560733 28:0.391573 29:0.576123 30:0.490025 
-1.176071588733755 0.7718137397723894 1:0.577899 2:0.643091 3:0.314013 4:0.275579 5:0.283795 6:0.352019 7:0.306429 8:0.287717 9:0.393325 10:0.287705 11:0.412466 12:0.301 13:0.346483 14:0.406152 15:0.410653 16:0.474651 17:0.339572 18:0.476318 19:0.506288 20:0.444303 21:0.572025 22:0.80853 23:0.441915 24:0.639826 25:0.700604 26:0.50963 27:0.776707 28:0.657216 29:0.879555 30:0.66522 
-1.178750128175588 -1.469247087797059 1:0.685271 2:0.273716 3:0.188132 4:0.322361 5:0.649812 6:0.10892 7:0.260058 8:0.215478 9:0.322286 10:0.297402 11:0.189134 12:0.327562 13:0.149112 14:0.287837 15:0.29359 16:0.379577 17:0.251773 18:0.15032 19:0.146649 20:0.211175 21:0.300266 22:0.342886 23:0.324282 24:0.388364 25:0.368458 26:0.247016 27:0.428525 28:0.278098 29:0.559429 30:0.345039 
-0.02775425035830497 -0 1:0.527401 2:0.726755 3:0.632775 4:0.333541 5:0.153836 6:0.253662 7:0.252099 8:0.251432 9:0.178805 10:0.245577 11:0.0753826 12:0.0378144 13:0.135167 14:0.00953189 15:0.0729675 16:0.147256 18:0.105259 19:0.00798407 20:0.0676903 21:0.0334547 22:0.0848446 23:0.0455867 24:0.111311 25:0.0694462 26:0.0661376 27:0.0834388 28:0.0566046 29:0.0976582 
-1.701131285130703 -0 1:0.548488 2:0.670548 3:0.801563 4:0.707117 5:0.194267 6:0.279652 7:0.433229 8:0.305415 9:0.454647 10:0.24376 11:0.19752 12:0.353716 13:0.262984 14:0.309818 15:0.260398 16:0.335605 17:0.325201 18:0.365744 19:0.297207 20:0.277041 21:0.296406 22:0.202903 23:0.246629 24:0.2338 25:0.126609 26:0.301085 27:0.317295 28:0.137825 29:0.335412 30:0.208349 
-0.3572969118019259 -1.500358747549313 1:0.624737 2:0.180147 3:0.26487 4:0.0597127 5:0.0463235 6:0.141887 7:0.0876675 8:0.0207204 11:0.070643 12:0.0056642 13:0.0324734 14:0.0526652 15:0.0279734 16:0.0502112 17:0.0335811 18:0.0578584 19:0.0818268 20:0.0694197 21:0.0267028 22:0.0878785 23:0.0554836 24:0.0451407 25:0.0281146 26:0.0403548 27:0.161732 28:0.0637904 29:0.0825433 30:0.0552009 
-0 -2 1:0.577105 2:0.299125 3:0.118096 4:0.10015 5:0.098625 6:0.153477 7:0.180861 8:0.0928722 9:0.101471 10:0.207461 11:0.0746293 12:0.0821077 13:0.059973 14:0.0958403 15:0.0329774 16:0.133717 17:0.155208 18:0.16855 19:0.0957978 20:0.116857 21:0.108321 22:0.114922 23:0.140495 24:0.0351478 26:0.165109 27:0.0405547 28:0.0105209 29:0.16179 30:0.120814 
-1.031864544162759 -0 1:0.700542 2:0.789087 3:0.830857 4:0.241411 5:0.103661 6:0.255956 7:0.165816 8:0.0470397 9:0.272384 10:0.220402 11:0.253538 12:0.175186 13:0.0606369 14:0.123124 15:0.145156 16:0.24721 17:0.105205 18:0.0854626 19:0.0797251 20:0.141686 21:0.186323 22:0.0912414 23:0.0817503 24:0.131967 25:0.238322 26:0.0368033 27:0.0726159 28:0.157396 29:0.262417 30:0.140546 
-1.683846834692561 -0.3152505358164986 1:0.570089 2:0.582847 3:0.750905 4:0.655303 5:0.806712 6:0.64312 7:0.641985 8:0.500332 9:0.534438 10:0.558669 11:0.554059 12:0.394105 13:0.415397 14:0.436959 15:0.35163 16:0.402195 17:0.357078 18:0.449707 19:0.351828 20:0.303369 21:0.417118 22:0.35029 23:0.31645 24:0.484927 25:0.484682 26:0.355477 27:0.487132 28:0.386221 29:0.621428 30:0.389226 
-1.664997730428871 -0.5440872700254143 2:0.515316 3:0.323256 4:0.884605 5:0.428614 6:0.927235 7:0.637625 8:0.896928 9:0.75425 10:0.956043 11:0.385494 12:0.343149 13:0.964287 14:0.300929 15:0.461573 16:0.256752 17:0.450482 18:0.266814 19:0.316862 20:0.314285 21:0.282315 22:0.69618 23:0.287448 24:0.450171 25:0.429364 26:0.215421 27:0.251739 28:0.180584 29:0.647397 30:1 
-2 -0.38178693887856 1:0.284912 2:0.990163 3:0.608299 4:0.567612 5:0.430467 6:0.382931 7:0.335929 8:0.237734 9:0.291047 10:0.265485 11:0.278921 12:0.0931032 13:0.189301 14:0.225717 15:0.127592 16:0.276384 17:0.234849 18:0.308545 19:0.191026 20:0.216984 21:0.22034 22:0.26476 23:0.290129 24:0.122313 25:0.137026 26:0.248624 27:0.205004 28:0.211422 29:0.511034 30:0.158801 
-1.033423964418264 -0 1:0.736624 2:0.418622 3:0.881333 4:0.647258 5:0.533404 6:0.310362 7:0.467714 8:0.483202 9:0.469949 10:0.388538 11:0.281578 12:0.20505 13:0.278329 14:0.241656 15:0.233268 16:0.367897 17:0.287754 18:0.372394 19:0.296545 20:0.272961 21:0.379618 22:0.264 23:0.240903 24:0.375704 25:0.325854 26:0.181121 27:0.375782 28:0.273991 29:0.254322 30:0.287461 
-1.590074587336219 -2 1:0.305239 2:0.412657 3:0.373694 4:0.502223 5:0.399211 6:0.21132 7:0.158592 8:0.174889 9:0.16487 10:0.0782233 11:0.128162 12:0.0604739 13:0.197837 14:0.131855 15:0.106254 16:0.131662 17:0.128079 18:0.0672681 19:0.227639 20:0.0527715 21:0.00223799 22:0.0648653 23:0.0400852 24:0.112489 25:0.105741 26:0.143109 27:0.0956552 28:0.12405 29:0.301345 30:0.0761982 
-0.507203363361024 -0 1:0.934059 2:0.488823 3:0.42068 4:0.270112 5:0.420337 6:0.566793 7:0.194705 8:0.103684 9:0.224761 10:0.353227 11:0.225396 12:0.00775884 13:0.0340917 14:0.200358 15:0.124654 16:0.101243 17:0.0807002 18:0.117629 19:0.166864 20:0.041428 21:0.0532717 22:0.107495 23:0.0880371 24:0.144422 25:0.0992475 26:0.0346273 27:0.206889 28:0.115135 29:0.231849 30:0.0777643 
-1.679885015671373 -0.5178530359167285 1:0.0453313 2:0.492083 3:0.660587 4:0.262167 5:0.818006 6:0.9631 7:0.692513 8:0.407081 9:0.298796 10:0.472418 11:0.990839 12:0.681426 13:0.577175 14:0.202957 15:0.394756 16:0.783331 17:0.162519 18:0.341624 19:0.408438 20:0.146879 21:0.548049 22:0.431314 23:0.320711 24:0.64129 25:0.300301 26:0.463669 27:0.606123 28:0.567887 29:0.42117 30:0.147524 
-1.431836321901014 -2 1:0.540062 2:0.635665 3:0.113309 4:0.243718 5:0.0894138 6:0.179759 7:0.23859 8:0.37678 9:0.218561 10:0.292882 11:0.105401 12:0.22369 13:0.379878 14:0.328288 15:0.250199 16:0.224268 17:0.34336 18:0.357575 19:0.385986 20:0.20578 21:0.187931 22:0.379607 23:0.332657 24:0.459171 25:0.242441 26:0.34936 27:0.331239 28:0.447344 29:0.426184 30:0.241633 
-1.183851789520746 -0.419208780668864 1:0.41414 2:0.723476 3:0.665596 4:0.224443 5:0.405802 6:0.388144 7:0.323316 8:0.128605 9:0.313784 10:0.468824 11:0.286715 12:0.160069 13:0.294093 14:0.294141 15:0.0882959 16:0.18497 17:0.353158 18:0.321944 19:0.135687 20:0.236967 21:0.255238 22:0.198361 23:0.247531 24:0.350384 25:0.33586 26:0.167145 27:0.378581 28:0.398263 29:0.357995 30:0.202346 
-0.9502891577730813 -0.1625877376589602 1:0.58348 2:0.773092 3:0.689224 4:0.518061 5:0.415883 6:0.325778 7:0.570785 8:0.333031 9:0.176328 10:0.363888 11:0.417331 12:0.544825 13:0.236262 14:0.375932 15:0.326073 16:0.405341 17:0.205889 18:0.263256 19:0.302538 20:0.222815 21:0.030445 22:0.300739 23:0.179557 24:0.482104 25:0.232967 26:0.105905 27:0.201109 28:0.331748 29:0.41782 30:0.135298 
-0.3795092637106659 -2 1:0.23538 2:0.420889 3:0.427279 4:0.0683577 5:0.0922055 6:0.0958223 7:0.107865 8:0.0927632 9:0.161208 10:0.0587733 11:0.113129 12:0.0659388 13:0.134125 15:0.0685482 16:0.0631769 17:0.0414028 18:0.120215 19:0.105108 20:0.0616369 21:0.016183 22:0.100527 23:0.0707255 24:0.0806976 25:0.0556267 26:0.0632551 27:0.0718547 28:0.0492587 29:0.0555809 30:0.0455181 
-1.683700303374572 -0.557114694843082 1:0.115085 2:0.103498 3:0.131807 4:0.454944 5:0.458611 6:0.667852 7:0.52483 8:0.534259 9:0.579178 10:1 11:0.812062 12:0.49669 13:0.688877 14:0.712627 15:0.542 16:1 17:0.833111 18:0.677184 19:1 20:0.591831 21:0.609637 22:0.821168 23:0.51631 24:0.706568 25:0.775103 26:0.640509 27:0.791543 28:0.523686 29:1 30:0.533545 
-0.5191953477426916 -0 1:0.661624 2:0.392361 3:0.774747 4:0.261707 5:0.41783 6:0.278222 7:0.215563 8:0.155191 9:0.27746 10:0.243806 11:0.280532 12:0.145708 13:0.198674 14:0.241982 15:0.120375 16:0.143941 17:0.147794 18:0.245909 19:0.226135 20:0.133154 21:0.129175 22:0.271418 23:0.107476 24:0.211413 25:0.17779 26:0.180809 27:0.200208 28:0.192818 29:0.242208 30:0.173424 
-0.3091831224692667 -0 1:0.600657 2:0.687424 3:0.615579 4:0.483899 5:0.161083 6:0.416556 7:0.0871356 8:0.0915508 9:0.253724 10:0.141143 11:0.321549 12:0.103784 13:0.144255 14:0.113279 15:0.109889 16:0.129009 17:0.059399 18:0.220452 19:0.0798671 20:0.145435 21:0.00582599 22:0.181612 23:0.00992312 24:0.166829 25:0.0960276 26:0.130553 27:0.142601 28:0.148416 29:0.165997 30:0.110122 
-1.917124829834615 -0.468892494279283 1:0.433761 2:0.651066 3:0.0820365 4:0.776364 5:0.490039 6:0.492971 7:0.237802 8:0.569749 9:0.675503 10:0.474957 11:0.86248 12:0.362504 13:0.189955 14:0.317046 15:0.236241 16:0.200854 17:0.251236 18:0.285146 19:0.147473 20:0.197159 21:0.211098 22:0.222095 23:0.239318 24:0.297481 25:0.303325 26:0.0963347 27:0.174846 28:0.101519 29:0.252299 30:0.151648 
-0.2642356259699786 -0 1:1 2:0.332719 3:0.683391 4:0.726715 5:0.328212 6:0.429129 7:0.429677 8:0.380935 9:0.472997 10:0.384304 11:0.294185 12:0.208161 13:0.331991 14:0.251729 15:0.389621 16:0.366439 17:0.252094 18:0.241137 19:0.335585 20:0.14821 21:0.314601 22:0.140797 23:0.169501 24:0.205996 25:0.329371 26:0.249583 27:0.351355 28:0.284389 29:0.566918 30:0.341421 
-0.6119926133955159 -0.06101225836430289 1:0.808059 2:0.875782 3:0.678629 4:0.665755 5:0.490926 6:0.414895 7:0.61269 8:0.332621 9:0.311732 10:0.357729 11:0.37939 12:0.302306 13:0.42604 14:0.493647 15:0.375713 16:0.587854 17:0.343215 18:0.587167 19:0.238715 20:0.149491 21:0.368915 22:0.375576 23:0.422054 24:0.244089 25:0.335249 26:0.240006 27:0.323659 28:0.362649 29:0.434567 30:0.372214 
-2 -0.5547255399759502 1:0.422605 2:0.562643 3:0.465698 4:0.32474 5:0.765192 6:0.568389 7:0.358703 8:0.280402 9:0.309464 10:0.296167 11:0.263635 12:0.175119 13:0.323204 14:0.373991 15:0.283522 16:0.296765 17:0.311884 18:0.385334 19:0.354721 20:0.241398 21:0.28781 22:0.213358 23:0.232253 24:0.445492 25:0.290705 26:0.319262 27:0.414859 28:0.271566 29:0.214935 30:0.332511 
-2 -0.1373401529744782 1:0.474492 2:0.484379 3:0.654063 4:0.519986 5:0.561095 6:0.320033 7:0.210001 8:0.121462 9:0.252594 10:0.205904 11:0.381055 12:0.285382 13:0.347565 14:0.289653 15:0.27552 16:0.343255 17:0.405375 18:0.324209 19:0.291941 20:0.182591 21:0.125719 22:0.248346 23:0.219697 24:0.273764 25:0.319329 26:0.20634 27:0.259295 28:0.302334 29:0.474148 30:0.274812 
-0 -0.05114361008092643 1:0.702164 2:0.448219 3:0.336332 4:0.2229 5:0.263348 6:0.274289 7:0.332831 8:0.240595 9:0.303724 10:0.157183 11:0.19072 12:0.102626 13:0.205796 14:0.198537 15:0.160856 16:0.160804 17:0.0535656 18:0.154807 19:0.102849 20:0.0954491 21:0.0666174 22:0.0893527 23:0.0774376 24:0.0525457 25:0.0800723 26:0.0304274 27:0.0743262 28:0.0519376 29:0.0999691 30:0.0498906 
-0.5802826776147267 -0.869793283265095 1:0.626499 2:0.351498 3:0.328257 4:0.428096 5:0.171457 6:0.116018 7:0.0988319 8:0.173438 9:0.114481 10:0.285526 11:0.164834 12:0.0789977 13:0.137527 14:0.117922 15:0.157766 16:0.234016 17:0.0963784 18:0.203312 19:0.176268 20:0.0589097 21:0.263083 22:0.0950708 23:0.00651451 24:0.178442 25:0.172086 26:0.0382462 27:0.166524 28:0.134542 29:0.066077 30:0.100732 
-0.2054580914535416 -0.9296635579892991 1:0.783779 2:0.389564 3:0.391377 4:0.201253 5:0.234227 6:0.428194 7:0.39789 8:0.424875 9:0.489563 10:0.437962 11:0.283927 12:0.216595 13:0.380826 14:0.251689 15:0.289181 16:0.362392 17:0.236756 18:0.290897 19:0.221506 20:0.174547 21:0.222809 22:0.34755 23:0.258543 24:0.193997 25:0.217996 26:0.204316 27:0.096737 28:0.196495 29:0.320664 30:0.156147 
-1.380026473602558 -1.152827461517886 1:0.37862 2:1 3:0.403375 4:0.273623 5:0.0868578 6:0.362943 7:0.219656 8:0.224732 9:0.458868 10:0.202016 11:0.355157 12:0.388399 13:0.383511 14:0.294732 15:0.352553 16:0.366986 17:0.202015 18:0.243149 19:0.104393 20:0.141954 21:0.250498 22:0.214418 23:0.151446 24:0.153717 25:0.282383 26:0.207502 27:0.176521 29:0.329312 30:0.358729 
-0.2305666193966653 -0.4046771783760095 1:0.726337 2:0.561304 3:0.482013 4:0.364784 5:0.482401 6:0.565787 7:0.2311 8:0.197396 9:0.290564 10:0.303037 11:0.292858 12:0.134624 13:0.169784 14:0.179244 15:0.115504 16:0.12751 17:0.252309 18:0.261538 19:0.0926369 20:0.200209 21:0.211735 22:0.182563 23:0.152413 24:0.143873 25:0.140439 26:0.152876 27:0.118966 28:0.203361 29:0.254044 30:0.160709 
-0.3409259189175079 -2 1:0.535569 2:0.640729 3:0.586589 4:0.119806 5:0.202465 6:0.203788 7:0.2196 8:0.162645 9:0.114486 10:0.170455 11:0.180115 12:0.0505497 13:0.0455018 14:0.06832 15:0.0799912 16:0.187053 17:0.229404 18:0.133916 19:0.110943 20:0.118224 21:0.083734 22:0.178119 23:0.037818 24:0.175377 25:0.138544 26:0.0970639 27:0.135605 28:0.102116 29:0.182117 30:0.0993569 
-0.4013423812736968 -0.5972043619628553 1:0.516067 2:0.0278351 3:0.302718 4:0.0378535 5:0.117584 6:0.0239851 7:0.0168099 8:0.105986 9:0.146546 10:0.260843 11:0.00675608 12:0.0613482 13:0.06829 14:0.0454069 15:0.0510409 16:0.030632 17:0.0225226 18:0.113724 19:0.143629 20:0.0614337 21:0.140116 22:0.0566379 23:0.0203038 24:0.117553 25:0.083816 26:0.125036 27:0.0903619 28:0.0540443 29:0.0762794 30:0.0798044 
-0 -0.5128893376932789 1:0.633916 2:0.422995 3:0.45823 4:0.270479 5:0.401158 6:0.220679 7:0.115138 8:0.136946 9:0.10207 10:0.205457 11:0.10092 12:0.132138 13:0.0617429 14:0.155378 15:0.0461927 16:0.0784757 17:0.0106421 18:0.150321 19:0.104527 20:0.0169456 21:0.0862279 23:0.062333 24:0.0477718 25:0.116656 26:0.0500886 27:0.087781 28:0.12601 29:0.172779 30:0.0849995 
-1.728452945501139 -0.2227874388678722 1:0.353966 2:0.746702 3:0.533834 4:0.626797 5:0.490266 6:0.66905 7:0.703445 8:0.417182 9:0.261728 10:0.436053 11:0.517005 12:0.49014 13:0.459342 14:0.282183 15:0.241716 16:0.167588 17:0.06468 18:0.2451 19:0.364962 20:0.147281 21:0.101074 22:0.365587 23:0.204087 24:0.234612 25:0.383764 26:0.231642 27:0.152855 28:0.195105 29:0.341318 30:0.261039 
-0.2083302588419408 -0 1:0.785879 2:0.0398397 3:0.162679 4:0.156685 5:0.145429 6:0.0941557 7:0.250144 8:0.186297 9:0.142261 10:0.0970661 11:0.309666 12:0.0682426 13:0.142327 14:0.113312 15:0.106885 16:0.0649815 17:0.049514 18:0.0877211 19:0.111281 20:0.0700084 21:0.00666493 22:0.0343764 23:0.0582729 24:0.0436881 25:0.168804 26:0.0901542 27:0.0258495 28:0.094511 29:0.0960933 30:0.088463 
-0.5235021266890846 -0 1:0.844405 2:0.118614 3:0.816016 4:0.329026 5:0.369968 6:0.321636 7:0.243217 8:0.150694 9:0.236132 10:0.234308 11:0.0935484 12:0.165316 13:0.11388 14:0.0876335 15:0.163364 16:0.221372 17:0.0546317 18:0.1509 19:0.103579 20:0.0598028 21:0.172987 22:0.0542874 23:0.060066 24:0.165124 25:0.0482151 26:0.091385 27:0.103453 28:0.162609 29:0.123325 30:0.0205438 
-1.892468325696909 -2 1:0.25473 2:0.389918 3:0.228579 4:0.424188 5:0.361543 6:0.291158 7:0.280165 8:0.254661 9:0.323616 10:0.193732 11:0.385397 12:0.11362 13:0.105402 14:0.156647 15:0.112456 16:0.243325 17:0.267263 18:0.316436 19:0.199288 20:0.0756351 21:0.17429 22:0.273556 23:0.120478 24:0.280081 25:0.163619 26:0.157382 27:0.153897 28:0.258871 29:0.230851 30:0.0288039 
-1.579073105469179 -0.4535593535749245 1:0.285425 2:0.651949 3:0.491601 4:0.143133 5:0.714308 6:0.523665 7:0.458096 8:0.41663 9:0.385957 10:0.671633 11:0.741956 12:0.271243 13:0.12438 14:0.450836 15:0.316114 16:0.241566 17:0.19208 18:0.186861 19:0.391032 20:0.298963 21:0.271252 22:0.223616 23:0.293405 24:0.317469 25:0.413003 26:0.224655 27:0.539339 28:0.182215 29:0.118468 30:0.230531 
-1.241854383580675 -0.4269112499841168 1:0.409484 2:0.901969 3:0.305981 4:0.577814 5:0.280922 6:0.340014 7:0.382398 8:0.521343 9:0.114616 10:0.0104276 11:0.065859 12:0.268926 13:0.311764 14:0.206271 15:0.238501 16:0.317192 17:0.165794 18:0.16804 19:0.142184 20:0.114246 21:0.0345827 22:0.0875891 23:0.315997 24:0.183069 25:0.208203 26:0.0170936 27:0.122994 28:0.184879 29:0.324383 30:0.0359962 
-0.8658024376526244 -0.4896509867036223 1:0.738386 2:0.111221 3:0.342025 4:0.280742 5:0.311589 6:0.0187454 7:0.231748 8:0.605322 9:0.569133 10:0.394778 11:0.158857 12:0.249582 13:0.350413 14:0.129968 15:0.131105 16:0.0624127 17:0.171701 18:0.175141 19:0.0575723 20:0.0122604 21:0.0778547 22:0.088728 23:0.106101 24:0.124866 25:0.197267 26:0.0214916 27:0.0851813 28:0.081026 29:0.232641 30:0.113236 
-0.4080953449417746 -0 1:0.717775 2:0.697287 3:0.508 4:0.492169 5:0.261077 6:0.316191 7:0.307286 8:0.256219 9:0.265724 10:0.247013 11:0.260303 12:0.115061 13:0.206871 14:0.177468 15:0.114631 16:0.115896 17:0.048994 18:0.117748 19:0.155411 20:0.077758 21:0.151662 22:0.203511 23:0.151907 24:0.24669 25:0.135115 26:0.0730119 27:0.0656262 28:0.144278 29:0.237597 30:0.123331 
-0 -1.430624998309862 1:0.60263 2:0.582583 3:0.402788 4:0.399394 5:0.237664 6:0.353982 7:0.28476 8:0.126341 9:0.241278 10:0.273584 11:0.19589 12:0.249468 13:0.13643 14:0.118398 15:0.123003 16:0.146131 17:0.24895 18:0.193197 19:0.149071 20:0.0781462 21:0.166294 22:0.0825192 23:0.160272 24:0.217847 25:0.0559129 26:0.0918904 27:0.285909 28:0.091835 29:0.303253 30:0.108757 
-0 -2 1:0.581941 2:0.357848 3:0.426881 4:0.144436 5:0.489403 6:0.173926 7:0.302354 8:0.107034 9:0.327133 10:0.107952 11:0.249744 12:0.10774 13:0.199059 14:0.135588 15:0.194085 16:0.153753 17:0.1206 18:0.247947 19:0.129766 20:0.0681382 21:0.0750017 22:0.204306 23:0.147604 24:0.231673 25:0.156939 26:0.104523 27:0.174712 28:0.119662 29:0.297469 30:0.0384315 
-0.05438056267972399 -0 1:0.708711 2:0.275136 3:0.0622201 4:0.103534 5:0.104231 6:0.187558 7:0.135986 8:0.0923666 9:0.160507 10:0.088125 11:0.0498672 12:0.0139205 14:0.063683 15:0.0357886 16:0.0732388 17:0.0289608 18:0.165928 19:0.00325193 20:0.042487 21:0.0449388 22:0.0511352 24:0.0328515 25:0.0142335 26:0.0599731 27:0.126773 28:0.0332416 29:0.0852857 30:0.0927166 
-0 -2 1:0.55522 2:0.251516 3:0.204762 4:0.0512614 5:0.231007 6:0.170493 7:0.122238 8:0.101297 9:0.184883 10:0.160553 11:0.190021 12:0.0536671 13:0.0883602 14:0.0781405 15:0.090242 16:0.120405 17:0.181115 18:0.259799 19:0.0875859 20:0.10425 21:0.0591028 22:0.0113074 23:0.0558616 24:0.0457946 25:0.162703 26:0.011151 27:0.131314 28:0.0433511 30:0.0247581 
-0.5718192021363814 -1.386668470169508 1:0.622013 2:0.259717 3:0.519014 4:0.388773 5:0.298953 6:0.377526 7:0.41729 8:0.283087 9:0.284679 10:0.180672 11:0.406732 12:0.303183 13:0.239065 14:0.221967 15:0.237994 16:0.334497 17:0.264091 18:0.251223 19:0.30478 20:0.185047 21:0.251003 22:0.309905 23:0.225053 24:0.225063 25:0.4219 26:0.276625 27:0.419859 28:0.285634 29:0.36687 30:0.309653 
-0.1962462903647821 -0 1:0.875208 2:0.62668 3:0.548146 4:0.516505 5:0.388761 6:0.722491 7:0.484957 8:0.279764 9:0.593259 10:0.441621 11:0.668179 12:0.297537 13:0.405176 14:0.387296 15:0.243687 16:0.39882 17:0.254584 18:0.351589 19:0.370364 20:0.286277 21:0.32495 22:0.257101 23:0.294643 24:0.320419 25:0.276065 26:0.325149 27:0.404404 28:0.338087 29:0.361736 30:0.409836 
-0 -0.6592984387089197 1:0.615607 2:0.345566 3:0.129554 4:0.278426 5:0.0727039 6:0.160264 7:0.192768 8:0.111926 9:0.264362 10:0.185671 11:0.0087403 12:0.0656353 13:0.10405 14:0.176482 16:0.11465 17:0.0346311 18:0.182688 19:0.112078 20:0.0366206 21:0.0755749 22:0.0568957 23:0.0909198 24:0.011486 25:0.0694278 26:0.105448 28:0.0441223 29:0.120751 30:0.105204 
-0.3628397130721436 -1.718430553137398 1:0.882626 2:0.566537 3:0.297267 4:0.129539 5:0.50204 6:0.326359 7:0.0878732 8:0.222479 9:0.294894 10:0.208743 11:0.17125 12:0.193172 13:0.230688 14:0.130559 15:0.103535 16:0.221748 17:0.124938 18:0.218622 19:0.231496 20:0.0741256 21:0.117773 22:0.238419 23:0.0591201 24:0.112907 25:0.226687 26:0.273811 27:0.0508647 28:0.229104 29:0.344408 30:0.0385809 
-0 -0.997778358097705 1:0.656313 2:0.549804 3:0.222089 4:0.250789 5:0.271952 6:0.233474 7:0.286959 8:0.149655 9:0.135545 10:0.145781 11:0.180645 12:0.000860898 13:0.11888 14:0.110497 15:0.0072164 16:0.146302 17:0.0714598 18:0.0615952 19:0.128578 20:0.0417716 21:0.0134656 22:0.138453 23:0.00923878 24:0.072623 25:0.0328641 26:0.0557432 27:0.0367153 28:0.0873624 29:0.102868 30:0.0358437 
-0.9921333997774371 -0.8257121755423653 1:0.871326 2:0.577063 3:0.186258 4:0.328231 5:0.200125 6:0.732018 7:0.183624 8:0.357899 9:0.163353 10:0.313713 11:0.264416 12:0.29746 13:0.386669 14:0.395137 15:0.305167 16:0.398884 17:0.366329 18:0.395114 19:0.323461 20:0.309396 21:0.30155 22:0.382765 23:0.298505 24:0.399863 25:0.479408 26:0.302076 27:0.418764 28:0.491923 29:0.58776 30:0.383329 
-2 -1.282255754229875 1:0.774015 2:0.620413 3:0.560803 4:0.414484 5:0.437234 6:0.338247 7:0.201641 8:0.149439 9:0.217457 10:0.279663 11:0.339396 12:0.250436 13:0.217141 14:0.290773 15:0.0402024 16:0.273582 17:0.188931 18:0.207732 19:0.263106 20:0.145421 21:0.203003 22:0.159027 23:0.109541 24:0.208834 25:0.319975 26:0.228956 27:0.166849 28:0.186164 29:0.183475 30:0.25363 
