svm_type c_svc
kernel_type rbf
gamma 0.5
nr_class 3
total_sv 78
rho -0.909298 -0.399293 -0.0732906
label 1 2 3
nr_sv 22 21 35
SV
0 1.605978342362504 1:0.46006 2:0.253225 3:0.466873 4:0.601007 5:0.300885 6:0.337226 7:0.751653 8:0.321611 9:0.142539 10:0.14744 11:0.426744 12:0.132004 13:0.463979 14:0.369791 15:0.212224 16:0.140996 17:0.237136 18:0.192428 19:0.409475 20:0.122846 21:0.124621 22:0.538787 23:0.199925 24:0.217622 25:0.118593 26:0.270406 27:0.405842 28:0.448713 29:0.45682 30:0.389503 
0 0.2225404518483548 1:0.3984 2:0.283634 3:1 4:0.831887 5:0.364371 6:0.343267 7:0.435277 8:1 9:0.496685 10:0.870525 11:0.401586 12:0.349939 13:0.867154 14:0.290251 15:0.404233 16:0.13556 17:0.299008 18:0.553853 19:0.990778 20:0.82907 21:0.0251113 22:0.627663 23:1 24:1 25:0.557751 26:0.249349 27:0.556313 28:0.194673 29:0.417646 30:0.266885 
0.3135194557813136 0 1:0.143858 2:0.437823 3:0.40838 4:0.154117 5:0.465291 6:0.163357 7:0.672217 8:0.656718 9:0.286419 10:0.268515 11:0.730471 12:0.573271 13:0.279555 14:0.673803 15:0.586738 16:0.513537 17:0.419452 18:0.391441 19:0.455791 20:0.55075 21:0.956071 22:0.936515 23:0.70762 24:0.408075 25:0.839496 26:0.472145 27:0.762607 28:0.858692 29:0.626308 30:0.53108 
0.2736740480486403 0 1:0.196567 2:0.444386 3:0.578724 4:0.359508 5:0.865778 6:0.279476 7:0.63701 8:0.417595 9:0.522092 10:0.720932 11:0.662939 12:0.344553 13:0.613566 14:0.0427727 15:0.259426 16:0.320019 17:0.431705 18:0.525231 19:1 20:0.320399 21:0.612424 22:0.445778 23:0.49741 24:0.228857 25:1 26:1 27:0.316226 28:0.530875 29:0.648759 30:0.299687 
0 2.014519759407218 1:0.119972 2:0.0258937 3:0.104361 4:0.278157 5:0.598041 6:0.339989 7:0.202651 8:0.473058 9:0.271892 10:0.27342 11:0.361081 12:0.342407 13:0.266522 14:0.490084 15:0.0695385 16:0.20539 17:0.331386 18:0.0575413 19:0.227017 20:0.220559 21:0.190286 22:0.311259 23:0.309631 24:0.109543 25:0.284725 26:0.242701 27:0.389775 28:0.157229 29:0.787635 30:0.409642 
1.015582469630817 0 1:0.0359139 2:0.10919 3:0.0997987 4:0.407943 5:0.13616 6:0.398166 7:0.256038 8:0.069713 9:0.2072 10:0.447989 11:0.388971 12:0.223962 13:0.26834 14:0.386249 15:0.168202 16:0.183742 17:0.191512 18:0.110499 19:0.187708 20:0.123892 21:0.278559 22:0.166339 23:0.178041 24:0.0511596 25:0.0990607 26:0.106498 27:0.290793 28:0.181405 29:0.477209 30:0.0459295 
3.986773675087246 8 1:0.194278 2:0.298429 3:0.456074 4:0.316758 5:0.362145 6:0.271182 7:0.294192 8:0.147673 9:0.165643 10:0.239578 11:0.22734 12:0.0838568 13:0.265529 14:0.138244 15:0.208436 16:0.144622 17:0.208757 18:0.202878 19:0.144275 20:0.216631 21:0.12696 22:0.085094 23:0.174559 24:0.0776663 25:0.139968 26:0.178566 27:0.10077 28:0.149222 29:0.656533 30:0.367515 
3.579388876479063 0.9408451004477343 1:0.218613 2:0.116337 3:0.212451 4:0.00890714 5:0.143009 6:0.270888 7:0.289726 8:0.0888414 9:0.249875 10:0.243545 11:0.222749 12:0.318928 13:0.301738 14:0.709946 15:0.154452 16:0.136306 17:0.197824 18:0.0622385 19:0.149308 20:0.0886006 21:0.136209 22:0.213999 23:0.208953 24:0.0251845 25:0.427701 26:0.319007 27:0.135704 28:0.425557 29:0.257005 30:0.222205 
3.299204242449222 4.068803540448308 1:0.137185 2:0.0681651 3:0.237129 4:0.237279 5:0.501334 6:0.582537 7:0.161645 8:0.426562 9:0.199517 10:0.232212 11:0.18682 12:0.240899 13:0.395149 14:0.0978706 15:0.222073 16:0.134737 17:0.156664 18:0.0379791 19:0.32699 20:0.205901 21:0.195933 22:0.111633 23:0.241707 24:0.243912 25:0.118404 26:0.209883 27:0.249477 28:0.28848 29:0.474932 30:0.343728 
8 8 1:0.339498 2:0.233483 3:0.153504 4:0.132078 5:0.0759447 6:0.124445 7:0.0667084 8:0.194458 9:0.109858 10:0.402245 11:0.292506 12:0.141869 13:0.122605 14:0.180146 15:0.118661 16:0.111615 17:0.135192 18:0.125667 19:0.167034 20:0.0442448 21:0.163475 22:0.134621 23:0.0806692 24:0.0940817 25:0.165843 26:0.135644 27:0.220716 28:0.276895 29:0.508877 30:0.328281 
1.742009054718654 2.529699517047907 1:0.256546 2:0.180771 3:0.270766 4:0.353827 5:0.239786 6:0.165622 7:0.315674 8:0.444696 9:0.161353 10:0.127719 11:0.378065 12:0.137636 13:0.140532 14:0.167592 15:0.273589 16:0.253942 17:0.230624 18:0.218573 19:0.331803 20:0.117425 21:0.16225 22:0.305229 23:0.240733 24:0.126323 25:0.191093 26:0.180377 27:0.310699 28:0.291401 29:0.556783 30:0.270751 
0.03755563977672952 0 1:0.161825 2:0.237932 3:0.175067 4:0.168412 5:0.147583 6:0.150699 7:0.338921 8:0.549271 9:0.302755 10:0.45316 11:0.422162 12:0.0515131 13:0.097241 14:0.111122 15:0.147718 16:0.118999 17:0.168445 18:0.212013 19:0.536354 20:0.559993 21:0.229706 22:0.671243 23:0.599812 24:0.164303 25:0.172973 26:0.163785 27:0.325791 28:0.106671 29:0.508021 30:0.263235 
0 0.3302816695932896 1:0.135536 2:0.255099 3:0.0817367 4:0.369877 5:0.213962 6:0.428734 7:0.555012 8:0.31779 9:0.0825098 10:0.330137 11:0.249611 12:0.16738 13:0.165267 14:0.244947 15:0.238356 16:0.176577 17:0.120716 18:0.469926 19:0.611915 20:0.162296 21:0.253858 22:0.191643 23:0.0789174 24:0.144204 25:0.344429 26:0.210411 27:0.27587 28:0.100966 29:0.506934 30:0.174888 
0.2457432157184178 0 1:0.338498 2:0.091717 3:0.540297 4:1 5:1 6:0.206991 7:0.576358 8:0.583677 9:0.475463 10:0.593737 11:0.0386212 12:0.219654 13:0.373977 14:0.436829 15:0.31561 16:0.427412 17:0.470357 18:0.260834 19:0.578369 20:0.366549 21:0.243133 22:0.820319 23:0.749 24:0.153226 25:0.213717 26:0.413214 27:0.587259 28:0.689437 29:0.64016 30:0.50328 
0.3098848556473697 0 1:0.531738 2:0.465828 3:0.41933 4:0.287734 5:0.688608 6:0.48066 7:0.140837 8:0.109539 9:0.388524 10:0.70849 11:0.291741 12:0.39964 13:0.510827 14:0.340413 15:0.265472 16:0.443733 17:0.845871 18:0.717057 19:0.416029 20:0.584424 21:0.618556 22:0.583684 23:0.662832 24:0.214595 25:0.43078 26:0.195424 27:0.604367 28:0.534046 29:0.35462 30:0.325651 
0.2067583584218017 0.8309007221377387 1:0.558852 2:0.482413 3:0.208535 4:0.143265 5:0.106765 6:0.195372 7:0.267378 8:0.203695 9:0.143168 10:0.205735 11:0.362941 12:0.393484 13:0.251998 14:0.561048 15:0.0221101 16:0.345115 17:0.344374 18:0.518888 19:0.200239 20:0.311419 21:0.988828 22:0.430314 23:0.490611 24:0.307163 25:0.467756 26:0.189409 27:0.400197 28:0.402746 29:0.62983 30:0.521567 
0 1.291678070339702 1:0.221139 2:0.173131 3:0.358851 4:0.355082 5:0.126955 6:0.810129 7:0.243287 8:0.450257 9:0.133325 10:0.300762 11:0.374377 12:0.166382 13:0.147699 14:0.307161 15:0.265169 16:0.238668 17:0.132153 18:0.191349 19:0.19924 20:0.13597 21:0.24562 22:0.272965 23:0.380387 24:0.101146 25:0.262041 26:0.176806 27:0.355558 28:0.243724 29:0.548561 30:0.155315 
2.051724623143262 3.668161496609056 1:0.141109 2:0.179812 3:0.142395 4:0.264979 5:0.275828 6:0.22789 7:0.130701 8:0.299975 9:0.14984 10:0.205234 11:0.130438 12:0.200808 13:0.330504 14:0.225125 15:0.223654 16:0.241795 17:0.287411 18:0.122465 19:0.256977 20:0.056462 21:0.152307 22:0.122442 23:0.306377 24:0.070503 25:0.133864 26:0.34273 27:0.288056 28:0.286842 29:0.600639 30:0.545481 
1.237383110648517 0.5244363231097927 1:0.40255 2:0.48564 3:0.438044 4:0.544038 5:0.459845 6:0.310386 7:0.494219 8:0.647617 9:0.392561 10:0.380125 11:0.511546 12:0.711219 13:0.250361 14:0.551985 15:0.476558 16:0.289841 17:0.241982 18:0.139039 19:0.200356 20:0.356971 21:0.162101 22:0.50852 23:0.438724 24:0.383102 25:0.87036 26:0.504711 27:0.675508 28:0.325769 29:0.585157 30:0.390932 
0.2410928552564287 0.8886796711217853 1:0.641004 2:0.62109 3:0.263204 4:0.222755 5:0.384662 6:0.857213 7:0.292228 8:0.157288 9:0.678533 10:0.394265 11:0.395768 12:0.467558 13:0.181588 14:0.628767 15:0.285521 16:0.265039 17:0.137932 18:0.426874 19:0.260656 20:0.235652 21:0.147123 22:0.366337 23:0.289586 24:0.261369 25:0.521604 26:0.315447 27:0.267446 28:0.444659 29:0.0932372 30:0.419278 
3.597229740318145 0 1:0.0392772 2:0.215435 3:0.337965 4:0.132864 5:0.200964 6:0.220812 7:0.206809 8:0.248449 9:0.224309 10:0.232863 11:0.278157 12:0.263714 13:0.177123 14:0.28713 15:0.0932623 16:0.242395 17:0.263109 18:0.160138 19:0.480931 20:0.100504 21:0.483413 22:0.155071 23:0.439688 24:0.13086 25:0.0979322 26:0.460481 27:0.472722 28:0.271354 29:0.493141 30:0.039675 
6.834039829375244 8 1:0.277593 2:0.253954 3:0.238125 4:0.131759 5:0.20797 6:0.154558 7:0.311971 8:0.129619 9:0.108014 10:0.215985 11:0.0385244 12:0.228469 13:0.115025 14:0.101426 15:0.290788 16:0.100019 17:0.164383 18:0.203415 19:0.252309 20:0.101879 21:0.204812 22:0.328461 23:0.272131 24:0.0493197 25:0.123765 26:0.18826 27:0.24958 28:0.0487522 29:0.60164 30:0.321767 
-0 8 1:0.0886743 2:0.0935093 3:0.0953684 4:0.126552 5:0.163571 6:0.141781 7:0.106555 8:0.111395 9:0.0531192 10:0.135015 11:0.100815 12:0.108994 13:0.0644892 14:0.045399 15:0.0636663 16:0.0686657 17:0.0837544 18:0.0361424 19:0.0913845 20:0.0927162 21:0.0341518 22:0.113989 23:0.0567344 24:0.0784106 25:0.0886898 26:0.128731 27:0.147497 28:0.113272 29:0.240952 30:0.154472 
-0.9962589339088166 8 1:0.136389 2:0.193066 3:0.145649 4:0.13109 5:0.168746 6:0.177513 7:0.138057 8:0.185993 9:0.140583 10:0.109646 11:0.122612 12:0.136583 13:0.0489506 14:0.148809 15:0.0564578 16:0.109494 17:0.0412889 18:0.10336 19:0.237244 20:0.134374 21:0.171757 22:0.126098 23:0.115653 24:0.0879662 25:0.199317 26:0.0881008 27:0.180985 28:0.113866 29:0.401718 30:0.258082 
-8 8 1:0.0831966 2:0.14975 3:0.172982 4:0.100805 5:0.157397 6:0.170894 7:0.21587 8:0.143267 9:0.121067 10:0.128811 11:0.111076 12:0.11126 13:0.125412 14:0.104944 15:0.0951624 16:0.0877894 17:0.155774 18:0.0691865 19:0.142042 20:0.0801992 21:0.13698 22:0.152348 23:0.192328 24:0.0694226 25:0.177196 26:0.152007 27:0.214761 28:0.129448 29:0.568509 30:0.0561969 
-6.630714114918591 1.588783344091348 1:0.159341 2:0.195541 3:0.308202 4:0.299202 5:0.202782 6:0.254307 7:0.230142 8:0.24606 9:0.18561 10:0.25154 11:0.304437 12:0.143584 13:0.198676 14:0.150133 15:0.151121 16:0.211217 17:0.100456 18:0.24547 19:0.22589 20:0.200431 21:0.314504 22:0.272754 23:0.355034 24:0.131602 25:0.312542 26:0.375821 27:0.525186 28:0.414434 29:0.464397 30:0.31417 
-1.323128625126833 8 1:0.0639383 2:0.10028 3:0.206449 4:0.21796 5:0.209418 6:0.247174 7:0.194141 8:0.140634 9:0.0968196 10:0.120909 11:0.105501 12:0.0964831 13:0.153335 14:0.102202 15:0.100455 16:0.0471654 17:0.0843132 18:0.0825935 19:0.139494 20:0.0929505 21:0.104008 22:0.049569 23:0.185488 24:0.107276 25:0.163366 26:0.201675 27:0.207438 28:0.184927 29:0.665845 30:0.2826 
-0 8 1:0.0782197 2:0.120182 3:0.142961 4:0.12452 5:0.146985 6:0.19043 7:0.146166 8:0.105333 9:0.0434412 10:0.109664 11:0.113259 12:0.112913 13:0.0323711 14:0.0918656 15:0.0705208 16:0.0970739 17:0.0735307 18:0.102146 19:0.126651 20:0.0321553 21:0.123804 22:0.0591015 23:0.147964 24:0.0197444 25:0.114439 26:0.0728673 27:0.142123 28:0.139937 29:0.340262 30:0.120468 
-8 7.608710583682946 1:0.387916 2:0.283386 3:0.32182 4:0.286509 5:0.326639 6:0.245938 7:0.270566 8:0.171856 9:0.198195 10:0.288134 11:0.233518 12:0.25613 13:0.184419 14:0.283025 15:0.208602 16:0.157373 17:0.233727 18:0.241946 19:0.315336 20:0.263612 21:0.235412 22:0.322447 23:0.434806 24:0.20427 25:0.522608 26:0.431458 27:0.480391 28:0.475648 29:0.460083 30:0.49806 
-3.332744351045756 8 1:0.264489 2:0.197901 3:0.0974728 4:0.234444 5:0.317578 6:0.234775 7:0.0934469 8:0.169073 9:0.216641 10:0.275598 11:0.185424 12:0.0863865 13:0.116781 14:0.143901 15:0.130405 16:0.123596 17:0.140019 18:0.162172 19:0.161821 20:0.0961288 21:0.176105 22:0.151523 23:0.112477 24:0.145817 25:0.219849 26:0.164817 27:0.404118 28:0.3343 29:0.211217 30:0.818492 
-0 8 1:0.0856751 2:0.0216174 3:0.11336 4:0.0474599 5:0.116568 6:0.100318 7:0.0170441 8:0.0762661 9:0.0538325 10:0.0685606 11:0.0696391 12:0.0862323 13:0.0890477 14:0.0313122 15:0.0814034 16:0.0159887 17:0.0435147 18:0.0215696 19:0.0724426 20:0.0436427 21:0.102755 22:0.11311 23:0.091476 24:0.0593166 25:0.137189 26:0.125064 27:0.118186 28:0.122489 29:0.273308 30:0.176695 
-5.441256623899071 8 1:0.146929 2:0.13855 3:0.195686 4:0.250823 5:0.232082 6:0.214497 7:0.269218 8:0.197821 9:0.201742 10:0.214128 11:0.149154 12:0.188026 13:0.166991 14:0.174945 29:0.567231 30:0.152502 
-0 8 1:0.13138 2:0.108596 3:0.0903074 4:0.0958743 5:0.0137881 6:0.125153 7:0.136169 8:0.0375284 9:0.0515726 10:0.0313602 11:0.0529303 12:0.0288063 13:0.0335366 14:0.020115 15:0.0354522 16:0.0336126 17:0.0416974 18:0.0163349 19:0.0970552 20:0.0715476 21:0.0629477 22:0.141448 23:0.0540948 24:0.0831642 25:0.153352 26:0.135985 27:0.113615 28:0.0414026 29:0.37093 30:0.462876 
-0 3.228892311693703 1:0.0549894 2:0.0580479 3:0.0437902 4:0.0885881 5:0.0752406 6:0.0900508 7:0.101907 8:0.0516118 9:0.0853774 10:0.0945535 11:0.10684 12:0.0652313 13:0.0979615 14:0.118735 15:0.0903671 16:0.0706674 17:0.0679246 18:0.0828033 19:0.121951 20:0.0834574 21:0.104654 22:0.110308 23:0.0725981 24:0.0445207 25:0.114878 26:0.0563526 27:0.20111 28:0.0799284 29:0.286534 30:0.107931 
-0 8 1:0.284816 2:0.101578 3:0.116109 4:0.0944078 5:0.0608459 6:0.144932 7:0.0793753 8:0.0933655 9:0.0530645 10:0.0664789 11:0.0711512 12:0.0374967 13:0.0473665 14:0.0688511 15:0.0840406 16:0.0912513 17:0.0697766 18:0.0604472 19:0.057223 20:0.0647913 21:0.0545014 22:0.0950474 23:0.113551 24:0.0482698 25:0.101333 26:0.128592 27:0.0815005 28:0.079216 29:0.152914 30:0.0608471 
-0 3.657315605184831 1:0.0779765 2:0.102962 3:0.108301 4:0.0869223 5:0.112226 6:0.110675 7:0.0909578 8:0.100162 9:0.0783518 10:0.129408 11:0.0989627 12:0.108858 13:0.124671 14:0.105338 15:0.100401 16:0.0635464 17:0.0863394 18:0.089937 19:0.135219 20:0.087473 21:0.147342 22:0.216141 23:0.17024 24:0.104478 25:0.172546 26:0.15481 27:0.260877 28:0.200177 29:0.265844 30:0.147382 
-0 8 1:0.12101 2:0.088285 3:0.105548 4:0.104898 5:0.0937397 6:0.0751504 7:0.099502 8:0.0770364 9:0.0783882 10:0.119792 11:0.0881433 12:0.0499984 13:0.0832774 14:0.0750021 15:0.068616 16:0.0631576 17:0.0624375 18:0.0706571 19:0.113816 20:0.0756891 21:0.119297 22:0.144043 23:0.102071 24:0.0771535 25:0.153759 26:0.11202 27:0.161935 28:0.163024 29:0.453809 30:0.130318 
-0 7.430688133973411 1:0.0844585 2:0.0710486 3:0.118287 4:0.123351 5:0.115464 6:0.118545 7:0.122054 8:0.100802 9:0.0949803 10:0.0964283 11:0.084908 12:0.0682962 13:0.089134 14:0.0894063 15:0.0629286 16:0.0552382 17:0.0545633 18:0.0828499 19:0.133315 20:0.048602 21:0.0573197 22:0.0824025 23:0.132062 24:0.0930991 25:0.0516991 26:0.0726145 27:0.142937 28:0.13108 29:0.222464 30:0.0792063 
-0 8 1:0.221456 2:0.0944746 3:0.0483485 4:0.161601 5:0.258993 6:0.103709 7:0.120056 8:0.0961829 9:0.0377471 10:0.0514577 11:0.0364251 12:0.0363764 13:0.0513369 14:0.0670459 15:0.0704334 16:0.0624669 17:0.102542 18:0.0774073 19:0.0699671 20:0.0536873 21:0.0486535 22:0.0479565 23:0.0781841 24:0.0672885 25:0.076851 26:0.0853393 27:0.155944 28:0.156484 29:0.232257 30:0.114247 
-0 8 1:0.195779 2:0.0697699 3:0.132999 4:0.169661 5:0.171393 6:0.211604 7:0.198205 8:0.143864 9:0.174477 10:0.0296458 11:0.158953 12:0.0706259 13:0.0525515 14:0.13349 15:0.0560811 16:0.0459097 17:0.103182 18:0.0533121 19:0.195445 20:0.0630345 21:0.148441 22:0.169214 23:0.02621 24:0.0245443 25:0.115476 26:0.185944 27:0.179873 28:0.133117 29:0.560891 30:0.0492261 
-0 8 1:0.14155 2:0.202858 3:0.163193 4:0.146948 5:0.137152 6:0.148563 7:0.0989076 8:0.124027 9:0.0919287 10:0.135926 11:0.142463 12:0.108018 13:0.109943 14:0.104028 15:0.101242 16:0.0859658 17:0.108737 18:0.10569 19:0.131619 20:0.123516 21:0.155794 22:0.141101 23:0.180852 24:0.119121 25:0.202933 26:0.228597 27:0.293606 28:0.245852 29:0.440689 30:0.255344 
-3.247461401601807 0 1:0.0372594 2:0.117061 3:0.260999 4:0.0929566 5:0.215178 6:0.234851 7:0.0634864 8:0.130188 9:0.0697778 10:0.277834 11:0.0922004 12:0.147749 13:0.111452 14:0.106857 15:0.128398 16:0.0380016 17:0.112137 18:0.0515075 19:0.213639 20:0.0545365 21:0.198959 22:0.148659 23:0.193668 24:0.114724 25:0.11696 26:0.310473 27:0.0748101 28:0.2382 29:0.211197 30:0.120612 
-0 8 1:0.102136 2:0.0981333 3:0.107779 4:0.152453 5:0.135711 6:0.139223 7:0.0670383 8:0.119003 9:0.104305 10:0.113144 11:0.078372 12:0.121968 13:0.102786 14:0.0919863 15:0.0980495 16:0.0725616 17:0.0704009 18:0.0588365 19:0.0587756 20:0.0621079 21:0.0897532 22:0.153861 23:0.130247 24:0.0679864 25:0.119298 26:0.136865 27:0.161542 28:0.138569 29:0.171002 30:0.101962 
-8 -2.706191120867925 1:0.225127 2:0.187247 3:0.308219 4:0.31251 5:0.322689 6:0.190148 7:0.202705 8:0.293025 9:0.166818 10:0.314302 11:0.230571 12:0.225621 13:0.115742 14:0.203682 15:0.150052 16:0.140591 17:0.121189 18:0.152635 19:0.179107 20:0.150001 21:0.176212 22:0.198904 23:0.120597 24:0.122488 25:0.19647 26:0.167803 27:0.313139 28:0.0958182 29:0.580253 30:0.333028 
-0 -8 1:0.14545 2:0.101142 3:0.128016 4:0.149069 5:0.0666702 6:0.0517915 7:0.114635 8:0.0767176 9:0.0952831 10:0.0543163 11:0.0937197 12:0.0404645 13:0.0986064 14:0.0685779 15:0.0345616 16:0.0503405 17:0.0231145 18:0.0419239 19:0.0814146 20:0.0662117 21:0.0556598 22:0.109741 23:0.153565 24:0.0652022 25:0.0825909 26:0.0734536 27:0.0518593 29:0.255944 30:0.259855 
-1.228125709876137 -0 1:0.555132 2:0.831934 3:0.394141 4:0.334282 5:0.520266 6:0.283145 7:0.313016 8:0.234248 9:0.105373 10:0.16806 11:0.271243 12:0.234674 13:0.162629 14:0.133357 15:0.0627172 16:0.167329 17:0.139683 18:0.113829 19:0.183848 20:0.097545 21:0.153229 22:0.17359 23:0.155781 24:0.0909258 25:0.192283 26:0.360742 27:0.265531 28:0.19965 29:0.303687 30:0.18728 
-0.04213231708053265 -0 1:0.346247 2:0.321763 3:0.292565 4:0.128987 5:0.0758466 6:0.170799 7:0.114305 8:0.207592 9:0.115101 10:0.162544 11:0.184508 12:0.14016 13:0.0611379 14:0.109859 15:0.072371 16:0.24754 17:0.0793678 18:0.0886617 19:0.269723 20:0.0686438 21:0.133613 22:0.0972809 23:0.0753444 24:0.113319 25:0.181669 26:0.155094 27:0.180443 28:0.191807 29:0.265455 30:0.639519 
-0 -8 1:0.0911501 2:0.0575783 3:0.0989438 4:0.142571 5:0.154656 6:0.122734 7:0.0807643 8:0.0947844 9:0.136487 10:0.0937588 11:0.058286 12:0.0618019 13:0.0782754 14:0.0900884 15:0.072808 16:0.0710456 17:0.0529324 18:0.0867791 19:0.0866886 20:0.0621004 21:0.113213 22:0.0824448 23:0.110146 24:0.0462472 25:0.127106 26:0.127777 27:0.128386 28:0.112201 29:0.286445 30:0.15508 
-0 -6.836171455562696 1:0.187522 2:0.168983 3:0.104755 4:0.218292 5:0.344662 6:0.201961 7:0.26329 8:0.134912 9:0.146496 10:0.103644 11:0.184446 12:0.194709 13:0.097721 14:0.153504 15:0.101679 16:0.118247 17:0.113463 18:0.133731 19:0.121322 20:0.103426 21:0.142608 22:0.124201 23:0.147306 24:0.107545 25:0.137809 26:0.131069 27:0.223316 28:0.147337 29:0.752577 30:0.445717 
-0 -1.072009450771792 1:0.221852 2:0.305807 3:0.252446 4:0.221752 5:0.205593 6:0.160068 7:0.20793 8:0.133362 9:0.130857 10:0.0899034 11:0.0864662 12:0.100273 13:0.0940538 14:0.136075 15:0.0773838 16:0.0460602 17:0.113844 18:0.10642 19:0.155604 20:0.070811 21:0.137026 22:0.164148 23:0.118074 24:0.131448 25:0.162688 26:0.0983172 27:0.216369 28:0.173195 29:0.151987 30:0.269087 
-0 -5.593319921139933 1:0.128291 2:0.357987 3:0.441018 4:0.304668 5:0.43439 6:0.233023 7:0.200701 8:0.156196 9:0.0600886 10:0.143567 11:0.112517 12:0.146684 13:0.143327 14:0.12451 15:0.116423 16:0.119779 17:0.135474 18:0.128286 19:0.155438 20:0.152446 21:0.177995 22:0.229041 23:0.098124 24:0.0683434 25:0.218233 26:0.362197 27:0.182788 28:0.251333 29:0.181088 30:0.192498 
-0 -1.276557839455987 1:0.156604 2:0.20412 29:0.614726 30:0.285013 
-0 -0.5779181862452099 1:0.302557 2:0.339796 3:0.158525 4:0.0717564 5:0.125169 6:0.223577 7:0.144928 8:0.15403 9:0.0796579 10:0.0737945 11:0.167109 12:0.0931135 13:0.0369725 14:0.0648874 15:0.0774181 16:0.0847283 17:0.0712319 18:0.104516 19:0.0739478 20:0.0563779 21:0.13217 22:0.116934 23:0.118532 24:0.0724882 25:0.0908706 26:0.106709 27:0.107802 28:0.144765 29:0.2297 30:0.338291 
-0.8867586912201261 -0 1:0.752658 2:0.836444 3:0.554667 4:0.47115 5:0.43115 6:0.326812 7:0.287466 8:0.260364 9:0.185733 10:0.14217 11:0.215176 12:0.261223 13:0.346853 14:0.27416 15:0.175412 16:0.122385 17:0.173961 18:0.0990047 19:0.280689 20:0.189459 21:0.172753 22:0.382874 23:0.332841 24:0.105026 25:0.243427 26:0.49138 27:0.397486 28:0.342298 29:0.884284 30:0.567969 
-2.164037070168001 -8 1:0.12193 2:0.10251 3:0.0775147 4:0.153758 5:0.113969 6:0.165611 7:0.182941 8:0.0332863 9:0.0429599 10:0.264704 11:0.147976 12:0.180622 13:0.100855 14:0.193019 15:0.148896 16:0.100418 17:0.152825 18:0.0905483 19:0.113182 20:0.26743 21:0.0233677 22:0.288838 23:0.278284 24:0.134902 25:0.359571 26:0.23309 27:0.515581 28:0.327011 29:0.199451 30:0.242909 
-0.7119202078813018 -0 1:0.175649 2:0.152108 3:0.194395 4:0.224927 5:0.0474344 6:0.322136 7:0.160763 8:0.124942 9:0.139335 10:0.18125 11:0.11638 12:0.105794 13:0.145843 14:0.089609 15:0.108214 16:0.0826988 17:0.104276 18:0.0951115 19:0.139374 20:0.0813233 21:0.064338 22:0.164085 23:0.161358 24:0.0542547 25:0.0562243 26:0.113662 27:0.24315 28:0.21174 29:0.720976 30:0.583884 
-0 -8 1:0.129731 2:0.24375 3:0.137319 4:0.184373 5:0.134964 6:0.0738467 7:0.0689746 8:0.0706779 9:0.0668692 10:0.119546 11:0.125242 12:0.0967608 13:0.0761816 14:0.106211 15:0.0453764 16:0.0552744 17:0.0500501 18:0.0610157 19:0.0750895 20:0.0538735 21:0.0924359 22:0.109881 23:0.0562379 24:0.0337998 25:0.145796 26:0.0742912 27:0.172341 28:0.0772944 29:0.427128 30:0.133461 
-4.171481815911453 -3.041229710345668 1:0.108089 2:0.0973713 3:0.418329 4:0.657886 5:0.286178 6:0.420269 7:0.303991 8:0.143576 9:0.189698 10:0.162346 11:0.259001 12:0.171898 13:0.220581 14:0.248484 15:0.199003 16:0.0347028 17:0.13303 18:0.102388 19:0.169029 20:0.118109 21:0.221073 22:0.151986 23:0.185812 24:0.147229 25:0.220085 26:0.320174 27:0.252833 28:0.249802 29:0.367749 30:0.390485 
-2.985077128988592 -0.529707349831813 1:0.363611 2:0.308897 3:0.414075 4:0.314183 5:0.178724 6:0.29289 7:0.251742 8:0.139222 9:0.225614 10:0.206265 11:0.302336 12:0.18554 13:0.224031 14:0.240579 15:0.125969 16:0.151696 17:0.0745665 18:0.381765 19:0.144619 20:0.140241 21:0.296082 22:0.18386 23:0.303751 24:0.0530324 25:0.284912 26:0.247767 27:0.469298 28:0.325488 29:0.846134 30:0.602542 
-2.983400490339146 -0 1:0.296843 2:0.328766 3:0.338551 4:0.319346 5:0.364497 6:0.429543 7:0.292004 8:0.26402 9:0.19852 10:0.223229 11:0.224624 12:0.227821 13:0.158027 14:0.239104 15:0.16303 16:0.164303 17:0.112274 18:0.191398 19:0.207131 20:0.188522 21:0.210528 22:0.241989 23:0.262561 24:0.0991601 25:0.268876 26:0.176918 27:0.255674 28:0.149427 29:0.815009 30:0.671976 
-0.6188081197201734 -8 1:0.153091 2:0.022877 3:0.139603 4:0.138829 5:0.0150739 6:0.143361 7:0.0638159 8:0.116765 9:0.0581284 10:0.105227 11:0.0428642 12:0.142888 13:0.129764 14:0.11755 15:0.0862716 16:0.0682717 17:0.062036 18:0.0637498 19:0.185375 20:0.128555 21:0.163524 22:0.0402342 23:0.277596 24:0.101893 25:0.165355 26:0.0409321 27:0.138307 28:0.118016 29:0.465443 30:0.424296 
-0 -8 1:0.287401 2:0.104426 3:0.142155 4:0.0918724 5:0.0538424 6:0.167361 7:0.171236 8:0.0389154 9:0.0428521 10:0.0758676 11:0.0600627 12:0.0759097 13:0.0495094 14:0.028177 15:0.0196576 16:0.0489867 17:0.0396396 18:0.0528622 19:0.0676266 20:0.0601422 21:0.0814348 22:0.0583071 23:0.0736202 24:0.0510122 25:0.0944842 26:0.0580389 27:0.116718 28:0.0954555 29:0.307301 30:0.249315 
-0 -8 1:0.211325 2:0.293579 3:0.218223 4:0.214681 5:0.106693 6:0.120756 7:0.0992058 8:0.143936 9:0.0834809 10:0.0479363 11:0.0590347 12:0.0523539 13:0.0675257 14:0.131858 15:0.0176034 16:0.0584501 17:0.0301987 18:0.0537463 19:0.1139 20:0.0591274 21:0.154276 22:0.0430161 23:0.0621439 24:0.0247352 25:0.0758526 26:0.0435651 27:0.130324 28:0.109809 29:0.203849 30:0.071643 
-0.9504878926971156 -8 1:0.185789 2:0.158095 3:0.211901 4:0.203657 5:0.228026 6:0.256442 7:0.228682 8:0.144528 9:0.122519 10:0.157417 11:0.112417 12:0.146521 13:0.144534 14:0.122199 15:0.0914461 16:0.112529 17:0.14221 18:0.0987838 19:0.169954 20:0.0852884 21:0.163012 22:0.162897 23:0.159783 24:0.0673943 25:0.190826 26:0.138313 27:0.309071 28:0.203084 29:0.510609 30:0.281484 
-0 -3.636106824568876 1:0.041312 2:0.0498861 3:0.0652755 4:0.518143 5:0.237914 6:0.243252 7:0.126216 8:0.053716 9:0.107659 10:0.0405014 11:0.0602655 12:0.0981115 13:0.0656669 14:0.045836 15:0.0633377 16:0.0386393 17:0.0669073 18:0.0329904 19:0.0769762 20:0.062489 21:0.0573429 22:0.12625 23:0.0855598 24:0.0271838 25:0.107063 26:0.0824688 27:0.0609179 28:0.0560654 29:0.240988 30:0.270506 
-0 -8 1:0.0561895 2:0.0603232 3:0.0777686 4:0.106577 5:0.0788529 6:0.0336794 7:0.0624751 8:0.0226487 9:0.0628485 10:0.0740148 11:0.0284615 12:0.0653291 13:0.0448541 14:0.0180201 15:0.00930709 16:0.0421701 17:0.00937931 18:0.0490952 19:0.0774259 20:0.0306918 21:0.0514926 22:0.10946 23:0.0863241 24:0.027935 25:0.0759804 26:0.0573953 27:0.118597 28:0.063665 29:0.273708 30:0.219053 
-0 -8 1:0.0370855 2:0.169355 3:0.0951734 4:0.0193021 5:0.148873 6:0.151923 7:0.138136 8:0.126993 9:0.0930332 10:0.130441 11:0.0936199 12:0.102071 13:0.0825731 14:0.0492183 15:0.0918143 16:0.0676055 17:0.0859257 18:0.0408505 19:0.053159 20:0.0941581 21:0.0880158 22:0.124762 23:0.0933613 24:0.029569 25:0.081964 26:0.187169 27:0.191869 28:0.103358 29:0.213117 30:0.267595 
-1.045760469415853 -0 1:0.126451 2:0.362879 3:0.225541 4:0.164347 5:0.175022 6:0.158263 7:0.040137 8:0.194195 9:0.121813 10:0.0855581 11:0.0629675 12:0.227917 13:0.191741 14:0.18802 15:0.0876555 16:0.104337 17:0.075826 18:0.0933829 19:0.0938792 20:0.032433 21:0.115095 22:0.241455 23:0.0810303 24:0.0537601 25:0.173559 26:0.0587193 27:0.106547 28:0.207191 29:0.0424516 30:0.449112 
-2.963540542250327 -0 1:0.232082 2:0.227698 3:0.41473 4:0.313662 5:0.736011 6:0.592274 7:0.255773 8:0.296995 9:0.0894928 10:0.216609 11:0.0719728 12:0.0969392 13:0.258202 14:0.130569 15:0.114891 16:0.134534 17:0.0971186 18:0.0800098 19:0.204499 20:0.205015 21:0.163467 22:0.228315 23:0.126999 24:0.0967284 25:0.124557 26:0.174049 27:0.0773491 29:0.768362 30:0.348897 
-0 -8 1:0.384679 2:0.179494 3:0.20548 4:0.220556 5:0.300258 6:0.221406 7:0.179223 8:0.103242 9:0.128895 10:0.191608 11:0.112287 12:0.096699 13:0.13984 14:0.0852122 15:0.0781763 16:0.110119 17:0.0589112 18:0.0552715 19:0.16107 20:0.0953228 21:0.134579 22:0.0679734 23:0.177774 24:0.101858 25:0.155581 26:0.106887 27:0.329158 28:0.0994271 29:0.321769 30:0.0311764 
-0 -8 1:0.190169 2:0.0506114 3:0.225565 4:0.172454 5:0.13011 6:0.135279 7:0.0956885 8:0.127239 9:0.080565 10:0.134787 11:0.125999 12:0.0742078 13:0.0862224 14:0.117497 15:0.0284095 16:0.0419112 17:0.103019 18:0.0770817 19:0.112152 20:0.103479 21:0.113761 22:0.167901 23:0.0388187 24:0.0767143 25:0.132338 26:0.0886253 27:0.0368006 28:0.132067 29:0.415417 30:0.227539 
-0 -8 1:0.193153 2:0.0184035 3:0.0311255 4:0.0899133 5:0.0884961 6:0.135473 7:0.0307207 8:0.0620016 9:0.0565988 10:0.0592114 11:0.065172 12:0.0522221 13:0.0643204 14:0.0462654 15:0.0169921 16:0.0469594 17:0.0489467 18:0.0557866 19:0.0313044 20:0.0354083 21:0.0563779 22:0.121995 23:0.121331 24:0.0254293 25:0.153809 26:0.106946 27:0.164291 28:0.128557 29:0.205905 30:0.167381 
-7.399936766815894 -5.004133329226488 1:0.477915 2:0.162327 3:0.141639 4:0.12543 5:0.18228 6:0.250964 7:0.236266 8:0.185995 9:0.112285 10:0.166045 11:0.145333 12:0.141241 13:0.162564 14:0.0833076 15:0.146282 16:0.149298 17:0.155128 18:0.140529 19:0.234362 20:0.15467 21:0.140058 22:0.254856 23:0.171605 24:0.138188 25:0.301162 26:0.191446 27:0.30177 28:0.214285 29:0.573618 30:0.422394 
-0.8456426471305127 -0 1:0.547598 2:0.684994 3:0.507112 4:0.409235 5:0.495923 6:0.268048 7:0.545581 8:0.341946 9:0.14505 10:0.208781 11:0.226016 12:0.127234 13:0.218302 14:0.221779 15:0.176007 16:0.212024 17:0.130427 18:0.14968 19:0.301502 20:0.184649 21:0.14526 22:0.303277 23:0.265662 24:0.17069 25:0.251939 26:0.234885 27:0.290384 28:0.311714 29:0.45887 30:0.900692 
-0 -0.7403941150156025 1:0.209329 2:0.307556 3:0.188121 4:0.220845 5:0.0799945 6:0.106624 7:0.0945407 8:0.0924635 9:0.102372 10:0.113165 11:0.109543 12:0.0456123 13:0.0714563 14:0.0280144 15:0.0562584 16:0.112069 17:0.122438 18:0.0314048 19:0.0492805 20:0.0431037 21:0.116494 22:0.0985852 23:0.14261 24:0.0985777 25:0.0613211 26:0.105526 27:0.129288 28:0.0431192 29:0.514338 30:0.105017 
-4.427079351730393 -8 1:0.118689 2:0.128395 3:0.157625 4:0.0480407 5:0.215928 6:0.0810386 7:0.0892496 8:0.114539 9:0.105617 10:0.0931614 11:0.0989412 12:0.0763644 13:0.0788646 14:0.0710496 15:0.0489698 16:0.0632706 17:0.0622615 18:0.0899056 19:0.11871 20:0.0471369 21:0.0796224 22:0.14228 23:0.129781 24:0.0450148 25:0.094769 26:0.169391 27:0.127608 28:0.16288 29:0.753388 30:0.110359 
-1.492335443247835 -0 1:0.262544 2:0.266405 3:0.279674 4:0.396829 5:0.3766 6:0.250924 7:0.153541 8:0.109025 9:0.0914643 10:0.258048 11:0.188142 12:0.271199 13:0.196611 14:0.148849 15:0.121799 16:0.106626 17:0.109292 18:0.119151 19:0.159098 20:0.139183 21:0.16627 22:0.131174 23:0.146338 24:0.0756302 25:0.124508 26:0.17105 27:0.161156 28:0.118344 29:0.0454547 30:0.308926 
-0 -0.500650675594246 1:0.395121 2:0.147044 3:0.136304 4:0.0975446 5:0.113654 6:0.128116 7:0.0803774 8:0.147688 9:0.0518778 10:0.172759 11:0.0981874 12:0.106928 13:0.1225 14:0.0944131 15:0.0947026 16:0.0807679 17:0.0189648 18:0.111558 19:0.0978135 20:0.0977798 21:0.0975069 22:0.175339 23:0.0998732 24:0.0704897 25:0.184475 26:0.201223 27:0.381962 28:0.166199 29:0.564441 30:0.256546 
