svm_type c_svc
kernel_type linear
nr_class 3
total_sv 91
rho 3.9543 2.93354 -0.942928
label 1 2 3
nr_sv 28 23 40
SV
0.03124938054052317 0.1534532828113464 1:0.485733 2:0.605151 3:0.614408 4:0.4875 5:0.228897 6:0.235498 7:0.13217 8:0.158295 9:0.158103 10:0.157208 11:0.356053 12:0.25309 13:0.326862 14:0.431419 15:0.321502 16:0.242952 17:0.126132 18:0.329157 19:0.334549 20:0.365519 21:0.421586 22:0.39056 23:0.344878 24:0.163983 25:0.136955 26:0.366162 27:0.673854 28:0.581425 29:0.181856 30:0.315432 31:0.212475 32:0.44989 33:0.874948 34:0.591642 35:0.694779 36:0.241051 37:0.294903 38:0.356495 39:0.460794 40:0.382296 41:0.153681 42:0.171509 43:0.577387 44:0.471467 45:0.532415 46:0.343392 47:0.359166 48:0.224279 49:0.287397 50:0.360056 51:0.441334 52:0.269109 53:0.576586 54:0.248999 55:0.187801 56:0.658786 57:0.369022 58:0.569249 59:0.320165 60:0.371101 61:0.762435 62:0.509926 63:0.130597 64:0.386023 65:0.493622 66:0.0590303 67:0.745637 68:0.574725 69:0.528177 70:0.644048 71:0.498291 72:0.522855 73:0.416263 74:0.127818 75:0.245209 76:0.74995 77:0.537812 78:0.487159 79:0.340912 80:0.402605 81:0.409403 82:0.533462 83:0.270639 84:0.362301 85:0.395158 86:0.578663 87:0.500193 88:0.612454 89:0.598101 90:0.329541 91:0.393651 92:0.297016 93:0.473182 94:0.36188 95:0.313718 96:0.354822 97:0.376083 98:0.564087 99:0.434898 100:0.521443 101:0.188453 102:0.330039 103:0.524061 104:0.409315 105:0.476783 106:0.18738 107:0.393432 108:0.150065 109:0.534063 110:0.546201 111:0.379751 112:0.33374 113:0.194551 114:0.468529 115:0.462265 116:0.330421 117:0.324419 118:0.136335 119:0.312141 120:0.571363 121:0.282986 122:0.308892 123:0.0667368 124:0.236628 125:0.571704 126:0.435814 127:0.695607 128:0.19408 
0.2671869292532956 1.32035437550427 1:0.47339 2:0.64419 3:0.750206 4:0.596006 5:0.238402 6:0.291001 7:0.199261 8:0.162362 9:0.160395 10:0.0916005 11:0.0378996 12:0.104151 13:0.235385 14:0.676645 15:0.763375 16:0.924166 17:0.875422 18:0.576473 19:0.506911 20:0.232242 21:0.114517 22:0.185322 23:0.342331 24:0.455566 25:0.548108 26:0.321512 27:0.0774196 28:0.184723 29:0.362146 30:0.327944 31:0.0683318 32:0.156573 33:0.216518 34:0.197382 35:0.308802 37:0.10956 38:0.15958 39:0.371564 40:0.270401 41:0.334399 42:0.0931528 43:0.0740715 44:0.42446 45:0.629871 46:0.364229 47:0.382255 48:0.501421 49:0.486102 50:0.361212 51:0.520429 52:0.23093 53:0.107008 54:0.228921 55:0.277318 56:0.455914 57:0.417346 58:0.495188 59:0.248444 60:0.81688 61:0.992079 62:0.936044 63:0.791647 64:0.657736 65:0.239638 66:0.382862 67:0.698737 68:0.481352 69:0.256483 70:0.428135 71:0.260923 72:0.070567 73:0.574016 74:0.109049 75:0.335251 76:0.565257 77:0.453754 78:0.259754 79:0.124311 80:0.340588 81:0.31357 82:0.251704 83:0.365133 84:0.430323 85:0.0564109 86:0.173636 87:0.159684 88:0.560479 89:0.2808 90:0.353082 91:0.190479 92:0.359148 93:0.110989 94:0.115209 95:0.131884 96:0.124969 97:0.115876 98:0.238231 99:0.377604 100:0.373788 101:0.356532 102:0.59034 103:0.260449 104:0.165833 105:0.25993 106:0.238905 107:0.235984 108:0.236703 109:0.129692 110:0.192973 111:0.435492 112:0.278099 113:0.547836 114:0.153641 115:0.171691 116:0.490849 117:0.240344 118:0.141254 119:0.181804 120:0.179401 121:0.355345 122:0.318581 123:0.360747 124:0.397026 125:0.291093 126:0.186804 127:0.33829 128:0.497504 129:0.660053 130:0.168912 131:0.359982 
1.088987297426572 0.6072457188512687 1:0.363224 2:0.502575 3:0.733939 4:0.695507 5:0.364439 6:0.365578 7:0.179593 8:0.143048 9:0.104108 10:0.123472 11:0.416002 12:0.270388 13:0.257957 14:0.214598 15:0.229518 16:0.213516 17:0.230886 18:0.418037 19:0.39627 20:0.144852 21:0.218942 22:0.319189 23:0.375637 24:0.241016 25:0.134528 26:0.025287 27:0.164195 28:0.479988 29:0.304343 30:0.221251 31:0.150706 32:0.103537 33:0.160178 34:0.15015 35:0.137556 36:0.171996 37:0.256786 38:0.0345708 39:0.369553 40:0.233335 41:0.302364 42:0.338683 43:0.374138 44:0.189238 45:0.0905856 46:0.311451 47:0.0201803 48:0.308088 49:0.237176 50:0.32131 51:0.257624 52:0.196272 53:0.23485 54:0.514466 55:0.369954 56:0.221716 57:0.38034 58:0.115927 59:0.185552 60:0.404405 61:0.282702 62:0.314137 63:0.351779 64:0.22472 65:0.24177 66:0.172896 67:0.123718 68:0.467381 69:0.470012 70:0.449326 71:0.47659 72:0.412877 73:0.635004 74:0.596194 75:0.420478 76:0.544403 77:0.546634 78:0.572779 79:0.333539 80:0.658649 81:0.422209 82:0.26691 83:0.299031 84:0.491094 85:0.735019 86:0.603757 87:0.602325 88:0.434237 89:0.302483 90:0.783633 91:0.724835 92:0.95452 93:0.699089 94:0.323704 95:0.695759 96:0.295165 97:0.390691 98:0.376606 99:0.562847 100:0.548149 101:0.502301 102:0.521298 103:0.241743 104:0.558022 105:0.528361 106:0.532555 107:0.61029 108:0.430864 109:0.42371 110:0.658332 111:0.410206 112:0.26745 113:0.683634 114:0.448379 115:0.332025 116:0.536544 117:0.33192 118:0.488993 119:0.511572 120:0.5781 121:0.438543 122:0.382192 123:0.398717 
0.7911099839621644 0.9419255662703856 1:0.551027 2:0.626177 3:0.757982 4:0.842554 5:0.386807 6:0.323312 7:0.192839 8:0.0813905 9:0.0337992 10:0.0823986 11:0.187176 12:0.173675 13:0.269206 14:0.261575 15:0.130092 16:0.0684378 17:0.0708087 18:0.123007 19:0.188599 20:0.469659 21:0.356629 22:0.201304 23:0.0552536 24:0.100391 25:0.182761 26:0.179115 27:0.592139 28:0.538172 29:0.256359 30:0.214653 31:0.242106 32:0.293124 33:0.467582 34:0.232551 35:0.251448 36:0.368791 37:0.379059 38:0.201377 39:0.130247 40:0.367354 41:0.306581 42:0.329519 43:0.182783 44:0.135084 45:0.0762763 46:0.448342 47:0.378958 48:0.305016 49:0.176779 50:0.21748 51:0.212522 52:0.168496 53:0.201191 54:0.218669 55:0.177952 56:0.0770472 57:0.254014 58:0.0900348 59:0.194119 60:0.225818 61:0.0969437 62:0.302394 63:0.255457 64:0.524782 65:0.368243 66:0.160966 67:0.190918 68:0.105652 69:0.393172 70:0.365332 71:0.252625 72:0.667049 73:0.185742 74:0.321049 75:0.107874 76:0.437206 77:0.205004 78:0.22037 79:0.269839 80:0.193655 81:0.254016 82:0.195096 83:0.44189 84:0.530577 85:0.186515 86:0.164439 87:0.27386 88:0.220597 89:0.0725278 90:0.283832 91:0.451126 92:0.333979 93:0.279273 94:0.194311 95:0.13946 96:0.233675 97:0.165567 98:0.266091 99:0.209674 100:0.271355 101:0.25392 102:0.363614 103:0.146513 104:0.216085 105:0.198499 106:0.22185 107:0.329795 108:0.138437 109:0.32173 110:0.0106064 111:0.353539 112:0.0703622 113:0.320131 114:0.417283 115:0.190274 116:0.15445 117:0.201625 118:0.180051 119:0.34544 120:0.235126 121:0.21104 122:0.211154 123:0.179485 124:0.103536 125:0.307609 126:0.162973 127:0.403878 128:0.335864 129:0.301729 
0.01309685297188377 1.663529461848966 1:0.4023 2:0.552727 3:0.735506 4:0.784302 5:0.353279 6:0.395542 7:0.251389 8:0.187989 9:0.206865 10:0.0781141 11:0.0306021 12:0.0957508 13:0.317388 14:0.563655 15:0.474303 16:0.623667 17:0.764899 18:0.662661 19:0.997666 20:0.829635 21:0.749091 22:0.681521 23:0.475816 24:0.34753 25:0.29057 26:0.292685 27:0.389645 28:0.365236 29:0.434606 30:0.243493 31:0.114491 32:0.107478 33:0.177097 34:0.214845 35:0.348501 36:0.245346 37:0.136349 38:0.28039 39:0.277213 40:0.450937 41:0.598888 42:0.412564 43:0.19218 44:0.0623107 45:0.177421 46:0.484666 47:0.426991 48:0.175453 49:0.178854 50:0.232815 51:0.201393 52:0.186288 53:0.281665 54:0.109614 55:0.220453 56:0.445397 57:0.098322 58:0.251077 59:0.258406 60:0.134986 61:0.236785 62:0.56281 63:0.371625 64:0.200081 65:0.387953 66:0.191625 67:0.381525 68:0.234554 69:0.251012 70:0.513478 71:0.219443 72:0.432591 73:0.705831 74:0.209882 75:0.236463 76:0.219614 77:0.209847 78:0.308587 79:0.312924 80:0.291471 81:0.206573 82:0.309021 83:0.193747 84:0.505524 85:0.294275 86:0.386625 87:0.0676012 88:0.390575 89:0.471888 90:0.285256 91:0.199022 92:0.382072 93:0.146347 94:0.30743 95:0.351549 96:0.151598 97:0.199041 98:0.226154 99:0.266648 100:0.350077 101:0.401774 102:0.264696 103:0.200967 104:0.318399 105:0.0624798 106:0.247519 107:0.387852 108:0.281771 109:0.132668 110:0.175568 111:0.261805 112:0.25766 113:0.351058 114:0.401941 115:0.146685 116:0.269198 117:0.0621621 118:0.198592 119:0.372265 120:0.0930966 121:0.0696655 122:0.112461 123:0.388723 124:0.217509 125:0.541877 126:0.30184 127:0.181396 128:0.220642 129:0.265541 130:0.457957 
0 0.121277263042547 1:0.306386 2:0.433853 3:0.579965 4:0.650659 5:0.28134 6:0.330297 7:0.195831 8:0.239929 9:0.302462 10:0.298377 11:0.463142 12:0.274596 13:0.351675 14:0.352179 15:0.332746 16:0.421527 17:0.535112 18:0.521098 19:0.865823 20:0.963409 21:0.778576 22:0.644911 23:0.763149 24:0.699129 25:0.552063 26:0.379374 27:0.124841 28:0.457599 29:0.490298 30:0.496354 31:0.499661 32:0.567871 33:0.456283 34:0.439922 35:0.611003 36:0.66467 37:0.273174 38:0.226757 39:0.279718 40:0.377559 41:0.489526 42:0.465803 43:0.149894 44:0.610925 45:0.943823 46:0.435569 47:0.145199 48:0.251349 49:0.356525 50:0.454633 51:0.360273 52:0.0461685 53:0.253405 54:0.580476 55:0.509748 56:0.203773 57:0.247126 58:0.265789 59:0.428161 60:0.242326 61:0.00665385 62:0.247547 63:0.342802 64:0.750921 65:0.926572 66:0.432096 67:0.575856 68:0.639035 69:0.957208 70:0.259541 71:0.412063 72:0.189917 73:0.260846 74:0.249655 75:0.350586 76:0.873681 77:0.80531 78:0.714175 79:0.246016 80:0.68786 81:0.657949 82:0.445779 83:0.199745 84:0.233831 85:0.641009 86:0.454438 87:0.20396 88:0.338319 89:0.576871 90:0.559164 91:0.957203 92:0.380398 93:0.437833 94:0.428367 95:0.324353 96:0.20078 97:0.168739 98:0.537947 99:0.725364 100:0.770566 101:0.614973 102:0.173228 103:0.308081 104:0.451758 105:0.744874 106:0.272067 107:0.231792 108:0.207696 109:0.349026 110:0.286354 111:0.172217 112:0.203112 113:0.840871 114:0.453744 115:0.256011 116:0.813407 117:0.23784 118:0.212474 119:0.413024 120:0.538259 121:0.395651 122:0.231912 123:0.322871 124:0.418794 
0 0.163012146788951 1:0.346647 2:0.52571 3:0.657664 4:0.659569 5:0.291048 6:0.328565 7:0.236848 8:0.158073 9:0.164048 10:0.0577549 11:0.11032 13:0.115239 14:0.425607 15:0.462724 16:0.656429 17:0.859271 18:0.718019 19:0.853149 20:0.767679 21:0.752278 22:0.690711 23:0.59495 24:0.645603 25:0.616824 26:0.620658 27:0.670461 28:0.275431 29:0.220446 30:0.41279 31:0.339324 32:0.404498 33:0.598596 34:0.642485 35:0.62193 36:0.486199 37:0.724119 38:0.951817 39:0.675329 40:0.222981 41:0.497227 42:0.345256 43:0.914295 44:1 45:0.530174 46:0.437709 47:0.198316 48:0.0686616 49:0.262916 50:0.263781 51:0.230623 52:0.316108 53:0.443011 54:0.466206 55:0.175273 56:0.108973 57:0.402103 58:0.791222 59:0.544897 60:0.525167 61:0.0600855 62:0.301564 63:0.571813 64:0.716324 65:0.326351 66:0.104287 67:0.595899 68:0.312503 69:0.382373 70:0.409006 71:0.475991 72:0.409576 73:0.852186 74:0.595837 75:0.544409 76:0.383342 77:0.563399 78:0.265734 79:0.461442 80:0.614594 81:0.440029 82:0.610305 83:0.509626 84:0.752181 85:0.628299 86:0.392125 87:0.354167 88:0.0745695 89:0.755601 90:0.866713 91:0.585785 92:0.69743 93:0.385904 94:0.649926 95:0.8364 96:0.368299 97:0.57524 98:0.20476 99:0.543146 100:0.298048 101:0.599267 102:0.306839 103:0.293643 104:0.590698 105:0.579659 106:0.625343 107:0.535133 108:0.293296 109:0.456258 110:0.717156 111:0.749554 112:0.40563 113:0.321658 114:0.664327 115:0.272552 116:0.252512 117:0.353334 118:0.172041 119:0.415744 120:0.331081 121:0.509376 122:0.0201559 123:0.308853 124:0.521139 125:0.70643 
1.247217583868538 3.793095586940764 1:0.402182 2:0.481682 3:0.713824 4:0.718935 5:0.304514 6:0.265614 7:0.156434 8:0.165603 9:0.0527472 10:0.119226 11:0.381885 12:0.233014 13:0.276166 14:0.305205 15:0.292165 16:0.302321 17:0.502037 18:0.521219 19:0.760113 20:0.643904 21:0.39544 22:0.210009 23:0.1108 24:0.183756 25:0.118376 26:0.224046 27:0.471326 28:0.399972 29:0.110269 30:0.435914 31:0.392537 32:0.415571 33:0.282303 34:0.208733 35:0.200533 36:0.239765 37:0.0893391 38:0.214764 39:0.291919 40:0.255998 41:0.0425594 42:0.274231 43:0.16344 44:0.0798156 45:0.205537 46:0.0904343 47:0.069025 48:0.222292 49:0.077871 50:0.0454077 51:0.102714 52:0.211701 53:0.322133 54:0.10217 55:0.0692425 56:0.199092 57:0.221938 58:0.223572 59:0.15714 60:0.0922867 61:0.173469 62:0.187652 63:0.0973671 64:0.0555708 65:0.282809 66:0.177755 67:0.191629 68:0.280371 69:0.334638 70:0.319414 71:0.387091 72:0.245196 73:0.288148 74:0.190856 75:0.209148 76:0.299608 77:0.335834 78:0.2301 79:0.134397 80:0.12796 81:0.261494 82:0.166648 83:0.272099 84:0.279434 85:0.274125 86:0.127797 87:0.270007 88:0.323042 89:0.209682 90:0.191151 91:0.407572 92:0.113124 93:0.14805 94:0.133044 95:0.12559 96:0.0734664 97:0.205585 98:0.249205 99:0.169171 100:0.210854 101:0.130437 102:0.214414 103:0.119127 104:0.205092 105:0.190313 106:0.140159 107:0.152397 108:0.231887 109:0.274431 110:0.312591 111:0.288934 112:0.0903161 113:0.247511 114:0.318918 115:0.119165 116:0.152659 117:0.165223 118:0.0607488 119:0.172949 120:0.198524 121:0.0998358 122:0.0623694 123:0.0894407 124:0.20028 125:0.0362988 
0.2132963228420924 0.6596119298867374 1:0.418407 2:0.461135 3:0.354211 4:0.0489356 5:0.170614 6:0.21595 7:0.272741 8:0.284112 9:0.437687 10:0.378314 11:0.625821 12:0.367262 13:0.419145 14:0.45786 15:0.342391 16:0.458072 17:0.323595 18:0.335716 19:0.180093 20:0.626778 21:0.701196 22:0.825897 23:0.592672 24:0.451483 25:0.233642 26:0.168821 27:0.598779 28:1 29:0.766038 30:0.349673 31:0.355973 32:0.585942 33:1 34:1 35:1 36:0.277738 37:0.344361 38:0.120609 39:0.379042 40:0.415609 41:0.0965608 42:0.125443 43:0.182753 44:0.651289 45:0.663039 46:0.386863 47:0.505988 48:0.380818 49:0.788075 50:0.513541 51:0.145132 52:0.322891 53:0.49349 54:0.51004 55:0.575858 56:0.989011 57:0.856565 58:0.864505 59:0.548331 60:0.41285 61:0.319322 62:0.254881 63:0.119853 64:0.163078 65:0.497884 66:0.290532 67:0.298742 68:0.723576 69:0.606484 70:0.857849 71:0.541678 72:0.558795 73:0.167318 74:0.126755 75:0.0254109 76:0.239766 77:0.454311 78:0.244155 79:0.145571 80:0.452054 81:0.20063 82:0.168236 83:0.543323 84:1 85:0.865673 86:0.634717 87:0.511853 88:0.52779 89:0.821551 90:0.385901 91:0.236326 92:0.600585 93:0.381448 94:0.550706 95:0.67467 96:0.370106 97:0.917824 98:0.963471 99:0.750949 100:0.515042 101:0.522906 102:0.738618 103:0.496007 104:0.82214 105:0.61777 106:0.629303 107:0.746853 108:0.583228 109:0.624218 110:0.68399 111:0.816252 112:0.592109 113:0.679165 114:0.462208 115:0.612501 116:0.641652 117:0.6299 118:0.944986 119:1 120:0.643792 121:0.940714 122:1 123:0.605119 124:0.539372 125:0.837121 126:0.409674 
0.007240459647439897 0.2617247096977626 1:0.334687 2:0.394736 3:0.41359 4:0.273268 5:0.163416 6:0.365595 7:0.37615 8:0.445911 9:0.588242 10:0.390364 11:0.55843 12:0.282383 13:0.13447 14:0.174114 15:0.366089 16:0.504812 17:0.510321 18:0.417858 19:0.554851 20:0.377757 21:0.304402 22:0.28313 23:0.132795 24:0.0765605 25:0.230439 26:0.453068 27:0.738851 28:0.677866 29:0.36037 30:0.398349 31:0.543373 32:0.520641 33:0.349847 34:0.319033 35:0.330441 36:0.24538 37:0.442089 38:0.66824 39:0.656745 40:0.264592 41:0.079392 42:0.11 43:0.322553 44:0.372728 45:0.206448 46:0.537773 47:0.561591 48:0.301864 49:0.560229 50:0.370874 52:0.177741 53:0.000984068 54:0.0798159 55:0.0289832 56:0.0859778 57:0.439974 58:1 59:0.558539 60:0.920465 61:0.417267 62:0.339606 63:0.18434 64:0.314119 65:0.644699 66:0.460972 67:0.647121 68:0.930278 69:0.935626 70:0.359308 71:0.163422 72:0.371593 73:0.572211 74:0.248108 75:0.160917 76:0.318625 77:0.632812 78:0.621204 79:0.273169 80:0.482601 81:0.427911 82:0.119913 83:0.190563 84:0.685239 85:1 86:0.538592 87:0.432679 88:0.463184 89:0.537534 90:0.637848 91:0.472513 92:0.576318 93:0.433249 94:0.181194 95:0.494234 96:0.521142 97:0.704402 98:0.508067 99:0.488679 100:0.517855 101:0.589607 102:0.166311 103:0.326339 104:0.591333 105:0.316475 106:0.21481 107:0.55853 108:0.43783 109:0.186215 110:0.107944 111:0.0248001 112:0.261939 113:0.166882 114:0.314338 115:0.422531 116:0.713732 117:0.380686 118:0.427946 119:0.337801 120:0.371313 121:0.293217 122:0.086645 123:0.254574 124:0.377272 125:0.520391 126:0.191614 127:0.360876 
0.1095304524309204 0 1:0.394872 2:0.556297 3:0.643566 4:0.779804 5:0.376858 6:0.423152 7:0.288219 8:0.255941 9:0.274267 10:0.14268 11:0.170599 12:0.0581865 15:0.118656 16:0.248044 17:0.28696 18:0.226172 19:0.405885 20:0.505089 21:0.523475 22:0.513508 23:0.390468 24:0.362149 25:0.333531 26:0.45128 27:0.542421 28:0.305853 29:0.272898 30:0.37753 31:0.518623 32:0.546435 33:0.391469 34:0.304342 35:0.235107 36:0.152163 37:0.350619 38:0.524038 39:0.371619 40:0.194768 41:0.165509 42:0.428366 43:0.288656 44:0.0735698 45:0.250277 46:0.420891 47:0.228181 48:0.147094 49:0.353332 50:0.278565 51:0.180287 52:0.345134 53:0.377705 54:0.583494 55:0.338883 56:0.848814 57:0.441715 58:0.706625 59:0.311429 60:0.698714 61:0.539607 62:0.716159 63:0.544039 64:1 65:0.658049 66:0.248986 67:0.414061 68:0.949649 69:0.882553 70:0.563845 71:0.495288 72:0.54639 73:0.617565 74:0.297381 75:0.371636 76:0.712179 77:0.711306 78:0.476859 79:0.309001 80:0.652396 81:0.422083 82:0.444606 83:0.507655 84:0.834541 85:0.880614 86:0.623333 87:0.660924 88:0.675507 89:0.751001 90:0.686543 91:0.669523 92:0.691468 93:0.486259 94:0.589235 95:0.677735 96:0.286982 97:0.641197 98:0.55496 99:0.620161 100:0.61623 101:0.650549 102:0.681943 103:0.479498 104:0.327215 105:0.628691 106:0.632198 107:0.526366 108:0.612247 109:0.610229 110:0.625175 111:0.483756 112:0.640868 113:0.673242 114:0.703137 115:0.482702 116:0.695047 117:0.332484 118:0.37724 119:0.570103 120:0.611834 121:0.290175 122:0.422865 123:0.479095 124:0.306302 125:0.503835 126:0.440718 
0 0.508119979161709 1:0.392779 2:0.523215 3:0.572238 4:0.529368 5:0.222903 6:0.307571 7:0.202815 8:0.284274 9:0.435352 10:0.356711 11:0.475639 12:0.316081 13:0.217066 14:0.157303 15:0.206519 16:0.386086 17:0.43009 18:0.287003 19:0.334537 20:0.124546 21:0.218878 22:0.113816 23:0.222691 24:0.178856 25:0.279681 26:0.372592 27:0.459145 28:0.603329 29:0.592645 30:0.0510988 31:0.297685 32:0.315371 33:0.179186 34:0.184873 35:0.570669 36:0.741722 37:0.886302 38:0.350942 39:0.616529 40:0.378604 41:0.404054 42:0.244319 43:0.168379 44:0.531692 45:1 46:1 47:0.484642 48:0.0480484 49:0.419229 50:0.531084 51:0.261004 52:0.186127 53:0.513295 54:0.640366 55:0.990547 56:0.789624 57:0.519217 58:0.113112 59:0.582621 60:0.341833 61:0.551791 62:0.0955421 63:0.433401 64:0.323346 65:0.465145 66:0.534615 67:0.470021 68:0.27981 69:0.904245 70:0.620907 71:0.678195 72:0.514691 73:0.13225 74:0.317192 75:0.183046 76:0.496611 77:0.409032 78:0.19964 79:0.366605 80:0.897247 81:0.872655 82:0.361298 83:0.300329 84:0.72603 85:0.325072 86:0.523403 87:0.168501 88:0.250484 89:0.568161 90:1 91:0.646627 92:0.363481 93:0.149032 94:0.308448 95:0.407233 96:0.304968 97:0.209371 98:0.354488 99:0.324144 100:0.931679 101:0.841917 102:0.30431 103:0.202814 104:0.356647 105:0.701116 106:0.470873 107:0.0898703 108:0.186661 109:0.388875 110:0.515602 111:0.289543 112:0.399493 113:0.44696 114:0.408034 115:0.443096 116:0.556585 117:0.253105 118:0.120472 119:0.232964 120:0.616113 121:0.161118 122:0.161167 123:0.329214 124:0.306622 125:0.757856 
0 0.3797354309778827 1:0.545637 2:0.526947 3:0.509152 4:0.429249 5:0.195617 6:0.275069 7:0.271186 8:0.325282 9:0.282182 10:0.122268 11:0.183697 12:0.0977246 13:0.0607825 14:0.212971 15:0.287954 16:0.283803 17:0.599405 18:0.718569 19:0.878513 20:0.723653 21:0.733414 22:0.598954 23:0.299059 24:0.194084 25:0.214084 26:0.377571 27:0.538877 28:0.655486 29:1 30:1 31:1 32:0.647049 33:0.673981 34:0.36132 35:0.785619 36:0.623755 37:0.503725 38:0.419784 39:0.641543 40:0.401786 41:0.447377 42:0.630734 43:0.584962 44:0.791657 45:0.41525 46:0.11576 47:0.253298 48:0.568093 49:0.543415 50:0.238312 51:0.36789 52:0.559403 53:0.591253 54:0.168925 55:0.105913 56:0.568317 57:0.532919 58:0.399309 59:0.250421 60:1 61:0.69806 62:0.216857 63:0.72334 64:0.757681 65:0.818016 66:1 67:0.652192 68:0.674406 69:0.985376 70:0.277186 71:0.4193 72:0.775318 73:0.65011 74:1 75:1 76:0.342655 77:0.801482 78:0.538453 79:0.329173 80:0.502601 81:0.240483 82:1 83:0.844483 84:0.692272 85:0.989268 86:0.496584 87:0.723613 88:0.59086 89:0.451107 90:0.942655 91:0.716264 92:0.707484 93:1 94:0.7318 95:0.91271 96:1 97:0.502555 98:0.370354 99:0.841183 100:0.803121 101:0.96156 102:0.75561 103:0.378548 104:1 105:1 106:0.253453 107:0.756853 108:0.633096 109:0.677678 110:0.665724 111:0.48121 112:0.678895 113:0.78357 114:0.602502 115:0.62701 116:0.384679 117:0.802412 118:0.593652 119:0.46851 120:0.625845 121:0.679075 122:0.347208 123:1 124:0.519101 125:0.889745 126:1 
0.6562443261517493 2.838179478903847 1:0.363714 2:0.460086 3:0.444309 4:0.394884 5:0.200527 6:0.352909 7:0.318045 8:0.367981 9:0.51733 10:0.349594 11:0.621683 12:0.411582 13:0.489703 14:0.521881 15:0.406701 16:0.548888 17:0.843703 18:0.676518 19:0.680942 20:0.370629 21:0.294657 22:0.410861 23:0.39167 24:0.367822 25:0.338555 26:0.26949 27:0.289544 28:0.186518 29:0.273043 30:0.352401 31:0.527263 32:0.451281 33:0.281501 34:0.355462 35:0.364054 36:0.279854 37:0.197028 38:0.100278 39:0.131391 40:0.115141 41:0.0567671 42:0.0961164 43:0.200804 44:0.272812 45:0.0589662 46:0.350837 47:0.327801 48:0.0301626 49:0.533213 50:0.317311 51:0.266751 52:0.329622 53:0.44244 54:0.373341 55:0.362766 56:0.180316 57:0.246776 58:0.613125 59:0.174327 60:0.674575 61:0.548211 62:0.585788 63:0.400514 64:0.503206 65:0.373128 66:0.295651 67:0.669438 68:0.452159 69:0.757081 70:0.367445 71:0.560812 72:0.702032 73:0.616725 74:0.427804 75:0.556544 76:0.978611 77:0.375961 78:0.538316 79:0.182511 80:0.459759 81:0.418298 82:0.474696 83:0.371264 84:0.296386 85:0.275433 86:0.36932 87:0.192988 88:0.335751 89:0.279213 90:0.13883 91:0.632702 92:0.346782 93:0.315741 94:0.625822 95:0.23937 96:0.280426 97:0.473796 98:0.351607 99:0.292968 100:0.197118 101:0.621528 102:0.333596 103:0.269584 104:0.319692 105:0.280087 106:0.311956 107:0.230712 108:0.137499 109:0.168605 110:0.166414 111:0.139164 112:0.407467 113:0.371287 114:0.475858 115:0.262105 116:0.323117 117:0.202251 118:0.392275 119:0.335183 120:0.404308 121:0.529109 122:0.356212 123:0.233768 124:0.144489 125:0.204282 126:0.086894 127:0.346045 
0.1462499235887753 0 1:0.387402 2:0.463212 3:0.679793 4:0.80219 5:0.381076 6:0.446048 7:0.317674 8:0.201385 9:0.161175 10:0.0871735 11:0.0977648 12:0.0276683 13:0.0627844 14:0.0356891 17:0.0918849 18:0.439698 19:0.669846 20:0.572191 21:0.652513 22:0.622545 23:0.535894 24:0.486364 25:0.40258 26:0.462325 27:0.51548 28:0.432599 29:0.45236 30:0.543536 31:0.753329 32:0.824992 33:0.647593 34:0.314791 35:0.0762759 36:0.130559 37:0.314551 38:0.34062 39:0.375471 40:0.182257 41:0.360945 42:0.31209 43:0.166955 44:0.107659 45:0.232879 46:0.288477 47:0.091776 48:0.306401 49:0.806713 50:0.309129 51:0.426198 52:0.763539 53:0.705808 54:0.395206 55:0.57993 56:0.912769 57:0.637068 58:0.610666 59:0.421131 60:0.52398 61:0.172153 62:0.254558 63:0.559704 64:0.594619 65:0.566661 66:0.196052 67:0.458104 68:0.224307 69:0.481962 70:0.484798 71:0.366502 72:0.33538 73:0.881036 74:0.652347 75:0.519281 76:0.709778 77:0.385595 78:0.582481 79:0.578819 80:0.760933 81:0.569058 82:0.892563 83:0.773227 84:0.563714 85:0.918355 86:0.85366 87:0.53864 88:0.554965 89:0.784711 90:0.85326 91:0.758133 92:0.529667 93:0.625838 94:0.347272 95:0.204376 96:0.320425 97:0.51866 98:0.432587 99:0.421019 100:0.740281 101:0.695962 102:0.480214 103:0.725671 104:0.547486 105:0.32044 106:0.458939 107:0.593152 108:0.304253 109:0.644272 110:0.594122 111:0.473807 112:0.601458 113:0.885594 114:0.644148 115:0.288264 116:0.608395 117:0.47148 118:0.397103 119:0.39626 120:0.371171 121:0.264037 122:0.31361 123:0.433591 124:0.285493 125:0.531578 
0.1271141202988372 0.1832784470766314 1:0.472355 2:0.596207 3:0.6437 4:0.701681 5:0.319213 6:0.336778 7:0.177736 8:0.103047 9:0.0557744 10:0.0347183 11:0.081399 12:0.0957069 13:0.105687 14:0.104127 15:0.160053 16:0.277855 17:0.296355 18:0.401068 19:0.781648 20:0.674736 21:0.471379 22:0.37465 23:0.301433 24:0.479851 25:0.737725 26:0.849267 27:0.845686 28:0.328426 29:0.396759 30:0.676702 31:0.877481 32:1 33:0.504014 34:0.103226 35:0.313032 36:0.424774 37:0.553789 38:0.346597 39:0.120026 40:0.0924728 41:0.194426 42:0.10445 43:0.205217 44:0.14721 45:0.193432 46:0.0645511 47:0.436914 48:0.456915 49:0.345462 50:0.146174 51:0.870468 52:1 53:0.379561 54:0.447534 55:0.453527 56:0.757135 57:0.595965 58:0.945302 59:0.143756 60:0.261764 61:0.557701 62:0.814225 63:0.587517 64:0.329566 65:0.494065 66:0.390063 67:0.214714 68:0.141248 69:0.288492 70:0.199229 71:0.231288 72:0.236844 73:0.308629 74:0.341814 75:0.452941 76:0.405244 77:0.739822 78:0.626307 79:0.627091 80:0.516377 81:0.390595 82:0.492855 83:0.721455 84:0.607533 85:0.375297 86:0.498877 87:0.550148 88:0.956215 89:0.918963 90:0.613585 91:0.338892 92:0.757559 93:0.579227 94:0.270632 95:0.551097 96:0.284406 97:0.464914 98:0.493798 99:0.198252 100:0.396267 101:0.425565 102:0.535829 103:0.580931 104:0.417671 105:0.98116 106:0.300065 107:0.793762 108:0.430509 109:0.195744 110:0.211785 111:0.391305 112:0.559369 113:0.978046 114:0.486582 115:0.555349 116:0.594274 117:0.336213 118:0.230892 119:0.27849 120:0.265984 121:0.365767 122:0.171554 123:0.320902 124:0.308586 125:0.671246 126:0.188064 
0.02450749163134249 0.09647247343871164 1:0.375043 2:0.49552 3:0.686287 4:0.652237 5:0.327056 6:0.416688 7:0.327302 8:0.249706 9:0.354743 10:0.239086 11:0.357371 12:0.253881 13:0.277396 14:0.188579 15:0.138875 16:0.238675 17:0.434675 18:0.428682 19:0.587065 20:0.536318 21:0.474884 22:0.278396 23:0.116716 24:0.0966227 25:0.165841 26:0.150018 27:0.182985 28:0.326727 29:0.375862 30:0.552729 31:0.780399 32:0.805331 33:0.471349 34:0.0748069 35:0.390644 36:0.493359 37:0.401785 38:0.370439 39:0.834849 40:0.610241 41:0.33073 42:0.299147 43:0.551225 44:0.536173 45:0.647161 46:0.607361 47:0.301836 48:0.541579 49:0.75401 50:0.343484 51:0.243827 52:0.409225 53:0.683496 54:0.636815 55:0.510951 56:0.321261 57:0.246171 58:0.447766 59:0.468044 60:0.665089 61:1 62:0.276216 63:0.754886 64:0.981416 65:1 66:0.682484 67:0.736756 68:0.180744 69:0.550921 70:0.839919 71:0.221889 72:0.541261 73:0.317936 74:0.596188 75:0.451279 76:0.632015 77:0.651694 78:0.476944 79:0.234043 80:0.704797 81:0.804955 82:0.84136 83:1 84:0.577284 85:0.307258 86:0.274546 87:0.462104 88:0.520737 89:0.705991 90:0.281402 91:0.374153 92:0.322963 93:0.321265 94:0.258482 95:0.454969 96:0.240756 97:0.324871 98:0.664891 99:0.584488 100:0.533732 101:0.203573 102:0.187392 103:0.260026 104:0.18301 105:0.424543 106:0.353659 107:0.250074 108:0.635032 109:0.201347 110:0.300934 111:0.622272 112:0.437316 113:0.783413 114:0.573433 115:0.602032 116:0.858292 117:0.494037 118:0.220809 119:0.389261 120:0.719941 121:0.368153 122:0.272434 123:0.158609 124:0.183598 125:0.347405 126:0.374281 127:0.797998 128:0.514092 129:0.396606 
0.4430526491273795 0.3566874586510181 1:0.483265 2:0.635578 3:0.783936 4:0.748567 5:0.287383 6:0.27839 7:0.15235 8:0.141874 9:0.160778 10:0.0751494 11:0.112141 12:0.148922 13:0.205423 14:0.253503 15:0.141466 16:0.191999 17:0.450426 18:0.420661 19:0.517955 20:0.581675 21:0.659567 22:0.476351 23:0.290716 24:0.251861 25:0.197651 26:0.207541 27:0.25179 28:0.259828 29:0.258581 30:0.242741 31:0.270778 32:0.126896 33:0.0106612 34:0.0738777 35:0.179168 36:0.138795 37:0.315552 38:0.608853 39:0.465097 40:0.0498158 41:0.0743584 42:0.388673 43:0.41954 44:0.181898 45:0.294885 46:0.181117 47:0.244501 48:0.181153 49:0.374346 50:0.129377 51:0.0962482 52:0.251894 53:0.449808 54:0.272086 55:0.167478 56:0.262456 57:0.337685 58:0.325618 59:0.0365016 60:0.470559 61:0.402715 62:0.160454 63:0.155359 64:0.44924 65:0.230499 66:0.23107 67:0.289104 68:0.0640741 69:0.182042 70:0.17054 71:0.149185 72:0.348106 73:0.653037 74:0.153022 75:0.150239 76:0.399594 77:0.301946 78:0.398437 79:0.118103 80:0.159428 81:0.299811 82:0.430471 83:0.152801 84:0.414379 85:0.501682 86:0.245883 87:0.667311 88:0.169986 89:0.177368 90:0.351 91:0.562704 92:0.254391 93:0.14305 94:0.195496 95:0.34926 96:0.136806 97:0.206203 98:0.367677 99:0.360832 100:0.363544 101:0.122162 102:0.0768999 103:0.16347 104:0.0867534 105:0.0436077 106:0.199434 107:0.194034 108:0.122571 109:0.204296 110:0.130996 111:0.368319 112:0.234443 113:0.381512 114:0.240402 115:0.216632 116:0.447377 117:0.131614 118:0.155816 119:0.321947 120:0.460653 121:0.105023 122:0.0906868 123:0.186956 124:0.203078 125:0.273488 
0.218272571713397 0.7792827612545148 1:0.557568 2:0.606623 3:0.760887 4:0.7756 5:0.210378 6:0.0984676 7:0.00533047 8:0.0575538 9:0.0383257 10:0.068305 11:0.276914 12:0.319232 13:0.319148 14:0.0871547 15:0.182592 16:0.507694 17:0.807714 18:0.637436 19:0.399989 21:0.178269 22:0.166031 23:0.159458 24:0.311552 25:0.241588 26:0.132448 27:0.157397 28:0.295079 29:0.406968 30:0.233634 31:0.411276 32:0.360336 33:0.409574 34:0.151045 35:0.128605 36:0.132571 37:0.423715 38:0.514453 39:0.515753 40:0.542686 41:0.182853 42:0.215328 43:0.229882 44:0.215417 45:0.184753 46:0.277489 47:0.324927 48:0.00807689 49:0.402927 50:0.198566 51:0.0171587 52:0.291503 53:0.250953 54:0.0890666 55:0.231128 56:0.0817437 57:0.239921 58:0.0813153 59:0.177693 60:0.192632 61:0.303322 62:0.328068 63:0.221994 64:0.528897 65:0.633225 66:0.16164 67:0.570122 68:0.556467 69:0.386924 70:0.240054 71:0.424539 72:0.230954 73:0.414434 74:0.31809 75:0.300601 76:0.412154 77:0.268153 78:0.475384 79:0.398057 80:0.0972054 81:0.419948 82:0.266059 83:0.250868 84:0.66671 85:0.138616 86:0.30344 87:0.434019 88:0.452383 89:0.411723 90:0.215047 91:0.395538 92:0.21642 93:0.341257 94:0.147574 95:0.140559 96:0.192141 97:0.24073 98:0.355921 99:0.208998 100:0.345021 101:0.333357 102:0.128361 103:0.284129 104:0.255618 105:0.182552 106:0.128337 107:0.162034 108:0.233362 109:0.26945 110:0.174228 111:0.319672 112:0.122786 113:0.281425 114:0.245213 115:0.106959 116:0.489484 117:0.293152 118:0.174275 119:0.245782 120:0.26496 121:0.0942951 122:0.12222 123:0.291805 124:0.142957 125:0.673487 126:0.159002 127:0.188562 128:0.381659 129:0.515882 130:0.454143 131:0.0859062 132:0.395795 
0 0.06631016598007264 1:0.53471 2:0.698257 3:0.738445 4:0.729773 5:0.327005 6:0.223716 7:0.0727799 8:0.0129008 9:0.0330272 10:0.110684 11:0.261157 12:0.265211 13:0.408634 14:0.507851 15:0.337575 16:0.487346 17:0.430055 18:0.167214 19:0.326499 20:0.501743 21:0.532449 22:0.679836 23:0.508413 24:0.595679 25:0.476732 26:0.257473 27:0.582739 28:0.797877 29:0.206732 30:0.669198 31:0.71863 32:0.786588 33:0.474778 34:0.36054 35:0.506799 36:0.136949 37:0.766376 38:0.655307 39:0.138901 40:0.62823 41:0.493058 42:0.417948 43:0.336411 44:0.534932 45:0.524662 46:0.153721 47:0.295957 48:0.495213 49:0.443967 50:0.243907 51:0.475145 52:0.390499 53:0.430227 54:0.599946 55:0.461122 56:0.42189 57:0.266242 58:0.568638 59:0.30248 60:0.298101 61:0.30745 62:0.869677 63:0.409062 64:0.743696 65:0.463228 66:0.262318 67:0.585009 68:0.386149 69:0.148642 70:0.243019 71:0.262452 72:0.396737 73:0.225386 74:0.29491 75:0.413443 76:0.576131 77:0.689468 78:0.485059 79:0.130988 80:0.243922 81:0.186793 82:0.242496 83:0.433388 84:0.753332 85:0.769365 86:0.55943 87:0.293245 88:0.32195 89:0.442348 90:0.372187 91:0.375697 92:0.401705 93:0.184839 94:0.385895 95:0.439428 96:0.334018 97:0.270712 98:0.478011 99:0.271816 100:0.368105 101:0.444158 102:0.448797 103:0.270056 104:0.362335 105:0.318751 106:0.325209 107:0.153327 108:0.156008 109:0.255871 110:0.224566 111:0.545453 112:0.415641 113:0.308565 114:0.253803 115:0.272224 116:0.152206 117:0.0933503 118:0.310616 119:0.197407 120:0.234923 121:0.261494 122:0.145335 123:0.249641 124:0.18344 125:0.164959 126:0.450507 127:0.31384 
0.01006154494903437 0.8031424003556523 1:0.628739 2:0.628592 3:0.679474 4:0.857061 5:0.28265 6:0.227995 7:0.120404 8:0.0997108 9:0.148621 10:0.142778 11:0.153532 12:0.0752777 13:0.153983 14:0.230049 15:0.422457 16:0.734705 17:0.711878 18:0.112674 19:0.187213 20:0.142943 21:0.152397 22:0.199687 23:0.4032 24:0.466383 25:0.221539 26:0.197419 27:0.174173 28:0.0871861 29:0.57402 30:0.31183 31:0.52805 32:0.670269 33:0.299144 34:0.27536 35:0.420836 36:0.438885 37:0.480141 38:1 39:0.592132 40:0.276693 41:0.163531 42:0.21979 43:0.701077 44:0.576431 45:0.361896 46:0.280317 47:0.17505 48:0.365491 49:0.193142 50:0.105249 51:0.134217 52:0.142865 53:0.224824 54:0.550849 55:0.183205 56:0.166333 57:0.147441 58:0.297267 59:0.115846 60:0.373577 61:0.427454 62:0.0851322 63:0.475571 64:0.427331 65:0.584934 66:0.33883 67:0.28537 68:0.304597 69:0.277179 70:0.357664 71:0.2189 72:0.426779 73:0.462719 74:0.248888 75:0.423884 76:0.77327 77:0.572298 78:0.437806 79:0.163502 80:0.256055 81:0.271678 82:0.595311 83:0.464642 84:0.294417 85:0.711269 86:0.191327 87:0.560738 88:0.308198 89:0.195922 90:0.197634 91:0.303431 92:0.710842 93:0.269775 94:0.28232 95:0.407694 96:0.29825 97:0.183217 98:0.398594 99:0.365049 100:0.203978 101:0.394965 102:0.297376 103:0.241681 104:0.303012 105:0.485573 106:0.11456 107:0.187097 108:0.172078 109:0.252813 110:0.344255 111:0.211846 112:0.225029 113:0.27117 114:0.262522 115:0.277501 116:0.417548 117:0.655864 118:0.117743 119:0.392565 120:0.215624 121:0.23747 122:0.317706 123:0.20375 124:0.198979 125:0.368428 126:0.183757 127:0.146351 128:0.294682 129:0.225392 130:0.0532815 131:0.146941 
0 0.006010799461193467 1:0.437264 2:0.526487 3:0.602709 4:0.686981 5:0.328401 6:0.318238 7:0.190093 8:0.162232 9:0.193456 10:0.114387 11:0.0649283 12:0.0810371 13:0.110608 14:0.0924497 15:0.0964045 16:0.202114 17:0.327229 18:0.410294 19:0.554678 20:0.559142 21:0.736068 22:0.763696 23:0.605595 24:0.408538 25:0.378649 26:0.411374 27:0.610415 28:0.701353 29:0.498985 30:0.179062 31:0.137496 32:0.642627 33:0.75874 34:0.628164 35:0.533783 36:0.297669 37:0.514854 38:0.696194 39:1 40:0.657523 41:0.152105 42:0.271797 43:0.433858 44:0.354651 45:0.171169 46:0.251023 47:0.213762 48:0.152084 49:0.139196 50:0.288508 51:0.379533 52:0.15042 53:0.438845 54:0.655547 55:0.330457 56:0.284875 57:0.21314 58:0.578566 59:0.519178 60:0.791981 61:0.29006 62:0.220554 
0 1.101431800354511 1:0.474242 2:0.673983 3:0.765942 4:0.692771 5:0.308496 6:0.198796 7:0.0722028 8:0.0283947 9:0.116905 10:0.181461 11:0.36419 12:0.280017 13:0.437855 14:0.488758 15:0.344567 16:0.331425 17:0.32911 18:0.404372 19:0.72818 20:0.651718 21:0.607769 22:0.464323 23:0.381896 24:0.45648 25:0.451575 26:0.365161 27:0.409487 28:0.5317 29:0.373815 30:0.199009 31:0.330933 32:0.390137 33:0.285155 34:0.622607 35:0.415335 36:0.0624901 37:0.409029 38:0.530817 39:0.999993 40:0.582826 41:0.250973 42:0.375654 43:0.774452 44:0.820613 45:0.481702 46:0.328208 47:0.331082 48:0.331646 49:0.230666 50:0.301305 51:0.375543 52:0.33296 53:0.322752 54:0.287323 55:0.354578 56:0.659562 57:0.41577 58:0.565067 59:0.502585 60:0.276306 61:0.439921 62:0.495809 63:0.596767 64:0.413494 65:0.53033 66:0.32951 67:0.660743 68:0.724591 69:0.395691 70:0.793933 71:0.783685 72:0.560422 73:0.302234 74:0.241077 75:0.185596 76:0.326075 77:0.234628 78:0.247864 79:0.245279 80:0.229755 81:0.226096 82:0.256183 83:0.439959 84:0.336335 85:0.741298 86:1 87:0.591506 88:0.408108 89:0.596061 90:0.398064 91:0.437093 92:0.719538 93:0.332528 94:0.38086 95:0.375689 96:0.205073 97:0.241032 98:0.319066 99:0.284086 100:0.317082 101:0.169237 102:0.428901 103:0.254669 104:0.085923 105:0.410274 106:0.23621 107:0.380493 108:0.318035 109:0.30091 110:0.422768 111:0.233872 112:0.134023 113:0.567753 114:0.4947 115:0.127898 116:0.768151 117:0.378984 118:0.421313 119:0.500484 120:0.264229 121:0.121705 122:0.147733 123:0.341046 124:0.361414 125:0.166622 126:0.217784 127:0.396873 128:0.0917701 
0 0.06031091987410832 1:0.291324 2:0.501399 3:0.571443 4:0.612474 5:0.393122 6:0.437656 7:0.303915 8:0.305133 9:0.305094 10:0.23263 11:0.384095 12:0.270731 13:0.344487 14:0.413497 15:0.22238 16:0.224511 17:0.231569 18:0.386232 19:0.592067 20:0.566198 21:0.378027 22:0.292831 23:0.183883 24:0.281309 25:0.414212 26:0.484512 27:0.694038 28:0.552475 29:0.449222 30:0.431823 31:0.62792 32:0.847411 33:0.714941 34:0.44904 35:0.246061 36:0.24 37:0.520834 38:0.324345 39:0.477014 40:0.323711 41:0.315919 42:0.306065 43:0.198326 44:0.346819 45:0.381752 46:0.181942 47:0.306232 48:0.241501 49:0.366974 50:0.377503 51:0.222232 52:0.656037 53:0.63053 54:0.522812 55:0.928151 56:0.652303 57:1 58:0.477963 59:0.356805 60:0.53378 61:0.323601 62:0.792312 63:0.64123 64:0.527739 65:0.365732 66:0.183322 67:0.608023 68:0.548313 69:0.804948 70:0.47267 71:0.553669 72:0.609059 73:0.468109 74:0.373354 75:0.330172 76:0.546897 77:0.640303 78:0.461085 79:0.499252 80:0.390847 81:0.57814 82:0.711706 83:0.540688 84:0.338673 85:0.369943 86:0.521897 87:0.739819 88:0.190687 89:0.183142 90:0.440621 91:0.201385 92:0.582664 93:0.400566 94:0.209508 95:0.516057 96:0.0950791 97:0.371337 98:0.320224 99:0.396474 100:0.467408 101:0.531677 102:0.169001 103:0.304821 104:0.390794 105:0.277556 106:0.212073 107:0.206803 108:0.283469 109:0.896314 110:0.509026 111:1 112:0.23946 113:0.660728 114:0.275579 115:0.182323 116:0.619425 117:0.541865 118:0.286998 119:0.214336 120:0.360356 121:0.287096 122:0.528264 123:0.188767 124:0.164494 125:0.204712 126:0.273693 
0.8216819753021142 1.509740475909233 1:0.355098 2:0.49346 3:0.643781 4:0.742092 5:0.408441 6:0.476825 7:0.37154 8:0.327061 9:0.376412 10:0.246075 11:0.364718 12:0.234696 13:0.317586 14:0.319965 15:0.255642 16:0.367826 17:0.408649 18:0.261904 19:0.253126 20:0.103653 21:0.150929 22:0.32695 23:0.309147 24:0.240136 25:0.104204 26:0.194092 27:0.325214 28:0.24612 29:0.08832 30:0.219017 31:0.199238 32:0.149831 33:0.133534 34:0.190742 35:0.0534791 36:0.036921 37:0.171725 38:0.102469 39:0.23634 40:0.134884 41:0.0977014 42:0.237893 43:0.263982 44:0.294386 45:0.294874 46:0.052492 47:0.0958274 48:0.0704943 49:0.217515 50:0.218982 51:0.156663 52:0.154362 53:0.416937 54:0.365656 55:0.171035 56:0.697707 57:0.544278 58:0.330015 59:0.491665 60:0.707375 61:0.112469 62:0.557204 63:0.210373 64:0.214673 65:0.317458 66:0.391187 67:0.382468 68:0.628721 69:0.316372 70:0.145207 71:0.170519 72:0.286085 73:0.36519 74:0.172325 75:0.233733 76:0.188832 77:0.0488656 78:0.133951 79:0.210064 80:0.465507 81:0.170289 82:0.219084 83:0.224167 84:0.617344 85:0.498702 86:0.22533 87:0.122108 88:0.119061 89:0.146385 90:0.332541 91:0.314021 92:0.495664 93:0.450352 94:0.306355 95:0.2283 96:0.179554 97:0.506866 98:0.376579 99:0.406739 100:0.322927 101:0.162107 102:0.393421 103:0.375137 104:0.241715 105:0.258023 106:0.509873 107:0.421821 108:0.272156 109:0.399989 110:0.352435 111:0.292433 112:0.256915 113:0.272383 114:0.299791 115:0.309052 116:0.613714 117:0.366251 118:0.189779 119:0.112499 120:0.211015 121:0.212112 122:0.0656807 123:0.0434547 124:0.0892991 125:0.272398 
0.6852745110089143 0.6193786634609775 1:0.405038 2:0.529225 3:0.674452 4:0.775259 5:0.370745 6:0.353075 7:0.202314 8:0.169216 9:0.15089 10:0.0932345 11:0.243641 12:0.220863 13:0.363436 14:0.596331 15:0.481144 16:0.582298 17:0.551365 18:0.253161 19:0.163607 20:0.257799 21:0.228854 22:0.305609 23:0.247149 24:0.246675 25:0.154191 26:0.233724 27:0.150606 28:0.176188 29:0.121585 30:0.234908 31:0.177607 32:0.205682 33:0.331954 34:0.272309 35:0.358112 36:0.325639 37:0.318251 38:0.0617734 39:0.116169 40:0.462179 41:0.435242 42:0.124586 43:0.325766 44:0.40796 45:0.415866 46:0.320707 47:0.237395 48:0.423131 49:0.328616 50:0.163671 51:0.190641 52:0.260159 53:0.0985971 54:0.0806111 55:0.175323 56:0.04268 57:0.13904 58:0.0449795 59:0.156555 60:0.3566 61:0.198581 62:0.281558 63:0.31431 64:0.394704 65:0.474933 66:0.181932 67:0.304985 68:0.364173 69:0.240014 70:0.234113 71:0.426579 72:0.492354 73:0.23618 74:0.116379 75:0.222809 76:0.427379 77:0.488307 78:0.264917 79:0.137295 80:0.348838 81:0.480038 82:0.438004 83:0.0753786 84:0.456616 85:0.44474 86:0.172763 87:0.099671 88:0.13476 89:0.130366 90:0.150521 91:0.0808704 92:0.20207 93:0.166809 94:0.179148 95:0.268162 96:0.141518 97:0.246621 98:0.35445 99:0.201896 100:0.0965181 101:0.251647 102:0.204171 103:0.318861 104:0.0749231 105:0.292362 106:0.282356 107:0.142936 108:0.13506 109:0.062871 110:0.203861 111:0.326588 112:0.197314 113:0.331192 114:0.181772 115:0.232621 116:0.335807 117:0.299746 118:0.224134 119:0.176898 120:0.128178 121:0.191832 122:0.193706 123:0.131914 124:0.129519 125:0.396009 
0.01057209479541399 0.1237582404844837 1:0.383726 2:0.474555 3:0.463434 4:0.415615 5:0.225747 6:0.36842 7:0.280148 8:0.350147 9:0.460592 10:0.378881 11:0.589732 12:0.309938 13:0.271503 14:0.209719 15:0.245128 16:0.290506 17:0.390106 18:0.377833 19:0.183049 20:0.100082 21:0.2277 22:0.264275 23:0.241979 24:0.376567 25:0.351013 26:0.339914 27:0.22473 28:0.311372 29:0.674944 30:0.763828 31:0.95684 32:0.54245 33:0.169527 34:0.536104 35:0.76423 36:0.483534 37:0.694912 38:0.634085 39:0.52904 40:0.452972 41:0.154645 42:0.146594 43:0.0480496 44:0.432127 45:0.492789 46:0.223461 47:0.179266 48:0.376845 49:0.357486 50:0.145612 51:0.279028 52:0.378141 53:0.764704 54:0.65243 55:0.233943 56:0.596639 57:0.452218 58:0.642652 59:0.413951 60:0.331611 61:0.499767 62:1 63:0.961334 64:0.654306 65:0.726156 66:0.307995 67:0.303337 68:0.388067 69:0.394203 70:0.719228 71:1 72:0.80815 73:0.89763 74:0.594516 75:0.235343 76:0.480015 77:0.630578 78:0.301801 79:0.3424 80:0.39283 81:0.431561 82:0.376213 83:0.172666 84:0.295887 85:0.385176 86:0.26802 87:0.558158 88:0.705769 89:0.603681 90:0.757847 91:0.417522 92:0.560749 93:0.200505 94:0.31742 95:0.662953 96:0.299455 97:0.524899 98:0.292279 99:0.441272 100:0.444968 101:0.237615 102:0.218601 103:0.411729 104:0.0957348 105:0.55506 106:0.388519 107:0.1784 108:0.455509 109:0.544133 110:0.333278 111:0.375285 112:0.519574 113:0.617796 114:0.540897 115:0.399317 116:0.607699 117:0.29371 118:0.179705 119:0.328786 120:0.188871 121:0.485085 122:0.277674 123:0.642304 124:0.303054 125:0.48976 126:0.40512 127:0.0909854 128:0.318574 129:0.559294 130:0.408696 
0.04177404142343238 0.4402300410438266 1:0.453707 2:0.536588 3:0.490947 4:0.427955 5:0.175661 6:0.229051 7:0.225306 8:0.328638 9:0.430828 10:0.308499 11:0.427133 12:0.236882 13:0.255969 14:0.314296 15:0.230145 16:0.228716 17:0.166244 18:0.216056 19:0.391496 20:0.22693 21:0.104698 22:0.272374 23:0.432621 24:0.636476 25:0.606439 26:0.663439 27:0.71263 28:0.619019 29:0.494453 30:0.204369 31:0.175015 32:0.389238 33:0.341159 34:0.414018 35:0.413054 36:0.39866 37:0.442352 38:0.14158 39:0.224294 40:0.475797 41:0.221868 42:0.43027 43:0.646539 44:0.460469 45:0.286386 46:0.306936 47:0.340916 48:0.184509 49:0.429561 50:0.567981 51:0.595745 52:0.575569 53:0.635975 54:0.505039 55:0.482576 56:0.459822 57:0.270765 58:0.213703 59:0.330565 60:0.729004 61:0.360522 62:0.269938 63:0.219921 64:0.317488 65:0.316766 66:0.250722 67:0.403906 68:0.248229 69:0.727333 70:0.777643 71:0.598002 72:0.234854 73:0.751653 74:0.471038 75:0.620097 76:0.675088 77:0.682895 78:1 79:1 80:0.831837 81:0.443327 82:0.201843 83:0.406115 84:0.119732 85:0.489362 86:0.708844 87:0.737756 88:0.75144 89:0.285049 90:0.339534 91:0.163184 92:0.283317 93:0.151256 94:0.363061 95:0.377879 96:0.392711 97:0.517578 98:0.312633 99:0.187529 100:0.379526 101:0.430985 102:0.606092 103:0.668564 104:0.685303 105:0.676939 106:0.410383 107:0.375651 108:0.303077 109:0.480559 110:0.465128 111:0.674797 112:0.360557 113:0.255772 114:0.193257 115:0.0914245 116:0.394721 117:0.258785 118:0.223603 119:0.175242 120:0.369508 121:0.74747 122:0.369108 123:0.236853 124:0.201509 125:0.235933 126:0.298658 127:0.840717 128:0.85885 129:1 130:0.981059 131:0.444367 
-1.576305246767601 4.044659652583453 1:0.390124 2:0.524964 3:0.343258 4:0.599326 5:0.203317 6:0.225726 7:0.287745 8:0.277427 9:0.182398 10:0.178517 11:0.251098 12:0.206962 13:0.25908 14:0.261556 15:0.312935 16:0.383577 17:0.430823 18:0.351762 19:0.452578 20:0.362443 21:0.284279 22:0.309692 23:0.259602 24:0.359065 25:0.246184 26:0.247297 27:0.330489 28:0.274256 29:0.271606 30:0.316788 31:0.262268 32:0.257024 33:0.323437 34:0.226915 35:0.17097 36:0.234593 37:0.270328 38:0.258532 39:0.347298 40:0.240234 41:0.210043 42:0.218159 43:0.26118 44:0.214179 45:0.290871 46:0.191082 47:0.203141 48:0.204364 49:0.224439 50:0.152775 51:0.204438 52:0.244618 53:0.25822 54:0.25522 55:0.263462 56:0.417554 57:0.365393 58:0.322741 59:0.28351 60:0.316431 61:0.344387 62:0.320646 63:0.320473 64:0.275128 65:0.314437 66:0.181292 67:0.334142 68:0.310567 69:0.374167 70:0.454058 71:0.361735 72:0.497907 73:0.470865 74:0.416753 75:0.421538 76:0.511295 77:0.446652 78:0.305799 79:0.451255 80:0.415636 81:0.371656 82:0.352631 83:0.599557 84:0.474897 85:0.523452 86:0.388556 87:0.506625 88:0.407594 89:0.417273 90:0.290084 91:0.417391 92:0.443731 93:0.363776 94:0.271531 95:0.446324 96:0.216735 97:0.37396 98:0.277593 99:0.344879 100:0.452216 101:0.447882 102:0.481665 103:0.405265 104:0.293814 105:0.376026 106:0.218343 107:0.298006 108:0.348983 109:0.308682 110:0.312993 111:0.286301 112:0.365987 113:0.434483 114:0.388049 115:0.270286 116:0.421438 117:0.324464 118:0.279362 119:0.228763 120:0.25816 121:0.260993 122:0.33689 123:0.297933 124:0.317522 125:0.422754 
-0.06131406707005665 0 1:0.819847 2:0.350078 3:0.331691 4:0.716602 5:0.452618 6:0.299601 7:0.303965 8:0.210471 9:0.24227 10:0.148774 11:0.162604 12:0.113119 13:0.350265 14:0.300736 15:0.0916183 16:0.145456 17:0.381139 18:0.343812 19:0.20197 20:0.239304 21:0.270715 22:0.186481 23:0.152664 24:0.159033 25:0.185137 26:0.0936371 27:0.175437 28:0.206687 29:0.222255 30:0.159458 31:0.1926 32:0.21159 33:0.0828383 34:0.193506 35:0.133122 36:0.133614 37:0.104493 38:0.180406 39:0.235321 40:0.178491 41:0.131352 42:0.124928 43:0.13371 44:0.135925 45:0.156498 46:0.138242 47:0.155131 48:0.136348 49:0.105601 50:0.167237 51:0.0910957 52:0.139138 53:0.101691 54:0.141442 55:0.186671 56:0.171261 57:0.192747 58:0.124046 59:0.135952 60:0.189613 61:0.206243 62:0.131765 
-0.106290170712487 1.356127441527845 1:0.882441 2:0.361976 3:0.458439 4:0.683242 5:0.495674 6:0.535931 7:0.408899 8:0.307538 9:0.368744 10:0.250764 11:0.28402 12:0.192118 13:0.216652 14:0.302438 15:0.424806 16:0.148326 17:0.17208 18:0.280271 19:0.234943 20:0.217104 21:0.286116 22:0.184057 23:0.216453 24:0.189103 25:0.174348 26:0.166304 27:0.226677 28:0.212578 29:0.302934 30:0.161172 31:0.141762 32:0.262264 33:0.206735 34:0.1422 35:0.12984 36:0.143817 37:0.217744 38:0.119252 39:0.326117 40:0.174862 41:0.0974517 42:0.174992 43:0.152186 44:0.184474 45:0.183015 46:0.16525 47:0.183566 48:0.200287 49:0.227183 50:0.11516 51:0.209027 52:0.222725 53:0.228099 54:0.163598 55:0.168814 56:0.206905 57:0.280411 58:0.26087 59:0.233079 60:0.296365 61:0.222559 62:0.238428 63:0.228829 64:0.238029 65:0.200571 66:0.237261 67:0.359274 68:0.323649 69:0.427481 70:0.422202 71:0.435385 72:0.429693 73:0.268341 74:0.259186 75:0.190984 76:0.319385 77:0.285738 78:0.366923 79:0.241586 80:0.342345 81:0.369352 82:0.35458 83:0.269952 84:0.282477 85:0.333386 86:0.320207 87:0.332616 88:0.301463 89:0.292684 90:0.41298 91:0.497651 92:0.55936 93:0.42967 94:0.347446 95:0.383948 96:0.233004 97:0.39867 98:0.358062 99:0.236932 100:0.220244 101:0.259656 102:0.296654 103:0.247285 104:0.375486 105:0.310415 106:0.199993 107:0.312168 108:0.232375 109:0.249829 110:0.447386 111:0.432441 112:0.239314 113:0.445662 114:0.360441 115:0.241195 116:0.327433 117:0.325756 118:0.38671 119:0.243263 120:0.246064 121:0.269936 122:0.287598 123:0.349555 124:0.228052 125:0.512575 126:0.22281 127:0.233892 128:0.345318 129:0.44034 
-0 1.501729716865839 1:0.689406 2:0.808136 3:0.272081 4:0.218718 5:0.24038 6:0.31553 7:0.228738 8:0.152255 9:0.0539282 10:0.108729 11:0.284936 12:0.179887 13:0.190825 14:0.112693 15:0.195266 16:0.364862 17:0.329267 18:0.336889 19:0.354214 20:0.180748 21:0.187493 22:0.318142 23:0.377963 24:0.305129 25:0.194975 26:0.16592 27:0.263911 28:0.225866 29:0.195964 30:0.211462 31:0.301914 32:0.273898 33:0.23609 34:0.178957 35:0.289455 36:0.171947 37:0.195498 38:0.156293 39:0.366985 40:0.249087 41:0.147693 42:0.172322 43:0.250179 44:0.250407 45:0.19893 46:0.255706 47:0.178911 48:0.184711 49:0.272476 50:0.177317 51:0.213049 52:0.186614 53:0.205902 54:0.212775 55:0.210742 56:0.350806 57:0.20381 58:0.34946 59:0.198888 60:0.375124 61:0.216091 62:0.309314 63:0.205489 64:0.40179 65:0.370737 66:0.238656 67:0.395534 68:0.527223 69:0.423298 70:0.37173 71:0.352605 72:0.418027 73:0.485534 74:0.339067 75:0.363751 76:0.363729 77:0.591933 78:0.371623 79:0.232098 80:0.225524 81:0.48463 82:0.31926 83:0.230594 84:0.400556 85:0.589099 86:0.376779 87:0.366875 88:0.251303 89:0.522179 90:0.48432 91:0.444303 92:0.249156 93:0.362833 94:0.277839 95:0.375534 96:0.181797 97:0.24704 98:0.416782 99:0.355022 100:0.452495 101:0.383385 102:0.406492 103:0.169646 104:0.288753 105:0.24041 106:0.317669 107:0.224619 108:0.333071 109:0.260956 110:0.460673 111:0.331358 112:0.303135 113:0.412656 114:0.30125 115:0.185048 116:0.395293 117:0.207493 118:0.269339 119:0.32362 120:0.241648 121:0.245408 122:0.232452 123:0.285418 124:0.18739 125:0.516143 126:0.205764 127:0.409637 128:0.254819 129:0.526718 
-0 3.711472265299876 1:0.55174 2:0.698645 3:0.527233 4:0.139177 5:0.295492 6:0.228906 7:0.0418349 8:0.00401071 9:0.0262916 10:0.0140938 12:0.0157835 13:0.0408579 14:0.1534 15:0.0610345 16:0.200268 17:0.189434 18:0.21029 19:0.262258 20:0.144241 21:0.112176 22:0.12677 23:0.0312859 24:0.026959 25:0.0152345 26:0.0683357 27:0.0851685 28:0.0336242 29:0.0779166 30:0.0607783 31:0.0624801 32:0.045115 33:0.067536 34:0.0936516 35:0.0459983 36:0.0366953 37:0.058107 38:0.0614125 39:0.0249326 40:0.0374356 41:0.0771002 42:0.10615 43:0.0732879 44:0.0723729 45:0.0653958 46:0.132793 47:0.0289324 48:0.0468837 49:0.134608 50:0.0791737 51:0.0592383 52:0.0230499 53:0.13016 54:0.0780022 55:0.0332362 56:0.104084 57:0.130928 58:0.124384 59:0.0661189 60:0.089865 61:0.120057 62:0.0983293 63:0.14357 64:0.233128 65:0.25396 66:0.133572 67:0.0381027 68:0.231214 69:0.330019 70:0.132793 71:0.0737112 72:0.16232 73:0.31481 74:0.148688 75:0.0691459 76:0.194238 77:0.203627 78:0.0405456 79:0.040816 80:0.257881 81:0.195332 82:0.0894747 83:0.189924 84:0.405331 85:0.377758 86:0.185739 87:0.114708 88:0.164711 89:0.207291 90:0.159881 91:0.0351862 92:0.259069 93:0.356033 94:0.122656 95:0.101452 96:0.115164 97:0.287214 98:0.0962253 99:0.124751 100:0.314092 101:0.0938202 102:0.107099 103:0.126541 104:0.184237 105:0.216227 106:0.0869343 107:0.202729 108:0.308818 109:0.293641 110:0.169564 111:0.174169 112:0.285379 113:0.215008 114:0.0696314 115:0.113536 116:0.30424 117:0.101496 118:0.0115577 119:0.225041 120:0.244834 121:0.264423 122:0.114533 123:0.239022 124:0.24152 125:0.354108 126:0.060564 127:0.191973 128:0.224317 129:0.146018 
-0.5186790258553353 0 1:0.471119 2:0.785776 3:0.718408 4:0.582004 5:0.465684 6:0.290219 7:0.310322 8:0.270026 9:0.36193 10:0.298782 11:0.366839 12:0.320136 13:0.516707 14:0.486303 15:0.4617 16:0.453995 17:0.378156 18:0.549718 19:0.616295 20:0.615355 21:0.748042 22:0.517602 23:0.509013 24:0.472358 25:0.298223 26:0.337913 27:0.334034 28:0.336057 29:0.481621 30:0.437754 31:0.544195 32:0.613003 33:0.513534 34:0.365127 35:0.313313 36:0.227125 37:0.261292 38:0.249567 39:0.501115 40:0.498421 41:0.349507 42:0.470818 43:0.388682 44:0.424003 45:0.27013 46:0.146165 47:0.199817 48:0.324164 49:0.421517 50:0.388028 51:0.500134 52:0.45327 53:0.4692 54:0.317731 55:0.201028 56:0.251552 57:0.312049 58:0.470124 59:0.442116 60:0.793615 61:0.6973 62:0.751187 63:0.646414 64:0.385469 65:0.446874 66:0.161484 67:0.3399 68:0.759437 69:0.901919 70:0.905998 71:0.805689 72:0.821701 73:0.866568 74:0.356343 75:0.200553 76:0.457269 77:0.564924 78:0.645769 79:0.624806 80:0.963016 81:1 82:0.840078 83:0.682759 84:0.672458 85:0.293912 86:0.298165 87:0.41687 88:0.677669 89:1 90:0.884771 91:0.967395 92:0.751985 93:0.415895 94:0.234938 95:0.361818 96:0.213151 97:0.686473 98:0.85034 99:1 100:0.847012 101:0.986041 102:0.747881 103:0.479228 104:0.154667 105:0.261583 106:0.413869 107:0.610578 108:0.727678 109:0.877545 110:0.960337 111:0.882038 112:0.561008 113:0.456667 114:0.126155 115:0.107644 116:0.613345 117:0.60408 118:0.816513 119:0.797227 120:0.886189 121:0.583205 122:0.50224 123:0.289953 124:0.207309 125:0.40195 126:0.250467 127:0.813611 128:0.810003 
-0 1.228012823279334 1:0.136525 2:0.188888 3:0.264609 4:0.580221 5:0.26321 6:1 7:0.803571 8:0.548053 9:0.208893 10:0.257756 11:0.441709 12:0.19155 13:0.409595 14:0.0401431 15:0.319665 16:0.43358 17:0.571907 18:0.241578 19:0.158667 20:0.285856 21:0.0842719 22:0.181643 23:0.165092 24:0.137706 25:0.133558 26:0.183837 27:0.180216 28:0.0834799 29:0.0993667 30:0.149193 31:0.142544 32:0.200566 33:0.0602418 34:0.0548243 35:0.188625 36:0.13532 37:0.212145 38:0.187674 39:0.31885 40:0.188254 41:0.192642 42:0.119826 43:0.267926 44:0.0857691 45:0.205764 46:0.357747 47:0.126719 48:0.314933 49:0.266498 50:0.104321 51:0.114825 52:0.16855 53:0.237693 54:0.233458 55:0.233511 56:0.366574 57:0.291592 58:0.304295 59:0.213792 60:0.227536 61:0.211513 62:0.307112 63:0.205436 64:0.213654 65:0.394901 66:0.366713 67:0.568518 68:0.523899 69:0.39652 70:0.456089 71:0.305938 72:0.480079 73:0.430184 74:0.177625 75:0.236629 76:0.63799 77:0.477007 78:0.392694 79:0.20539 80:0.273709 81:0.288182 82:0.304592 83:0.513546 84:0.404218 85:0.427491 86:0.334479 87:0.47648 88:0.307668 89:0.519379 90:0.333401 91:0.553585 92:0.375131 93:0.291208 94:0.323785 95:0.459933 96:0.170331 97:0.351631 98:0.368456 99:0.618019 100:0.257304 101:0.341768 102:0.330933 103:0.294443 104:0.257498 105:0.0640803 106:0.209788 107:0.332938 108:0.172831 109:0.204561 110:0.614044 111:0.264326 112:0.244719 113:0.411429 114:0.400128 115:0.297094 116:0.576982 117:0.324844 118:0.240101 119:0.469648 120:0.354251 121:0.244328 122:0.270181 
-0 10.72386760469426 1:0.760053 2:0.736805 3:0.193416 4:0.0170053 5:0.147241 6:0.227444 7:0.27609 8:0.081648 9:0.112879 10:0.0458605 11:0.216944 12:0.138378 13:0.104178 14:0.245176 15:0.110714 16:0.106659 17:0.100581 18:0.18313 19:0.178803 20:0.0623749 21:0.0849251 22:0.0664546 23:0.10665 24:0.137963 25:0.0584066 26:0.0455467 27:0.140174 28:0.139821 29:0.026085 30:0.0734164 31:0.0467927 32:0.130145 33:0.0146756 34:0.0909075 35:0.0842399 36:0.0664352 37:0.0993228 38:0.0180931 39:0.0611437 40:0.0535776 41:0.0467562 42:0.0757902 43:0.0271533 44:0.0269415 45:0.0244455 46:0.0482341 48:0.0323818 49:0.0322186 51:0.0294393 52:0.0614305 53:0.0283233 54:0.0969282 55:0.087628 56:0.0229208 57:0.042195 58:0.0419255 59:0.125657 60:0.0925631 61:0.0298259 62:0.0682758 63:0.10374 64:0.120087 65:0.0779297 66:0.100763 67:0.137511 68:0.150029 69:0.0730358 70:0.144119 71:0.141817 72:0.15015 73:0.208216 74:0.154853 75:0.0789801 76:0.282048 77:0.368047 78:0.179072 79:0.119939 80:0.0375472 81:0.13671 82:0.0726249 83:0.157551 84:0.236576 85:0.15591 86:0.182 87:0.151916 88:0.106124 89:0.181817 90:0.127347 91:0.0897171 92:0.120807 93:0.089809 94:0.101235 95:0.192999 96:0.121324 97:0.0312033 98:0.0962297 99:0.182796 100:0.11109 101:0.0730029 102:0.164013 103:0.19843 104:0.0837319 105:0.0935048 106:0.0967119 107:0.117403 108:0.136831 109:0.135832 110:0.120529 111:0.211872 112:0.110839 113:0.265403 114:0.182509 115:0.121164 116:0.152398 117:0.122404 118:0.273946 119:0.139916 120:0.192603 121:0.109864 122:0.144851 123:0.048066 124:0.0981742 125:0.237263 126:0.0451739 127:0.0992364 128:0.13508 129:0.211262 130:0.152418 
-0 1.148909552246054 1:0.526355 2:0.608547 3:0.441817 4:0.188355 5:0.226268 6:0.212887 7:0.238519 8:0.225123 9:0.164969 10:0.104219 11:0.00185195 12:0.00382057 13:0.14057 14:0.194988 15:0.134738 16:0.176206 17:0.0709025 18:0.00572323 19:0.178903 20:0.167855 21:0.194034 22:0.206532 23:0.135764 24:0.0307053 25:0.0892133 26:0.0865489 27:0.196215 28:0.193603 29:0.153788 30:0.145974 31:0.0315638 32:0.122222 33:0.0875945 34:0.146961 35:0.154505 36:0.0809975 37:0.0946904 38:0.0315782 39:0.187521 40:0.143763 41:0.115452 42:0.0604961 43:0.159139 44:0.0648489 45:0.0277874 46:0.154756 47:0.111246 48:0.065914 49:0.168906 50:0.0526695 51:0.120438 52:0.167001 53:0.106297 54:0.105558 55:0.0588407 56:0.166696 57:0.0768135 58:0.154338 59:0.104478 60:0.197962 61:0.191513 62:0.22145 63:0.157078 64:0.201569 65:0.124971 66:0.170853 67:0.290329 68:0.224781 69:0.347654 70:0.216723 71:0.1936 72:0.248844 73:0.159278 74:0.0838998 75:0.031085 76:0.269812 77:0.303443 78:0.322044 79:0.211494 80:0.210118 81:0.269563 82:0.288014 83:0.135505 84:0.190346 85:0.23456 86:0.153388 87:0.231463 88:0.219629 89:0.317724 90:0.197848 91:0.14904 92:0.240892 93:0.214281 94:0.333394 95:0.25118 96:0.189457 97:0.332928 98:0.289372 99:0.266916 100:0.264915 101:0.164627 102:0.314606 103:0.254458 104:0.20954 105:0.205051 106:0.161482 107:0.129754 108:0.336166 109:0.264389 110:0.222905 111:0.163403 112:0.0572113 113:0.263072 114:0.207335 115:0.0811045 116:0.220604 117:0.117051 118:0.321738 119:0.223769 120:0.144801 121:0.102087 122:0.19973 123:0.163455 124:0.140837 125:0.214251 126:0.155963 127:0.36904 
-0 0.481612066475258 1:0.231756 2:0.171597 3:0.223335 4:0.246242 5:0.0322592 7:0.30364 8:0.601002 9:0.115217 10:0.418656 11:0.380349 12:0.166527 13:0.260092 14:0.633152 15:0.138978 16:0.626909 17:0.172935 18:0.418634 19:0.605559 20:0.271093 21:0.0715899 22:0.469237 23:0.265059 24:0.215615 25:0.382849 26:0.299611 27:0.252253 28:0.274334 29:0.100905 30:0.623103 31:0.0817625 32:0.338526 33:0.136235 34:0.183828 35:0.238335 36:0.0768901 37:0.432646 38:0.0535504 39:0.285434 40:0.21713 41:0.0222913 42:0.264761 43:0.61145 44:0.4911 45:0.0573328 46:0.37172 47:0.16362 48:0.616818 49:0.332494 50:0.00211771 51:0.361199 52:0.095738 53:0.185901 54:0.21152 55:0.249288 56:0.215739 57:0.300508 58:0.259228 59:0.187178 60:0.501881 61:0.39019 62:0.634556 63:0.33025 64:0.494088 65:0.628567 66:0.262152 67:0.679206 68:0.900799 69:0.713528 70:0.916747 71:0.601249 72:0.956494 73:0.313111 74:0.290245 75:0.521975 76:0.107941 77:0.977988 78:0.670008 79:0.127947 80:0.384866 81:0.41504 82:0.86474 83:0.321237 84:0.389819 85:0.459826 86:0.255068 87:0.584805 88:0.551274 89:0.20281 90:0.504709 91:0.609304 92:0.135133 93:0.643698 94:0.221113 95:0.500342 96:0.138354 97:0.536444 98:1 99:0.731998 100:0.592353 101:0.212705 102:0.31245 103:0.464966 104:0.254297 105:0.42433 106:0.318395 107:0.539267 108:0.310545 109:0.517401 110:0.489104 111:0.277545 112:0.698925 113:0.452741 114:0.168406 115:0.478191 116:0.26013 117:0.474023 118:0.310228 119:0.384204 120:0.496693 121:0.40914 122:0.307874 123:0.222872 124:0.566442 125:0.543301 126:0.213986 
-0 4.595743658766748 1:0.739508 2:0.277718 3:0.193739 4:0.350055 5:0.298452 6:0.298282 7:0.148422 8:0.0501649 9:0.0825534 10:0.153936 11:0.251133 12:0.170329 13:0.131243 14:0.0551204 15:0.150103 16:0.300974 17:0.347652 18:0.28834 19:0.14536 20:0.14484 21:0.194474 22:0.231266 23:0.223973 24:0.117207 25:0.0453085 26:0.0719481 27:0.135681 28:0.170067 29:0.0821291 30:0.0454066 31:0.0234335 32:0.115482 33:0.156752 34:0.109276 35:0.0700383 36:0.0121096 38:0.0947053 39:0.16614 40:0.0944507 41:0.00527622 44:0.0494074 45:0.0765344 46:0.0733163 47:0.00980525 49:0.0297153 50:0.0367881 51:0.0595629 52:0.0366837 54:0.0516458 56:0.100305 57:0.0276675 58:0.0358553 59:0.0471436 60:0.0399342 61:0.021201 62:0.0932309 63:0.0688118 64:0.0961527 65:0.141601 66:0.0897656 67:0.153198 68:0.123516 69:0.0599876 70:0.140528 71:0.0956092 72:0.0633941 73:0.167391 74:0.131965 75:0.0558053 76:0.141902 77:0.188536 78:0.17746 79:0.0706155 80:0.100193 81:0.117838 82:0.243497 83:0.17701 84:0.0720841 85:0.18728 86:0.254854 87:0.153569 88:0.151582 89:0.196452 90:0.213295 91:0.199183 92:0.182738 93:0.127096 94:0.162308 95:0.152021 96:0.104136 97:0.104788 98:0.172661 99:0.229822 100:0.19524 101:0.173321 102:0.105783 103:0.0725205 104:0.141876 105:0.190857 106:0.191185 107:0.141341 108:0.0595947 109:0.132909 110:0.184203 111:0.0998084 112:0.098594 113:0.188559 114:0.135418 115:0.0520445 116:0.151735 117:0.191739 118:0.101877 119:0.0582278 120:0.0470557 121:0.106052 122:0.122459 123:0.0570432 124:0.106522 125:0.180464 126:0.109283 127:0.0925875 128:0.158041 
-0.2517251897654697 1.291928454966945 1:0.711228 2:0.135325 3:0.405286 4:0.526319 5:0.170365 6:0.198252 7:0.124292 8:0.140233 9:0.181289 10:0.107777 11:0.186344 12:0.15897 13:0.232149 14:0.297041 15:0.243648 16:0.263233 17:0.355931 18:0.29827 19:0.36914 20:0.331581 21:0.275319 22:0.244887 23:0.241857 24:0.293629 25:0.226595 26:0.199867 27:0.256378 28:0.227762 29:0.234531 30:0.237042 31:0.240178 32:0.219417 33:0.240521 34:0.181569 35:0.204937 36:0.19939 37:0.171466 38:0.210481 39:0.309524 40:0.229184 41:0.185349 42:0.213744 43:0.201899 44:0.197173 45:0.203629 46:0.1785 47:0.205236 48:0.158178 49:0.228357 50:0.134051 51:0.175063 52:0.161932 53:0.236289 54:0.161481 55:0.20338 56:0.274041 57:0.245339 58:0.271925 59:0.173927 60:0.254647 61:0.212417 62:0.242761 63:0.274244 64:0.270003 65:0.262077 66:0.172914 67:0.217412 68:0.255401 69:0.318974 70:0.352696 71:0.212359 72:0.241249 73:0.353073 74:0.222029 75:0.192662 76:0.239841 77:0.246416 78:0.279159 79:0.185376 80:0.309524 81:0.305174 82:0.230201 83:0.267607 84:0.349492 85:0.30435 86:0.320827 87:0.205868 88:0.265284 89:0.165053 90:0.309469 91:0.204572 92:0.324712 93:0.222759 94:0.192884 95:0.326149 96:0.142305 97:0.308132 98:0.228607 99:0.213391 100:0.309507 101:0.231596 102:0.284512 103:0.222503 104:0.278921 105:0.26638 106:0.22247 107:0.29874 108:0.253982 109:0.233266 110:0.246949 111:0.277433 112:0.214241 113:0.237415 114:0.289048 115:0.207667 116:0.403714 117:0.146085 118:0.271557 119:0.279378 120:0.258377 121:0.19366 122:0.207046 123:0.236663 124:0.231948 125:0.345855 126:0.188796 
-1.283588324306045 4.563580963188204 1:0.693634 2:0.277139 3:0.618793 4:0.526759 5:0.245917 6:0.384204 7:0.193362 8:0.216159 9:0.248777 10:0.185226 11:0.28775 12:0.160915 13:0.273188 14:0.162024 15:0.264664 16:0.185633 17:0.368607 18:0.270363 19:0.372562 20:0.29812 21:0.157617 22:0.160329 23:0.184639 24:0.172547 25:0.142098 26:0.144268 27:0.189414 28:0.206688 29:0.164332 30:0.154582 31:0.186694 32:0.173548 33:0.197161 34:0.160243 35:0.157341 36:0.169385 37:0.156599 38:0.129241 39:0.219209 40:0.161552 41:0.0939558 42:0.15051 43:0.183361 44:0.140635 45:0.180105 46:0.201878 47:0.137496 48:0.152963 49:0.186472 50:0.132553 51:0.14633 52:0.139893 53:0.169491 54:0.104032 55:0.1475 56:0.160723 57:0.193133 58:0.18126 59:0.155132 60:0.350413 61:0.256606 62:0.190275 63:0.192949 64:0.284067 65:0.328352 66:0.211786 67:0.274145 68:0.46802 69:0.366283 70:0.385954 71:0.318427 72:0.283874 73:0.343329 74:0.236295 75:0.32591 76:0.32429 77:0.364184 78:0.344664 79:0.269678 80:0.306352 81:0.305688 82:0.32713 83:0.345557 84:0.372199 85:0.388512 86:0.379464 87:0.227228 88:0.340649 89:0.270351 90:0.349613 91:0.390313 92:0.331442 93:0.27683 94:0.208685 95:0.320522 96:0.199773 97:0.248821 98:0.336827 99:0.377791 100:0.302139 101:0.330053 102:0.404517 103:0.259877 104:0.259429 105:0.24095 106:0.279161 107:0.298095 108:0.259903 109:0.260339 110:0.334871 111:0.383625 112:0.219702 113:0.531955 114:0.331748 115:0.209128 116:0.451602 117:0.233416 118:0.268582 119:0.331498 120:0.341969 121:0.294998 122:0.266249 
-0 12.49780453309765 1:0.89355 2:0.785309 3:0.198138 5:0.189489 6:0.319283 7:0.248387 8:0.157724 9:0.227003 10:0.0922812 11:0.172182 12:0.170961 13:0.243078 14:0.240679 15:0.187024 16:0.22267 17:0.0986663 18:0.0319408 19:0.166896 20:0.254197 21:0.250095 22:0.229773 23:0.104207 24:0.0258398 25:0.0986311 26:0.0618692 27:0.178253 28:0.137507 29:0.194772 30:0.054241 31:0.0421453 32:0.0556556 33:0.0539401 34:0.0924942 35:0.1028 36:0.0922341 37:0.0467372 38:0.0449451 39:0.0831934 40:0.0400152 41:0.042529 42:0.109719 43:0.111608 44:0.0978724 45:0.0557469 46:0.031379 47:0.0758346 48:0.0385767 49:0.0673747 50:0.105195 51:0.100519 52:0.0657738 53:0.0844325 54:0.107527 55:0.0490142 56:0.108527 57:0.18689 58:0.113238 59:0.0494312 60:0.0322072 62:0.0811966 63:0.105862 64:0.183462 65:0.149165 66:0.100305 67:0.155202 68:0.173894 69:0.129197 70:0.0979725 71:0.0801651 72:0.264434 73:0.149104 74:0.0847933 75:0.115898 76:0.225956 77:0.10022 78:0.162393 79:0.119824 80:0.209785 81:0.216762 82:0.212474 83:0.108403 84:0.144406 85:0.209867 86:0.161399 87:0.120559 88:0.193833 89:0.130965 90:0.218095 91:0.162378 92:0.130658 93:0.0860697 94:0.107726 95:0.153382 96:0.0908003 97:0.220314 98:0.104668 99:0.135769 100:0.146679 101:0.114569 102:0.146792 103:0.0726185 104:0.0841007 105:0.0513286 106:0.116811 107:0.0917787 108:0.155562 109:0.162073 110:0.119462 111:0.156381 112:0.102897 113:0.176057 114:0.095014 115:0.102787 116:0.0842783 117:0.113452 118:0.0582047 119:0.046877 120:0.183345 121:0.126732 122:0.12133 123:0.160636 124:0.102894 125:0.214697 126:0.0884191 127:0.163424 128:0.124292 129:0.201853 
-0 0.3269750362526721 1:0.165529 2:0.410309 3:0.372685 4:0.632592 5:0.359566 6:0.457615 7:0.66938 8:0.348432 9:0.211949 10:0.224651 11:0.435179 12:0.12793 13:0.243533 14:0.417776 15:0.383051 16:0.298915 17:0.573412 18:0.324947 19:0.474756 20:0.539219 21:0.544766 22:0.337998 23:0.0654047 24:0.396673 25:0.186664 26:0.149707 27:0.124043 28:0.332434 29:0.195426 30:0.0861443 31:0.208647 32:0.430214 33:0.254746 34:0.305375 35:0.072246 36:0.209936 37:0.416085 38:0.282721 39:0.149071 40:0.17723 41:0.0444737 42:0.108979 43:0.298462 44:0.196011 45:0.217764 46:0.295599 47:0.0569149 48:0.204754 49:0.112627 50:0.359816 51:0.011425 52:0.166528 53:0.018461 54:0.202337 55:0.298953 56:0.346629 57:0.0985447 58:0.215857 59:0.332065 60:0.138861 61:0.336134 62:0.945076 63:0.254444 64:0.509213 65:0.165021 66:0.0808032 67:0.303824 68:0.335571 69:0.54048 70:0.517213 71:0.374299 72:0.378205 73:0.102631 74:0.268838 75:0.388084 76:0.307134 77:0.540994 78:0.579253 79:0.261597 80:0.365952 81:0.40923 82:0.328189 83:0.270588 84:0.656665 85:0.289546 86:0.72677 87:0.148694 88:0.274758 89:0.210236 90:0.319194 91:0.178098 92:0.268298 93:0.422003 94:0.327204 95:0.253415 96:0.0852784 97:0.347182 98:0.0731722 99:0.61008 100:0.4054 101:0.37882 102:0.354492 103:0.121261 104:0.254917 105:0.272692 106:0.147595 107:0.25644 108:0.608503 109:0.318544 110:0.194305 111:0.311927 112:0.574372 113:0.72478 114:0.0447469 115:0.49436 116:0.384498 117:0.405978 118:0.426455 119:0.210185 120:0.223017 121:0.569412 122:0.215734 123:0.147115 124:0.505969 125:0.361654 126:0.36746 127:0.184711 
-0 0.6171302420343281 1:0.647845 2:0.136603 3:0.380634 4:0.474897 5:0.331881 6:0.245143 7:0.126888 8:0.109296 9:0.215621 10:0.0499838 11:0.137048 12:0.199596 13:0.158567 14:0.0821764 15:0.244974 16:0.325889 17:0.178222 18:0.197453 19:0.359318 20:0.196527 21:0.237214 22:0.213341 23:0.193705 24:0.229296 25:0.136685 26:0.127725 27:0.138391 28:0.183107 29:0.187244 30:0.177841 31:0.244487 32:0.201899 33:0.151313 34:0.150389 35:0.162691 36:0.174812 37:0.165688 38:0.186905 39:0.184411 40:0.222066 41:0.177725 42:0.145104 43:0.202331 44:0.242486 45:0.115628 46:0.194468 47:0.1777 48:0.103674 49:0.19889 50:0.134093 51:0.166167 52:0.132979 53:0.162028 54:0.114011 55:0.146049 56:0.20936 57:0.264533 58:0.223834 59:0.176885 60:0.30971 61:0.297555 62:0.232788 63:0.247039 64:0.279579 65:0.347413 66:0.193094 67:0.438077 68:0.35425 69:0.455667 70:0.266242 71:0.439224 72:0.39178 73:0.222667 74:0.285282 75:0.247758 76:0.335556 77:0.454676 78:0.401158 79:0.229452 80:0.319622 81:0.329722 82:0.334172 83:0.290149 84:0.351366 85:0.383827 86:0.303194 87:0.285209 88:0.323998 89:0.363559 90:0.295416 91:0.271732 92:0.271445 93:0.361673 94:0.277871 95:0.241555 96:0.187358 97:0.315732 98:0.216102 99:0.162025 100:0.418883 101:0.287952 102:0.38411 103:0.310425 104:0.184645 105:0.185897 106:0.281596 107:0.272679 108:0.141254 109:0.110725 110:0.303971 111:0.337968 112:0.22977 113:0.331057 114:0.357488 115:0.278857 116:0.334758 117:0.144417 118:0.311816 119:0.29488 120:0.313184 121:0.117452 122:0.249301 123:0.255828 124:0.196357 125:0.268875 126:0.222431 127:0.27558 128:0.168261 
-0.2759493221082626 0 1:0.327595 2:0.703991 3:0.539875 4:0.551825 5:0.682313 6:0.336366 7:0.35352 8:0.371347 9:0.743582 10:0.12824 11:0.499856 12:0.102287 13:0.394784 14:0.528274 15:0.146403 16:0.480341 17:0.510903 18:0.347631 19:0.319846 20:0.657412 21:0.146491 22:0.31501 23:0.211831 24:0.253389 25:0.159666 26:0.13644 27:0.305785 28:0.372197 29:0.225228 30:0.181551 31:0.23059 32:0.120316 33:0.176472 34:0.261029 35:0.228575 36:0.297249 37:0.201144 38:0.296591 39:0.486111 40:0.367049 41:0.282267 42:0.222155 43:0.270693 44:0.238236 45:0.180127 46:0.430708 47:0.08953 48:0.0661603 49:0.204612 50:0.183451 51:0.273489 52:0.199949 53:0.195813 54:0.226122 55:0.263761 56:0.389441 57:0.346159 58:0.266628 59:0.240227 60:0.412632 61:0.703959 62:0.334149 63:0.175006 64:0.612226 65:0.62685 66:0.318185 67:0.408907 68:0.387507 69:0.478122 70:0.709638 71:0.336785 72:0.355286 73:0.716772 74:0.321467 75:0.639065 76:0.677867 77:0.516833 78:0.665536 79:0.268679 80:0.461819 81:0.164997 82:0.321159 83:0.505093 84:0.46647 85:0.490466 86:0.874275 87:0.524941 88:0.246223 89:0.427546 90:0.745886 91:0.493125 92:0.531658 93:0.790039 94:1 95:0.315019 96:0.258277 97:0.808792 98:0.424199 99:0.437454 100:0.389789 101:0.96424 102:0.77256 103:0.410854 104:0.362099 105:0.281025 106:0.317586 107:0.556592 108:0.55882 109:0.426179 110:0.320191 111:0.721888 112:0.578012 113:0.74808 114:0.745921 115:0.378032 116:0.780126 117:0.17797 118:0.399922 119:0.631683 120:0.553846 121:0.24341 122:0.58169 123:0.474359 124:0.292495 125:0.641683 126:0.276154 127:0.50056 128:0.393946 129:0.790079 
-0.9230276524639163 5.657894993071078 1:0.496469 2:0.690415 3:0.563269 4:0.353859 5:0.134173 6:0.034566 7:0.0305349 8:0.129664 9:0.17274 10:0.12595 11:0.313358 12:0.155898 13:0.249726 14:0.290732 15:0.0971579 16:0.0852372 17:0.00473218 18:0.215718 19:0.312711 20:0.23077 21:0.33273 22:0.280249 23:0.233889 24:0.170791 25:0.0845531 27:0.110562 28:0.159063 29:0.169224 30:0.256121 31:0.212544 32:0.248764 33:0.183273 34:0.142211 35:0.114034 36:0.124041 37:0.112114 38:0.119442 39:0.219958 40:0.148881 41:0.178215 42:0.156563 43:0.188618 44:0.184911 45:0.139159 46:0.135834 47:0.0925651 48:0.176733 49:0.195546 50:0.160361 51:0.207819 52:0.170791 53:0.17227 54:0.156054 55:0.099683 56:0.176472 57:0.130831 58:0.178259 59:0.172979 60:0.199385 61:0.247331 62:0.160858 
-1.389003881729339 7.030118431503476 1:0.366287 2:0.527967 3:0.18234 4:0.671608 5:0.0493203 6:0.342085 7:0.236649 8:0.18707 9:0.20912 10:0.148371 11:0.267623 12:0.160344 13:0.30919 14:0.298977 15:0.226979 16:0.319758 17:0.413143 18:0.390699 19:0.407957 20:0.425266 21:0.348944 22:0.320445 23:0.352066 24:0.231409 25:0.249899 26:0.249197 27:0.283245 28:0.335856 29:0.285891 30:0.295219 31:0.278119 32:0.275292 33:0.325616 34:0.202319 35:0.291933 36:0.270013 37:0.293806 38:0.263731 39:0.351743 40:0.253649 41:0.186663 42:0.246353 43:0.259995 44:0.235491 45:0.254372 46:0.344609 47:0.256438 48:0.186898 49:0.280719 50:0.233889 51:0.212049 52:0.253363 53:0.28707 54:0.305385 55:0.215675 56:0.356976 57:0.363495 58:0.453156 59:0.287163 60:0.542874 61:0.302235 62:0.534424 63:0.426834 64:0.501167 65:0.528764 66:0.248002 67:0.311213 68:0.457769 69:0.505366 70:0.395283 71:0.373127 72:0.695012 73:0.628989 74:0.394026 75:0.355804 76:0.479865 77:0.348823 78:0.435867 79:0.409031 80:0.438108 81:0.408723 82:0.505859 83:0.481714 84:0.638215 85:0.37118 86:0.47423 87:0.406799 88:0.420813 89:0.486349 90:0.355566 91:0.625926 92:0.512012 93:0.517691 94:0.364431 95:0.381355 96:0.316273 97:0.475639 98:0.439269 99:0.384305 100:0.47217 101:0.443044 102:0.5071 103:0.407267 104:0.366755 105:0.493975 106:0.371627 107:0.372171 108:0.336907 109:0.26662 110:0.426096 111:0.39665 112:0.520719 113:0.57078 114:0.454008 115:0.379202 116:0.423248 117:0.288248 118:0.465465 119:0.443691 120:0.36891 121:0.316525 122:0.23595 123:0.284595 124:0.341294 125:0.501983 126:0.27006 
-0 0.1399354933045099 1:1 2:0.742884 3:0.343326 4:0.58123 5:0.329176 6:0.30469 7:0.204601 8:0.17952 9:0.209227 10:0.182279 11:0.28161 12:0.201917 13:0.154144 14:0.286841 15:0.238569 16:0.224988 17:0.252384 18:0.279416 19:0.157121 20:0.275937 21:0.22975 22:0.110626 23:0.155458 24:0.114192 25:0.129326 26:0.107179 27:0.187995 28:0.151284 29:0.0886274 30:0.163703 31:0.121013 32:0.140494 33:0.140682 34:0.131346 35:0.129702 36:0.0513034 37:0.0865985 38:0.0850011 39:0.151493 40:0.154438 41:0.0803183 42:0.142492 43:0.026048 44:0.0962226 45:0.0700312 46:0.0540509 47:0.0440725 48:0.0924882 49:0.11309 50:0.052556 51:0.0700268 52:0.0602652 53:0.117337 54:0.143973 55:0.13243 56:0.117158 57:0.130269 58:0.107232 59:0.0689784 60:0.263367 61:0.0506526 62:0.06986 63:0.133904 64:0.0980621 65:0.185869 66:0.0948594 67:0.207979 68:0.269245 69:0.132579 70:0.149047 71:0.20843 72:0.190337 73:0.16413 74:0.194488 75:0.230629 76:0.228874 77:0.12607 78:0.183136 79:0.110826 80:0.105914 81:0.169511 82:0.115703 83:0.194096 84:0.160725 85:0.245457 86:0.107241 87:0.103735 88:0.108899 89:0.0503379 90:0.218656 91:0.33822 92:0.311281 93:0.101653 94:0.0856567 95:0.0783943 96:0.0827198 97:0.14135 98:0.135852 99:0.0956817 100:0.102676 101:0.227935 102:0.20647 103:0.125072 104:0.120046 105:0.166909 106:0.153691 107:0.0637767 108:0.0558064 109:0.153185 110:0.122236 111:0.196683 112:0.0915173 113:0.189918 114:0.0916073 115:0.074168 116:0.137684 117:0.169448 118:0.205302 119:0.189304 120:0.0763874 121:0.129843 122:0.130803 123:0.130133 124:0.155749 125:0.189008 126:0.126726 127:0.180744 128:0.111178 129:0.247483 130:0.20395 131:0.117395 132:0.402522 133:0.549342 134:0.433185 135:1 136:1 137:1 138:1 139:1 140:1 141:1 142:1 143:1 144:1 145:1 146:1 147:1 148:1 149:1 
-0 2.449690306139109 1:0.520197 2:0.428858 3:0.351659 4:0.241716 5:0.370417 6:0.395501 7:0.110544 8:0.0707724 9:0.169049 10:0.0997943 11:0.179083 12:0.134553 13:0.15044 14:0.249237 15:0.297601 16:0.345433 17:0.206077 18:0.326628 19:0.496302 20:0.312482 21:0.334591 22:0.163837 23:0.190817 24:0.285499 25:0.301554 26:0.125278 27:0.163029 28:0.319618 29:0.362387 30:0.310877 31:0.151307 32:0.286286 33:0.369809 34:0.23536 35:0.185015 36:0.0782029 37:0.183603 38:0.343602 39:0.376965 40:0.247286 41:0.0940055 42:0.264656 43:0.33099 44:0.272176 45:0.127211 46:0.197091 47:0.218947 48:0.299484 49:0.217884 50:0.111358 51:0.142074 52:0.246023 53:0.285677 54:0.210051 55:0.185457 56:0.265348 57:0.306346 58:0.283281 59:0.17291 60:0.1973 61:0.265447 62:0.329778 63:0.213292 64:0.378533 65:0.433101 66:0.172658 67:0.27304 68:0.376406 69:0.392214 70:0.380207 71:0.106883 72:0.234048 73:0.380461 74:0.34074 75:0.165974 76:0.0799476 77:0.284523 78:0.353689 79:0.356097 80:0.244172 81:0.155614 82:0.312509 83:0.535152 84:0.581667 85:0.181915 86:0.267319 87:0.449839 88:0.652911 89:0.598134 90:0.144312 91:0.524699 92:0.769831 93:0.510986 94:0.340494 95:0.379915 96:0.358182 97:0.673214 98:0.554706 99:0.261506 100:0.327129 101:0.757336 102:0.858935 103:0.415369 104:0.342359 105:0.548882 106:0.545753 107:0.714708 108:0.44582 109:0.39119 110:0.647235 111:0.781999 112:0.569042 113:0.366532 114:0.470428 115:0.562689 116:1 117:0.530479 118:0.435446 119:0.478291 120:0.821381 121:0.689286 122:0.46275 123:0.43881 124:0.547096 125:0.967974 126:0.48794 127:0.592781 
-0.5678376321553075 0.2116178881778407 1:0.000600016 2:0.193665 3:0.644642 4:0.466022 5:1 6:0.709912 7:0.466173 8:0.265184 9:0.114308 10:0.348555 11:0.542187 12:0.229883 13:0.171934 14:0.257831 15:0.39025 16:0.472105 17:0.652902 18:0.158164 19:0.259311 20:0.328356 21:0.465412 22:0.114285 23:0.179967 24:0.172409 25:0.2867 26:0.130286 27:0.240111 28:0.190918 29:0.10837 30:0.219995 31:0.326314 32:0.132655 33:0.0790434 34:0.146367 35:0.265769 36:0.115184 37:0.1445 38:0.103408 39:0.133181 40:0.0570955 41:0.181089 42:0.0519327 43:0.109551 44:0.134219 45:0.0710386 46:0.221728 47:0.120532 48:0.340551 49:0.1178 50:0.074961 51:0.175463 52:0.260307 53:0.210823 54:0.180225 55:0.202184 56:0.143301 57:0.174801 58:0.225407 59:0.135534 60:0.0867339 61:0.24925 62:0.285015 63:0.23305 64:0.358883 65:0.3128 66:0.270279 67:0.375574 68:0.318708 69:0.143561 70:0.255596 71:0.286707 72:0.485413 73:0.343664 74:0.217273 75:0.310668 76:0.304132 77:0.259255 78:0.341942 79:0.152187 80:0.334988 81:0.34651 82:0.249167 83:0.424213 84:0.29227 85:0.266041 86:0.369765 87:0.24563 88:0.145969 89:0.223794 90:0.215006 91:0.545662 92:0.354121 93:0.521553 94:0.0715476 95:0.258224 96:0.17884 97:0.211079 98:0.368603 99:0.400626 100:0.287282 101:0.348612 102:0.382439 103:0.253936 104:0.254044 105:0.225785 106:0.250342 107:0.26904 108:0.177871 109:0.196408 110:0.152195 111:0.412729 112:0.442509 113:0.472971 114:0.246279 115:0.199117 116:0.511109 117:0.230202 118:0.255111 119:0.263208 120:0.273017 121:0.346347 122:0.322894 123:0.269913 124:0.282746 125:0.248737 126:0.10902 127:0.4036 128:0.35317 
-0 4.407095469599566 1:0.520637 2:0.400491 3:0.631606 4:0.361874 5:0.18358 6:0.226346 7:0.172982 8:0.171623 9:0.174721 10:0.115991 11:0.193428 12:0.131368 13:0.192202 14:0.192798 15:0.195849 16:0.306132 17:0.268366 18:0.307613 19:0.333391 20:0.248162 21:0.214227 22:0.250695 23:0.190274 24:0.19919 25:0.136242 26:0.196875 27:0.174295 28:0.235414 29:0.265137 30:0.241292 31:0.205982 32:0.230594 33:0.138418 34:0.145661 35:0.186578 36:0.163924 37:0.147906 38:0.174047 39:0.161952 40:0.208729 41:0.169648 42:0.14226 43:0.146255 44:0.191598 45:0.189481 46:0.266465 47:0.171359 48:0.127299 49:0.182394 50:0.116647 51:0.188623 52:0.117481 53:0.1948 54:0.224021 55:0.207511 56:0.230867 57:0.287879 58:0.23848 59:0.22149 60:0.386263 61:0.287246 62:0.274034 63:0.296723 64:0.330512 65:0.415904 66:0.290365 67:0.381287 68:0.317904 69:0.369334 70:0.389279 71:0.434198 72:0.343417 73:0.307164 74:0.248506 75:0.328738 76:0.452028 77:0.280098 78:0.300963 79:0.302537 80:0.311682 81:0.420456 82:0.349466 83:0.288777 84:0.42564 85:0.335514 86:0.370254 87:0.385416 88:0.297445 89:0.400424 90:0.312063 91:0.28656 92:0.560343 93:0.440898 94:0.314369 95:0.468306 96:0.246283 97:0.337947 98:0.327236 99:0.336927 100:0.311225 101:0.287239 102:0.400941 103:0.231729 104:0.200731 105:0.334809 106:0.283753 107:0.350919 108:0.317898 109:0.298942 110:0.341695 111:0.268065 112:0.247733 113:0.480755 114:0.366494 115:0.332194 116:0.37417 117:0.230779 118:0.403308 119:0.431543 120:0.421865 121:0.372675 122:0.253134 123:0.2188 124:0.348462 125:0.358496 126:0.21643 127:0.456173 128:0.380429 
-0 -2.437946389480062 1:0.658365 2:0.836762 3:0.453597 4:0.246972 5:0.228698 6:0.167327 7:0.329794 8:0.157539 9:0.231161 10:0.118412 11:0.231781 12:0.0894413 13:0.230108 14:0.371601 15:0.322169 16:0.264555 17:0.267705 18:0.232405 19:0.17697 20:0.255712 21:0.15099 22:0.188111 23:0.0968552 24:0.266073 25:0.159073 26:0.14445 27:0.0521555 28:0.125919 29:0.101882 30:0.208089 31:0.146688 32:0.170286 33:0.232498 34:0.0542172 35:0.064407 36:0.146154 37:0.0746189 38:0.057115 39:0.151405 40:0.0800029 41:0.156268 42:0.177524 43:0.0783913 44:0.0959613 45:0.164261 46:0.0931576 47:0.175952 48:0.0957994 49:0.148123 50:0.111363 51:0.143783 52:0.141587 53:0.105466 54:0.159801 55:0.168122 56:0.112478 57:0.208371 58:0.245155 59:0.211777 60:0.245777 61:0.168652 62:0.315656 63:0.228531 64:0.24839 65:0.542629 66:0.219989 67:0.357384 68:0.408535 69:0.396516 70:0.29106 71:0.336119 72:0.386803 73:0.432993 74:0.271188 75:0.3347 76:0.502952 77:0.473521 78:0.343503 79:0.208531 80:0.33465 81:0.418509 82:0.355496 83:0.533726 84:0.772691 85:0.603537 86:0.605232 87:0.411571 88:0.43114 89:0.516224 90:0.42567 91:0.458873 92:0.775629 93:0.51074 94:0.400742 95:0.480591 96:0.188496 97:0.439417 98:0.454064 99:0.490877 100:0.490152 101:0.336458 102:0.677016 103:0.560041 104:0.354995 105:0.516724 106:0.417901 107:0.480606 108:0.549006 109:0.455834 110:0.421844 111:0.430178 112:0.384381 113:0.778739 114:0.477037 115:0.351929 116:0.693634 117:0.450295 118:0.431909 119:0.664205 120:0.525718 121:0.509465 122:0.414631 123:0.434297 124:0.468847 125:0.75712 126:0.45427 
-2.187972421395074 -0.6187726181676324 1:0.488346 2:0.649742 3:0.438971 4:0.674536 5:0.170363 6:0.728477 7:0.353093 8:0.246839 9:0.214734 10:0.152692 11:0.340841 12:0.41685 13:0.338791 14:0.415942 15:0.357082 16:0.332656 17:0.564363 18:0.530615 19:0.405391 20:0.379792 21:0.382111 22:0.27863 23:0.325657 24:0.336471 25:0.265146 26:0.182429 27:0.2826 28:0.27881 29:0.29977 30:0.268917 31:0.202181 32:0.237611 33:0.274017 34:0.230646 35:0.220896 36:0.208144 37:0.193928 38:0.257539 39:0.322117 40:0.166861 41:0.196447 42:0.218542 43:0.220098 44:0.148662 45:0.235867 46:0.153109 47:0.200289 48:0.128218 49:0.180303 50:0.155677 51:0.114261 52:0.103704 53:0.100952 54:0.155741 55:0.153329 56:0.159261 57:0.218633 58:0.239975 59:0.173772 60:0.213244 61:0.261427 62:0.190612 
-0.6656098251222538 -0.1486962602822647 1:0.500777 2:0.780144 3:0.990087 4:0.795573 5:0.199366 6:0.223943 7:0.0397423 8:0.100187 9:0.20128 10:0.15752 11:0.506332 12:0.284569 13:0.665739 14:0.457615 15:0.588414 16:0.373876 17:0.991795 18:0.451721 19:0.263785 20:0.409181 21:0.508481 22:0.555802 23:0.564084 24:0.503432 25:0.423364 26:0.437042 27:0.310314 28:0.33721 29:0.292672 30:0.206928 31:0.448834 32:0.54095 33:0.375846 34:0.485532 35:0.452905 36:0.39191 37:0.379222 38:0.37732 39:0.292684 40:0.33084 41:0.321553 42:0.346334 43:0.410725 44:0.410247 45:0.419921 46:0.395904 47:0.233732 48:0.302179 49:0.404281 50:0.280373 51:0.333658 52:0.283092 53:0.347565 54:0.305109 55:0.34501 56:0.448074 57:0.470367 58:0.429347 59:0.397795 60:0.507744 61:0.540426 62:0.394847 63:0.459516 64:0.43782 65:0.391414 66:0.339902 67:0.595379 68:0.823999 69:0.764016 70:0.786092 71:0.74081 72:0.686709 73:0.632886 74:0.370154 75:0.202964 76:0.516495 77:0.474565 78:0.39399 79:0.447587 80:0.587533 81:0.616527 82:0.678726 83:0.455954 84:0.654261 85:0.423084 86:0.532898 87:0.482809 88:0.655567 89:0.686849 90:0.778176 91:0.69274 92:0.480923 93:0.364254 94:0.210191 95:0.264588 96:0.332894 97:0.554679 98:0.419975 99:0.604931 100:0.617966 101:0.524065 102:0.45134 103:0.265521 104:0.204409 105:0.395395 106:0.367189 107:0.466428 108:0.650091 109:0.663062 110:0.511467 111:0.515811 112:0.447799 113:0.364421 114:0.393898 115:0.383843 116:0.542737 117:0.524871 118:0.456299 119:0.509106 120:0.401436 121:0.303285 122:0.295541 123:0.339795 124:0.269809 125:0.677503 126:0.327018 127:0.547019 
-0.07243560404026912 -0.1785785095650951 1:0.193732 2:0.416482 3:0.597422 4:0.631832 5:0.241204 6:0.231703 7:0.230338 8:0.283645 9:0.251361 10:0.221633 11:0.534293 12:0.236568 13:0.232518 14:0.936269 15:0.281637 16:0.560314 17:0.564214 18:0.703256 19:0.654699 20:0.443696 21:0.439419 22:0.513775 23:0.393979 24:0.584003 25:0.331952 26:0.301696 27:0.423345 28:0.527153 29:0.627488 30:0.399492 31:0.351369 32:0.363873 33:0.387203 34:0.401982 35:0.401031 36:0.250418 37:0.363764 38:0.398504 39:0.323129 40:0.381545 41:0.273065 42:0.304743 43:0.350004 44:0.199471 45:0.483408 46:0.315677 47:0.279211 48:0.315467 49:0.335536 50:0.201866 51:0.278335 52:0.214371 53:0.406087 54:0.346277 55:0.286377 56:0.292821 57:0.379255 58:0.423742 59:0.217712 60:0.282017 61:0.216951 62:0.200045 63:0.329611 64:0.530486 65:0.264396 66:0.201167 67:0.207953 68:0.259074 69:0.170923 70:0.355567 71:0.157081 72:0.310455 73:0.2452 74:0.205438 75:0.143645 76:0.253457 77:0.301197 78:0.239477 79:0.132099 80:0.238957 81:0.0491479 82:0.134342 83:0.243925 84:0.40389 85:0.367663 86:0.203448 87:0.219391 88:0.446644 89:0.302454 90:0.394741 91:0.446088 92:0.424601 93:0.195041 94:0.103969 95:0.234516 96:0.123638 97:0.262609 98:0.198537 99:0.256451 100:0.409889 101:0.265665 102:0.316473 103:0.163909 104:0.211664 105:0.29947 106:0.41327 107:0.3908 108:0.395509 109:0.513499 110:0.405101 111:0.334442 112:0.291822 113:0.467604 114:0.341097 115:0.479589 116:0.548733 117:0.330065 118:0.47617 119:0.409982 120:0.624558 121:0.412959 122:0.305143 123:0.503269 124:0.409227 125:0.63779 126:0.228177 127:0.421769 128:0.300702 129:0.764009 130:0.535969 131:0.450169 132:0.619612 133:1 134:1 
-0 -0.13152790332714 1:0.12875 2:0.091394 3:0.137298 4:0.119003 5:0.150085 6:0.25882 7:0.237357 8:0.325052 9:0.778058 10:0.974688 11:1 12:0.366655 13:1 14:0.973931 15:0.202887 16:0.27268 17:0.857155 18:0.841797 19:0.861168 20:0.882477 21:0.740213 22:0.56464 23:0.388929 24:0.305164 25:0.179008 26:0.420257 27:0.147542 28:0.143624 29:0.254574 30:0.561738 31:0.486068 32:0.282514 33:0.378298 34:0.0964354 35:0.119778 36:0.135862 37:0.200103 38:0.0261227 39:0.132372 40:0.244083 41:0.199563 42:0.198685 43:0.385582 44:0.287313 45:0.246319 46:0.410944 47:0.0603995 48:0.0351018 49:0.351018 50:0.188715 51:0.140766 52:0.241212 53:0.320838 54:0.314048 55:0.13318 56:0.425502 57:0.372429 58:0.333624 59:0.228081 60:0.406672 61:0.382588 62:0.643741 
-0.7233987956149514 -0.8414602114829411 1:0.46828 2:0.581502 3:0.660788 4:0.549444 5:0.1334 6:0.0589267 7:0.0750387 8:0.0450205 9:0.180033 10:0.179877 11:0.169969 12:0.188884 13:0.361135 14:0.25862 15:0.28641 16:0.241835 17:0.272245 18:0.272571 19:0.386769 20:0.368437 21:0.436086 22:0.39527 23:0.351109 24:0.340244 25:0.368167 26:0.325741 27:0.269658 28:0.381273 29:0.2973 30:0.270452 31:0.230343 32:0.250104 33:0.255641 34:0.265168 35:0.368394 36:0.334145 37:0.356362 38:0.235977 39:0.262174 40:0.111056 41:0.055309 42:0.168123 43:0.253836 44:0.244263 45:0.4359 46:0.432342 47:0.258607 48:0.235725 49:0.250193 50:0.0951523 51:0.126176 52:0.232649 53:0.330954 54:0.412598 55:0.382612 56:0.623132 57:0.385689 58:0.360841 59:0.116622 60:0.17838 61:0.215414 62:0.495545 63:0.586613 64:0.568217 65:0.805067 66:0.536718 67:0.574337 68:0.391718 69:0.222591 70:0.321214 71:0.372733 72:0.705689 73:1 74:0.675243 75:0.653468 76:0.864856 77:0.415329 78:0.158593 79:0.0923495 80:0.308712 81:0.457355 82:0.687393 83:0.786985 84:0.81843 85:0.871559 86:0.584128 87:0.397668 88:0.275752 89:0.387827 90:0.386936 91:0.782284 92:1 93:0.826786 94:0.593922 95:0.743301 96:0.338474 97:0.377354 98:0.289875 99:0.248693 100:0.635176 101:0.74223 102:0.905693 103:0.707788 104:0.585219 105:0.503688 106:0.375791 107:0.331098 108:0.330416 109:0.493829 110:0.713608 111:0.880584 112:0.716911 113:1 114:0.723078 115:0.451624 116:0.466873 117:0.277757 118:0.343177 119:0.647293 120:0.659462 121:0.728853 122:0.612285 123:0.586923 124:0.540841 125:0.582475 126:0.284214 127:0.430968 128:0.460142 129:0.722775 130:0.897893 131:1 
-2.413200960766929 -0 1:0.20976 2:0.399748 3:0.57127 4:0.629954 5:0.25712 6:0.226214 7:0.156053 8:0.285316 9:0.194576 10:0.1469 11:0.408726 12:0.284728 13:0.332101 14:0.638985 15:0.303402 16:0.241261 17:0.888019 18:0.498777 19:0.838952 20:0.533669 21:0.325578 22:0.55352 23:0.345587 24:0.432109 25:0.329456 26:0.382251 27:0.451712 28:0.453526 29:0.431777 30:0.450197 31:0.39394 32:0.512848 33:0.422976 34:0.419417 35:0.458623 36:0.260409 37:0.475535 38:0.440488 39:0.576689 40:0.389108 41:0.275901 42:0.346557 43:0.414489 44:0.418051 45:0.522346 46:0.434329 47:0.392409 48:0.334847 49:0.403297 50:0.26547 51:0.306631 52:0.385583 53:0.467347 54:0.296349 55:0.308937 56:0.484315 57:0.456912 58:0.524264 59:0.438985 60:0.526986 61:0.515454 62:0.578591 63:0.456428 64:0.585957 65:0.550757 66:0.463455 67:0.684109 68:0.581109 69:0.592442 70:0.682831 71:0.559025 72:0.470332 73:0.363974 74:0.470886 75:0.438372 76:0.692003 77:0.679811 78:0.594989 79:0.459909 80:0.526143 81:0.519443 82:0.519731 83:0.480371 84:0.678382 85:0.568976 86:0.473286 87:0.356288 88:0.469706 89:0.52924 90:0.427197 91:0.523711 92:0.582958 93:0.294264 94:0.392384 95:0.352334 96:0.332478 97:0.322447 98:0.229845 99:0.356765 100:0.300373 101:0.602107 102:0.282768 103:0.334693 104:0.284836 105:0.28884 106:0.264089 107:0.245089 108:0.35561 109:0.385741 110:0.259658 111:0.314264 112:0.268541 113:0.471379 114:0.313384 115:0.275145 116:0.573299 117:0.418894 118:0.328669 119:0.359085 120:0.304164 121:0.313313 122:0.372032 123:0.238514 124:0.194967 125:0.511599 126:0.29833 127:0.476843 128:0.227303 
-0.2139969307854586 -0 1:0.835294 2:0.80549 3:0.305751 4:0.684919 5:0.197122 6:0.525848 7:0.201284 8:0.283812 9:0.373544 10:0.25227 11:0.366926 12:0.374927 13:0.342749 14:0.306544 15:0.143746 16:0.361711 17:0.27162 18:0.409306 19:0.434838 20:0.39883 21:0.0883176 22:0.15457 23:0.247301 24:0.294442 25:0.301612 26:0.068383 27:0.185384 28:0.297829 29:0.145162 30:0.1046 31:0.187942 32:0.163236 33:0.188774 34:0.217704 35:0.126128 36:0.131413 37:0.14057 38:0.146012 39:0.161231 40:0.107366 41:0.144174 42:0.136236 43:0.110215 44:0.133503 45:0.111097 46:0.0572322 47:0.0889139 48:0.158447 49:0.0800741 50:0.102134 51:0.102335 52:0.159867 53:0.130579 54:0.124968 55:0.268136 56:0.280848 57:0.235708 58:0.0907029 59:0.118789 60:0.0851225 61:0.192376 62:0.0866671 63:0.219613 64:0.253988 65:0.283316 66:0.211906 67:0.261027 68:0.248558 69:0.364539 70:0.331404 71:0.317308 72:0.286611 73:0.262706 74:0.298159 75:0.266621 76:0.199724 77:0.21773 78:0.21034 79:0.154453 80:0.337554 81:0.151542 82:0.148947 83:0.219861 84:0.269114 85:0.262133 86:0.234564 87:0.167681 88:0.13091 89:0.293448 90:0.269363 91:0.135357 92:0.160492 93:0.0908892 94:0.278476 95:0.162318 96:0.0746216 97:0.261799 98:0.127206 99:0.157416 100:0.213513 101:0.182871 102:0.236315 103:0.135266 104:0.0490453 105:0.203846 106:0.168522 107:0.259993 108:0.165117 109:0.174609 110:0.153958 111:0.215983 112:0.255936 113:0.257875 114:0.140646 115:0.111418 116:0.360662 117:0.10017 118:0.12923 119:0.205017 120:0.101111 121:0.158976 122:0.0991823 123:0.162173 124:0.134387 125:0.138562 126:0.0550674 127:0.172041 128:0.126676 129:0.259677 
-0 -6.254038345473533 1:0.673883 2:0.491933 3:0.14018 4:0.224566 5:0.142784 6:0.430415 7:0.308489 8:0.210529 9:0.2617 10:0.110487 11:0.180342 12:0.162164 13:0.228218 14:0.277163 15:0.397612 16:0.254036 17:0.23068 18:0.0694493 19:0.0397582 20:0.140605 21:0.317651 22:0.240343 23:0.226555 24:0.0975216 25:0.123952 26:0.0374374 27:0.126171 28:0.198505 29:0.218207 30:0.167721 31:0.179543 32:0.0889822 33:0.035005 34:0.0761336 35:0.107167 36:0.0777226 37:0.178963 38:0.0553891 39:0.135335 40:0.0679609 41:0.0252654 42:0.0511869 43:0.171789 44:0.132535 45:0.185859 46:0.0633354 47:0.0898623 48:0.0043432 49:0.0999083 50:0.0371976 51:0.112448 52:0.0507909 53:0.099263 54:0.0656156 55:0.11412 57:0.105177 58:0.0610342 59:0.0903663 60:0.141042 61:0.0814769 62:0.111891 63:0.0940573 64:0.15135 65:0.236892 66:0.0872199 67:0.174166 68:0.149324 69:0.0927555 70:0.175471 71:0.167809 72:0.159597 73:0.257672 74:0.211711 75:0.113241 76:0.322024 77:0.142252 78:0.135758 79:0.146874 80:0.195611 81:0.0851718 82:0.168989 83:0.129571 84:0.100403 85:0.109392 86:0.0816845 87:0.140028 88:0.196347 89:0.0975993 90:0.136916 91:0.136545 92:0.183525 93:0.0961346 94:0.0720159 95:0.129681 96:0.0744715 97:0.0416637 98:0.103459 99:0.137077 100:0.211633 101:0.192556 102:0.156997 103:0.129268 104:0.114102 105:0.121997 106:0.18425 107:0.0906768 108:0.0868494 109:0.122261 110:0.144165 111:0.107505 112:0.108866 113:0.105868 114:0.10802 115:0.127068 116:0.194477 117:0.102034 118:0.203247 119:0.0537164 120:0.106501 121:0.132402 122:0.128475 123:0.111026 124:0.0793851 125:0.0893825 126:0.0963942 
-0 -1.495471153949543 1:0.640856 2:0.852363 3:0.596332 4:0.108893 5:0.0228725 6:0.29251 7:0.321126 8:0.215189 9:0.295063 10:0.12513 11:0.275122 12:0.222493 13:0.27889 14:0.342629 15:0.427749 16:0.392275 17:0.248279 18:0.121896 19:0.266514 20:0.319503 21:0.390692 22:0.215125 23:0.256908 24:0.181306 25:0.116204 26:0.167742 27:0.264163 28:0.32034 29:0.290755 30:0.232301 31:0.104482 32:0.129297 33:0.140826 34:0.185402 35:0.21374 36:0.221168 37:0.242421 38:0.184604 39:0.206566 40:0.181771 41:0.179241 42:0.204256 43:0.211017 44:0.140426 45:0.158842 46:0.200456 47:0.127434 48:0.180889 49:0.170316 50:0.0931848 51:0.168185 52:0.16144 53:0.218032 54:0.228262 55:0.223696 56:0.236773 57:0.286281 58:0.295114 59:0.185542 60:0.399547 61:0.257389 62:0.284544 63:0.317973 64:0.410922 65:0.395243 66:0.145868 67:0.226493 68:0.420708 69:0.37192 70:0.390363 71:0.260653 72:0.332001 73:0.295964 74:0.258199 75:0.264548 76:0.458673 77:0.400262 78:0.376188 79:0.258915 80:0.303481 81:0.260984 82:0.420994 83:0.407651 84:0.456464 85:0.436548 86:0.305539 87:0.255717 88:0.287697 89:0.291018 90:0.5422 91:0.453115 92:0.435082 93:0.341179 94:0.317721 95:0.439562 96:0.286706 97:0.297706 98:0.326171 99:0.274351 100:0.532247 101:0.431935 102:0.397192 103:0.313955 104:0.198997 105:0.247491 106:0.176387 107:0.292247 108:0.348726 109:0.335953 110:0.384906 111:0.18416 112:0.229138 113:0.486768 114:0.30019 115:0.295925 116:0.507211 117:0.249766 118:0.272267 119:0.367662 120:0.23615 121:0.311926 122:0.240422 123:0.297504 124:0.231206 125:0.467391 126:0.195892 127:0.449794 128:0.333595 129:0.535909 
-0 -1.436787696736227 1:0.651771 2:0.523667 3:0.16495 4:0.220495 5:0.335623 6:0.27797 7:0.550506 8:0.334148 9:0.336866 10:0.163741 11:0.580328 12:0.585027 13:0.213591 14:0.765716 15:0.35387 16:0.374848 17:0.708681 18:0.458844 19:0.621694 20:0.410689 21:0.301921 22:0.654675 23:0.216568 24:0.28842 25:0.384483 26:0.398494 27:0.293078 28:0.345216 29:0.570694 30:0.509533 31:0.246215 32:0.416198 33:0.527914 34:0.408109 35:0.226269 36:0.298423 37:0.48966 38:0.286619 39:0.355702 40:0.460135 41:0.390317 42:0.363247 43:0.1885 44:0.420532 45:0.357125 46:0.260776 47:0.170974 48:0.336897 49:0.369247 50:0.123281 51:0.233519 52:0.365466 53:0.301585 54:0.224995 55:0.231545 56:0.360222 57:0.358088 58:0.138356 59:0.278318 60:0.544597 61:0.161028 62:0.304569 63:0.374586 64:0.424468 65:0.240222 66:0.144528 67:0.279737 68:0.400754 69:0.186489 70:0.388022 71:0.443059 72:0.490917 73:0.526212 74:0.295087 75:0.381414 76:0.315642 77:0.356999 78:0.423395 79:0.396301 80:0.593826 81:0.373787 82:0.537384 83:0.517592 84:0.489263 85:0.476017 86:0.41608 87:0.504963 88:0.508913 89:0.513311 90:0.571245 91:0.409527 92:0.756331 93:0.576046 94:0.368831 95:0.574534 96:0.446404 97:0.356658 98:0.520534 99:0.503257 100:0.556293 101:0.403606 102:0.354784 103:0.62287 104:0.432421 105:0.437407 106:0.372915 107:0.416263 108:0.432408 109:0.358133 110:0.450854 111:0.627885 112:0.327424 113:0.28938 114:0.688594 115:0.533559 116:0.299335 117:0.280591 118:0.342007 119:0.529416 120:0.242326 121:0.238463 122:0.369359 123:0.302006 124:0.159923 125:0.51445 126:0.214254 127:0.425767 
-0 -2.409470154807039 1:0.722843 2:0.746835 3:0.396739 4:0.163296 5:0.188271 6:0.370013 7:0.383539 8:0.344394 9:0.339652 10:0.0766512 11:0.182529 12:0.155417 13:0.359696 14:0.615238 15:0.365268 16:0.348447 17:0.183068 18:0.126869 19:0.532768 20:0.47364 21:0.464844 22:0.330679 23:0.184499 24:0.101592 25:0.211786 26:0.212123 27:0.334608 28:0.289144 29:0.159103 30:0.109154 31:0.173429 32:0.241565 33:0.23195 34:0.164056 35:0.11402 36:0.073981 37:0.068362 38:0.143578 39:0.252415 40:0.182395 41:0.0857214 42:0.0382272 43:0.0471392 44:0.116266 45:0.148367 46:0.192224 47:0.12631 48:0.086466 49:0.0562731 50:0.0539697 51:0.0990268 52:0.146837 53:0.0665471 54:0.0686496 55:0.0926308 56:0.17624 57:0.199951 58:0.116912 59:0.0934759 60:0.105492 61:0.168952 62:0.132254 63:0.228762 64:0.237155 65:0.152081 66:0.122753 67:0.19874 68:0.272836 69:0.351029 70:0.165168 71:0.301045 72:0.338095 73:0.34763 74:0.209395 75:0.165694 76:0.253462 77:0.383367 78:0.291359 79:0.203394 80:0.296345 81:0.279789 82:0.229656 83:0.365632 84:0.342375 85:0.194488 86:0.359523 87:0.2779 88:0.349026 89:0.285986 90:0.171918 91:0.242787 92:0.249067 93:0.25223 94:0.209654 95:0.278668 96:0.171989 97:0.278008 98:0.225615 99:0.177756 100:0.345559 101:0.310137 102:0.280638 103:0.169799 104:0.237872 105:0.268629 106:0.165976 107:0.294532 108:0.283634 109:0.214169 110:0.147106 111:0.182912 112:0.254394 113:0.436308 114:0.325977 115:0.231659 116:0.275556 117:0.268753 118:0.288782 119:0.212682 120:0.241339 121:0.247107 122:0.185378 123:0.16725 124:0.156132 125:0.250057 126:0.160527 
-0.2870928265874275 -0.0724323846692741 1:0.242101 2:0.630467 3:0.83263 4:0.344748 5:0.472654 6:0.331926 7:1 8:0.51419 9:0.6756 10:0.542803 11:0.426263 12:0.290699 13:0.422682 14:0.835409 15:0.692708 16:0.686935 17:0.932423 18:0.353442 19:0.608115 20:0.473465 21:0.369544 22:0.463663 23:0.320779 24:0.26367 25:0.22296 26:0.357659 27:0.418519 28:0.325808 29:0.293 30:0.205713 31:0.240779 32:0.170661 33:0.112791 34:0.161845 35:0.2283 36:0.12969 37:0.129017 38:0.171447 39:0.313669 40:0.234924 41:0.180332 42:0.217999 43:0.242979 44:0.239204 45:0.219378 46:0.221048 47:0.178185 48:0.114344 49:0.262059 50:0.10332 51:0.178147 52:0.156481 53:0.248779 54:0.191337 55:0.201132 56:0.375102 57:0.206345 58:0.238895 59:0.134167 60:0.424706 61:0.0907491 62:0.32525 63:0.231834 64:0.136909 65:0.2683 66:0.202963 67:0.335395 68:0.267589 69:0.320822 70:0.350627 71:0.427806 72:0.558952 73:0.439887 74:0.21872 75:0.355494 76:0.281209 77:0.366653 78:0.284715 79:0.3519 80:0.486392 81:0.339598 82:0.391683 83:0.340589 84:0.499164 85:0.406413 86:0.255385 87:0.407822 88:0.436225 89:0.325768 90:0.182225 91:0.160809 92:0.40041 93:0.192517 94:0.257882 95:0.305479 96:0.229159 97:0.396142 98:0.431503 99:0.360497 100:0.441172 101:0.318761 102:0.310186 103:0.426408 104:0.131633 105:0.198881 106:0.238102 107:0.341435 108:0.293706 109:0.403709 110:0.36867 111:0.306423 112:0.234631 113:0.365802 114:0.458363 115:0.325661 116:0.383242 117:0.257264 118:0.393121 119:0.465339 120:0.546586 121:0.41247 122:0.174188 123:0.350823 124:0.329964 125:0.510835 126:0.0915515 127:0.474884 128:0.381373 129:0.554599 130:0.468632 
-0 -0.03186245626120095 1:0.331252 2:0.736583 3:0.654708 4:0.429353 5:0.469978 6:0.323411 7:0.938985 8:0.423446 9:0.306419 10:0.364273 11:0.521143 12:0.360134 13:0.211809 14:0.666123 15:0.538628 16:0.350666 17:0.618384 18:0.302863 19:0.459775 20:0.58551 21:0.529869 22:0.332919 23:0.295555 24:0.24207 25:0.276811 26:0.296098 27:0.24733 28:0.240453 29:0.504373 30:0.257014 31:0.184094 32:0.378694 33:0.290601 34:0.121208 35:0.229669 36:0.414914 37:0.290553 38:0.176862 39:0.375702 40:0.427347 41:0.179094 42:0.299931 43:0.3603 44:0.1958 45:0.200744 46:0.33837 47:0.333717 48:0.130782 49:0.247449 50:0.311405 51:0.195214 52:0.183554 53:0.390001 54:0.32679 55:0.186029 56:0.22461 57:0.413119 58:0.339239 59:0.151435 60:0.484514 61:0.486389 62:0.290616 63:0.194089 64:0.630853 65:0.320737 66:0.183125 67:0.38699 68:0.36877 69:0.237135 70:0.489654 71:0.594324 72:0.578146 73:0.238803 74:0.294705 75:0.471829 76:0.35059 77:0.399866 78:0.514992 79:0.359693 80:0.431325 81:0.459856 82:0.507539 83:0.402187 84:0.377813 85:0.538668 86:0.317293 87:0.353638 88:0.288175 89:0.375711 90:0.431484 91:0.528121 92:0.389242 93:0.31046 94:0.42776 95:0.392504 96:0.161451 97:0.217322 98:0.399397 99:0.341818 100:0.483717 101:0.41731 102:0.329026 103:0.238684 104:0.373276 105:0.329218 106:0.241887 107:0.356972 108:0.385875 109:0.304314 110:0.400524 111:0.710992 112:0.571948 113:0.390871 114:0.259375 115:0.575407 116:0.305286 117:0.35743 118:0.297378 119:0.460411 120:0.35114 121:0.484311 122:0.488026 123:0.474358 124:0.269673 125:0.753033 126:0.319908 127:0.439065 128:0.391258 129:0.808273 
-0.5731863150451678 -0.6721186414044626 1:0.353284 2:0.587295 3:0.703522 4:0.80144 5:0.227477 6:0.0773791 7:0.030565 8:0.101681 9:0.257505 10:0.135313 11:0.274808 12:0.327137 13:0.313029 14:0.645675 15:0.28817 16:0.522031 17:0.0966882 18:0.23041 19:0.222503 20:0.0406816 21:0.244348 22:0.209064 23:0.361942 24:0.23488 25:0.363597 26:0.246554 27:0.472492 28:0.264296 29:0.155036 30:0.178373 31:0.0870032 32:0.127755 33:0.167609 34:0.170491 35:0.355873 36:0.27791 37:0.333072 38:0.327047 39:0.372013 40:0.2132 41:0.137719 42:0.058193 43:0.130026 44:0.12933 45:0.180132 46:0.29258 47:0.141601 48:0.21914 49:0.311801 50:0.164118 51:0.192875 52:0.140448 53:0.0972933 54:0.133631 55:0.0706305 56:0.214523 57:0.258124 58:0.275071 59:0.271712 60:0.326357 61:0.285652 62:0.287904 63:0.0937655 64:0.131729 65:0.114558 66:0.130814 67:0.375734 68:0.342454 69:0.36748 70:0.442281 71:0.277197 72:0.42017 73:0.430349 74:0.184671 75:0.260682 76:0.280762 77:0.348308 78:0.142196 79:0.178303 80:0.296778 81:0.341122 82:0.389142 83:0.338775 84:0.607445 85:0.460487 86:0.118605 87:0.0829298 88:0.250531 89:0.270651 90:0.31652 91:0.409309 92:0.332727 93:0.181396 94:0.1529 95:0.389365 96:0.11525 97:0.175381 98:0.261941 99:0.139788 100:0.0563832 101:0.231755 102:0.0834922 103:0.335592 104:0.255625 105:0.290138 106:0.362313 107:0.16192 108:0.214032 109:0.141298 110:0.0904436 111:0.277198 112:0.143938 113:0.347458 114:0.30223 115:0.106842 116:0.332154 117:0.288383 118:0.14148 119:0.350212 120:0.262693 121:0.254572 122:0.255185 123:0.123635 124:0.210304 125:0.293225 126:0.136849 127:0.306538 128:0.292692 129:0.483286 
