svm_type c_svc
kernel_type linear
nr_class 3
total_sv 81
rho 5.06512 5.58055 0.169171
label 1 2 3
nr_sv 23 20 38
SV
0.0004578511870233505 0.001919441104726348 1:117.19746 2:105.30055 3:91.49656 4:60.711018 5:44.512289 6:43.0952 7:36.68868 8:27.19708 9:21.566804 10:15.804366 11:5.6401785 12:11.812247 13:17.901859 14:33.963881 15:43.8454 16:42.160244 17:29.480804 18:22.35244 19:15.325951 20:9.5100273 21:6.0446345 22:8.3158179 23:14.715721 24:18.275381 25:23.297021 26:13.839504 27:3.415963 28:6.6768502 29:11.321144 30:10.677368 31:3.2564555 32:4.8462874 33:6.9791689 34:7.1680629 35:10.022594 36:0.72161413 37:3.7788268 38:5.2778602 39:7.6522042 40:7.0619492 41:10.193001 42:2.8979437 43:2.2871312 44:10.487616 45:13.975879 46:7.9525771 47:10.4954 48:11.916001 49:10.438644 50:10.541635 51:11.804905 52:5.577978 53:2.4771978 54:4.8028285 55:5.878186 56:6.4574887 57:6.8210484 58:6.6109124 59:4.6957841 60:9.5619452 61:12.837396 62:10.721081 63:10.052037 64:6.7891824 65:2.396895 66:6.0213902 67:6.2596589 68:4.3679529 69:2.232 70:4.0883404 71:2.5172562 72:0.58688729 73:4.7882119 74:1.2766024 75:3.8751108 76:4.1078037 77:3.8837566 78:2.3229725 79:1.5234104 80:3.0019609 81:2.8453243 82:2.2622567 83:3.0534887 84:3.0622397 85:0.38925895 86:1.47631 87:1.4444488 88:4.8800209 89:2.1086553 90:2.8679878 91:1.3985537 92:2.3328359 93:0.91056759 94:1.1259756 95:1.0630624 96:1.627315 97:1.0037342 98:1.9979527 99:3.4161813 100:2.9770221 101:2.6793421 102:4.1726017 103:2.3567575 104:1.6762422 105:2.1796447 106:2.3296161 107:2.1586196 108:2.1761764 109:1.1011006 110:1.6554418 111:3.3481276 112:2.6118806 113:3.5308601 114:1.2364485 115:1.8025718 116:3.285325 117:2.3731528 118:1.2404008 119:1.5179096 120:1.4539099 121:3.2158933 122:3.2609916 123:3.712418 124:4.2470508 125:1.9480398 126:2.277215 127:2.3379834 128:4.4226758 129:3.8327573 130:1.0029965 131:2.3039537 132:0 133:0 134:0 135:0 136:0 137:0 138:0 139:0 140:0 141:0 142:0 143:0 144:0 145:0 146:0 147:0 148:0 149:0 
0.0004683449761507239 0.0007393861013940255 1:91.914356 2:83.883 3:89.622829 4:69.210587 5:64.566641 6:53.586113 7:33.755487 8:24.178562 9:15.253297 10:20.436596 11:36.209362 12:29.352118 13:19.423472 14:13.844647 15:15.200678 16:10.504404 17:9.8272479 18:16.602247 19:12.300612 20:6.6122631 21:9.5047575 22:12.911294 23:16.048648 24:10.029344 25:6.4569989 26:2.4154276 27:6.1925926 28:15.001723 29:9.7910374 30:7.3927479 31:5.5427267 32:3.4615894 33:5.455029 34:5.7007693 35:5.0996402 36:5.9483203 37:7.2580811 38:2.0857399 39:7.6137188 40:6.1773811 41:9.2892001 42:9.3020192 43:9.3523282 44:4.916351 45:2.5021904 46:6.9020511 47:1.1533987 48:7.7040661 49:5.1435829 50:9.4335926 51:6.2004186 52:4.7826822 53:4.7076669 54:10.050704 55:7.7848968 56:3.4220153 57:6.2265923 58:2.0866218 59:3.6720717 60:4.9714727 61:4.1040669 62:3.9356504 63:4.4667604 64:2.3195667 65:2.4182209 66:2.7191885 67:1.1083323 68:4.2411731 69:4.0901944 70:4.2906895 71:4.5979019 72:3.433786 73:5.2969515 74:6.9794546 75:4.8602327 76:3.9562611 77:4.6787322 78:5.122336 79:4.0874644 80:5.8053581 81:3.8311174 82:2.3989251 83:2.5007024 84:3.4946923 85:5.0719425 86:5.1333465 87:5.448433 88:3.7808488 89:2.2714847 90:6.3652299 91:5.3219491 92:6.2000526 93:5.7354298 94:3.1636695 95:5.6082383 96:3.8435642 97:3.384209 98:3.1584457 99:5.0920764 100:4.3657175 101:3.774796 102:3.6846038 103:2.1874902 104:5.6404756 105:4.4305789 106:5.1930604 107:5.5825292 108:3.9612366 109:3.5973365 110:5.6475931 111:3.1537255 112:2.5118664 113:4.4060952 114:3.6083933 115:3.4859016 116:3.5911727 117:3.2773825 118:4.2940052 119:4.271186 120:4.6850569 121:3.9688404 122:3.9121149 123:4.1031588 124:0 125:0 126:0 127:0 128:0 129:0 130:0 131:0 132:0 133:0 134:0 135:0 136:0 137:0 138:0 139:0 140:0 141:0 142:0 143:0 144:0 145:0 146:0 147:0 148:0 149:0 
0.001228385560873653 0 1:135.01523 2:102.57625 3:92.392217 4:81.771664 5:68.125792 6:47.64057 7:35.73095 8:14.54218 9:7.3669566 10:14.466957 11:17.709046 12:19.147859 13:20.181804 14:15.890172 15:9.8658352 16:4.0419234 17:4.9460622 18:5.8946518 19:6.6221127 20:17.382456 21:14.066986 22:8.8644561 23:3.226601 24:4.6245623 25:8.420943 26:8.3479002 27:19.885882 28:16.64219 29:8.5208371 30:7.1896387 31:8.0795176 32:8.411468 33:13.771108 34:8.2606144 35:8.3737944 36:11.928598 37:10.147672 38:6.3451497 39:3.033222 40:9.3756943 41:9.4081595 42:9.0629988 43:4.846796 44:3.6336842 45:2.1977489 46:9.6268389 47:10.410344 48:7.6371352 49:3.8588176 50:6.5502514 51:5.2385858 52:4.1452912 53:4.1204186 54:4.6144075 55:3.8329491 56:1.5469476 57:4.1972867 58:1.7777466 59:3.8115255 60:2.9839698 61:1.8171413 62:3.8075223 63:3.2437008 64:5.4168223 65:3.683224 66:2.5315689 67:1.7103418 68:0.95872187 69:3.4215089 70:3.488619 71:2.4372064 72:5.5476647 73:1.5493885 74:3.7584214 75:1.2468949 76:3.1772425 77:1.7546619 78:1.9707553 79:3.306827 80:1.7068836 81:2.3049343 82:1.7534826 83:3.6953847 84:3.7756601 85:1.2870323 86:1.3981206 87:2.4772464 88:1.920715 89:0.54464463 90:2.3054897 91:3.3122932 92:2.1693496 93:2.2911999 94:1.8990624 95:1.124133 96:3.0428588 97:1.4341614 98:2.2316025 99:1.896923 100:2.1612009 101:1.9082102 102:2.5700709 103:1.3257757 104:2.184186 105:1.6645154 106:2.1633064 107:3.0167459 108:1.2727515 109:2.731516 110:0.090988785 111:2.7180557 112:0.66083398 113:2.0632769 114:3.3581464 115:1.9976718 116:1.0337565 117:1.990842 118:1.5810868 119:2.8841325 120:1.9055187 121:1.9099264 122:2.1613706 123:1.8470683 124:1.1075399 125:2.0585633 126:1.986711 127:2.7912783 128:2.9857366 129:1.7520619 130:0 131:0 132:0 133:0 134:0 135:0 136:0 137:0 138:0 139:0 140:0 141:0 142:0 143:0 144:0 145:0 146:0 147:0 148:0 149:0 
0.0002071120841247026 0.000565033018079547 1:111.52211 2:88.345559 3:76.12514 4:74.146264 5:66.438654 6:51.452878 7:30.7712 8:17.062497 9:13.908314 10:5.8397251 11:24.137141 12:37.291409 13:39.751748 14:37.365484 15:30.782427 16:24.03211 17:16.861749 18:14.839894 19:16.075118 20:18.432926 21:15.997553 22:19.759596 23:15.350456 24:13.532446 25:10.753237 26:11.58262 27:8.9968392 28:6.0886732 29:3.8467447 30:2.5982896 31:4.2858816 32:7.0727309 33:8.4813488 34:13.549516 35:16.191136 36:8.8451104 37:11.075216 38:16.74189 39:13.731158 40:19.470543 41:10.758645 42:10.55389 43:8.4737918 44:14.016604 45:16.128952 46:9.2274573 47:11.558075 48:8.6175099 49:4.3032628 50:11.451592 51:7.6556259 52:5.388246 53:4.1448234 54:7.7130795 55:5.9301754 56:4.1796881 57:2.2004479 58:1.4388421 59:2.6094216 60:5.7509535 61:2.5273732 62:1.7943323 63:2.5324543 64:2.0574843 65:3.5987187 66:3.6074004 67:2.0680959 68:2.5178671 69:1.3941424 70:2.3874232 71:2.6795103 72:3.3736301 73:6.0203537 74:4.6885789 75:3.7163421 76:1.5975562 77:2.7883193 78:2.3621261 79:3.6119417 80:2.7022261 81:1.7782201 82:4.5422415 83:5.4092575 84:3.6267735 85:3.0678606 86:2.798353 87:4.4739708 88:3.9246949 89:2.2426018 90:3.8995869 91:2.7529558 92:4.5421112 93:1.4129401 94:5.5288897 95:5.3297527 96:2.0866927 97:2.3724524 98:2.7749049 99:0.55321595 100:0.76228739 101:1.0155718 102:2.9782936 103:2.3930026 104:1.3999834 105:2.4764675 106:2.4661093 107:2.5625265 108:2.5803864 109:0.6363956 110:2.0251832 111:0.95045719 112:0.60524206 113:1.036155 114:1.921477 115:0.10827382 116:2.1654672 117:3.5212341 118:3.2169413 119:1.5659585 120:3.0803308 121:1.6629401 122:2.1867819 123:2.0654675 124:4.0663832 125:1.4370575 126:0 127:0 128:0 129:0 130:0 131:0 132:0 133:0 134:0 135:0 136:0 137:0 138:0 139:0 140:0 141:0 142:0 143:0 144:0 145:0 146:0 147:0 148:0 149:0 
1.128333277598031e-05 0.002561912132982646 1:100.88227 2:91.467753 3:89.803293 4:76.79567 5:62.790939 6:57.801309 7:44.46308 8:31.202191 9:26.779245 10:13.844229 11:5.0501881 12:10.925951 13:23.429816 14:29.043862 15:28.334916 16:28.774547 17:26.110687 18:25.480481 19:28.745053 20:29.318816 21:27.071157 22:25.349731 23:20.057892 24:14.123121 25:12.810673 26:12.727772 27:13.406511 28:11.766321 29:13.239249 30:8.0774876 31:4.5375941 32:3.5644903 33:5.9127197 34:7.7105546 35:11.163873 36:8.1772975 37:4.411909 38:8.3627526 39:5.8462508 40:11.370366 41:17.655093 42:11.229046 43:5.0680525 44:1.910039 45:4.3496794 46:10.34986 47:11.649658 48:4.8144816 49:3.9029652 50:6.9761041 51:5.001254 52:4.5535727 53:5.5244552 54:2.6101626 55:4.7077482 56:6.3211816 57:1.6962356 58:3.6988555 59:4.8579365 60:1.9730817 61:3.5387664 62:6.6488361 63:4.718752 64:2.0652477 65:3.8803713 66:3.0137427 67:3.4179033 68:2.1284242 69:2.1843847 70:4.9032889 71:2.1170823 72:3.5977443 73:5.8877614 74:2.4570195 75:2.7332337 76:1.5959709 77:1.7961187 78:2.7596835 79:3.8348304 80:2.5690367 81:1.8744378 82:2.7774163 83:1.620243 84:3.5973828 85:2.030619 86:3.2872183 87:0.61149846 88:3.4006852 89:3.5436203 90:2.3170523 91:1.4612783 92:2.4817356 93:1.2006531 94:3.0046146 95:2.8336994 96:1.9740736 97:1.724119 98:1.8966641 99:2.4123625 100:2.788182 101:3.019336 102:1.8709072 103:1.8185208 104:3.2183726 105:0.52392563 106:2.4136137 107:3.5478121 108:2.590515 109:1.1263656 110:1.5061388 111:2.0127967 112:2.4199163 113:2.2626093 114:3.2346785 115:1.5400366 116:1.8017797 117:0.61378886 118:1.7438985 119:3.1080924 120:0.7544773 121:0.63047729 122:1.151147 123:4.0003183 124:2.3267259 125:3.62632 126:3.6795566 127:1.253661 128:1.9614442 129:1.5419281 130:2.719345 131:0 132:0 133:0 134:0 135:0 136:0 137:0 138:0 139:0 140:0 141:0 142:0 143:0 144:0 145:0 146:0 147:0 148:0 149:0 
0 0.0009952222168222475 1:78.870188 2:73.489558 3:71.887685 4:65.37961 5:51.344427 6:48.623073 7:36.177148 8:39.319741 9:37.502045 10:45.857625 11:40.020537 12:29.79615 13:25.74122 14:19.835427 15:20.739471 16:19.770266 17:19.103864 18:20.3427 19:25.139983 20:33.754591 21:28.048154 22:24.092928 23:31.557267 24:27.636461 25:23.458062 26:16.070974 27:4.9333415 28:14.370475 29:14.713466 30:15.861948 31:15.227911 32:15.584753 33:13.465426 34:14.70277 35:18.710252 36:20.919899 37:7.6453724 38:6.9932257 39:5.8942055 40:9.6192219 41:14.56962 42:12.617648 43:4.072408 44:14.904101 45:20.655428 46:9.3726027 47:4.3790545 48:6.4679457 49:7.6823319 50:13.135913 51:8.3894765 52:1.3382234 53:5.0314104 54:11.263856 55:10.66226 56:3.1894571 57:4.0866386 58:3.8743575 59:7.6210866 60:3.1676863 61:0.705558 62:3.2091064 63:4.3527664 64:7.7510427 65:9.2677253 66:6.7957102 67:5.1588222 68:5.7988188 69:8.3299382 70:2.4784032 71:3.9753825 72:1.5794915 73:2.1758769 74:2.9226322 75:4.0523702 76:6.3491692 77:6.8927804 78:6.386838 79:3.0148766 80:6.0628243 81:5.9702203 82:4.0065653 83:1.6704005 84:1.663976 85:4.423235 86:3.8637851 87:1.8449542 88:2.9456983 89:4.3319902 90:4.5419327 91:7.0280616 92:2.4708659 93:3.592047 94:4.1865725 95:2.6144824 96:2.6144999 97:1.4616376 98:4.5115485 99:6.5623641 100:6.1371568 101:4.62153 102:1.2244 103:2.7877734 104:4.5663639 105:6.2461526 106:2.652986 107:2.1202794 108:1.909498 109:2.963266 110:2.4565254 111:1.3240306 112:1.9076024 113:5.4195038 114:3.6515702 115:2.6878374 116:5.4442546 117:2.3484341 118:1.8658081 119:3.4483939 120:4.3621827 121:3.5806634 122:2.3738493 123:3.3226362 124:4.4799114 125:0 126:0 127:0 128:0 129:0 130:0 131:0 132:0 133:0 134:0 135:0 136:0 137:0 138:0 139:0 140:0 141:0 142:0 143:0 144:0 145:0 146:0 147:0 148:0 149:0 
0 0.006564442679491046 1:100.85524 2:80.723112 3:87.305892 4:71.211866 5:55.031803 6:39.524076 7:30.301487 8:27.703622 9:9.4922984 10:19.81946 11:33.451022 12:25.408743 13:20.650983 14:17.789984 15:18.562053 16:14.460237 17:18.095323 18:20.347091 19:22.249475 20:23.160207 21:15.352969 22:9.1632976 23:5.4496371 24:7.8286179 25:5.7993206 26:10.080669 27:16.020142 28:12.745689 29:4.6536604 30:14.00127 31:12.254701 32:11.608388 33:8.7588167 34:7.5206703 35:6.9101046 36:8.0077099 37:3.3009522 38:6.6869994 39:6.1277336 40:6.7182147 41:1.9592854 42:7.620949 43:4.3913461 44:2.3246455 45:4.9478603 46:2.502751 47:2.4136566 48:5.8349098 49:1.7548897 50:1.771888 51:2.8968411 52:5.1367419 53:6.2305049 54:2.473351 55:1.5954035 56:3.1287914 57:3.6820118 58:3.3707468 59:3.2096047 60:1.4978822 61:2.7592681 62:2.5556044 63:1.2363307 64:0.57360411 65:2.8287044 66:2.7956145 67:1.7167158 68:2.5441858 69:2.9121324 70:3.050138 71:3.7344639 72:2.0392281 73:2.4036158 74:2.234284 75:2.4175082 76:2.1772981 77:2.8744626 78:2.0577759 79:1.6470075 80:1.127848 81:2.3727938 82:1.4977914 83:2.2754746 84:1.9884894 85:1.8915777 86:1.0865736 87:2.4423975 88:2.8126895 89:1.5745962 90:1.5526683 91:2.9925113 92:0.73479122 93:1.2146263 94:1.3002826 95:1.0123284 96:0.9566596 97:1.7807981 98:2.0899842 99:1.5304898 100:1.6793437 101:0.98023321 102:1.5155092 103:1.0779602 104:2.0730686 105:1.5958773 106:1.3667252 107:1.3940246 108:2.1319032 109:2.3299444 110:2.6816068 111:2.2213699 112:0.84823928 113:1.5952331 114:2.5665434 115:1.2511063 116:1.0217715 117:1.6314154 118:0.5334551 119:1.4439756 120:1.608889 121:0.90352044 122:0.63841172 123:0.92042715 124:2.1424316 125:0.24291709 126:0 127:0 128:0 129:0 130:0 131:0 132:0 133:0 134:0 135:0 136:0 137:0 138:0 139:0 140:0 141:0 142:0 143:0 144:0 145:0 146:0 147:0 148:0 149:0 
0.0005512772695505014 0.001483649494484801 1:104.57897 2:77.615674 3:45.884744 4:13.979173 5:33.726285 6:32.53764 7:47.647596 8:46.22509 9:52.669768 10:57.475871 11:53.172981 12:39.573472 13:30.289565 14:24.437178 15:21.256975 16:21.398124 17:12.654174 18:13.614576 19:6.3895275 20:22.592342 21:25.484172 22:30.305975 23:24.734585 24:18.118439 25:10.492699 26:7.9508823 27:20.09837 28:29.66325 29:22.012638 30:11.34629 31:11.239866 32:16.056568 33:28.174388 34:32.102027 35:29.893098 36:9.1616478 37:9.3276889 38:4.2827434 39:7.7953347 40:10.527282 41:3.4828378 42:3.7401674 43:4.8460785 44:15.86012 45:14.681554 46:8.4031052 47:13.687881 48:9.2885397 49:16.862119 50:14.77175 51:3.8014466 52:7.6882366 53:9.220193 54:9.9693646 55:12.022989 56:13.367038 57:13.876686 58:11.016583 59:9.5771274 60:5.0654668 61:4.5548979 62:3.2891174 63:1.5218525 64:1.6832997 65:4.979924 66:4.5692902 67:2.6762857 68:6.5659737 69:5.2778198 70:8.1917496 71:5.2258466 72:4.6473489 73:1.3957024 74:1.4838827 75:0.29372037 76:1.742412 77:3.8885254 78:2.1834659 79:1.7839457 80:3.9844244 81:1.8205103 82:1.5120641 83:4.5436403 84:7.1161404 85:5.9735111 86:5.3965782 87:4.6300568 88:4.5954053 89:6.1694003 90:3.1345676 91:1.735173 92:3.9010778 93:3.1294573 94:5.3822392 95:5.4382457 96:4.8194218 97:7.9502962 98:8.0802453 99:6.7938322 100:4.1020369 101:3.9296494 102:5.2206515 103:4.488288 104:8.3101805 105:5.1803218 106:6.1364721 107:6.8317147 108:5.3620261 109:5.2996698 110:5.8677035 111:6.2754627 112:5.5610242 113:4.3772919 114:3.7196833 115:6.4305906 116:4.2946707 117:6.2196371 118:8.2982299 119:8.3491469 120:5.2174454 121:8.5135195 122:10.235984 123:6.2272282 124:5.7697555 125:5.6021341 126:4.9940896 127:0 128:0 129:0 130:0 131:0 132:0 133:0 134:0 135:0 136:0 137:0 138:0 139:0 140:0 141:0 142:0 143:0 144:0 145:0 146:0 147:0 148:0 149:0 
0 0.001679878152232859 1:85.365224 2:67.573559 3:52.724173 4:33.142096 5:32.581088 6:53.588542 7:63.069865 8:71.512237 9:69.557077 10:59.227147 11:47.724512 12:30.61772 13:11.098913 14:12.081828 15:22.528513 16:23.480192 17:18.347922 18:16.595767 19:16.636821 20:14.335112 21:12.336463 22:11.673429 23:6.3298622 24:3.7086712 25:10.362292 26:18.913022 27:24.580348 28:20.580799 29:11.274126 30:12.844823 31:16.441109 32:14.351636 33:10.586077 34:10.947243 35:10.644683 36:8.1783398 37:11.637204 38:18.266558 39:13.11079 40:6.9233065 41:2.9984517 42:3.3373577 43:8.1377397 44:9.2623369 45:4.9672409 46:11.406942 47:15.122534 48:7.5684577 49:12.015458 50:10.809949 51:0.70639805 52:4.3574382 53:0.62739087 54:2.0625114 55:0.76675356 56:1.6626985 57:7.1845554 58:12.632929 59:9.7432882 60:10.714752 61:5.760735 62:4.2135285 63:2.340683 64:3.242354 65:6.4483912 66:7.249854 67:5.7972537 68:8.4416572 69:8.1421185 70:3.4310972 71:1.5766173 72:3.0904369 73:4.7731614 74:2.9045233 75:1.8600127 76:2.315496 77:5.4163457 78:5.5553968 79:3.3476375 80:4.2536658 81:3.882856 82:1.0777541 83:1.5936215 84:4.8762594 85:6.9004245 86:4.5792921 87:3.9138748 88:4.0328849 89:4.0365891 90:5.1810639 91:3.4693268 92:3.7434582 93:3.5544388 94:1.770875 95:3.9838253 96:6.7861697 97:6.101607 98:4.2609568 99:4.4210789 100:4.1244422 101:4.4309066 102:1.1755091 103:2.9529902 104:5.9771863 105:2.6538106 106:2.0946567 107:5.1090613 108:4.0252735 109:1.580986 110:0.9260105 111:0.19066689 112:2.4600989 113:1.0755719 114:2.5296848 115:4.4361098 116:4.7771171 117:3.7588962 118:3.7579339 119:2.8203482 120:3.009211 121:2.6536324 122:0.88689704 123:2.6198043 124:4.0357443 125:3.4825325 126:2.3358534 127:2.494084 128:0 129:0 130:0 131:0 132:0 133:0 134:0 135:0 136:0 137:0 138:0 139:0 140:0 141:0 142:0 143:0 144:0 145:0 146:0 147:0 148:0 149:0 
0.0004769915186090826 0 1:99.177582 2:92.007746 3:79.2134 4:76.411447 5:66.542732 6:61.685157 7:49.955847 8:41.822362 9:34.339468 10:23.228309 11:16.36878 12:6.9624845 13:2.0339679 14:4.5002422 15:9.2521987 16:12.04248 17:11.537087 18:9.6388463 19:12.563529 20:18.557283 21:19.595399 22:19.582022 23:16.642222 24:14.684991 25:14.559948 26:18.844089 27:18.295034 28:10.092065 29:8.9586349 30:12.203897 31:15.754188 32:15.02508 33:11.712058 34:10.490868 35:7.9040288 36:5.3456222 37:9.4755649 38:14.584351 39:7.6532696 40:5.2569912 41:5.4280908 42:11.641185 43:7.3396283 44:2.1767118 45:5.8997384 46:9.080438 47:6.5201019 48:4.1966544 49:7.6143949 50:8.2465729 51:4.5511546 52:8.1986609 53:7.2000722 54:11.319325 55:7.145374 56:11.549927 57:7.2125256 58:9.1331913 59:5.7210045 60:8.2468693 61:7.2668952 62:8.3219847 63:6.908001 64:10.32205 65:6.5819138 66:3.9158763 67:3.7093772 68:8.6174338 69:7.6802587 70:5.3842532 71:4.7782907 72:4.5441778 73:5.1514804 74:3.4813453 75:4.295684 76:5.1755086 77:6.0881856 78:4.2645257 79:3.7867496 80:5.75025 81:3.8299728 82:3.9960227 83:4.2453554 84:5.9387092 85:6.0766095 86:5.2997946 87:5.9784987 88:5.8815531 89:5.6396098 90:5.5765925 91:4.9158304 92:4.4914074 93:3.9893426 94:5.7587906 95:5.4629561 96:3.7369964 97:5.5541158 98:4.6542268 99:5.6105963 100:4.9079493 101:4.8888884 102:4.8200627 103:4.3388991 104:3.3074802 105:5.2719028 106:6.1646954 107:4.8148451 108:5.6288099 109:5.1809046 110:5.3631501 111:3.7191824 112:6.0189617 113:4.3391209 114:5.6585953 115:5.067843 116:4.6520555 117:3.2829444 118:3.3126658 119:4.7598731 120:4.9584455 121:2.6260993 122:4.3284345 123:4.9303247 124:3.2765678 125:3.3717354 126:5.372527 127:0 128:0 129:0 130:0 131:0 132:0 133:0 134:0 135:0 136:0 137:0 138:0 139:0 140:0 141:0 142:0 143:0 144:0 145:0 146:0 147:0 148:0 149:0 
0.0005314279924651916 0.000133880881977852 1:133.77811 2:87.568907 3:63.731218 4:46.466317 5:37.704623 6:40.854118 7:47.415648 8:52.659466 9:35.227241 10:20.26169 11:17.427772 12:11.134207 13:6.1314618 14:13.7738 15:18.33613 16:13.635328 17:21.06433 18:27.509569 19:25.486976 20:25.804571 21:26.551708 22:22.515284 23:12.983913 24:8.2255574 25:9.6963274 26:16.001441 27:18.18162 28:19.94982 29:28.20588 30:31.366987 31:29.114705 32:17.651982 33:19.354737 34:12.260912 35:23.730098 36:19.676574 37:13.093817 38:11.922209 39:12.819818 40:10.197382 41:13.380474 42:16.9195 43:14.316297 44:19.184776 45:9.4096609 46:3.0068587 47:7.1681426 48:13.368512 49:11.657791 50:7.1287715 51:8.5519163 52:13.115526 53:10.925867 54:3.7001903 55:2.3501895 56:7.9143705 57:8.6776325 58:5.4671525 59:4.7279692 60:11.599909 61:9.2176509 62:2.8742558 63:9.1846954 64:7.8208178 65:8.1819333 66:15.727311 67:5.8426827 68:6.1197921 69:8.5750633 70:2.6468945 71:4.0452027 72:6.4481097 73:5.4229592 74:11.706677 75:11.55884 76:2.4901239 77:6.8600177 78:4.8153634 79:4.0339542 80:4.4299447 81:2.1821425 82:8.9877773 83:7.0621482 84:4.9263042 85:6.8263724 86:4.2221248 87:6.5455607 88:5.1445481 89:3.3875675 90:7.6569195 91:5.2590166 92:4.5954425 93:8.2041528 94:7.1521256 95:7.3569937 96:13.021733 97:4.3531822 98:3.1060155 99:7.6101803 100:6.3964358 101:7.2261354 102:5.340747 103:3.4254142 104:10.107986 105:8.3855197 106:2.4714706 107:6.923181 108:5.82049 109:5.7535496 110:5.7110026 111:3.6996096 112:6.3761052 113:5.0501929 114:4.8487254 115:6.5829165 116:2.5747147 117:7.9230133 118:5.2130583 119:3.9116625 120:5.072001 121:6.1456753 122:3.5540114 123:10.290916 124:5.5529111 125:5.9543021 126:12.190402 127:0 128:0 129:0 130:0 131:0 132:0 133:0 134:0 135:0 136:0 137:0 138:0 139:0 140:0 141:0 142:0 143:0 144:0 145:0 146:0 147:0 148:0 149:0 
0.001387230357118095 0.01016501012724361 1:92.026954 2:77.457025 3:56.262457 4:43.530834 5:38.4859 6:51.803953 7:54.404108 8:59.332739 9:61.60307 10:53.301617 11:52.838389 12:44.249709 13:35.046004 14:27.224896 15:24.707649 16:25.443551 17:28.513622 18:25.983388 19:20.084626 20:14.098744 21:12.013547 22:16.058295 23:16.690301 24:14.903012 25:14.764514 26:11.833262 27:10.203478 28:6.7274562 29:8.9624912 30:11.430271 31:15.993986 32:12.540745 33:8.7371362 34:12.078928 35:11.610974 36:9.2259358 37:5.8458692 38:3.7635702 39:3.0551186 40:3.3567265 41:2.3601301 42:2.9752412 43:5.2711178 44:6.8958108 45:1.8294648 46:7.6860233 47:9.0904204 48:1.6492065 49:11.44077 50:9.3225171 51:6.3950605 52:7.842698 53:8.3295154 54:7.4570432 55:7.6369491 56:2.8854308 57:4.0810052 58:8.0178089 59:3.4893616 60:7.9782235 61:7.372823 62:6.8995454 63:5.0855706 64:5.1941124 65:3.7320891 66:4.6497947 67:5.9971817 68:4.1030473 69:6.5883622 70:3.508802 71:5.4104399 72:5.8386088 73:5.1444765 74:5.0081627 75:6.4330063 76:7.1117122 77:3.2179102 78:4.8141401 79:2.2366436 80:4.0523328 81:3.7956328 82:4.2664589 83:3.1047613 84:2.1091217 85:1.9006072 86:3.1400875 87:1.7457026 88:2.9233404 89:2.0967407 90:1.1276792 91:4.6454765 92:2.2525122 93:2.5903852 94:6.1163725 95:1.9294705 96:3.6516363 97:4.1040718 98:2.9487848 99:2.6504779 100:1.5699438 101:4.6707902 102:2.3578988 103:2.4394182 104:3.2314444 105:2.3486747 106:3.0419481 107:2.1104034 108:1.264126 109:1.4314755 110:1.4276063 111:1.0699149 112:3.8268884 113:2.3929841 114:3.8295388 115:2.7518125 116:2.1626693 117:1.9970254 118:3.4446922 119:2.798488 120:3.2766126 121:4.7884664 122:3.6461796 123:2.4056904 124:1.5456251 125:1.367085 126:1.0592723 127:2.3915847 128:0 129:0 130:0 131:0 132:0 133:0 134:0 135:0 136:0 137:0 138:0 139:0 140:0 141:0 142:0 143:0 144:0 145:0 146:0 147:0 148:0 149:0 
1.019033643093416e-05 0 1:97.463262 2:77.929744 3:83.386154 4:78.323665 5:67.213847 6:64.90597 7:54.348791 8:33.29583 9:21.654259 10:15.160946 11:10.480213 12:3.742471 13:6.2664161 14:6.0542768 15:2.8855814 16:0.99336579 17:5.5887275 18:17.388415 19:19.781209 20:20.782293 21:23.871077 22:23.325152 23:22.46229 24:19.459055 25:17.371447 26:19.270032 27:17.432971 28:13.665597 29:13.709223 30:17.314471 31:22.26841 32:22.297849 33:18.640864 34:10.815467 35:3.3379681 36:4.6890962 37:8.6232034 38:9.9007475 39:7.7269931 40:4.958439 41:10.941963 42:8.6083976 43:4.4741121 44:2.984128 45:5.5295909 46:6.44476 47:3.0006634 48:7.6673073 49:17.258575 50:9.095306 51:9.7953706 52:17.799899 53:12.924522 54:7.858886 55:12.106806 56:12.37885 57:10.350684 58:7.9884697 59:7.5066497 60:6.3022408 61:2.7430609 62:3.2855971 63:7.1069141 64:6.1376908 65:5.66784 66:3.0833668 67:4.1039427 68:2.0354422 69:4.1941907 70:4.6294225 71:3.5358279 72:2.7892638 73:7.3492573 74:7.6368151 75:6.0022815 76:5.1580603 77:3.3003703 78:5.2091034 79:7.0933203 80:6.7068962 81:5.1636254 82:8.022161 83:6.46625 84:4.0114649 85:6.3370413 86:7.2581122 87:4.872361 88:4.832013 89:5.8927529 90:6.9307888 91:5.566426 92:3.4404328 93:5.1344741 94:3.3940028 95:1.6473907 96:4.1724883 97:4.492691 98:3.6279325 99:3.808955 100:5.8959509 101:5.230161 102:3.3942134 103:6.5664801 104:5.5339766 105:2.6870548 106:4.4752103 107:5.4257572 108:2.7972085 109:5.4699287 110:5.0967626 111:3.6426977 112:5.6488262 113:5.7077488 114:5.1838788 115:3.026458 116:4.0720815 117:4.6553906 118:3.4870932 119:3.3084335 120:3.0080581 121:2.3895503 122:3.2101048 123:4.4620482 124:3.0539633 125:3.557398 126:0 127:0 128:0 129:0 130:0 131:0 132:0 133:0 134:0 135:0 136:0 137:0 138:0 139:0 140:0 141:0 142:0 143:0 144:0 145:0 146:0 147:0 148:0 149:0 
0.0002546592827094626 0.002298897671102545 1:119.46375 2:103.99804 3:95.381613 4:73.743124 5:52.305939 6:41.321241 7:29.692405 8:23.99502 9:21.609769 10:13.413332 11:11.642483 12:16.536069 13:15.882003 14:15.538712 15:10.476088 16:9.5459507 17:16.521567 18:16.697483 19:15.627958 20:21.096768 21:24.104804 22:18.306479 23:12.650033 24:10.446169 25:9.0272284 26:9.4441347 27:8.9954371 28:8.794394 29:8.5796487 30:8.0543305 31:8.8753142 32:4.0714708 33:1.4102132 34:3.3312945 35:6.2958928 36:4.9393928 37:8.6468606 38:16.750104 39:9.4424945 40:1.7977778 41:2.8564361 42:10.605884 43:10.421358 44:4.7425017 45:6.8488101 46:4.3077819 47:6.9411637 48:4.9386665 49:8.0614044 50:4.1036915 51:2.7589579 52:6.0590487 53:8.4580627 54:5.5961352 55:3.6173692 56:3.950063 57:5.5413765 58:4.5880666 59:1.2459442 60:5.7077069 61:5.5815788 62:2.2588526 63:1.9726907 64:4.6370747 65:2.3054883 66:3.6341054 67:2.5899444 68:0.58143059 69:1.5841859 70:1.6285136 71:1.4392635 72:2.895101 73:5.4473756 74:1.791384 75:1.7365943 76:2.9039068 77:2.5844068 78:3.5632083 79:1.447335 80:1.405203 81:2.7204836 82:3.8689802 83:1.2778245 84:2.9487809 85:3.46182 86:2.0905827 87:6.0362763 88:1.4800438 89:1.3319403 90:2.8510758 91:4.1315367 92:1.6523889 93:1.1736006 94:1.9106482 95:2.8152488 96:1.7814456 97:1.7861535 98:3.0835636 99:3.2644443 100:2.8954384 101:0.91804557 102:0.54353853 103:1.4792163 104:0.87690168 105:0.36567357 106:1.9447261 107:1.7748966 108:1.1268811 109:1.7344905 110:1.1237683 111:2.8316876 112:2.2018666 113:2.4588885 114:1.9346668 115:2.2743968 116:2.9943611 117:1.2995599 118:1.3682734 119:2.6879846 120:3.7332392 121:0.95046261 122:0.9282686 123:1.923951 124:2.1723549 125:1.8302202 126:0 127:0 128:0 129:0 130:0 131:0 132:0 133:0 134:0 135:0 136:0 137:0 138:0 139:0 140:0 141:0 142:0 143:0 144:0 145:0 146:0 147:0 148:0 149:0 
0 0.003898144611494287 1:136.51638 2:99.618959 3:92.726783 4:76.052309 5:40.053327 6:16.011199 7:7.766007 8:10.816785 9:7.8746837 10:12.418557 11:24.964262 12:34.505804 13:23.548515 14:8.2952824 15:12.682805 16:23.608544 17:27.416209 18:24.564969 19:12.402313 20:1.8091668 21:8.1570622 22:7.6535714 23:7.3969461 24:12.740321 25:10.816243 26:6.5481356 27:5.975057 28:9.7883 29:12.507628 30:7.7739692 31:12.774808 32:10.166289 33:12.201836 34:5.7285583 35:4.8423243 36:4.7502357 37:11.203005 38:14.339595 39:10.412088 40:13.559909 41:5.9174247 42:6.084604 43:5.9557548 44:5.5364015 45:4.5056703 46:6.2260467 47:9.0162851 48:1.1680484 49:8.6693808 50:6.0250284 51:1.0723198 52:6.9679647 53:4.9886179 54:2.2325252 55:4.9274557 56:1.6078205 57:3.9708942 58:1.67373 59:3.5441607 60:2.6146372 61:4.357925 62:4.0876473 63:2.8187934 64:5.4592986 65:6.3336231 66:2.5421561 67:5.1074595 68:5.0495672 69:3.367135 70:2.2923142 71:4.0957453 72:1.9207856 73:3.4570424 74:3.7237819 75:3.4745994 76:2.9951873 77:2.2951652 78:4.2513359 79:4.8781205 80:0.85677216 81:3.8105993 82:2.3912793 83:2.097927 84:4.7444009 85:0.95651113 86:2.5799493 87:3.925992 88:3.9388433 89:3.0918176 90:1.746763 91:2.9041561 92:1.4057509 93:2.7997216 94:1.4422868 95:1.1329935 96:2.5020026 97:2.0852315 98:2.9849695 99:1.8908069 100:2.7479098 101:2.5051808 102:0.90727371 103:2.5710348 104:2.5837843 105:1.5307922 106:1.2514465 107:1.4821755 108:2.145456 109:2.2876543 110:1.494641 111:2.4576808 112:1.1531917 113:1.8138142 114:1.9733903 115:1.1229503 116:3.2761927 117:2.8945869 118:1.530363 119:2.0520706 120:2.1472995 121:0.85337707 122:1.2510408 123:3.0029398 124:1.5292392 125:4.5070758 126:1.9383003 127:1.3031842 128:3.392848 129:2.9955975 130:2.696698 131:0.54981602 132:1.4082259 133:0 134:0 135:0 136:0 137:0 138:0 139:0 140:0 141:0 142:0 143:0 144:0 145:0 146:0 147:0 148:0 149:0 
0 0.00197259763096022 1:103.83635 2:111.87169 3:101.46338 4:83.574115 5:55.842191 6:33.838269 7:19.332125 8:4.0082476 9:11.635763 10:13.058578 11:17.085313 12:25.422262 13:28.985015 14:22.356905 15:21.719552 16:10.76885 17:8.0200842 18:11.291661 19:18.427219 20:22.150712 21:20.1041 22:12.404154 23:12.288888 24:11.372266 25:5.048786 26:12.613224 27:18.015768 28:12.288348 29:15.296817 30:8.5124802 31:7.8346029 32:12.498829 33:8.2767106 34:9.5889624 35:14.414443 36:10.895935 37:12.286907 38:22.77654 39:10.873431 40:9.8960189 41:23.833209 42:11.8654 43:10.203068 44:14.840145 45:7.8906748 46:9.8884697 47:8.3731305 48:4.3160978 49:5.8527188 50:3.4106204 51:2.3828617 52:6.0045296 53:1.376547 54:3.4927077 55:4.6618766 56:5.4280067 57:1.6332584 58:3.4130731 59:6.3777821 60:3.235471 61:4.470885 62:5.9819323 63:6.9199272 64:4.2381171 65:2.4386512 66:6.7629458 67:3.0426421 68:1.6190607 69:7.572513 70:4.894375 71:3.3671346 72:5.1759237 73:5.1476941 74:4.3715728 75:4.6279433 76:3.9076041 77:0.92768351 78:4.0341773 79:2.5881373 80:1.1219142 81:6.123056 82:5.9235088 83:2.7567729 84:4.5965865 85:2.4981336 86:1.8270272 87:4.3086801 88:4.2301446 89:2.3735197 90:1.4897664 91:4.8121548 92:0.72772327 93:2.2828028 94:3.0831749 95:3.509814 96:1.4685937 97:3.7346541 98:2.3094501 99:3.9831329 100:2.0816695 101:2.5820802 102:3.3512054 103:1.2897529 104:2.4119848 105:3.0337074 106:3.1429486 107:0.80955137 108:1.5762007 109:3.0770368 110:1.6231938 111:2.6261682 112:1.2779635 113:3.4368599 114:1.2259897 115:2.162223 116:4.3588067 117:2.5538719 118:1.0749766 119:0.95805166 120:2.7443117 121:3.3013194 122:2.6432452 123:2.4629334 124:0.66882714 125:0.74835314 126:2.2926888 127:0.89808396 128:3.1929476 129:3.2865608 130:0 131:0 132:0 133:0 134:0 135:0 136:0 137:0 138:0 139:0 140:0 141:0 142:0 143:0 144:0 145:0 146:0 147:0 148:0 149:0 
0.0001647862046251677 0 1:152.85006 2:102.94142 3:83.349362 4:83.010911 5:51.552779 6:34.232131 7:24.928103 8:17.405424 9:20.246174 10:23.242629 11:14.988916 12:8.7658106 13:12.414311 14:14.517423 15:25.553059 16:33.72072 17:24.493941 18:5.5196269 19:6.5841984 20:6.5489883 21:7.299789 22:8.8089278 23:17.151763 24:18.691122 25:9.9998998 26:9.0538065 27:6.5118561 28:3.9268299 29:16.92969 30:10.181287 31:16.015838 32:18.258231 33:9.2144228 34:9.5904965 35:13.24336 36:14.058639 37:12.536468 38:26.738089 39:11.874041 40:7.2121142 41:5.3722749 42:6.2009699 43:17.05026 44:14.087102 45:8.2745072 46:6.2823324 47:5.1492465 48:8.9546346 49:4.2069005 50:3.4336448 51:3.5686727 52:3.5571334 53:4.5327512 54:10.719355 55:3.9410792 56:2.7041972 57:2.4852866 58:4.2498619 59:2.5374531 60:4.6283911 61:5.8861479 62:1.4370433 63:6.0386226 64:4.4109371 65:5.8506086 66:5.3288826 67:2.5564952 68:2.7640124 69:2.4121018 70:3.4153989 71:2.1118378 72:3.5494054 73:3.8598207 74:2.9136546 75:4.8996101 76:5.6194654 77:4.8983975 78:3.915281 79:2.0036887 80:2.2568785 81:2.4652011 82:5.3505236 83:3.8856561 84:2.0951128 85:4.9080597 86:1.6267311 87:5.0722513 88:2.6834386 89:1.4712706 90:1.6053221 91:2.2278768 92:4.6172545 93:2.213275 94:2.7592083 95:3.2862562 96:3.8837264 97:1.5870447 98:3.3428489 99:3.302598 100:1.6245813 101:2.9681681 102:2.1018913 103:2.1869315 104:3.0628395 105:4.0717816 106:1.1170974 107:1.7114338 108:1.5820345 109:2.146403 110:2.9532387 111:1.6287024 112:2.1134451 113:1.7477211 114:2.1126816 115:2.913455 116:2.7947138 117:6.4759979 118:1.0339436 119:3.2775817 120:1.747472 121:2.1491152 122:3.2520361 123:2.0967782 124:2.1285083 125:2.4655749 126:2.2400771 127:1.011456 128:2.6196432 129:1.3087922 130:0.31638518 131:0.94044789 132:0 133:0 134:0 135:0 136:0 137:0 138:0 139:0 140:0 141:0 142:0 143:0 144:0 145:0 146:0 147:0 148:0 149:0 
0 0.002515351769525392 1:117.39305 2:109.8064 3:93.308975 4:68.976867 5:55.665295 6:30.124548 7:17.739321 8:6.2595735 9:16.688643 10:28.864881 11:32.02039 12:30.368092 13:31.550797 14:25.78259 15:21.373736 16:15.756641 17:12.822346 18:16.1063 19:21.376307 20:23.419296 21:22.388468 22:17.893586 23:16.299139 24:18.310483 25:19.366424 26:15.522835 27:14.041416 28:16.459719 29:11.630034 30:6.7080331 31:10.544893 32:10.944346 33:8.8359768 34:20.377997 35:13.085199 36:2.6205917 37:10.855939 38:14.757434 39:19.680817 40:14.517843 41:7.8392892 42:10.266331 43:18.777908 44:19.870611 45:10.82347 46:7.235586 47:9.1750716 48:8.2173031 49:5.0051013 50:8.8780494 51:8.7151203 52:7.9192861 53:6.2413032 54:5.8761693 55:7.4684076 56:9.0970048 57:6.7957338 58:7.4445126 59:8.8325098 60:3.5458511 61:6.0396296 62:5.917814 63:7.57752 64:4.2681056 65:5.3044505 66:5.1823045 67:5.9192841 68:6.5751868 69:3.4434279 70:7.5814058 71:7.5606086 72:4.6608763 73:2.5211187 74:2.8222074 75:2.1452775 76:2.3696375 77:2.0082243 78:2.2166384 79:3.0058447 80:2.025066 81:2.0515939 82:2.3025189 83:3.6792388 84:2.3934047 85:5.1152696 86:8.5023421 87:5.3505665 88:3.553343 89:4.4760962 90:3.2333632 91:3.2092637 92:4.6737339 93:2.7281113 94:3.7222698 95:3.0282799 96:2.6704119 97:2.0878413 98:2.6758766 99:2.570128 100:2.5253956 101:1.2718222 102:3.0315317 103:2.304454 104:0.86850863 105:3.4403569 106:2.3033316 107:3.4804939 108:2.9239151 109:2.5547546 110:3.626776 111:1.7980402 112:1.2587284 113:3.6592328 114:3.9811675 115:1.3427912 116:5.1413484 117:3.7420904 118:3.6996912 119:4.1786104 120:2.1413776 121:1.101436 122:1.5121877 123:3.5096718 124:3.8661081 125:1.1150574 126:2.6548801 127:2.7428639 128:0.81581155 129:0 130:0 131:0 132:0 133:0 134:0 135:0 136:0 137:0 138:0 139:0 140:0 141:0 142:0 143:0 144:0 145:0 146:0 147:0 148:0 149:0 
0 0.001906675785374039 1:104.71391 2:98.428419 3:71.944343 4:48.346598 5:45.834438 6:37.365547 7:21.875641 8:24.598013 9:31.12763 10:34.054371 11:43.61013 12:43.634142 13:39.851171 14:35.123916 15:25.799226 16:18.908887 17:13.427776 18:16.28828 19:15.59988 20:11.521529 21:4.6464883 22:12.859932 23:22.710779 24:24.069586 25:23.077354 26:19.406854 27:10.582834 28:13.372387 29:10.963908 30:16.276911 31:17.830595 32:18.328851 33:9.6309608 34:2.7920726 35:14.281262 36:20.023545 37:16.572236 38:7.9351122 39:7.8601908 40:14.638059 41:16.69209 42:9.7359765 43:8.4387453 44:17.808207 45:12.265835 46:6.4717599 47:18.286419 48:16.911045 49:7.2366897 50:13.938614 51:22.032098 52:13.231562 53:16.5666 54:18.974059 55:7.8775567 56:9.4829617 57:3.0374018 58:9.6400319 59:8.1853215 60:8.3449573 61:7.6890006 62:3.5863004 63:11.084627 64:4.2861789 65:7.6929975 66:6.85079 67:8.9585311 68:7.0151521 69:3.6317371 70:4.3779667 71:5.1860797 72:8.3167328 73:7.5706188 74:4.6632866 75:3.1487644 76:6.4107544 77:7.9388565 78:3.0973308 79:4.7878094 80:4.9470112 81:3.671732 82:4.7889491 83:6.5503752 84:3.4421334 85:5.8266837 86:3.981025 87:9.0456703 88:6.4859415 89:3.9407009 90:2.663616 91:5.3099672 92:3.3252999 93:4.6589545 94:1.9987619 95:2.9656879 96:6.3575399 97:1.6958689 98:7.3541429 99:6.0840006 100:0.94724636 101:5.5068877 102:7.0681306 103:1.282324 104:4.6014505 105:3.9674854 106:0.834513 107:5.615767 108:2.5858508 109:5.488171 110:4.6541736 111:5.0260453 112:6.3117764 113:3.0840436 114:4.6493206 115:3.6090318 116:6.1995295 117:2.6980737 118:6.7079036 119:6.0146778 120:2.3454468 121:4.0864403 122:2.4191224 123:3.1614323 124:4.7692984 125:3.6821336 126:3.5278774 127:1.6495039 128:3.6190696 129:0 130:0 131:0 132:0 133:0 134:0 135:0 136:0 137:0 138:0 139:0 140:0 141:0 142:0 143:0 144:0 145:0 146:0 147:0 148:0 149:0 
0.0008862012743107683 0.002576576105996506 1:90.049478 2:82.504385 3:79.238226 4:73.19005 5:71.567948 6:69.235471 7:62.38241 8:52.93747 9:45.796823 10:38.255972 11:32.063121 12:25.586196 13:23.443202 14:18.432727 15:16.602378 16:17.378134 17:15.247682 18:10.935673 19:8.3865307 20:5.2461707 21:7.2511302 22:13.177719 23:13.387673 24:9.9955356 25:5.2222814 26:8.9254928 27:11.344849 28:8.4079087 29:4.0726535 30:7.3239763 31:6.8897202 32:4.6702602 33:4.7342363 34:6.961794 35:2.682608 36:1.843585 37:5.2479031 38:3.8195231 39:5.0639247 40:3.8278902 41:3.5150161 42:6.6731457 43:6.7586734 44:7.4068043 45:6.8485628 46:1.7475169 47:3.1051954 48:2.5278672 49:4.7253583 50:6.591962 51:4.0473495 52:3.8209688 53:7.8845579 54:7.3158131 55:3.6905779 56:9.5914115 57:8.8600981 58:4.6405228 59:8.6547546 60:8.3432597 61:2.0082744 62:6.5876716 63:2.6712298 64:2.2158706 65:3.1752715 66:6.152316 67:3.42635 68:5.7052253 69:2.7531683 70:1.3866032 71:1.6450879 72:2.3792907 73:3.0462711 74:2.0173574 75:2.701678 76:1.3722721 77:0.41824886 78:1.1979151 79:2.5743013 80:4.1029961 81:1.5452029 82:1.969081 83:1.8746403 84:4.3931069 85:3.4412568 86:1.9158295 87:1.10455 88:1.0366456 89:1.0992751 90:2.7011378 91:2.3056296 92:3.2195709 93:3.6947533 94:2.9941068 95:1.8402365 96:2.3380999 97:4.3905327 98:3.1582217 99:3.6797641 100:2.5719453 101:1.2182365 102:2.7807528 103:3.3945501 104:2.4432503 105:2.163656 106:4.9718816 107:3.858536 108:2.5021183 109:3.3959462 110:3.0234114 111:2.2482663 112:2.4129187 113:1.7555367 114:2.4126137 115:3.2447118 116:4.1076821 117:3.6163625 118:1.6665118 119:0.93926739 120:1.7101122 121:1.9196317 122:0.67230671 123:0.44718886 124:0.95524809 125:1.8229301 126:0 127:0 128:0 129:0 130:0 131:0 132:0 133:0 134:0 135:0 136:0 137:0 138:0 139:0 140:0 141:0 142:0 143:0 144:0 145:0 146:0 147:0 148:0 149:0 
0 0.002194865749441751 1:101.51084 2:87.913369 3:82.770958 4:76.0232 5:65.570002 6:51.827322 7:37.144002 8:28.26824 9:20.500655 10:16.041854 11:22.274122 12:24.126705 13:26.534078 14:30.46672 15:28.701948 16:26.931798 17:19.599482 18:10.618365 19:5.9387276 20:10.357467 21:9.8331912 22:12.445105 23:10.906447 24:10.246869 25:7.2576231 26:10.453902 27:5.7577572 28:6.4361942 29:4.9532209 30:7.8131837 31:6.2893575 32:6.128464 33:10.102002 34:9.4957088 35:11.440166 36:10.617285 37:8.7106455 38:2.7803624 39:2.763743 40:11.638651 41:13.038112 42:3.7178073 43:8.2133897 44:10.096826 45:9.4227612 46:7.0862862 47:6.757831 48:10.210381 49:7.0886638 50:5.056006 51:4.7719517 52:6.2487182 53:2.3304546 54:2.0771252 55:3.7788447 56:1.1015105 57:2.3503244 58:1.2402722 59:3.2000791 60:4.4394514 61:3.0684319 62:3.580181 63:3.9909829 64:4.0741512 65:4.75036 66:2.8613015 67:2.7322139 68:3.3046308 69:2.088677 70:2.2355903 71:4.1154285 72:4.0947749 73:1.9701205 74:1.3624133 75:2.5754193 76:3.1058303 77:4.1795014 78:2.3691442 79:1.6825249 80:3.0746736 81:4.35586 82:3.9366849 83:0.63036763 84:3.2493431 85:3.0688978 86:1.4688866 87:0.90159068 88:1.1733388 89:0.97897974 90:1.2226374 91:0.5937733 92:1.3125373 93:1.3685296 94:1.7508757 95:2.1615481 96:1.8428055 97:2.13626 98:2.9726294 99:1.8265511 100:0.76871634 101:1.8911281 102:1.4431079 103:2.8853197 104:0.75732178 105:2.4516034 106:2.7533123 107:1.3074793 108:1.2416984 109:0.53378095 110:1.7488507 111:2.5108588 112:1.8531559 113:2.1345702 114:1.4628392 115:2.4422642 116:2.2476039 117:2.9596939 118:1.9681904 119:1.4769491 120:1.0387841 121:1.7360937 122:1.982769 123:1.3575142 124:1.3854904 125:2.6501512 126:0 127:0 128:0 129:0 130:0 131:0 132:0 133:0 134:0 135:0 136:0 137:0 138:0 139:0 140:0 141:0 142:0 143:0 144:0 145:0 146:0 147:0 148:0 149:0 
0 2.652478942006216e-05 1:96.619627 2:79.645245 3:58.46537 4:45.301654 5:42.498809 6:53.985901 7:48.7522 8:56.545485 9:55.238948 10:57.558149 11:50.255191 12:33.525172 13:20.336643 14:13.632187 15:16.03823 16:13.933914 17:14.682277 18:15.143124 19:6.4703641 20:5.1277665 21:9.7949529 22:11.026171 23:10.699517 24:15.239132 25:15.271765 26:14.54917 27:8.1295908 28:10.247662 29:19.60128 30:24.096291 31:27.916804 32:14.921055 33:5.7079334 34:17.690729 35:23.115213 36:15.415456 37:17.611979 38:17.394397 39:10.666418 40:11.418928 41:5.1215868 42:4.2918366 43:1.6744345 44:10.669229 45:11.059352 46:5.1506225 47:5.2580333 48:9.2019908 49:7.7027651 50:4.554519 51:6.6568592 52:8.9560691 53:13.952086 54:12.586261 55:4.9854042 56:8.2814463 57:7.3812362 58:8.3700394 59:7.3897944 60:4.1613441 61:6.7764121 62:11.418889 63:12.206647 64:6.7537805 65:7.2631328 66:4.8439294 67:2.717458 68:3.5214514 69:3.4304846 70:6.8680413 71:9.6475077 72:6.7211713 73:7.4876754 74:6.959807 75:2.7202958 76:3.4883434 77:5.3972245 78:2.698994 79:4.1960451 80:3.4624192 81:3.915975 82:3.3813168 83:1.443949 84:2.1055757 85:2.6578746 86:2.2787942 87:5.0489124 88:6.1450468 89:4.53332 90:6.1557777 91:3.0655696 92:3.6423293 93:1.6449763 94:3.1022572 95:5.3438046 96:3.8994165 97:4.5467295 98:2.4512246 99:3.9921846 100:3.5439347 101:1.7856821 102:1.5451001 103:3.7256716 104:0.96768649 105:4.6544659 106:3.7885354 107:1.631882 108:4.1878102 109:4.6197375 110:2.8590735 111:2.8852464 112:4.8797795 113:3.9817659 114:4.35295 115:4.1923863 116:4.0674185 117:2.9000946 118:1.5780474 119:2.745083 120:1.530654 121:4.3900497 122:2.8422693 123:6.6098948 124:3.2418171 125:3.2775479 126:4.9385768 127:0.62881748 128:2.8320395 129:3.2476769 130:2.4268304 131:0 132:0 133:0 134:0 135:0 136:0 137:0 138:0 139:0 140:0 141:0 142:0 143:0 144:0 145:0 146:0 147:0 148:0 149:0 
0.0001704102407740199 0.002629867462750052 1:112.68021 2:89.027071 3:61.634398 4:46.355789 5:34.529294 6:34.380561 7:40.573022 8:53.183965 9:51.900408 10:47.328754 11:37.109254 12:25.816874 13:19.289465 14:18.185868 15:15.234313 16:11.181505 17:7.8561366 18:9.2717012 19:12.170068 20:9.3338759 21:5.7192942 22:11.304184 23:18.329217 24:25.228465 25:25.672121 26:27.026115 27:23.741355 28:18.921647 29:14.823472 30:6.8730345 31:6.2174153 32:10.920886 33:10.351035 34:13.898015 35:13.019622 36:12.836274 37:11.643423 38:4.8182261 39:4.8333554 40:11.963636 41:7.0181511 42:11.690853 43:15.766153 44:11.340506 45:6.6679748 46:6.8121832 47:9.4288087 48:5.011775 49:9.2359156 50:16.28354 51:13.411071 52:13.486506 53:11.706133 54:9.8774436 55:10.102967 56:6.5081492 57:4.4663735 58:3.2530161 59:6.0324842 60:8.5839659 61:5.0621324 62:3.4534021 63:2.7924749 64:3.2771265 65:3.1683437 66:3.9431906 67:3.6184024 68:2.2525123 69:6.3294837 70:7.4258508 71:5.7692305 72:1.9532168 73:6.2699955 74:5.5142944 75:7.1676057 76:4.9059662 77:5.8450098 78:8.9429574 79:12.254816 80:7.3318476 81:4.02274 82:1.8141207 83:3.3962123 84:0.85202809 85:3.3768053 86:6.0268316 87:6.6735003 88:6.5426977 89:2.1405653 90:2.7579392 91:1.1981408 92:1.8402773 93:1.2409268 94:3.5483178 95:3.045932 96:5.1137784 97:4.4833162 98:2.621926 99:1.6965727 100:3.0227238 101:3.2388566 102:4.2839361 103:6.0497225 104:6.9270376 105:5.6764858 106:4.0017381 107:3.4362063 108:2.7864004 109:4.0799937 110:3.990163 111:5.1879367 112:3.3863156 113:1.6484805 114:1.5552615 115:0.9598571 116:2.6419288 117:2.555243 118:1.9635284 119:1.4631178 120:2.9945786 121:6.7646548 122:3.7781855 123:2.4374315 124:2.1555744 125:1.5788993 126:3.6407556 127:5.8103541 128:7.634945 129:5.8067441 130:5.8255192 131:2.844033 132:0 133:0 134:0 135:0 136:0 137:0 138:0 139:0 140:0 141:0 142:0 143:0 144:0 145:0 146:0 147:0 148:0 149:0 
-0 0.00145904908064893 1:155.38853 2:27.350192 3:42.961446 4:48.564437 5:37.825182 6:19.065733 7:10.188087 8:27.236083 9:18.858261 10:7.8969932 11:9.726705 12:18.891955 13:20.275595 14:6.2681475 15:7.640851 16:13.918685 17:10.975967 18:4.1429297 19:7.6651974 20:10.625994 21:8.8605798 22:4.0311262 23:4.0304235 24:8.3721833 25:6.6056868 26:2.2090283 27:5.8349332 28:9.0745417 29:4.8403976 30:2.3974108 31:5.5258194 32:6.0762457 33:4.2875748 34:2.5913458 35:4.5150619 36:5.1944957 37:2.47788 38:1.801969 39:3.8089032 40:4.162394 41:3.000537 42:2.3157598 43:3.758246 44:3.014156 45:1.5076807 46:1.9087536 47:3.4411012 48:4.316157 49:1.7734606 50:1.8286007 51:2.7710887 52:2.5066309 53:1.739878 54:1.7673145 55:3.2149286 56:1.5671305 57:0.85417261 58:2.5056779 59:2.7506877 60:2.3949797 61:1.6925219 62:1.9060132 63:2.6437543 64:1.3556904 65:1.4208773 66:2.5215784 67:1.9259118 68:0.70317197 69:0.54276177 70:1.7257042 71:2.056107 72:0.72887499 73:1.3775541 74:1.374737 75:2.1645566 76:0.38133687 77:1.4378771 78:2.3778934 79:1.2019465 80:1.1919048 81:2.0554751 82:2.4447451 83:1.4489425 84:1.0740009 85:0.869703 86:2.103086 87:2.2137112 88:0.81095082 89:1.542439 90:1.6292639 91:1.3413227 92:1.158067 93:2.0372631 94:2.2492423 95:1.3130829 96:0.43848159 97:1.4305217 98:1.7930119 99:0.92529493 100:1.502307 101:1.6108763 102:0.92517043 103:1.2647411 104:0.94165393 105:1.5679278 106:1.0050376 107:1.4927498 108:1.2375556 109:1.0137257 110:1.7490483 111:1.3960614 112:1.332392 113:1.032756 114:1.8568089 115:1.3168363 116:1.2713647 117:1.4924099 118:1.4444999 119:1.3063663 120:1.6695425 121:1.3756137 122:0.65305442 123:1.0375518 124:1.2193967 125:1.3483695 126:1.6034426 127:1.3731331 128:0 129:0 130:0 131:0 132:0 133:0 134:0 135:0 136:0 137:0 138:0 139:0 140:0 141:0 142:0 143:0 144:0 145:0 146:0 147:0 148:0 149:0 
-0 0.005604575236370039 1:127.3922 2:118.117 3:58.552832 4:19.607296 5:13.619659 6:34.20155 7:19.522019 8:20.156243 9:35.181514 10:27.222602 11:7.7754378 12:12.24244 13:12.990123 14:14.668321 15:9.6342903 16:8.3345536 17:3.0568386 18:5.6287935 19:2.9489792 20:10.19168 21:7.7823088 22:6.9945427 23:6.0398364 24:2.7058232 25:0.97933737 26:3.5879022 27:6.1122875 28:7.650031 29:3.3117075 30:2.7411829 31:3.17067 32:2.5823994 33:3.612043 34:4.165466 35:2.4905784 36:3.4965891 37:2.7525684 38:2.1724497 39:2.1042871 40:3.7580918 41:1.35894 42:2.5910492 43:2.3519439 44:2.0392203 45:3.808573 46:2.8037928 47:3.0827357 48:1.973711 49:2.8495488 50:1.6449643 51:3.126242 52:2.5452332 53:2.1685585 54:1.76078 55:2.6637855 56:1.3341984 57:2.1903155 58:1.7750527 59:1.5616149 60:2.4495066 61:1.3529635 62:1.225984 63:1.2240048 64:0.31546383 65:0.76055951 66:1.7633279 67:1.501114 68:1.8929332 69:1.5081604 70:1.4174721 71:1.5734328 72:2.3754489 73:0.626796 74:1.4755711 75:1.7228803 76:1.8338359 77:1.6217069 78:0.41012624 79:1.9295759 80:1.1083677 81:1.1211507 82:1.0134142 83:2.0859043 84:0.9880703 85:2.0152296 86:1.695619 87:1.1394455 88:1.4816582 89:2.9611758 90:1.2769692 91:1.3825381 92:1.5110321 93:1.3067527 94:1.8547165 95:1.2480226 96:1.7733563 97:1.4424969 98:1.7161464 99:1.328737 100:1.832338 101:0.73470155 102:1.0769152 103:0.64704833 104:2.2040423 105:0.65652361 106:1.451689 107:0.88055111 108:1.4471173 109:0.81608043 110:1.2273004 111:1.5965185 112:1.8923617 113:0.84987496 114:2.0005529 115:1.1326769 116:1.380459 117:0.79361194 118:1.5251308 119:0.97625328 120:1.8163338 121:1.7513928 122:1.7906923 123:1.3927774 124:1.4233462 125:2.5478458 126:1.8976773 127:0.85580468 128:1.1579922 129:0.8604235 130:1.1591325 131:0 132:0 133:0 134:0 135:0 136:0 137:0 138:0 139:0 140:0 141:0 142:0 143:0 144:0 145:0 146:0 147:0 148:0 149:0 
-0.0001872465329808832 0.02842796240427121 1:98.087959 2:87.269046 3:44.623143 4:60.994688 5:38.929846 6:33.91286 7:49.885219 8:45.180372 9:24.034854 10:28.436941 11:22.877034 12:22.660009 13:19.499147 14:15.889351 15:19.676515 16:18.079753 17:15.923831 18:14.196936 19:13.840306 20:13.827311 21:11.669682 22:12.585283 23:11.404825 24:14.566434 25:11.003366 26:10.977371 27:11.513655 28:9.2011866 29:8.924459 30:10.33392 31:8.6391216 32:7.4689547 33:9.8716051 34:8.0855354 35:6.0602308 36:7.8505385 37:7.5781127 38:7.8046135 39:7.1877372 40:6.342036 41:6.6845159 42:6.1584298 43:6.6926845 44:5.5070642 45:6.7634135 46:4.5061247 47:5.8740197 48:5.4443319 49:4.8726365 50:4.7534451 51:5.0661817 52:5.8920778 53:5.115414 54:5.2861637 55:5.5929941 56:5.9603028 57:5.9864816 58:4.5537522 59:5.266568 60:3.9924043 61:4.8634798 62:4.0066643 63:4.0692491 64:2.8398839 65:3.1450544 66:2.851235 67:2.9934234 68:2.8181884 69:3.2561208 70:4.3358838 71:3.4898426 72:4.1409586 73:3.9277657 74:4.8787951 75:4.8724914 76:3.7156597 77:3.8229656 78:2.7347486 79:5.5300453 80:3.6634327 81:3.3723969 82:3.1693694 83:5.0139082 84:3.3794352 85:3.6120394 86:3.3036328 87:4.5827627 88:3.5488731 89:3.1334909 90:2.3562732 91:3.0646061 92:2.8822385 93:2.9844759 94:2.6537686 95:3.5976435 96:2.8222589 97:3.2392827 98:2.3280626 99:3.1201232 100:3.6016621 101:3.365838 102:3.4044703 103:3.6671741 104:2.9698705 105:3.1531724 106:2.1291058 107:2.7259579 108:3.2084428 109:2.6207377 110:2.6850546 111:2.2011228 112:3.4373149 113:2.8002895 114:3.1228787 115:2.8377053 116:2.820751 117:3.2037547 118:2.4531694 119:1.9099788 120:2.092189 121:2.3620029 122:3.4483971 123:3.0660045 124:3.3965888 125:2.8291311 126:0 127:0 128:0 129:0 130:0 131:0 132:0 133:0 134:0 135:0 136:0 137:0 138:0 139:0 140:0 141:0 142:0 143:0 144:0 145:0 146:0 147:0 148:0 149:0 
-0 0.00609550793648972 1:166.7731 2:130.09532 3:36.424767 4:28.482339 5:44.827157 6:46.545809 7:41.084996 8:25.617416 9:9.624771 10:18.293823 11:25.612815 12:19.803272 13:14.897939 14:9.4073287 15:13.362822 16:17.246131 17:12.827128 18:13.657143 19:11.150648 20:7.8025277 21:8.4626687 22:12.875347 23:16.14175 24:12.493468 25:8.9182728 26:7.8390043 27:9.3833002 28:7.8368514 29:6.9221022 30:7.0913908 31:9.7394882 32:7.9094884 33:7.5086421 34:6.5956733 35:9.4664258 36:5.9468193 37:5.8097149 38:5.1939213 39:7.5645674 40:6.5532952 41:4.9254297 42:4.9628897 43:6.4336551 44:6.3651407 45:4.80729 46:5.7924458 47:5.2488703 48:5.0161745 49:5.8944703 50:5.4349514 51:5.249827 52:4.5610603 53:4.2026047 54:4.506085 55:4.5078709 56:5.0951745 57:3.390793 58:4.8724927 59:3.8891531 60:4.6456047 61:3.2839985 62:3.8830269 63:2.6092215 64:4.1472957 65:3.7081768 66:3.7534171 67:3.5434061 68:4.7841968 69:3.6836772 70:3.5497125 71:3.4017635 72:3.4766203 73:4.0501342 74:3.9693511 75:4.2045414 76:2.6432707 77:5.0664564 78:3.3234106 79:2.8443177 80:1.9877803 81:4.3975238 82:2.8694371 83:1.928385 84:2.8504112 85:4.0650362 86:3.2035041 87:3.318626 88:2.1880681 89:3.9212819 90:3.9339983 91:3.2622007 92:1.6183844 93:2.9767388 94:2.7154096 95:3.0270335 96:2.3673165 97:2.1398869 98:3.4953832 99:3.2118846 100:3.6038857 101:2.8811448 102:2.8731413 103:1.5350984 104:2.9187146 105:2.0159663 106:3.0976553 107:2.0546607 108:3.0621557 109:2.2155411 110:3.951948 111:2.547531 112:2.8470081 113:2.6596142 114:2.4243566 115:1.9428018 116:2.6457578 117:2.048784 118:2.3651552 119:2.7019516 120:1.9583732 121:2.220955 122:2.3793777 123:2.9372158 124:2.004542 125:3.4541027 126:2.5083459 127:2.8310777 128:2.2652693 129:3.0585157 130:0 131:0 132:0 133:0 134:0 135:0 136:0 137:0 138:0 139:0 140:0 141:0 142:0 143:0 144:0 145:0 146:0 147:0 148:0 149:0 
-0 0.005779558239185125 1:135.17874 2:113.5361 3:65.813882 4:21.687757 5:53.59619 6:34.360203 7:13.210261 8:2.4486538 9:6.5248578 10:4.539419 11:2.5760386 12:2.4884944 13:4.7882962 14:11.179857 15:6.1604622 16:9.9142685 17:8.5632522 18:9.0624353 19:8.6362154 20:6.5919994 21:5.9670719 22:6.3057936 23:2.2673881 24:1.8022856 25:1.5996505 26:4.0756242 27:3.6639105 28:2.4166723 29:3.7972634 30:2.4525126 31:3.0940453 32:1.9362737 33:2.9488228 34:3.9455891 35:2.4675507 36:1.8367272 37:2.5628673 38:2.7711457 39:1.0174184 40:1.5023308 41:2.9337915 42:3.2369557 43:2.2686812 44:2.1483638 45:1.9662587 46:3.3458855 47:1.3792148 48:2.0134888 49:2.9617866 50:2.7095574 51:1.9696967 52:0.80771383 53:2.8811379 54:2.0291777 55:0.85429181 56:1.8973756 57:2.2200158 58:2.1875013 59:1.7280329 60:1.4709312 61:2.1016956 62:1.5810336 63:1.8229935 64:2.4063554 65:2.5401459 66:2.1007269 67:0.34134435 68:2.0981188 69:2.8719299 70:1.2680665 71:0.71112904 72:1.3499734 73:2.626017 74:1.7406367 75:0.79924663 76:1.4115563 77:1.7428736 78:0.36259734 79:0.5001921 80:2.2729729 81:1.7724387 82:0.80417851 83:1.5882767 84:2.8843952 85:2.6066903 86:1.5792194 87:1.0376128 88:1.4341204 89:1.5566461 90:1.2986725 91:0.25834729 92:1.6827748 93:2.920946 94:1.1987551 95:0.81776328 96:1.4996357 97:2.4878777 98:0.80700362 99:1.1286192 100:2.5015818 101:0.70506007 102:0.75698669 103:1.1450476 104:1.8622629 105:1.8131739 106:0.84771539 107:1.8544266 108:2.8391815 109:2.4930389 110:1.4546272 111:1.3390335 112:2.6802456 113:1.3857476 114:0.56036901 115:1.192003 116:2.0363258 117:1.0021756 118:0.10149192 119:1.8789019 120:1.9841963 121:2.3930431 122:1.1723571 123:2.4597591 124:2.5835817 125:2.3697432 126:0.73829956 127:1.3267624 128:1.994117 129:0.84789068 130:0 131:0 132:0 133:0 134:0 135:0 136:0 137:0 138:0 139:0 140:0 141:0 142:0 143:0 144:0 145:0 146:0 147:0 148:0 149:0 
-0.002197770044788861 0.00296120395582529 1:116.67619 2:126.71366 3:87.833912 4:59.514931 5:80.676137 6:42.985317 7:53.252377 8:44.023547 9:44.172429 10:45.916481 11:32.234602 12:34.601166 13:36.86644 14:25.675673 15:27.658644 16:21.216543 17:14.317872 18:21.381413 19:18.316928 20:22.21355 21:27.036401 22:19.722581 23:21.386481 24:18.920746 25:13.122268 26:14.472026 27:11.627062 28:10.943654 29:14.483797 30:14.057937 31:16.463927 32:16.763094 33:15.014231 34:12.379191 35:10.15229 36:7.6235811 37:7.3645824 38:7.5756892 39:10.131914 40:12.503538 41:10.619246 42:12.748468 43:9.6947887 44:10.476813 45:6.3221357 46:3.6120625 47:5.7882791 48:8.0542916 49:9.0648143 50:11.286299 51:11.37211 52:10.68007 53:8.7963921 54:6.4350197 55:4.3079231 56:3.8087319 57:5.1295632 58:6.3119195 59:7.8482359 60:9.3030334 61:9.2082899 62:8.7041685 63:8.2079229 64:3.9788322 65:4.4697115 66:2.5397017 67:3.0450076 68:6.8913899 69:7.8487894 70:8.6515398 71:7.7728929 72:6.8338678 73:7.2285699 74:4.171597 75:2.3181626 76:3.3230423 77:4.8352755 78:5.7750844 79:7.6568767 80:8.4880616 81:9.0739824 82:7.5504318 83:5.7096958 84:4.7853027 85:2.0281168 86:2.5350968 87:3.7708729 88:5.9003811 89:7.5094577 90:7.1867482 91:7.1028933 92:4.8844951 93:3.4120675 94:2.296125 95:2.9164718 96:2.7755975 97:5.9463071 98:7.1314662 99:9.0469963 100:6.7460044 101:7.410116 102:5.2861216 103:4.3364545 104:1.5633677 105:2.1935092 106:4.0357269 107:5.5851613 108:6.6900553 109:7.4504355 110:8.238383 111:6.7812351 112:5.2689272 113:2.9432698 114:1.0152526 115:1.1301395 116:4.1052093 117:5.9646892 118:7.1700701 119:6.6561694 120:7.1818873 121:5.2780417 122:5.1409213 123:2.9838793 124:2.2176222 125:2.6899076 126:3.0532978 127:5.6230221 128:7.2007072 129:0 130:0 131:0 132:0 133:0 134:0 135:0 136:0 137:0 138:0 139:0 140:0 141:0 142:0 143:0 144:0 145:0 146:0 147:0 148:0 149:0 
-0.00010982314927907 0.007392712726368563 1:39.887226 2:36.441483 3:35.564156 4:59.362634 5:48.459742 6:142.83157 7:126.81529 8:87.475863 9:27.006672 10:39.953665 11:38.287687 12:21.033857 13:29.645751 14:6.2482214 15:20.037622 16:20.307135 17:20.225848 18:10.197969 19:5.8036476 20:11.287804 21:5.0424628 22:8.1895148 23:7.6224267 24:6.0587234 25:6.4175034 26:8.5299823 27:6.7052149 28:3.8223353 29:4.365072 30:5.1743941 31:5.3161901 32:5.994887 33:2.7514975 34:2.7393875 35:6.5677818 36:4.8337764 37:6.2031219 38:5.995245 39:6.643217 40:5.1015528 41:6.1935983 42:3.5936519 43:6.851536 44:2.4656553 45:4.9526863 46:7.8235673 47:3.9022512 48:7.853184 49:5.7672975 50:3.4078868 51:3.1551121 52:4.1465359 53:4.7572812 54:4.8862046 55:4.9765197 56:5.2995407 57:4.800934 58:4.3337073 59:4.1317496 60:3.0030894 61:3.2276396 62:3.8589985 63:2.608548 64:2.2053511 65:3.949863 66:5.7674076 67:5.0930893 68:4.7540341 69:3.4506482 70:4.3552707 71:2.9515382 72:3.9926915 73:3.5884286 74:2.0794009 75:2.7351617 76:4.6363681 77:4.0827825 78:3.5118458 79:2.5170116 80:2.4124808 81:2.6149625 82:2.7376018 83:4.2946243 84:2.8764707 85:2.9498701 86:2.8438509 87:4.310078 88:2.6788269 89:3.9002525 90:2.7081207 91:4.064579 92:2.4366501 93:2.3891128 94:3.1644586 95:3.707339 96:2.2180084 97:3.0458651 98:3.0900962 99:5.5912171 100:2.0492926 101:2.5683894 102:2.3390808 103:2.6643691 104:2.6027828 105:0.53734664 106:2.0456889 107:3.0454901 108:1.5889571 109:1.7367406 110:5.2676629 111:2.0321789 112:2.2983775 113:2.6517037 114:3.2200871 115:3.1191607 116:3.8618245 117:3.2075137 118:2.1084075 119:3.9211611 120:2.8709319 121:2.211187 122:2.7655734 123:0 124:0 125:0 126:0 127:0 128:0 129:0 130:0 131:0 132:0 133:0 134:0 135:0 136:0 137:0 138:0 139:0 140:0 141:0 142:0 143:0 144:0 145:0 146:0 147:0 148:0 149:0 
-0 0.02526687973067522 1:182.98654 2:119.30736 3:27.363902 4:11.251622 5:30.007323 6:34.154562 7:48.147074 8:14.58242 9:16.237067 10:9.1564391 11:20.115734 12:15.423632 13:9.0568238 14:15.176126 15:8.8260948 16:5.7444991 17:5.8539068 18:8.0767201 19:6.3542522 20:3.87744 21:5.0641084 22:4.2352341 23:5.2835241 24:6.068604 25:3.3575179 26:3.1967517 27:5.4239691 28:5.4108481 29:2.425221 30:2.8415843 31:2.6586445 32:4.1562898 33:1.5188138 34:3.8603412 35:3.5669173 36:2.740477 37:3.5368884 38:1.6649812 39:1.7105258 40:1.8875528 41:2.0776921 42:2.4450809 43:1.18242 44:1.0723104 45:1.095013 46:1.6627642 47:0.63271958 48:1.6975532 49:0.78378645 50:0.51093588 51:1.3342119 52:1.6884435 53:1.1043811 54:2.3770091 55:1.97383 56:0.84540852 57:0.79460935 58:1.2038402 59:2.697149 60:1.5009583 61:0.99083517 62:1.253128 63:1.3172527 64:1.2395465 65:0.77946578 66:1.5847372 67:1.2318968 68:1.3614127 69:0.63558097 70:1.3762184 71:1.3681821 72:1.2487595 73:1.7368539 74:1.8128142 75:0.91291881 76:2.0496815 77:3.1501732 78:1.6014335 79:1.4698365 80:0.33094253 81:1.2405068 82:0.65273647 83:1.3175469 84:1.6835099 85:1.0758424 86:1.5474263 87:1.3741816 88:0.92400639 89:1.3653475 90:1.0344053 91:0.65872866 92:0.78469764 93:0.73680652 94:0.98939969 95:1.5556882 96:1.5798463 97:0.2702861 98:0.80704004 99:1.6537547 100:0.88477771 101:0.54861768 102:1.1592683 103:1.7955587 104:0.84636078 105:0.78408643 106:0.94305845 107:1.07392 108:1.2579873 109:1.1532272 110:1.0339736 111:1.628899 112:1.0409924 113:1.7105499 114:1.4687641 115:1.2720843 116:1.0200221 117:1.2086171 118:2.4056109 119:1.1681781 120:1.5609029 121:0.99427743 122:1.4826973 123:0.49464274 124:1.0501859 125:1.5877975 126:0.5506877 127:0.68584131 128:1.2008249 129:1.2267443 130:0.90505631 131:0 132:0 133:0 134:0 135:0 136:0 137:0 138:0 139:0 140:0 141:0 142:0 143:0 144:0 145:0 146:0 147:0 148:0 149:0 
-0 0.00264601512933227 1:61.74263 2:33.826464 3:30.810088 4:30.833521 5:11.71208 6:2.1595579 7:52.255799 8:95.751173 9:16.49938 10:63.339135 11:33.326827 12:18.393663 13:19.567377 14:32.070016 15:10.342637 16:28.918957 17:8.0601554 18:16.623938 19:18.023375 20:10.798266 21:4.6222464 22:18.062251 23:11.623196 24:9.0531019 25:16.568046 26:12.99489 27:9.0102749 28:9.2033844 29:4.4057927 30:19.763993 31:3.6292222 32:9.5968483 33:4.8073113 34:6.7469866 35:7.9968228 36:3.058185 37:11.414062 38:2.5703877 39:6.0036202 40:5.7906485 41:1.3874581 42:7.3739346 43:14.939969 44:12.066013 45:1.7947143 46:8.1017016 47:4.8543347 48:14.430026 49:7.1711481 50:0.56974366 51:8.4092288 52:2.475705 53:3.8536496 54:4.4830268 55:5.3012547 56:3.3445525 57:4.9441597 58:3.7960886 59:3.6985447 60:6.0562934 61:5.427382 62:7.4316356 63:4.1933842 64:5.1000045 65:6.2870324 66:4.1229481 67:6.084684 68:8.1741608 69:6.2093494 70:8.7541841 71:5.8005502 72:7.9549067 73:2.6118442 74:3.397804 75:6.0334285 76:0.78442166 77:8.3707676 78:5.9918488 79:1.5679665 80:3.3922244 81:3.7660668 82:7.7720896 83:2.6864046 84:2.7740069 85:3.1729926 86:2.1686767 87:5.2899501 88:4.7998784 89:1.5229919 90:4.099612 91:4.4736826 92:0.87775254 93:5.2809999 94:2.1610097 95:4.0330602 96:1.8016079 97:4.6467375 98:8.3866023 99:6.6223875 100:4.7177853 101:1.598481 102:2.20844 103:4.2073961 104:2.5704284 105:3.558227 106:3.1047397 107:4.9328529 108:2.855059 109:4.3927868 110:4.1958445 111:2.1338091 112:6.5642306 113:2.9179682 114:1.355269 115:5.0204775 116:1.7410909 117:4.6805005 118:2.7242152 119:3.2077728 120:4.0253221 121:3.7027418 122:3.1513959 123:2.2935592 124:6.0593262 125:3.6358524 126:2.6085815 127:0 128:0 129:0 130:0 131:0 132:0 133:0 134:0 135:0 136:0 137:0 138:0 139:0 140:0 141:0 142:0 143:0 144:0 145:0 146:0 147:0 148:0 149:0 
-0 0.005233350487688046 1:178.2715 2:49.875955 3:27.40108 4:39.701418 5:54.067185 6:44.119499 7:29.106595 8:9.661998 9:12.835564 10:24.864282 11:22.879827 12:18.794779 13:10.88136 14:6.9003909 15:10.939519 16:14.40023 17:13.387718 18:11.895119 19:5.4397874 20:6.6118927 21:8.6940005 22:9.8930178 23:9.9789127 24:5.2708617 25:2.8241952 26:4.214939 27:5.2802045 28:6.2636237 29:3.908774 30:1.9792843 31:2.0103137 32:3.7734541 33:5.3623597 34:4.4309772 35:3.1586517 36:1.0896068 37:1.1896709 38:3.6212811 39:3.720236 40:2.8629697 41:0.90740938 42:0.46827027 43:0.54308376 44:1.6044206 45:2.2032406 46:2.1620204 47:0.88570826 48:0.99208605 49:0.73053774 50:1.5325272 51:1.976619 52:1.1205721 53:0.61022173 54:1.5447878 55:0.17019694 56:1.8483986 57:0.56123863 58:1.1314268 59:1.4191682 60:0.91524629 61:0.88465184 62:1.525406 63:0.87374636 64:0.99249314 65:1.4163152 66:1.4117717 67:1.3724265 68:1.1208241 69:0.52203136 70:1.3419271 71:0.92239065 72:0.52723213 73:1.3963123 74:1.5448672 75:0.64504434 76:1.0312203 77:1.6137073 78:1.5870139 79:0.86538029 80:0.8831096 81:1.0692628 82:2.1884984 83:1.4802757 84:0.51296057 85:1.2923125 86:2.1668567 87:1.3891378 88:1.3198086 89:1.4752462 90:1.7325381 91:1.4624565 92:1.1869688 93:1.0427135 94:1.5862885 95:1.2253845 96:1.3560327 97:0.90768797 98:1.4480433 99:2.0791954 100:1.5549876 101:1.3025094 102:0.74768993 103:0.65622561 104:1.4340813 105:1.6004381 106:1.8642877 107:1.2928916 108:0.54789607 109:1.1284108 110:1.5802096 111:0.76734143 112:0.92598426 113:1.2152809 114:1.0897937 115:0.54640979 116:1.0155875 117:1.8932331 118:0.89461787 119:0.4861527 120:0.38135055 121:0.95977563 122:1.2534864 123:0.58702726 124:1.1394793 125:1.2076901 126:1.3322004 127:0.63988952 128:1.4049395 129:0 130:0 131:0 132:0 133:0 134:0 135:0 136:0 137:0 138:0 139:0 140:0 141:0 142:0 143:0 144:0 145:0 146:0 147:0 148:0 149:0 
-0.0007540655012102491 0.007391776290947924 1:167.74338 2:49.788456 3:76.36003 4:54.795831 5:45.708135 6:56.206311 7:35.809045 8:35.604872 9:31.480318 10:29.412121 11:25.840288 12:17.801517 13:20.450217 14:11.555383 15:17.086438 16:9.2623803 17:14.026689 18:11.242698 19:11.652344 20:11.694446 21:7.4727341 22:7.4578337 23:8.4047371 24:7.3978103 25:6.7652323 26:7.0039858 27:6.9995364 28:7.2961392 29:6.0847922 30:5.3403039 31:6.5415654 32:5.2895036 33:6.4555117 34:6.0142985 35:5.668418 36:5.8689568 37:4.8904539 38:4.5031616 39:4.7360072 40:4.4643086 41:3.409341 42:4.3939844 43:4.8603959 44:3.7651694 45:4.4067711 46:4.7210247 47:4.1803031 48:4.3245308 49:4.0650083 50:4.1918738 51:3.8269867 52:3.488937 53:3.5673435 54:2.5075647 55:3.2061713 56:2.631483 57:3.2192846 58:2.8659918 59:3.1769306 60:4.3705888 61:3.7827906 62:2.5842198 63:2.4499908 64:2.9321568 65:3.2842282 66:3.3308209 67:2.455938 68:4.246976 69:3.1875104 70:3.6855453 71:3.0720303 72:2.3609075 73:2.863915 74:2.7662301 75:3.7671419 76:2.3566669 77:3.1171122 78:3.0823135 79:3.3048505 80:2.7002011 81:2.7738087 82:2.9401688 83:2.8897825 84:2.6486171 85:2.6808961 86:3.2263303 87:2.0554324 88:2.9659899 89:2.0301907 90:2.8398083 91:2.8657882 92:2.1528727 93:2.2711567 94:2.0395454 95:2.5836038 96:2.6013969 97:2.1553121 98:2.8248311 99:3.4178729 100:2.4063757 101:2.4803519 102:2.8591756 103:2.3515822 104:2.622304 105:2.0204913 106:2.7221623 107:2.7267738 108:2.3894663 109:2.2103061 110:2.8727378 111:2.9493672 112:2.0634158 113:3.4285099 114:2.6697932 115:2.1956119 116:3.0226365 117:2.3047491 118:2.3585036 119:2.767729 120:2.7713951 121:2.6697511 122:2.725319 123:0 124:0 125:0 126:0 127:0 128:0 129:0 130:0 131:0 132:0 133:0 134:0 135:0 136:0 137:0 138:0 139:0 140:0 141:0 142:0 143:0 144:0 145:0 146:0 147:0 148:0 149:0 
-0 0.0264005019361393 1:213.62394 2:126.64304 3:27.907813 4:9.7989973 5:36.729573 6:47.073699 7:44.015318 8:26.472199 9:29.038024 10:15.903303 11:16.49679 12:18.861438 13:18.420452 14:14.9803 15:12.920591 16:10.912183 17:5.795512 18:2.5895604 19:6.0286764 20:10.238013 21:10.536983 22:9.8417694 23:5.185764 24:1.7592704 25:4.9953647 26:3.8262411 27:6.6424298 28:5.3456082 29:6.8905509 30:2.2512566 31:2.5296553 32:2.2114737 33:2.5810182 34:3.9096334 35:4.1004842 36:3.5244666 37:2.2941753 38:2.3506505 39:2.1325733 40:1.5638909 41:1.9584289 42:3.3300351 43:3.1709375 44:2.7523249 45:1.7609714 46:1.3272662 47:2.5893533 48:1.832514 49:1.5316157 50:3.4321681 51:2.8500409 52:1.7881108 53:2.083324 54:2.5718028 55:1.1790473 56:1.9549653 57:3.1189973 58:2.0545372 59:1.4564027 60:0.8292526 61:0.6236406 62:1.3941034 63:1.3441977 64:1.8937068 65:1.4919735 66:1.5775274 67:1.390384 68:1.577974 69:1.1243163 70:0.93555649 71:0.77339311 72:2.1992277 73:1.2437689 74:0.99264761 75:1.3396452 76:1.6420548 77:0.85779874 78:1.4522741 79:1.4684218 80:1.8490579 81:1.9668975 82:1.9096672 83:0.90653972 84:1.0276119 85:1.4481681 86:1.372268 87:1.0905371 88:1.6876801 89:0.98347598 90:1.7715208 91:1.1922225 92:0.84868189 93:0.70612888 94:1.0528457 95:1.2363489 96:1.1823775 97:1.9083829 98:0.87780657 99:1.2283009 100:1.1682228 101:0.86098463 102:1.0375477 103:0.65711277 104:0.85008897 105:0.43041672 106:1.1390516 107:0.83953039 108:1.4301925 109:1.3760127 110:1.0248221 111:1.2022814 112:0.96639558 113:1.1347052 114:0.76463891 115:1.0791519 116:0.56408722 117:1.1202277 118:0.51111438 119:0.39138285 120:1.4858733 121:1.1469335 122:1.2419349 123:1.6530916 124:1.10067 125:1.4367806 126:1.077864 127:1.1294549 128:1.1049196 129:1.1721088 130:0 131:0 132:0 133:0 134:0 135:0 136:0 137:0 138:0 139:0 140:0 141:0 142:0 143:0 144:0 145:0 146:0 147:0 148:0 149:0 
-0 0.002452492631401149 1:46.54361 2:69.92877 3:48.012578 4:63.836291 5:63.791374 6:66.533111 7:106.80214 8:56.277566 9:27.349459 10:35.14215 11:37.759778 12:14.321184 13:18.451084 14:22.691744 15:23.438675 16:14.308527 17:20.271744 18:13.223735 19:14.446726 20:19.688984 21:20.300872 22:13.556977 23:3.6328555 24:16.011883 25:8.579876 26:7.2137491 27:4.9078029 28:10.841493 29:6.9078746 30:3.23342 31:7.1508671 32:11.990713 33:8.0133377 34:10.522941 35:3.2221177 36:7.1012496 37:11.022687 38:8.4222942 39:3.3935158 40:4.8384647 41:2.0132951 42:3.3107432 43:7.5705182 44:5.0767714 45:5.2079987 46:6.5865174 47:2.1011992 48:5.4528368 49:2.4942118 50:10.502872 51:0.95004369 52:4.1001393 53:0.93231238 54:4.3142602 55:6.3234971 56:5.0410346 57:1.6998139 58:3.2787093 59:6.0569075 60:2.0162165 61:4.7618829 62:10.819625 63:3.230836 64:5.256121 65:1.6505703 66:1.2708164 67:2.7218187 68:3.0450831 69:4.7034326 70:4.9389639 71:3.6110558 72:3.1454278 73:0.85610457 74:3.1471969 75:4.4858046 76:2.2319911 77:4.6304598 78:5.1802326 79:3.2058192 80:3.2255206 81:3.7133415 82:2.9496874 83:2.2628396 84:4.6729224 85:1.9979905 86:6.1792499 87:1.3450343 88:2.3922838 89:1.5787596 90:2.5927236 91:1.30765 92:1.7427203 93:3.4621807 94:3.197871 95:2.0426797 96:1.1104723 97:3.0073305 98:0.61366634 99:5.5193914 100:3.2287972 101:2.8468346 102:2.5055953 103:1.0972732 104:2.5767 105:2.2866655 106:1.4392283 107:2.3457448 108:5.5943878 109:2.7044671 110:1.6668738 111:2.3981362 112:5.3944416 113:4.6712896 114:0.36010691 115:5.1902387 116:2.5735022 117:4.0086244 118:3.7448454 119:1.7548694 120:1.80738 121:5.1532183 122:2.2082486 123:1.5139502 124:5.4124352 125:2.4202431 126:4.4794896 127:1.276574 128:0 129:0 130:0 131:0 132:0 133:0 134:0 135:0 136:0 137:0 138:0 139:0 140:0 141:0 142:0 143:0 144:0 145:0 146:0 147:0 148:0 149:0 
-0.0002417155319294582 0 1:83.737524 2:114.34468 3:67.269963 4:56.936992 5:115.14495 6:49.476904 7:59.694949 8:59.858922 9:86.981084 10:21.12961 11:42.988851 12:11.615547 13:28.647319 14:27.503246 15:10.741028 16:22.390107 17:18.365684 18:14.047014 19:10.210904 20:23.608119 21:7.1040706 22:12.767852 23:9.492979 24:10.504898 25:7.4805721 26:6.7021218 27:10.723178 28:11.962592 29:7.6967647 30:6.1705831 31:7.7598862 32:3.8996831 33:5.8958133 34:9.1453064 35:7.7162602 36:9.754556 37:5.9431417 38:8.7764546 39:9.8447203 40:9.3684199 41:8.7221851 42:6.2626528 43:6.9166741 44:6.0768694 45:4.4072492 46:9.2758421 47:2.942715 48:2.4334486 49:4.450878 50:5.6052986 51:6.5387524 52:4.8670635 53:4.0265927 54:4.7513968 55:5.5991436 56:5.5959234 57:5.6775093 58:3.8843728 59:4.5620422 60:5.0630404 61:9.2902732 62:4.1539865 63:2.2221587 64:6.319425 65:6.269864 66:5.0041975 67:3.6632086 68:3.5163695 69:4.1607684 70:6.7764554 71:3.2491354 72:2.9548179 73:5.9790282 74:3.7633054 75:7.3868472 76:4.9261622 77:4.4236611 78:5.9518562 79:3.2926083 80:4.0704941 81:1.4971792 82:2.8865013 83:4.2239291 84:3.3194675 85:3.3844252 86:7.4333858 87:4.7484445 88:2.1438343 89:3.2106369 90:6.0586198 91:3.6206637 92:3.4533684 93:6.4815984 94:9.7733373 95:2.5392409 96:3.3632161 97:7.0058439 98:3.5575889 99:3.9576465 100:3.104463 101:7.2462742 102:5.460556 103:3.7177453 104:3.6600868 105:2.3565408 106:3.0968507 107:5.0913307 108:5.1376213 109:3.6182992 110:2.7468011 111:5.5499772 112:5.4286229 113:4.8214576 114:6.0029097 115:3.96892 116:5.2215007 117:1.7572747 118:3.5118502 119:5.2740177 120:4.4885024 121:2.2028789 122:5.9541721 123:4.8815909 124:3.1288662 125:4.2942336 126:3.3664343 127:3.4594622 128:3.5020745 129:4.5877844 130:0 131:0 132:0 133:0 134:0 135:0 136:0 137:0 138:0 139:0 140:0 141:0 142:0 143:0 144:0 145:0 146:0 147:0 148:0 149:0 
-0 0.01724881060698584 1:122.49418 2:112.29141 3:69.964647 4:40.026372 5:27.928067 6:7.0220247 7:11.524995 8:22.086779 9:22.951521 10:20.796847 11:27.910657 12:17.272124 13:18.868597 14:17.159802 15:8.098709 16:4.7902508 17:2.9312163 18:9.25944 19:10.015808 20:9.4612101 21:13.275085 22:11.574535 23:10.375757 24:7.3303386 25:4.4221432 26:1.4402205 27:4.4764599 28:5.9533579 29:6.2142689 30:8.4662561 31:7.2590317 32:7.2532949 33:6.0798143 34:5.4541135 35:4.4234345 36:4.4910423 37:3.8391759 38:4.2529415 39:4.7503616 40:4.1619338 41:5.78656 42:4.5518374 43:4.9841774 44:4.8138567 45:3.5356306 46:3.4064206 47:3.0210238 48:4.8423844 49:4.2580395 50:4.9641045 51:5.1382864 52:4.197957 53:3.6158259 54:3.4636434 55:2.2219552 56:2.8356073 57:2.2184619 58:2.8301922 59:3.4674148 60:2.689794 61:3.6685967 62:2.2632601 63:0 64:0 65:0 66:0 67:0 68:0 69:0 70:0 71:0 72:0 73:0 74:0 75:0 76:0 77:0 78:0 79:0 80:0 81:0 82:0 83:0 84:0 85:0 86:0 87:0 88:0 89:0 90:0 91:0 92:0 93:0 94:0 95:0 96:0 97:0 98:0 99:0 100:0 101:0 102:0 103:0 104:0 105:0 106:0 107:0 108:0 109:0 110:0 111:0 112:0 113:0 114:0 115:0 116:0 117:0 118:0 119:0 120:0 121:0 122:0 123:0 124:0 125:0 126:0 127:0 128:0 129:0 130:0 131:0 132:0 133:0 134:0 135:0 136:0 137:0 138:0 139:0 140:0 141:0 142:0 143:0 144:0 145:0 146:0 147:0 148:0 149:0 
-0.001442926384863198 0.006985660917123362 1:92.617409 2:87.723103 3:26.088182 4:67.169116 5:14.426737 6:50.281299 7:42.264722 8:31.058546 9:27.032112 10:24.055527 11:24.213023 12:17.741223 13:22.877194 14:17.518813 15:15.064412 16:15.236965 17:15.384735 18:15.610064 19:12.620178 20:15.910461 21:13.812358 22:12.954415 23:15.105324 24:9.6601065 25:11.154628 26:11.050621 27:10.00194 28:10.937973 29:9.3025839 30:9.6699073 31:9.0790559 32:7.9459064 33:9.9305453 34:7.3214129 35:9.537658 36:8.9268988 37:8.132946 38:7.9373621 39:7.2728138 40:6.6621652 41:6.0248927 42:6.8938042 43:6.6647868 44:6.0118502 45:5.9868597 46:7.5620524 47:7.2491632 48:5.0638259 49:6.0697953 50:7.0059465 51:5.2284832 52:6.092764 53:5.6187625 54:6.2081171 55:4.6094072 56:5.1751409 57:5.9559915 58:6.1095067 59:5.3260202 60:6.5125061 61:4.3445408 62:6.3391254 63:5.4197808 64:5.1730713 65:5.288783 66:3.9004102 67:2.7880129 68:4.1539537 69:4.3978594 70:3.7746278 71:3.5997421 72:5.7802322 73:5.2467789 74:4.6127373 75:4.1126798 76:3.4872472 77:2.9856326 78:3.8979422 79:5.0126002 80:3.8615058 81:3.7087458 82:4.5465461 83:4.0284242 84:4.5416242 85:2.5613026 86:4.0320626 87:3.6797728 88:3.6639648 89:3.6522182 90:2.8881605 91:4.5957256 92:3.3257602 93:4.2472174 94:3.5617045 95:3.0739537 96:4.1184163 97:4.1200341 98:3.6839733 99:3.4768078 100:3.7605856 101:3.3294783 102:3.5842504 103:3.6852898 104:3.7071586 105:4.1422364 106:3.623812 107:3.4043715 108:3.0974244 109:2.2636283 110:3.6553248 111:3.0495031 112:4.8905329 113:3.6787395 114:3.6536966 115:3.9812022 116:2.832859 117:2.8461645 118:4.0874017 119:3.7044378 120:2.9897364 121:2.8645716 122:2.4151769 123:2.9287472 124:3.6508837 125:3.359347 126:3.2921453 127:0 128:0 129:0 130:0 131:0 132:0 133:0 134:0 135:0 136:0 137:0 138:0 139:0 140:0 141:0 142:0 143:0 144:0 145:0 146:0 147:0 148:0 149:0 
-0 0.009373414227944542 1:238.05427 2:120.22683 3:44.630992 4:59.448847 5:58.955812 6:45.020915 7:37.485123 8:29.878671 9:27.044107 10:28.983669 11:25.343865 12:22.127656 13:12.425215 14:16.99036 15:15.68632 16:11.015422 17:10.482766 18:11.571241 19:5.7613941 20:10.958886 21:9.8628718 22:5.7515815 23:7.23688 24:5.1549834 25:6.2451821 26:5.5736544 27:6.9541282 28:5.7340552 29:4.0807903 30:5.6210925 31:4.7186058 32:4.4265076 33:4.9276139 34:5.1165936 35:4.8738655 36:2.280644 37:3.236186 38:3.3734847 39:3.439875 40:4.294535 41:3.0245843 42:4.1848432 43:1.1563958 44:2.7132492 45:2.0648807 46:1.7785468 47:1.7698493 48:3.0070254 49:2.5040592 50:1.9703934 51:2.1997677 52:1.6617032 53:2.6574148 54:3.2416115 55:2.8959872 56:2.0668265 57:2.2094379 58:1.9829003 59:1.7745778 60:3.4018536 61:1.2472382 62:1.2704137 63:1.7002576 64:1.012202 65:1.8590884 66:1.4918832 67:1.8631835 68:2.4432198 69:1.1537497 70:1.4232777 71:2.0108348 72:1.5829819 73:1.3691083 74:2.2768054 75:2.6657996 76:1.6632587 77:1.0790578 78:1.6377775 79:1.3581535 80:0.93352825 81:1.5381389 82:1.0399114 83:1.6231624 84:1.1437388 85:1.6937593 86:0.91179609 87:0.93835147 88:0.94817397 89:0.37801058 90:1.7760812 91:2.4833111 92:2.0219139 93:0.83397614 94:0.83715197 95:0.63190524 96:1.0771556 97:1.2243924 98:1.1393352 99:0.86563179 100:0.81776107 101:1.7129327 102:1.459358 103:1.1317567 104:1.2134254 105:1.3996184 106:1.4986716 107:0.58338638 108:0.51306721 109:1.3005577 110:1.0486208 111:1.5121296 112:0.85952058 113:1.2240394 114:0.73722331 115:0.77868311 116:0.92153873 117:1.673129 118:1.8028244 119:1.5805258 120:0.61906169 121:1.1750888 122:1.3388933 123:1.3391854 124:1.6660758 125:1.2648697 126:1.5448454 127:1.2491529 128:0.98833859 129:1.43707 130:1.2110536 131:0.75134809 132:1.4321623 133:1.2403602 134:1.5153649 135:1.449598 136:0.86685803 137:0.72773909 138:0.80379194 139:0.86327438 140:0.38564711 141:0.71319521 142:1.2438842 143:0.79314212 144:0.76085612 145:0.80793239 146:0.50355222 147:1.3716002 148:0.99861397 149:0.62982376 
-0 0.007411940412850407 1:127.93973 2:72.734131 3:45.590775 4:30.446905 5:65.517901 6:57.795422 7:23.457458 8:12.882698 9:22.537537 10:16.995269 11:17.054727 12:15.020076 13:12.175488 14:15.352968 15:18.853746 16:16.380664 17:9.0707347 18:13.284716 19:15.035878 20:12.170687 21:13.336757 22:7.578244 23:8.6519599 24:11.739012 25:13.257899 26:6.271647 27:6.1552873 28:10.480142 29:11.327523 30:10.151929 31:5.5594211 32:8.2329321 33:11.126091 34:8.3478876 35:6.4639992 36:3.0980806 37:5.5286137 38:9.9768937 39:7.7555923 40:6.5103237 41:3.4107433 42:7.3711965 43:8.3363923 44:6.8807563 45:3.2814177 46:4.625732 47:6.2818344 48:7.5166186 49:4.7332008 50:3.6033043 51:3.7362219 52:5.924337 53:5.5944501 54:4.4560371 55:3.9874268 56:3.9875468 57:5.0379398 58:4.0830302 59:3.4662937 60:2.6665804 61:3.8916314 62:4.1062974 63:2.708296 64:3.9072353 65:4.3319458 66:2.7154461 67:2.4460389 68:3.4156406 69:3.4131776 70:3.630666 71:1.0311568 72:1.946518 73:3.1736569 74:3.9889353 75:1.9184643 76:0.58099144 77:2.4352768 78:3.16303 79:4.3639049 80:2.1521424 81:1.4120342 82:2.8087627 83:4.4753082 84:4.1392218 85:1.2552879 86:2.2728338 87:4.0690934 88:5.6848183 89:4.4916583 90:1.1722075 91:3.8524871 92:5.0004159 93:4.1922102 94:3.3277668 95:3.0623477 96:4.6641524 97:5.8314502 98:4.6520957 99:2.3658465 100:2.6054096 101:5.6913886 102:6.071062 103:3.7586092 104:3.4605562 105:4.6026615 106:5.3217587 107:6.5376705 108:4.0987372 109:3.3212395 110:5.5523921 111:6.0121192 112:5.3443819 113:2.362336 114:3.7858406 115:5.9076196 116:6.6931499 117:5.2379447 118:3.8237965 119:3.9933251 120:6.6566697 121:6.2380781 122:4.7366992 123:4.5157532 124:5.8523809 125:6.4778273 126:5.9481906 127:4.0968214 128:0 129:0 130:0 131:0 132:0 133:0 134:0 135:0 136:0 137:0 138:0 139:0 140:0 141:0 142:0 143:0 144:0 145:0 146:0 147:0 148:0 149:0 
-0.000344340205856312 0 1:8.6923874 2:37.163957 3:79.337306 4:49.607508 5:165.69356 6:102.02435 7:76.49589 8:43.266918 9:16.397432 10:53.150632 11:46.411231 12:25.078429 13:13.624452 14:15.727178 15:23.82495 16:22.023257 17:22.695586 18:7.1706022 19:8.5556472 20:12.69704 21:17.671512 22:5.8771914 23:8.2177451 24:7.3925232 25:12.653081 26:6.4647796 27:8.6217482 28:6.8515146 29:4.603403 30:7.3540973 31:10.416704 32:4.221817 33:3.2601296 34:5.5832453 35:8.7855123 36:4.2218689 37:4.6045236 38:3.8434939 39:3.0893724 40:1.9715051 41:5.8676396 42:1.8228136 43:3.1225248 44:3.6132117 45:2.0863142 46:5.1161264 47:3.7426029 48:8.4112954 49:2.6042559 50:2.5925711 51:4.4482747 52:6.2521015 53:4.2884705 54:3.90788 55:4.3317115 56:2.405672 57:2.9247958 58:3.3926282 59:2.8579271 60:1.4360844 61:3.6922235 62:3.6179036 63:2.9591777 64:3.7044088 65:3.1286778 66:4.2507694 67:3.3645872 68:2.892063 69:1.2493142 70:2.4407327 71:2.7660044 72:4.0370525 73:2.866706 74:2.5435505 75:3.5909642 76:2.2101716 77:2.2190111 78:3.0579759 79:1.8650196 80:2.9525942 81:3.1442267 82:2.2394609 83:3.5475579 84:2.0798356 85:1.8357963 86:3.1438666 87:2.2218842 88:1.2709362 89:1.6805703 90:1.7464347 91:4.0064074 92:2.3001831 93:4.278901 94:0.69925847 95:2.0814389 96:2.328805 97:1.8283902 98:3.0913277 99:3.6244651 100:2.2880524 101:2.6198213 102:2.7031319 103:2.2978235 104:2.5678718 105:1.893325 106:2.4411354 107:2.4610008 108:1.6352923 109:1.6675263 110:1.305626 111:3.1731165 112:4.1559961 113:3.0483483 114:1.9819628 115:2.090507 116:3.4209323 117:2.2730117 118:2.2402098 119:2.1975612 120:2.2125981 121:3.1344602 122:3.3051425 123:2.7776474 124:3.0245807 125:1.6645846 126:1.3290002 127:2.7893532 128:3.1395899 129:0 130:0 131:0 132:0 133:0 134:0 135:0 136:0 137:0 138:0 139:0 140:0 141:0 142:0 143:0 144:0 145:0 146:0 147:0 148:0 149:0 
-0.001528264266633601 0.02880712408234421 1:128.04073 2:68.443917 3:77.835859 4:40.711052 5:35.789317 6:34.000138 7:32.769548 8:28.64446 9:23.173693 10:19.349389 11:18.214495 12:14.683943 13:14.990779 14:12.895402 15:13.394118 16:14.629984 17:10.970098 18:12.594623 19:10.581284 20:10.037913 21:9.3485143 22:10.559999 23:8.6302359 24:8.4218308 25:6.5267849 26:9.0328275 27:6.5157766 28:8.1060428 29:8.7532016 30:8.0097428 31:7.0769001 32:6.778877 33:4.8663723 34:5.5613141 35:6.508927 36:5.7030239 37:4.6850188 38:5.6472831 39:3.6400804 40:5.5901696 41:5.5448491 42:4.178778 43:3.9867192 44:4.9722463 45:4.6062543 46:6.0066144 47:5.0540065 48:3.7654178 49:3.9782689 50:3.7501839 51:4.7289119 52:2.9746566 53:4.008921 54:4.7127787 55:4.4413673 56:3.5406278 57:4.7412862 58:3.5485779 59:4.2570485 60:4.7695748 61:4.1600024 62:3.4980946 63:3.7676798 64:3.4115613 65:4.1599443 66:4.5666614 67:3.4157685 68:2.8847697 69:3.2140635 70:3.7172909 71:4.188928 72:2.856107 73:2.5622371 74:2.909182 75:3.7998292 76:3.2849582 77:2.3974053 78:2.6914999 79:3.7075343 80:2.7471802 81:3.8152122 82:3.1409231 83:2.4149483 84:3.0289175 85:2.3151902 86:3.1480277 87:3.4863449 88:2.5898172 89:3.006964 90:2.5348029 91:2.104007 92:3.6396902 93:3.617192 94:3.0724307 95:3.7748324 96:3.2070291 97:2.9273326 98:2.7443974 99:3.0481789 100:2.4787445 101:2.1586081 102:2.8339016 103:2.096875 104:2.0289869 105:2.8075515 106:2.7669413 107:3.2099764 108:2.9226554 109:2.5380458 110:2.9312791 111:2.0609212 112:2.326678 113:3.0985185 114:2.9494184 115:3.4876777 116:2.5043734 117:2.2787124 118:3.5415847 119:3.6030147 120:3.4188955 121:3.3727301 122:2.5910791 123:2.251655 124:3.7275572 125:2.3991058 126:2.6383678 127:3.1526964 128:3.3819064 129:0 130:0 131:0 132:0 133:0 134:0 135:0 136:0 137:0 138:0 139:0 140:0 141:0 142:0 143:0 144:0 145:0 146:0 147:0 148:0 149:0 
-0 -0.008504069499793536 1:159.64925 2:134.42477 3:57.332254 4:30.895855 5:42.968289 6:25.697788 7:56.156363 8:26.443335 9:29.504416 10:19.70127 11:21.315257 12:10.26023 13:17.546079 14:20.68113 15:20.171945 16:12.777964 17:10.949937 18:9.8650584 19:6.3041316 20:10.288256 21:7.2531769 22:8.4115504 23:4.8915377 24:10.992403 25:7.4564228 26:7.0110305 27:2.6075641 28:5.0188996 29:4.4316676 30:6.9875589 31:5.4312294 32:5.204328 33:7.4114838 34:2.7205264 35:2.996762 36:5.1630126 37:2.9530814 38:2.6614103 39:3.4381936 40:2.518179 41:5.1673526 42:5.0985781 43:2.3888437 44:2.7070611 45:4.069696 46:2.5569573 47:5.1725273 48:3.0791618 49:3.2492582 50:3.6034398 51:3.7726718 52:3.5278208 53:2.4502963 54:3.5325177 55:3.6306198 56:2.0061753 57:3.4640702 58:3.62821 59:4.0989438 60:3.2060885 61:2.699966 62:3.9522194 63:2.9017947 64:2.5638935 65:5.4274648 66:3.4598298 67:3.2016376 68:3.7071855 69:3.4506105 70:2.7793825 71:3.242715 72:3.2169355 73:3.6118541 74:3.1747085 75:3.8687452 76:3.655031 77:4.0529451 78:3.0719366 79:2.5555081 80:2.9496155 81:3.7975444 82:3.1951213 83:4.4633799 84:5.4985784 85:4.1646596 86:5.1458913 87:3.7229319 88:3.7538791 89:3.8765652 90:3.4575951 91:3.3691802 92:5.0380718 93:4.1901861 94:3.9165894 95:3.8738505 96:2.4545507 97:3.8062821 98:3.8080559 99:4.4409621 100:3.9038085 101:2.5284874 102:4.7852366 103:5.067715 104:3.5882861 105:4.3330018 106:4.0750416 107:4.3962595 108:5.0473939 109:3.8700698 110:3.6188465 111:3.3072714 112:3.6100674 113:5.0190586 114:3.8390266 115:3.6948646 116:4.6425941 117:4.4462092 118:3.7927378 119:5.5455461 120:4.2605443 121:4.6106872 122:4.2441601 123:4.4693105 124:5.0153381 125:5.0667571 126:5.5377386 127:0 128:0 129:0 130:0 131:0 132:0 133:0 134:0 135:0 136:0 137:0 138:0 139:0 140:0 141:0 142:0 143:0 144:0 145:0 146:0 147:0 148:0 149:0 
-0 -0.005462927663685685 1:117.37836 2:96.660741 3:77.711098 4:48.955126 5:29.023839 6:3.4861147 7:15.335576 8:22.125784 9:34.800672 10:33.307098 11:30.744553 12:29.249235 13:20.525348 14:21.746485 15:16.601028 16:5.9483932 17:7.5010942 18:6.4233332 19:13.562207 20:18.513207 21:23.140352 22:19.234662 23:17.130264 24:12.190415 25:9.838892 26:5.6521381 27:6.4878163 28:6.673262 29:8.4758242 30:12.773153 31:11.843727 32:13.759024 33:10.695405 34:10.830422 35:8.5888243 36:8.0482445 37:4.1812004 38:3.0398465 39:4.0196041 40:3.7955017 41:6.9332305 42:8.156757 43:7.7641243 44:8.2821753 45:6.1068384 46:3.3649886 47:2.3746273 48:1.51571 49:4.0262458 50:3.5884415 51:5.9097437 52:6.2298675 53:6.9107326 54:5.7430975 55:3.906466 56:2.5048634 57:3.0199956 58:0.88279389 59:2.7048946 60:3.4238381 61:5.5276462 62:4.961889 63:3.9128985 64:3.7092351 65:1.9786971 66:2.0645481 67:0.83601693 68:1.7809912 69:2.1429817 70:2.2800553 71:3.4336047 72:3.6196942 73:3.7313928 74:4.0459625 75:2.2968447 76:2.3998904 77:0.66649292 78:1.2974535 79:2.1673983 80:3.2448924 81:3.4864867 82:2.6306565 83:3.4916217 84:3.053461 85:2.2952932 86:1.6847744 87:0.95452624 88:1.2435503 89:2.6121536 90:3.2228854 91:3.5455031 92:3.1510872 93:4.0891994 94:3.7376295 95:2.9994296 96:1.8015851 97:1.0509691 98:1.0554417 99:1.9891991 100:2.4953402 101:4.0030936 102:3.8307924 103:3.8330821 104:3.3046422 105:3.2822372 106:1.3412072 107:0.61726267 108:0.61658685 109:2.4629223 110:3.1874206 111:5.366869 112:4.0717322 113:4.2579715 114:3.7414277 115:2.764954 116:1.4462527 117:2.3847675 118:0.4976037 119:1.8015008 120:2.2914861 121:2.5899128 122:4.4402216 123:3.1990469 124:3.1515946 125:2.8259655 126:2.189691 127:1.2981604 128:0.99674503 129:0 130:0 131:0 132:0 133:0 134:0 135:0 136:0 137:0 138:0 139:0 140:0 141:0 142:0 143:0 144:0 145:0 146:0 147:0 148:0 149:0 
-0.0009008392131445095 -0 1:120.62994 2:106.14018 3:55.647573 4:67.419198 5:33.68642 6:104.63591 7:59.631204 8:40.399818 9:27.661854 10:24.683564 11:30.132692 12:44.805529 13:24.872703 14:22.611905 15:22.045284 16:15.811476 17:19.995812 18:20.688071 19:12.550028 20:14.402574 21:14.911314 22:11.518957 23:14.048413 24:13.698077 25:11.775441 26:8.4757049 27:9.9812882 28:9.3296012 29:9.6699902 30:8.8601936 31:6.9714046 32:6.9620975 33:8.534673 34:8.2014408 35:7.4955034 36:7.046786 37:5.7726215 38:7.7792503 39:6.7057622 40:4.5910036 41:6.3009441 42:6.1684335 43:5.7254017 44:3.9552826 45:5.5931656 46:3.7502744 47:5.8004383 48:3.7854358 49:3.9337925 50:4.8340151 51:3.1430923 52:2.6585064 53:2.3715483 54:3.4578894 55:3.3261342 56:2.6125265 57:3.6289134 58:3.5664187 59:3.4803289 60:2.8440289 61:3.8421357 62:2.5879016 63:0 64:0 65:0 66:0 67:0 68:0 69:0 70:0 71:0 72:0 73:0 74:0 75:0 76:0 77:0 78:0 79:0 80:0 81:0 82:0 83:0 84:0 85:0 86:0 87:0 88:0 89:0 90:0 91:0 92:0 93:0 94:0 95:0 96:0 97:0 98:0 99:0 100:0 101:0 102:0 103:0 104:0 105:0 106:0 107:0 108:0 109:0 110:0 111:0 112:0 113:0 114:0 115:0 116:0 117:0 118:0 119:0 120:0 121:0 122:0 123:0 124:0 125:0 126:0 127:0 128:0 129:0 130:0 131:0 132:0 133:0 134:0 135:0 136:0 137:0 138:0 139:0 140:0 141:0 142:0 143:0 144:0 145:0 146:0 147:0 148:0 149:0 
-0.003317091226571979 -0 1:123.48291 2:125.86196 3:119.12667 4:77.758487 5:38.301173 6:33.66211 7:12.898172 8:17.479808 9:26.152712 10:25.385258 11:43.512462 12:30.848465 13:46.913047 14:24.426484 15:34.45768 16:17.647649 17:33.029329 18:17.82475 19:8.6779857 20:15.377093 21:19.098577 22:21.033951 23:23.590482 24:20.115066 25:18.217719 26:18.294977 27:10.868094 28:10.976157 29:9.4820844 30:6.9518051 31:13.817223 32:14.881875 33:11.289403 34:16.119668 35:14.165261 36:12.631155 37:10.151517 38:10.837873 39:6.1423795 40:8.5042998 41:9.8305884 42:9.5015808 43:10.213796 44:10.150987 45:9.5090452 46:8.5830664 47:6.6633079 48:7.5753216 49:8.6981819 50:8.2967665 51:7.8218924 52:6.77496 53:6.6742183 54:6.2030508 55:7.2714708 56:6.3558798 57:7.672785 58:5.8254737 59:7.1268179 60:6.1215456 61:7.2769777 62:4.816252 63:5.8347598 64:4.5191952 65:3.9149871 66:5.3457504 67:5.3337187 68:7.4772513 69:6.6487133 70:7.5065351 71:7.1469735 72:5.7111773 73:5.2792833 74:4.3332779 75:2.3460311 76:3.7534444 77:4.0618798 78:3.5234381 79:5.4851004 80:5.1785422 81:5.594357 82:6.1002394 83:3.8130004 84:4.6558157 85:2.919462 86:4.5308779 87:4.3673337 88:5.7079449 89:5.1578619 90:6.3209063 91:5.0862991 92:3.1238211 93:2.9883951 94:2.0542651 95:2.1327386 96:4.3348561 97:4.8046911 98:3.5221609 99:5.4728056 100:4.9217771 101:3.938355 102:3.19013 103:2.4026579 104:2.0661605 105:3.3155961 106:3.5805385 107:4.2665745 108:5.9767408 109:5.6294609 110:4.3876872 111:3.9656269 112:4.2056782 113:2.3487307 114:3.1699515 115:4.0299255 116:3.6326229 117:5.1825722 118:4.0069098 119:4.2505999 120:3.2533356 121:2.7447512 122:3.0251483 123:3.4968041 124:2.8861924 125:4.5339517 126:3.9864855 127:3.7805513 128:0 129:0 130:0 131:0 132:0 133:0 134:0 135:0 136:0 137:0 138:0 139:0 140:0 141:0 142:0 143:0 144:0 145:0 146:0 147:0 148:0 149:0 
-0 -0.004212150171117881 1:53.016074 2:70.862398 3:73.898477 4:63.771398 5:44.958147 6:34.753695 7:41.32349 8:46.152061 9:31.770202 10:34.703588 11:45.77304 12:25.783772 13:17.708577 14:45.268868 15:17.997182 16:25.952522 17:19.991267 18:26.953781 19:19.367036 20:16.521556 21:16.810216 22:19.591215 23:16.782716 24:23.211701 25:14.495644 26:13.075292 27:14.484829 28:16.331516 29:18.345046 30:12.880008 31:11.112084 32:10.258629 33:11.596636 34:13.524123 35:12.673983 36:8.3314357 37:9.786228 38:11.378817 39:6.7251265 40:9.7143589 41:8.4625931 42:8.4167896 43:8.7840819 44:5.1587029 45:10.859764 46:6.9861712 47:7.836747 48:7.864824 49:7.2358534 50:6.1166646 51:6.6420882 52:5.1979933 53:7.6952593 54:6.9596542 55:6.0646507 56:4.3436202 57:6.2091509 58:5.7586134 59:4.1955601 60:3.6094133 61:3.2945845 62:2.6908221 63:4.1852777 64:5.4757005 65:2.6445371 66:3.1638108 67:1.8629511 68:2.3509297 69:1.4874231 70:3.3953767 71:1.5154369 72:2.581972 73:2.0453581 74:2.4049914 75:1.6603704 76:1.8419067 77:2.5779928 78:2.1416291 79:1.6188519 80:2.1061748 81:0.4459671 82:1.2074335 83:2.039868 84:2.8741413 85:2.5370338 86:1.729786 87:1.984537 88:3.8888716 89:2.2712669 90:3.2063678 91:3.2753089 92:2.757983 93:1.6001436 94:1.0161264 95:1.8903402 96:1.6099769 97:2.274749 98:1.6650474 99:2.3201156 100:3.2645497 101:1.996476 102:2.2368714 103:1.4831863 104:2.139499 105:2.5112129 106:4.0298837 107:3.5747813 108:3.6361892 109:4.3596558 110:3.4752133 111:2.5712411 112:2.7407592 113:3.013762 114:2.7450302 115:5.03516 116:3.67275 117:3.2590615 118:4.1814026 119:3.4229991 120:5.0615666 121:3.7373063 122:3.1234434 123:5.1790986 124:4.3775684 125:4.2681815 126:2.7815739 127:2.9149245 128:2.6731556 129:4.4364073 130:3.1825798 131:2.881165 132:2.2045618 133:2.2579008 134:3.4981953 135:0 136:0 137:0 138:0 139:0 140:0 141:0 142:0 143:0 144:0 145:0 146:0 147:0 148:0 149:0 
-0 -0.0001478712139146082 1:116.02463 2:95.819747 3:81.19706 4:56.733641 5:27.805053 6:10.448897 7:18.162275 8:8.8579826 9:23.769513 10:28.63467 11:16.317827 12:20.752582 13:26.378944 14:15.761514 15:18.253244 16:11.765899 17:11.088389 18:11.322812 19:12.040826 20:14.026069 21:16.699772 22:15.52306 23:15.067011 24:13.843074 25:15.970229 26:14.002586 27:9.5671827 28:12.218494 29:9.6045991 30:8.9074264 31:7.7530449 32:7.2882603 33:8.037543 34:9.2738954 35:11.735765 36:10.875755 37:9.611289 38:7.2286661 39:5.5583919 40:3.259255 41:2.3189937 42:4.8533735 43:6.5197663 44:6.2196184 45:9.8490107 46:9.308353 47:7.3051155 48:6.1275745 49:5.4204742 50:3.1532762 51:3.3971952 52:5.6174273 53:6.3844084 54:8.1785338 55:8.04544 56:8.6248261 57:6.3125087 58:5.0082566 59:2.5500833 60:2.4560175 61:3.2756574 62:5.914936 63:7.4485889 64:5.8651657 65:8.0524189 66:8.4411258 67:5.1452182 68:3.5545805 69:1.9370579 70:3.0673291 71:3.5959397 72:5.8690281 73:8.341604 74:7.9048461 75:7.5533377 76:6.2850365 77:3.5548694 78:1.4182948 79:1.1317263 80:2.7210028 81:4.1500328 82:6.1781334 83:6.5813044 84:5.8240643 85:6.0141243 86:4.966456 87:3.5971779 88:2.4009415 89:2.9123741 90:3.1429688 91:5.7437566 92:6.4954682 93:6.7830823 94:5.8045973 95:5.9914522 96:4.4075239 97:3.2686799 98:2.4310671 99:2.2499264 100:5.0588438 101:5.5778667 102:6.4015535 103:6.4046566 104:5.9153824 105:4.2236878 106:3.6644152 107:3.0286624 108:3.0377478 109:4.1926526 110:6.1217875 111:6.7700546 112:6.733153 113:6.4451097 114:5.8190728 115:4.7415553 116:3.1248496 117:2.742571 118:3.0135492 119:5.4043442 120:5.3444352 121:6.5961638 122:6.2673378 123:6.0399734 124:5.7854735 125:3.8980102 126:3.4646813 127:2.9785025 128:4.0905414 129:4.1969684 130:5.3316796 131:6.4001887 132:0 133:0 134:0 135:0 136:0 137:0 138:0 139:0 140:0 141:0 142:0 143:0 144:0 145:0 146:0 147:0 148:0 149:0 
-0.009058741933461126 -0.00749529882081676 1:56.694514 2:68.331573 3:70.886128 4:63.610976 5:47.490675 6:33.981511 7:30.244672 8:46.413323 9:25.400826 10:23.841723 11:35.621069 12:30.865195 13:24.42166 14:32.324011 15:19.164971 16:11.740302 17:29.864915 18:19.53259 19:24.405213 20:19.504946 21:13.038123 22:20.955606 23:14.846006 24:17.373831 25:14.393994 26:16.181926 27:15.392522 28:14.255634 29:13.164365 30:14.440995 31:12.293638 32:14.148163 33:12.564395 34:14.065744 35:14.329639 36:8.6350368 37:12.427624 38:12.450895 39:11.578464 40:9.8948356 41:8.5426045 42:9.5073953 43:10.302431 44:10.335834 45:11.688206 46:9.3479185 47:10.757397 48:8.287028 49:8.6772524 50:7.8829238 51:7.2455208 52:9.1268371 53:8.7640618 54:6.0420546 55:6.5290003 56:6.8256078 57:7.4566509 58:6.9577677 59:7.7972643 60:6.3356942 61:6.9695375 62:6.8210205 63:5.7955469 64:6.0482796 65:5.5087686 66:7.2888966 67:6.1286154 68:5.2731841 69:5.1556228 70:6.5204722 71:5.3931974 72:3.9116285 73:3.0361247 74:5.5125059 75:5.0670706 76:5.028889 77:5.8186195 78:5.3209597 79:5.6360948 80:4.6374461 81:4.7134167 82:4.6712272 83:4.0171929 84:4.8274611 85:3.926179 86:4.0240397 87:3.2228599 88:4.0896762 89:3.9743076 90:3.4700005 91:3.8452388 92:3.7865823 93:2.4141835 94:3.8348992 95:2.8400273 96:4.3294422 97:2.7930715 98:1.9276172 99:3.2276518 100:2.3923135 101:4.5248402 102:1.9986445 103:3.0285804 104:2.8791152 105:2.4220699 106:2.5751849 107:2.241908 108:3.2693741 109:3.274979 110:2.2275148 111:2.416104 112:2.522112 113:3.0380879 114:2.5220057 115:2.8887166 116:3.8371792 117:4.1361559 118:2.8861471 119:2.998054 120:2.4650174 121:2.8355061 122:3.8081153 123:2.4545303 124:2.0855928 125:3.4236962 126:3.6367648 127:3.2955488 128:2.0206583 129:0 130:0 131:0 132:0 133:0 134:0 135:0 136:0 137:0 138:0 139:0 140:0 141:0 142:0 143:0 144:0 145:0 146:0 147:0 148:0 149:0 
-0 -0.005666305579274557 1:188.57517 2:104.8015 3:29.323667 4:56.259473 5:70.027201 6:74.546816 7:40.912448 8:20.083596 9:30.138388 10:32.492037 11:38.43646 12:23.803516 13:13.784421 14:19.147314 15:27.793224 16:19.867011 17:10.033817 18:10.857954 19:17.186109 20:20.964587 21:14.555131 22:9.5311558 23:5.9437901 24:11.665316 25:16.240744 26:11.878184 27:10.452632 28:10.245694 29:10.158965 30:8.75454 31:6.7386769 32:5.5956924 33:7.5932591 34:10.955437 35:8.9096194 36:6.1435759 37:4.4857001 38:4.9329407 39:5.9299705 40:6.9695035 41:4.8851485 42:4.648951 43:4.2434964 44:4.1095706 45:2.0974505 46:2.6187645 47:5.1413974 48:6.1540469 49:5.1044173 50:3.813361 51:1.884864 52:2.7085685 53:3.1330117 54:4.3113495 55:3.8515526 56:4.0830286 57:3.0482393 58:2.2209825 59:2.601611 60:2.6591783 61:3.7876563 62:4.4779833 63:5.041631 64:3.8890302 65:1.0019534 66:1.9966743 67:3.3192298 68:3.8715593 69:4.9810103 70:4.1858812 71:3.2969262 72:2.0473765 73:1.8250106 74:3.2653575 75:3.4201239 76:5.028345 77:3.8330662 78:2.4501171 79:0.41422964 80:2.0065043 81:3.1582976 82:3.1232811 83:4.5507426 84:3.820428 85:2.7305356 86:1.2323663 87:1.4292867 88:2.3150687 89:4.9757875 90:3.2968 91:4.5800586 92:3.0978559 93:1.5413866 94:1.2795103 95:3.5047603 96:4.4671385 97:4.943316 98:3.7539931 99:3.1173795 100:1.0546722 101:0.98233494 102:2.4214464 103:3.5187576 104:4.5849191 105:5.056602 106:4.2119256 107:2.3665509 108:1.3012262 109:2.4428544 110:4.5368739 111:4.3191338 112:4.4423905 113:3.4801573 114:3.5589489 115:1.3725015 116:2.1944414 117:3.0469783 118:4.3720989 119:4.2658427 120:3.127818 121:1.4078419 122:1.5796995 123:2.4545065 124:3.2824261 125:4.2205807 126:4.1223412 127:3.1144734 128:1.7905509 129:1.1872102 130:0 131:0 132:0 133:0 134:0 135:0 136:0 137:0 138:0 139:0 140:0 141:0 142:0 143:0 144:0 145:0 146:0 147:0 148:0 149:0 
-0 -0.01241616273390214 1:163.21057 2:82.27345 3:21.232019 4:28.981893 5:29.298229 6:62.706876 7:52.979014 8:34.724939 9:32.929925 10:18.549382 11:17.1565 12:17.933272 13:17.418704 14:16.568964 15:24.219938 16:12.309363 17:9.8209543 18:3.9508667 19:2.5522405 20:6.47145 21:12.775472 22:10.204624 23:10.082236 24:4.5142911 25:6.0263661 26:2.8840126 27:4.9758936 28:7.0654087 29:7.5109111 30:5.7448115 31:6.3431052 32:3.0815877 33:2.0687761 34:3.4013778 35:4.226035 36:3.0834841 37:5.4189643 38:2.6173394 39:3.1306001 40:2.2308019 41:1.4713671 42:1.8033596 43:4.5879344 44:3.5733277 45:4.5291941 46:1.9633533 47:2.9512888 48:1.0867066 49:2.2236601 50:1.5438974 51:3.1044371 52:1.4442944 53:2.3420731 54:1.8015317 55:2.5191056 56:0.54832871 57:1.8063606 58:1.4317924 59:2.1227149 60:2.0404848 61:1.6267247 62:1.7290003 63:1.1943037 64:1.5622467 65:2.3694292 66:1.3717346 67:1.5602724 68:1.3550183 69:0.80718836 70:1.6756052 71:1.6189372 72:1.3273286 73:2.1494012 74:2.4784325 75:1.3089369 76:2.3401939 77:1.2175611 78:1.2140784 79:1.7999149 80:1.7241281 81:0.77284697 82:1.518833 83:1.0835618 84:0.71447954 85:0.75484922 86:0.69450956 87:1.2666497 88:1.7095723 89:0.73291775 90:1.1121342 91:1.0025525 92:1.1920794 93:0.7887029 94:0.7038358 95:1.0453084 96:0.96974771 97:0.36089578 98:0.86767169 99:1.2401326 100:1.6855456 101:1.4470604 102:1.1096731 103:1.1697273 104:1.1533458 105:1.0230062 106:1.7966605 107:0.82945075 108:0.79846727 109:1.0380071 110:1.2367411 111:0.82651488 112:1.0224556 113:0.68232793 114:0.86931006 115:1.3340776 116:1.3016651 117:1.0074884 118:1.7847792 119:0.44848619 120:0.86310929 121:1.1982456 122:1.3150668 123:1.1425615 124:0.84919579 125:0.59816098 126:1.1750842 127:0 128:0 129:0 130:0 131:0 132:0 133:0 134:0 135:0 136:0 137:0 138:0 139:0 140:0 141:0 142:0 143:0 144:0 145:0 146:0 147:0 148:0 149:0 
-0 -0.004443716319563267 1:155.63084 2:136.78417 3:73.772915 4:19.1009 5:10.218517 6:43.307499 7:54.863622 8:35.453307 9:36.672072 10:20.67767 11:24.819327 12:24.298693 13:20.834587 14:19.419575 15:25.836969 16:18.467235 17:10.357585 18:5.8543462 19:8.7526014 20:12.403479 21:15.195645 22:9.3389035 23:11.297009 24:7.7344589 25:5.7108858 26:7.9092937 27:9.391345 28:10.500523 29:9.4313527 30:7.7329432 31:4.2597868 32:4.1341591 33:4.931518 34:6.7958843 35:7.289766 36:7.4425807 37:6.9186113 38:5.9168651 39:4.4940127 40:4.9468326 41:5.8155102 42:5.7958115 43:5.5115739 44:3.7602236 45:3.9544021 46:4.6927148 47:3.9206985 48:4.9329069 49:3.7213537 50:3.0986376 51:4.2930629 52:3.9833916 53:4.41425 54:4.7907196 55:4.7744846 56:3.617175 57:4.7156172 58:4.2241786 59:3.6719195 60:4.9174146 61:3.7924275 62:3.6127605 63:4.0374968 64:4.2415556 65:3.9532839 66:2.294109 67:2.0290434 68:3.8176476 69:3.2365692 70:3.727647 71:2.5146536 72:2.7611675 73:2.4688165 74:3.0226579 75:3.0578661 76:3.3332469 77:3.425908 78:3.3642337 79:3.1729614 80:2.6748961 81:2.3681605 82:3.7838015 83:3.4090598 84:3.2482607 85:3.0123648 86:2.5977944 87:2.3131288 88:2.504946 89:2.1853862 90:4.404141 91:3.3269002 92:2.8260605 93:2.7990869 94:3.105192 95:3.5431355 96:3.7334026 97:2.5787626 98:2.7354632 99:2.482055 100:4.2390658 101:3.2459998 102:2.8074026 103:2.8409266 104:2.0114571 105:2.0753417 106:1.7199849 107:2.6732814 108:3.2060786 109:2.8522759 110:3.30197 111:1.4158496 112:2.1520444 113:3.1372702 114:2.4158272 115:3.1068875 116:3.3948379 117:2.4661916 118:2.3908701 119:3.0696666 120:1.9138169 121:2.8229459 122:2.4609543 123:3.0615931 124:2.47325 125:3.1278508 126:2.3880028 127:3.108609 128:2.9655658 129:3.1118851 130:0 131:0 132:0 133:0 134:0 135:0 136:0 137:0 138:0 139:0 140:0 141:0 142:0 143:0 144:0 145:0 146:0 147:0 148:0 149:0 
-0 -0.001081751150775864 1:158.13592 2:87.07279 3:24.085144 4:28.634119 5:59.981622 6:41.262189 7:89.073397 8:54.045181 9:41.361009 10:26.289352 11:49.494917 12:62.550161 13:16.432668 14:37.842344 15:21.872934 16:17.690947 17:24.396448 18:18.083273 19:18.46457 20:15.427086 21:12.254232 22:24.428136 23:9.6825652 24:11.851276 25:16.634596 26:16.808374 27:10.316588 28:11.20188 29:16.841642 30:16.267673 31:8.1935788 32:11.624777 33:15.403245 34:13.714456 35:7.6499577 36:9.79024 37:12.761432 38:8.5218169 39:7.3485961 40:11.58987 41:11.770632 42:9.9427252 43:4.9814115 44:10.394593 45:8.1730177 46:5.8933708 47:5.0440857 48:8.3316918 49:7.952933 50:3.9343966 51:5.6863527 52:8.6652271 53:5.8720052 54:4.73067 55:4.9360492 56:5.2172126 57:5.8691314 58:2.3541765 59:5.1820533 60:6.5316838 61:2.6060968 62:3.8312512 63:4.7563525 64:4.3813751 65:2.4027428 66:2.2730374 67:2.506033 68:3.6365752 69:1.6228871 70:3.7052938 71:4.2744134 72:4.0828249 73:4.3894518 74:3.4544826 75:4.4087039 76:2.2938151 77:3.0556136 78:3.7864054 79:4.8565988 80:5.2340082 81:3.3917393 82:4.8298869 83:4.328456 84:3.4816659 85:3.2847201 86:3.5376527 87:4.5677323 88:4.431039 89:3.8546856 90:4.6400606 91:3.0068621 92:4.9127245 93:4.7259705 94:3.604712 95:4.6310885 96:5.8129473 97:3.0894106 98:4.3655111 99:4.5529608 100:4.4305869 101:3.0331016 102:2.5076582 103:5.6362469 104:4.3709007 105:3.6678879 106:3.6363729 107:3.8076928 108:3.9754305 109:3.040582 110:3.8677164 111:4.8272722 112:3.0751283 113:1.8650847 114:5.5415598 115:5.6017875 116:2.003495 117:2.7705531 118:3.0032771 119:4.4201722 120:1.9638705 121:2.158103 122:3.7807558 123:3.1079224 124:1.7107281 125:3.4427761 126:2.6118476 127:2.9425584 128:0 129:0 130:0 131:0 132:0 133:0 134:0 135:0 136:0 137:0 138:0 139:0 140:0 141:0 142:0 143:0 144:0 145:0 146:0 147:0 148:0 149:0 
-0.001349142861873054 -0 1:64.11687 2:103.22505 3:100.99038 4:39.248036 5:81.785301 6:48.852225 7:156.11072 8:82.183524 9:79.355756 10:81.382877 11:37.038972 12:31.495233 13:30.52798 14:40.877032 15:40.05371 16:31.592816 17:31.218927 18:14.257903 19:18.093277 20:17.508668 21:14.494935 22:17.87091 23:13.853191 24:10.900036 25:10.057727 26:15.233538 27:14.330431 28:10.654665 29:9.490771 30:6.9144083 31:8.0426831 32:5.2141293 33:4.1730872 34:6.0640784 35:7.7083417 36:4.6626993 37:4.238625 38:5.5808876 39:6.5440525 40:6.2153075 41:5.8462849 42:6.1542644 43:6.264143 44:6.0997996 45:5.2423467 46:5.1026 47:5.2301298 48:3.4831687 49:5.6728783 50:3.380088 51:4.5054974 52:3.8695814 53:4.9506836 54:4.112086 55:4.3100656 56:5.4100829 57:3.4315175 58:3.5535372 59:2.8356634 60:5.197406 61:1.7408778 62:4.0568925 63:2.943746 64:1.4131814 65:2.6835866 66:3.1920604 67:3.0046492 68:2.4281925 69:2.7918987 70:3.3481992 71:4.1272573 72:4.6486563 73:3.6693662 74:2.5604889 75:4.1091006 76:2.0435898 77:3.1382486 78:2.5461904 79:4.3124703 80:4.2870839 81:3.0815018 82:3.5203622 83:2.8482422 84:3.5521232 85:2.8044203 86:2.1713705 87:3.6890226 88:3.7981597 89:2.4463389 90:1.4801648 91:1.1807052 92:2.6008517 93:1.5794395 94:2.5203655 95:2.4623433 96:2.9840441 97:3.4314239 98:3.618842 99:3.261411 100:3.5137027 101:2.395493 102:2.1924375 103:3.8584937 104:1.3305454 105:1.6677193 106:2.3217853 107:3.1232218 108:2.7002427 109:3.4275288 110:3.1626858 111:2.3558273 112:2.2036276 113:2.3576315 114:3.6887407 115:3.4190815 116:2.5650979 117:2.5402222 118:3.4521288 119:3.8851808 120:4.4296598 121:3.7328829 122:1.7829838 123:3.6102886 124:3.5296769 125:3.4185802 126:1.1160493 127:3.2820128 128:3.3903036 129:3.2204164 130:2.7827335 131:0 132:0 133:0 134:0 135:0 136:0 137:0 138:0 139:0 140:0 141:0 142:0 143:0 144:0 145:0 146:0 147:0 148:0 149:0 
